{"learner":{"attributes":{"best_iteration":"106","best_score":"0.9129986289588117"},"feature_names":[],"feature_types":[],"gradient_booster":{"model":{"gbtree_model_param":{"num_parallel_tree":"1","num_trees":"471"},"iteration_indptr":[0,3,6,9,12,15,18,21,24,27,30,33,36,39,42,45,48,51,54,57,60,63,66,69,72,75,78,81,84,87,90,93,96,99,102,105,108,111,114,117,120,123,126,129,132,135,138,141,144,147,150,153,156,159,162,165,168,171,174,177,180,183,186,189,192,195,198,201,204,207,210,213,216,219,222,225,228,231,234,237,240,243,246,249,252,255,258,261,264,267,270,273,276,279,282,285,288,291,294,297,300,303,306,309,312,315,318,321,324,327,330,333,336,339,342,345,348,351,354,357,360,363,366,369,372,375,378,381,384,387,390,393,396,399,402,405,408,411,414,417,420,423,426,429,432,435,438,441,444,447,450,453,456,459,462,465,468,471],"tree_info":[0,1,2,0,1,2,0,1,2,0,1,2,0,1,2,0,1,2,0,1,2,0,1,2,0,1,2,0,1,2,0,1,2,0,1,2,0,1,2,0,1,2,0,1,2,0,1,2,0,1,2,0,1,2,0,1,2,0,1,2,0,1,2,0,1,2,0,1,2,0,1,2,0,1,2,0,1,2,0,1,2,0,1,2,0,1,2,0,1,2,0,1,2,0,1,2,0,1,2,0,1,2,0,1,2,0,1,2,0,1,2,0,1,2,0,1,2,0,1,2,0,1,2,0,1,2,0,1,2,0,1,2,0,1,2,0,1,2,0,1,2,0,1,2,0,1,2,0,1,2,0,1,2,0,1,2,0,1,2,0,1,2,0,1,2,0,1,2,0,1,2,0,1,2,0,1,2,0,1,2,0,1,2,0,1,2,0,1,2,0,1,2,0,1,2,0,1,2,0,1,2,0,1,2,0,1,2,0,1,2,0,1,2,0,1,2,0,1,2,0,1,2,0,1,2,0,1,2,0,1,2,0,1,2,0,1,2,0,1,2,0,1,2,0,1,2,0,1,2,0,1,2,0,1,2,0,1,2,0,1,2,0,1,2,0,1,2,0,1,2,0,1,2,0,1,2,0,1,2,0,1,2,0,1,2,0,1,2,0,1,2,0,1,2,0,1,2,0,1,2,0,1,2,0,1,2,0,1,2,0,1,2,0,1,2,0,1,2,0,1,2,0,1,2,0,1,2,0,1,2,0,1,2,0,1,2,0,1,2,0,1,2,0,1,2,0,1,2,0,1,2,0,1,2,0,1,2,0,1,2,0,1,2,0,1,2,0,1,2,0,1,2,0,1,2,0,1,2,0,1,2,0,1,2,0,1,2,0,1,2,0,1,2,0,1,2,0,1,2,0,1,2,0,1,2,0,1,2,0,1,2,0,1,2,0,1,2,0,1,2,0,1,2,0,1,2,0,1,2,0,1,2,0,1,2,0,1,2,0,1,2,0,1,2,0,1,2,0,1,2,0,1,2,0,1,2,0,1,2,0,1,2,0,1,2,0,1,2,0,1,2],"trees":[{"base_weights":[-2.693076E-1,-1.3058116E-1,-3.455965E-1,-1.6685251E-2,-3.035614E-1,3.8709633E-2,-3.6864913E-1,-1.4917132E-1,1.8384397E-1,6.6814707E-3,-4.063206E-1,-2.2429912E-1,5.8823526E-1,-1.9910769E-1,-4.201955E-1,-1.7801379E-1,8.513514E-2,-3.7366554E-1,3.763975E-1,5.217391E-1,-2.727273E-1,-2.6328805E-1,-6.181475E-1,-3.7894744E-1,7.9999995E-1,-2.44898E-1,9.026548E-1,-2.659641E-1,3.8095236E-1,-4.3702263E-1,4.225348E-2,-3.8223943E-1,1.4405718E-2,5.9999996E-1,-5.3877556E-1,1.0729927E0,2.3042832E-1,8.807339E-1,-1.9672136E-1,-6.4429533E-1,9.554136E-2,-3.1498083E-1,6.6891894E-2,1.6216213E-1,-6.646707E-1,2.399996E-2,-6.568048E-1,-1.9158637E-9,8.1818186E-2,-4.256757E-2,3.2142855E-2,9.863014E-2,1.2244894E-1,8.1818186E-2,-2.9263693E-1,-4.390244E-2,6.114649E-1,-4.3161986E-8,-4.5750424E-1,-3.7226284E-1,7.058823E-1,-3.459098E-2,2.9220777E-2,6.030928E-2,-6.6442993E-3,8.1818186E-2,-3.2142863E-2,2.2959182E-2,-5.3780496E-2,7.758619E-3,9.23077E-2,4.090909E-2,-1.1568157E-3,-3.2142863E-2,8.118557E-2,6.428571E-2,-4.5918375E-2,-1.9158637E-9,-5.255475E-2,4.7368422E-2,-1.4449545E-2,-2.8238872E-2,5.0510205E-2,-3.6000002E-2,6.428571E-2,-5.3595513E-2,-1.7307697E-2,5.0510205E-2,-2.6470592E-2,-5.3025488E-2,-1.9158637E-9,4.4999998E-2,-2.0454548E-2,-2.5827149E-2,2.8846154E-2,2.922075E-3,7.837079E-2,3.4615383E-2,-2.6470592E-2,-3.833752E-2,-2.2644544E-2,6.428571E-2,-4.1400004E-2,9.1836736E-2,-2.6822091E-9],"categories":[],"categories_nodes":[],"categories_segments":[],"categories_sizes":[],"default_left":[0,0,0,0,0,0,0,0,0,0,0,0,0,0,0,0,0,0,0,0,0,0,0,0,0,0,0,0,0,0,0,0,0,0,0,0,0,0,0,0,0,0,0,0,0,0,0,0,0,0,0,0,0,0,0,0,0,0,0,0,0,0,0,0,0,0,0,0,0,0,0,0,0,0,0,0,0,0,0,0,0,0,0,0,0,0,0,0,0,0,0,0,0,0,0,0,0,0,0,0,0,0,0,0,0],"id":0,"left_children":[1,3,5,7,9,11,13,15,17,19,21,23,25,27,29,31,-1,33,35,37,39,41,43,45,47,49,51,53,55,57,59,61,63,65,67,69,71,73,75,77,79,81,-1,83,85,87,89,-1,-1,-1,-1,-1,91,-1,93,-1,95,97,99,101,103,-1,-1,-1,-1,-1,-1,-1,-1,-1,-1,-1,-1,-1,-1,-1,-1,-1,-1,-1,-1,-1,-1,-1,-1,-1,-1,-1,-1,-1,-1,-1,-1,-1,-1,-1,-1,-1,-1,-1,-1,-1,-1,-1,-1],"loss_changes":[1.4678566E1,9.751675E0,7.961029E0,7.9887667E0,6.2689667E0,7.599325E0,7.3126526E0,6.906775E0,1.2986911E1,7.3218837E0,4.3112736E0,5.952976E0,4.6742663E0,7.827303E0,5.0618744E0,6.9960065E0,0E0,5.3426104E0,8.847589E0,4.7872252E0,4.577173E0,5.648596E0,2.2415657E0,3.561223E0,1.1636364E0,1.4263651E0,3.8789415E0,6.805588E0,5.03565E0,5.5983124E0,6.7731175E0,5.4422054E0,7.5995297E0,2.992208E0,4.3203588E0,2.2012444E0,5.8343725E0,3.662943E0,3.492807E0,6.019697E-1,2.8166215E0,5.5319777E0,0E0,2.2461777E0,1.0412388E0,3.6378584E0,6.19154E-1,0E0,0E0,0E0,0E0,0E0,1.1910946E0,0E0,6.3173475E0,0E0,4.2884474E0,4.886878E0,4.8335266E0,3.8367968E0,3.4573827E0,0E0,0E0,0E0,0E0,0E0,0E0,0E0,0E0,0E0,0E0,0E0,0E0,0E0,0E0,0E0,0E0,0E0,0E0,0E0,0E0,0E0,0E0,0E0,0E0,0E0,0E0,0E0,0E0,0E0,0E0,0E0,0E0,0E0,0E0,0E0,0E0,0E0,0E0,0E0,0E0,0E0,0E0,0E0,0E0],"parents":[2147483647,0,0,1,1,2,2,3,3,4,4,5,5,6,6,7,7,8,8,9,9,10,10,11,11,12,12,13,13,14,14,15,15,17,17,18,18,19,19,20,20,21,21,22,22,23,23,24,24,25,25,26,26,27,27,28,28,29,29,30,30,31,31,32,32,33,33,34,34,35,35,36,36,37,37,38,38,39,39,40,40,41,41,43,43,44,44,45,45,46,46,52,52,54,54,56,56,57,57,58,58,59,59,60,60],"right_children":[2,4,6,8,10,12,14,16,18,20,22,24,26,28,30,32,-1,34,36,38,40,42,44,46,48,50,52,54,56,58,60,62,64,66,68,70,72,74,76,78,80,82,-1,84,86,88,90,-1,-1,-1,-1,-1,92,-1,94,-1,96,98,100,102,104,-1,-1,-1,-1,-1,-1,-1,-1,-1,-1,-1,-1,-1,-1,-1,-1,-1,-1,-1,-1,-1,-1,-1,-1,-1,-1,-1,-1,-1,-1,-1,-1,-1,-1,-1,-1,-1,-1,-1,-1,-1,-1,-1,-1],"split_conditions":[-6.888053E-1,6.826847E-1,-5.0824924E0,4.8889977E-1,-2.7938638E0,4.4299844E-1,-8.555099E-1,2.879662E0,-6.728166E-1,-7.021618E-1,5.041903E-1,1.0353456E0,-1.2921771E-1,1.2398283E0,1.1749772E0,-1.2566817E-1,8.513514E-2,-1.7575077E0,-1.4596679E0,4.6919946E-2,-3.489634E-1,1.7504389E0,-2.106285E0,-3.1361043E-1,-2.6844094E0,4.91324E-1,3.661473E-1,-3.7468007E0,-3.3351827E0,-2.184106E0,2.69045E-1,1.4808483E0,-1.0607789E0,1.8306546E-1,-7.604888E-1,-1.2913651E0,-4.4266835E-1,-2.101957E0,-1.552197E0,-3.5273948E0,-2.4725401E-1,2.0289419E0,6.6891894E-2,1.0890486E0,8.507028E-1,-3.2914E-1,5.592589E0,-1.9158637E-9,8.1818186E-2,-4.256757E-2,3.2142855E-2,9.863014E-2,-2.8563294E-1,8.1818186E-2,1.667475E0,-4.390244E-2,2.6614151E-3,-6.0585875E-2,5.872775E-1,1.2167184E0,1.1477823E0,-3.459098E-2,2.9220777E-2,6.030928E-2,-6.6442993E-3,8.1818186E-2,-3.2142863E-2,2.2959182E-2,-5.3780496E-2,7.758619E-3,9.23077E-2,4.090909E-2,-1.1568157E-3,-3.2142863E-2,8.118557E-2,6.428571E-2,-4.5918375E-2,-1.9158637E-9,-5.255475E-2,4.7368422E-2,-1.4449545E-2,-2.8238872E-2,5.0510205E-2,-3.6000002E-2,6.428571E-2,-5.3595513E-2,-1.7307697E-2,5.0510205E-2,-2.6470592E-2,-5.3025488E-2,-1.9158637E-9,4.4999998E-2,-2.0454548E-2,-2.5827149E-2,2.8846154E-2,2.922075E-3,7.837079E-2,3.4615383E-2,-2.6470592E-2,-3.833752E-2,-2.2644544E-2,6.428571E-2,-4.1400004E-2,9.1836736E-2,-2.6822091E-9],"split_indices":[15,6,2,27,15,105,45,48,58,44,36,82,15,81,127,25,0,36,14,40,32,50,41,36,1,24,86,30,4,43,66,57,83,62,116,38,59,24,16,0,116,52,0,11,90,40,0,0,0,0,0,0,34,0,62,0,47,57,81,127,5,0,0,0,0,0,0,0,0,0,0,0,0,0,0,0,0,0,0,0,0,0,0,0,0,0,0,0,0,0,0,0,0,0,0,0,0,0,0,0,0,0,0,0,0],"split_type":[0,0,0,0,0,0,0,0,0,0,0,0,0,0,0,0,0,0,0,0,0,0,0,0,0,0,0,0,0,0,0,0,0,0,0,0,0,0,0,0,0,0,0,0,0,0,0,0,0,0,0,0,0,0,0,0,0,0,0,0,0,0,0,0,0,0,0,0,0,0,0,0,0,0,0,0,0,0,0,0,0,0,0,0,0,0,0,0,0,0,0,0,0,0,0,0,0,0,0,0,0,0,0,0,0],"sum_hessian":[1.3902222E3,4.942222E2,8.9599994E2,2.9866666E2,1.9555554E2,5.0666664E1,8.453333E2,1.7999998E2,1.1866666E2,4.8888885E1,1.4666666E2,3.4666664E1,1.5999999E1,1.9822221E2,6.471111E2,1.7688889E2,3.111111E0,3.0222221E1,8.844444E1,1.6888887E1,3.1999998E1,8.8888885E1,5.7777775E1,3.0666664E1,3.9999998E0,4.444444E0,1.1555555E1,1.7822221E2,1.9999998E1,6.244444E2,2.2666666E1,8.533333E1,9.155555E1,3.9999998E0,2.6222221E1,1.4222221E1,7.422222E1,1.1111111E1,5.7777777E0,1.5555554E1,1.6444443E1,8.577777E1,3.111111E0,3.111111E0,5.4666664E1,1.2888888E1,1.7777777E1,1.3333333E0,2.6666665E0,3.111111E0,1.3333333E0,7.1111107E0,4.444444E0,2.6666665E0,1.7555554E2,3.5555553E0,1.6444443E1,2.7999998E1,5.964444E2,1.4222221E1,8.444444E0,7.777777E1,7.5555553E0,9.777777E0,8.177777E1,2.6666665E0,1.3333333E0,4.444444E0,2.1777777E1,2.222222E0,1.1999999E1,3.1999998E1,4.222222E1,1.3333333E0,9.777777E0,1.3333333E0,4.444444E0,1.3333333E0,1.4222221E1,5.333333E0,1.1111111E1,8.133333E1,4.444444E0,1.7777777E0,1.3333333E0,4.8444443E1,6.222222E0,4.444444E0,8.444444E0,1.6444443E1,1.3333333E0,1.7777777E0,2.6666665E0,1.6355554E2,1.1999999E1,7.5555553E0,8.888888E0,1.1999999E1,1.5999999E1,4.4177774E2,1.5466666E2,1.3333333E0,1.2888888E1,4.444444E0,3.9999998E0],"tree_param":{"num_deleted":"0","num_feature":"128","num_nodes":"105","size_leaf_vector":"1"}},{"base_weights":[1.4543563E-1,2.5362772E-1,-4.104239E-2,-1.5985835E-2,3.261809E-1,1.0868666E-1,-2.073227E-1,1.5877433E-1,-3.1884062E-1,3.897996E-1,8.453918E-2,-1.6961135E-1,2.5676522E-1,5.9999996E-1,-2.4700819E-1,3.112183E-1,-3.3852145E-1,2.2758617E-1,-4.762887E-1,7.141009E-1,3.2894418E-1,-2.6823536E-1,2.5083607E-1,-2.4583872E-1,6.233766E-1,-3.3600044E-2,4.4090438E-1,-4.0909093E-2,1E0,1.6943517E-1,-3.1552592E-1,8.658739E-2,8.313253E-1,-4.5569625E-1,5.4310344E-2,7.4157304E-1,-5.0769234E-1,6.486486E-1,-5.579869E-1,9.4706994E-1,2.0158099E-1,2.5957929E-2,4.0065143E-1,-3.9410192E-1,5.4098356E-1,-1.04100995E-1,4.3803054E-1,-3.696683E-1,2.675159E-1,-1.463415E-1,8.9999996E-2,4.363636E-1,-1.982943E-1,5.9259254E-1,-1.1857751E-2,9.692308E-2,-9.000002E-3,-2.1546966E-1,6.976744E-1,-3.7939548E-1,2.5945944E-1,1.7775467E-2,-4.038462E-2,6.164381E-3,8.1486486E-2,9.782607E-3,-4.957628E-2,9.692308E-2,-4.0909093E-2,-4.669812E-2,-1.9158637E-9,7.2000004E-2,-1.9158637E-9,-4.7117654E-2,2.1951217E-2,1.168831E-2,7.955532E-2,5.3925622E-2,-1.9148942E-2,4.59854E-2,-6.9383294E-3,3.8607594E-2,1.5263366E-2,-3.4279782E-2,6.428571E-2,6.428572E-2,-3.2142863E-2,5.1639345E-2,-2.122642E-2,7.1428575E-2,1.4303177E-2,1.285714E-2,-3.5195537E-2,-3.688525E-2,5.142857E-2,3.2142855E-2,-3.879311E-2,5.7692308E-2,-2.3684215E-2,4.4999998E-2,-2.7480923E-2,5.353577E-2,1.6423328E-3,8.1818186E-2,-1.277293E-2,2.5280898E-2,-5.1237628E-2,8.333333E-2,-2.8233782E-9,-4.118645E-2,-1.2986582E-2,3.775168E-2,-4.5E-2],"categories":[],"categories_nodes":[],"categories_segments":[],"categories_sizes":[],"default_left":[0,0,0,0,0,0,0,0,0,0,0,0,0,0,0,0,0,0,0,0,0,0,0,0,0,0,0,0,0,0,0,0,0,0,0,0,0,0,0,0,0,0,0,0,0,0,0,0,0,0,0,0,0,0,0,0,0,0,0,0,0,0,0,0,0,0,0,0,0,0,0,0,0,0,0,0,0,0,0,0,0,0,0,0,0,0,0,0,0,0,0,0,0,0,0,0,0,0,0,0,0,0,0,0,0,0,0,0,0,0,0,0,0],"id":1,"left_children":[1,3,5,7,9,11,13,15,17,19,21,23,25,27,29,31,33,35,37,39,41,43,45,47,49,51,53,-1,55,57,59,61,63,65,-1,67,69,71,73,75,77,79,81,83,85,87,89,91,93,95,-1,97,99,101,103,-1,-1,105,107,109,111,-1,-1,-1,-1,-1,-1,-1,-1,-1,-1,-1,-1,-1,-1,-1,-1,-1,-1,-1,-1,-1,-1,-1,-1,-1,-1,-1,-1,-1,-1,-1,-1,-1,-1,-1,-1,-1,-1,-1,-1,-1,-1,-1,-1,-1,-1,-1,-1,-1,-1,-1,-1],"loss_changes":[2.8078945E1,1.7230042E1,1.2761494E1,9.983249E0,1.0634155E1,1.1165663E1,7.9265604E0,9.177253E0,6.044731E0,1.0599876E1,8.625899E0,5.8554525E0,9.454818E0,5.8909087E0,6.676463E0,1.0689554E1,3.8856359E0,6.4652576E0,5.314616E0,1.0064331E1,1.0073025E1,5.022957E0,6.667676E0,5.615224E0,3.9728854E0,5.4615498E0,7.4319534E0,0E0,3.1015387E0,6.9503136E0,7.4310093E0,6.2806473E0,5.199177E0,3.2553015E0,0E0,7.7142453E0,4.2148054E-1,8.302702E-1,3.2182627E0,5.120968E0,6.829397E0,6.309636E0,8.336575E0,3.6567903E0,2.444965E0,5.189902E0,8.143555E0,3.871148E0,5.876651E0,1.1930795E0,0E0,4.8329773E0,7.2135544E0,5.5878124E0,5.0976753E0,0E0,0E0,5.427518E0,4.134366E0,6.210762E0,4.6108465E0,0E0,0E0,0E0,0E0,0E0,0E0,0E0,0E0,0E0,0E0,0E0,0E0,0E0,0E0,0E0,0E0,0E0,0E0,0E0,0E0,0E0,0E0,0E0,0E0,0E0,0E0,0E0,0E0,0E0,0E0,0E0,0E0,0E0,0E0,0E0,0E0,0E0,0E0,0E0,0E0,0E0,0E0,0E0,0E0,0E0,0E0,0E0,0E0,0E0,0E0,0E0,0E0],"parents":[2147483647,0,0,1,1,2,2,3,3,4,4,5,5,6,6,7,7,8,8,9,9,10,10,11,11,12,12,13,13,14,14,15,15,16,16,17,17,18,18,19,19,20,20,21,21,22,22,23,23,24,24,25,25,26,26,28,28,29,29,30,30,31,31,32,32,33,33,35,35,36,36,37,37,38,38,39,39,40,40,41,41,42,42,43,43,44,44,45,45,46,46,47,47,48,48,49,49,51,51,52,52,53,53,54,54,57,57,58,58,59,59,60,60],"right_children":[2,4,6,8,10,12,14,16,18,20,22,24,26,28,30,32,34,36,38,40,42,44,46,48,50,52,54,-1,56,58,60,62,64,66,-1,68,70,72,74,76,78,80,82,84,86,88,90,92,94,96,-1,98,100,102,104,-1,-1,106,108,110,112,-1,-1,-1,-1,-1,-1,-1,-1,-1,-1,-1,-1,-1,-1,-1,-1,-1,-1,-1,-1,-1,-1,-1,-1,-1,-1,-1,-1,-1,-1,-1,-1,-1,-1,-1,-1,-1,-1,-1,-1,-1,-1,-1,-1,-1,-1,-1,-1,-1,-1,-1,-1],"split_conditions":[7.1708775E-1,-2.0148423E0,2.2499308E-1,4.6544102E-1,7.648527E-1,-1.003441E0,-1.5425183E0,9.2814016E-1,-4.4338113E-1,-9.970041E-1,-4.750582E-1,1.3536657E0,-3.4677508E-1,-9.648709E-1,-1.2465795E0,6.6763157E-1,9.8545676E-1,1.4886996E-1,-3.2795131E0,4.1309604E-1,-6.337033E-1,9.645255E-1,-4.9934855E-1,1.3969274E0,-1.9512625E-1,-8.4954166E-1,7.8563994E-1,-4.0909093E-2,8.229316E-1,-5.031722E-2,1.568146E0,6.294248E-1,-8.4710693E-1,-5.082724E0,5.4310344E-2,8.9135414E-1,-1.1992908E0,5.872456E-1,2.6354978E0,-1.2021496E0,-9.4982946E-1,-9.4950724E-1,3.1217164E-1,4.366488E0,1.3969274E0,-6.900475E-1,-3.3746022E-1,-2.3277006E0,-8.990654E-1,-2.1873357E0,8.9999996E-2,1.5736523E-1,-1.1295708E0,2.0755064E0,-9.9999315E-1,9.692308E-2,-9.000002E-3,-2.1146737E-1,8.389713E-1,8.342166E-2,8.7991536E-1,1.7775467E-2,-4.038462E-2,6.164381E-3,8.1486486E-2,9.782607E-3,-4.957628E-2,9.692308E-2,-4.0909093E-2,-4.669812E-2,-1.9158637E-9,7.2000004E-2,-1.9158637E-9,-4.7117654E-2,2.1951217E-2,1.168831E-2,7.955532E-2,5.3925622E-2,-1.9148942E-2,4.59854E-2,-6.9383294E-3,3.8607594E-2,1.5263366E-2,-3.4279782E-2,6.428571E-2,6.428572E-2,-3.2142863E-2,5.1639345E-2,-2.122642E-2,7.1428575E-2,1.4303177E-2,1.285714E-2,-3.5195537E-2,-3.688525E-2,5.142857E-2,3.2142855E-2,-3.879311E-2,5.7692308E-2,-2.3684215E-2,4.4999998E-2,-2.7480923E-2,5.353577E-2,1.6423328E-3,8.1818186E-2,-1.277293E-2,2.5280898E-2,-5.1237628E-2,8.333333E-2,-2.8233782E-9,-4.118645E-2,-1.2986582E-2,3.775168E-2,-4.5E-2],"split_indices":[7,6,16,16,83,9,81,38,95,69,45,64,17,51,58,57,78,123,17,91,106,78,74,2,94,41,37,0,96,72,33,124,32,6,0,15,0,2,20,48,2,58,81,3,2,105,67,4,47,2,0,113,34,4,80,0,0,100,15,6,83,0,0,0,0,0,0,0,0,0,0,0,0,0,0,0,0,0,0,0,0,0,0,0,0,0,0,0,0,0,0,0,0,0,0,0,0,0,0,0,0,0,0,0,0,0,0,0,0,0,0,0,0],"split_type":[0,0,0,0,0,0,0,0,0,0,0,0,0,0,0,0,0,0,0,0,0,0,0,0,0,0,0,0,0,0,0,0,0,0,0,0,0,0,0,0,0,0,0,0,0,0,0,0,0,0,0,0,0,0,0,0,0,0,0,0,0,0,0,0,0,0,0,0,0,0,0,0,0,0,0,0,0,0,0,0,0,0,0,0,0,0,0,0,0,0,0,0,0,0,0,0,0,0,0,0,0,0,0,0,0,0,0,0,0,0,0,0,0],"sum_hessian":[1.3902222E3,8.795555E2,5.1066663E2,1.8666666E2,6.9288885E2,2.688889E2,2.4177777E2,1.1866666E2,6.799999E1,5.4799994E2,1.4488889E2,9.333333E1,1.7555554E2,1.0666666E1,2.311111E2,9.111111E1,2.7555553E1,1.5111111E1,5.2888885E1,8.4888885E1,4.6311108E2,4.622222E1,9.8666664E1,8.577777E1,7.5555553E0,6.844444E1,1.0711111E2,2.6666665E0,7.9999995E0,3.2444443E1,1.9866666E2,6.444444E1,2.6666664E1,2.5333332E1,2.222222E0,8.888888E0,6.222222E0,3.111111E0,4.9777775E1,5.7777775E1,2.7111109E1,8.8888885E1,3.742222E2,4.0444443E1,5.7777777E0,3.422222E1,6.444444E1,6.933333E1,1.6444443E1,3.5555553E0,3.9999998E0,1.7333332E1,5.1111107E1,7.999999E1,2.7111109E1,6.222222E0,1.7777777E0,1.911111E1,1.3333332E1,1.791111E2,1.9555553E1,5.2444443E1,1.1999999E1,7.1111107E0,1.9555553E1,6.666666E0,1.8666666E1,6.222222E0,2.6666665E0,4.8888884E0,1.3333333E0,1.7777777E0,1.3333333E0,4.622222E1,3.5555553E0,7.5555553E0,5.0222218E1,1.2444444E1,1.4666666E1,1.4222221E1,7.4666664E1,2.3599998E2,1.3822221E2,3.9111107E1,1.3333333E0,4.444444E0,1.3333333E0,5.7777777E0,2.8444443E1,1.9999998E1,4.4444443E1,1.0666666E1,5.8666664E1,5.7777777E0,1.0666666E1,1.3333333E0,2.222222E0,1.1999999E1,5.333333E0,8.444444E0,4.2666664E1,6.577777E1,1.4222221E1,2.6666665E0,2.4444443E1,8.888888E0,1.0222221E1,7.9999995E0,5.333333E0,9.733333E1,8.177777E1,1.5555554E1,3.9999998E0],"tree_param":{"num_deleted":"0","num_feature":"128","num_nodes":"113","size_leaf_vector":"1"}},{"base_weights":[1.23871855E-1,6.0620024E-3,3.6434293E-1,-1.0114434E-2,1.1538461E0,1.2901762E-1,6.338028E-1,-1.0720817E-1,1.3101205E-1,1.0206186E-1,7.758619E-3,3.2116786E-1,-1.12690404E-1,3.9534882E-1,9.882353E-1,2.1917805E-1,-1.5711953E-1,7.370242E-1,7.430038E-2,6.55706E-1,7.862065E-2,-1.8812995E-1,5.643564E-1,-2.5423732E-1,5.0755286E-1,1.1987829E0,5.871886E-1,6.695279E-1,-2.7713671E-2,-2.5876015E-1,-4.4465278E-8,-1.9672136E-1,9.4936705E-1,3.3222146E-3,5.4278725E-1,1.6216213E-1,9.061583E-1,5.375722E-1,-6.4171165E-2,3.2484072E-1,-2.939598E-1,-4.9180366E-2,9.1836736E-2,6.7346936E-1,-5.6934315E-1,-4.669812E-2,5.658588E-1,1.2601279E0,-3.2511625E-8,8.053687E-2,1.0851064E0,9.5792085E-2,1.43617E-2,2.2598252E-2,-2.8521132E-2,-3.4187287E-2,-1.2165627E-2,1.2928174E-2,-1.4754103E-2,6.428571E-2,-4.5918375E-2,1.85567E-2,1.011745E-1,-1.4562448E-2,1.0271435E-2,5.6085046E-2,-3.2142863E-2,-1.0862073E-2,7.806122E-2,7.570094E-2,-3.879311E-2,5.5872485E-2,-4.0909093E-2,3.232044E-2,-2.1979438E-2,-3.0948568E-9,7.806122E-2,1.0074625E-2,-3.336348E-2,4.090909E-2,-4.256757E-2,8.513514E-2,-3.2142863E-2,3.2142855E-2,-5.2200004E-2,1.38739925E-2,6E-2,5.3669725E-2,1.042683E-1,-3.2142863E-2,3.2142855E-2,-4.7368426E-2,3.5643563E-2,9.3600005E-2,-9.000002E-3],"categories":[],"categories_nodes":[],"categories_segments":[],"categories_sizes":[],"default_left":[0,0,0,0,0,0,0,0,0,0,0,0,0,0,0,0,0,0,0,0,0,0,0,0,0,0,0,0,0,0,0,0,0,0,0,0,0,0,0,0,0,0,0,0,0,0,0,0,0,0,0,0,0,0,0,0,0,0,0,0,0,0,0,0,0,0,0,0,0,0,0,0,0,0,0,0,0,0,0,0,0,0,0,0,0,0,0,0,0,0,0,0,0,0,0],"id":2,"left_children":[1,3,5,7,9,11,13,15,17,-1,-1,19,21,23,25,27,29,31,33,35,37,39,41,43,45,47,49,51,53,55,57,59,61,63,65,67,69,71,73,75,77,79,-1,81,83,-1,85,87,89,91,93,-1,-1,-1,-1,-1,-1,-1,-1,-1,-1,-1,-1,-1,-1,-1,-1,-1,-1,-1,-1,-1,-1,-1,-1,-1,-1,-1,-1,-1,-1,-1,-1,-1,-1,-1,-1,-1,-1,-1,-1,-1,-1,-1,-1],"loss_changes":[3.9410923E1,1.7367743E1,2.8925114E1,1.2658406E1,2.6855545E0,1.1435677E1,1.7611176E1,8.948894E0,1.2886686E1,0E0,0E0,1.10648E1,5.696168E0,9.531357E0,6.4734344E0,8.135253E0,7.5891666E0,6.553564E0,1.1485032E1,6.953722E0,5.313667E0,5.482027E0,4.605401E0,6.1325073E0,7.6229706E0,4.0283203E0,7.7890663E0,7.276248E0,5.695627E0,5.416548E0,6.397681E0,3.492807E0,7.053135E0,7.970099E0,9.370358E0,5.6953497E0,6.087078E0,4.723914E0,7.190204E0,4.0571947E0,5.409096E0,2.39884E0,0E0,3.2564814E0,2.2222648E0,0E0,9.255314E0,2.697342E0,8.5714287E-1,4.953587E0,3.225191E0,0E0,0E0,0E0,0E0,0E0,0E0,0E0,0E0,0E0,0E0,0E0,0E0,0E0,0E0,0E0,0E0,0E0,0E0,0E0,0E0,0E0,0E0,0E0,0E0,0E0,0E0,0E0,0E0,0E0,0E0,0E0,0E0,0E0,0E0,0E0,0E0,0E0,0E0,0E0,0E0,0E0,0E0,0E0,0E0],"parents":[2147483647,0,0,1,1,2,2,3,3,4,4,5,5,6,6,7,7,8,8,11,11,12,12,13,13,14,14,15,15,16,16,17,17,18,18,19,19,20,20,21,21,22,22,23,23,24,24,25,25,26,26,27,27,28,28,29,29,30,30,31,31,32,32,33,33,34,34,35,35,36,36,37,37,38,38,39,39,40,40,41,41,43,43,44,44,46,46,47,47,48,48,49,49,50,50],"right_children":[2,4,6,8,10,12,14,16,18,-1,-1,20,22,24,26,28,30,32,34,36,38,40,42,44,46,48,50,52,54,56,58,60,62,64,66,68,70,72,74,76,78,80,-1,82,84,-1,86,88,90,92,94,-1,-1,-1,-1,-1,-1,-1,-1,-1,-1,-1,-1,-1,-1,-1,-1,-1,-1,-1,-1,-1,-1,-1,-1,-1,-1,-1,-1,-1,-1,-1,-1,-1,-1,-1,-1,-1,-1,-1,-1,-1,-1,-1,-1],"split_conditions":[9.607301E-1,4.410268E0,2.4437162E-1,3.8588464E-1,1.4872956E-1,4.6580186E-1,1.1494532E0,-2.1924753E0,-1.1083955E0,1.0206186E-1,7.758619E-3,-5.6869453E-1,2.288008E0,-1.0586109E0,2.3009825E-1,-6.555546E-1,2.5175E-1,-5.5874527E-1,1.2314185E0,-3.240467E-1,-8.2830006E-1,-9.741152E-1,9.754937E-2,-5.8501285E-1,-2.184106E0,3.2244246E0,-7.0991896E-2,-1.9595318E-1,-1.3302444E-1,-3.8381228E-1,8.187338E-2,-5.5992913E-1,-4.1490203E-1,-3.1361043E-1,6.709042E-1,7.0297426E-1,2.1974976E0,1.0981609E0,-5.9776103E-1,4.9441454E-1,-5.405204E-1,-1.3552607E0,9.1836736E-2,-2.1669465E-1,-1.107187E0,-4.669812E-2,-2.5146118E-1,-1.5907077E0,1.3832033E0,-6.594329E-1,1.0520716E0,9.5792085E-2,1.43617E-2,2.2598252E-2,-2.8521132E-2,-3.4187287E-2,-1.2165627E-2,1.2928174E-2,-1.4754103E-2,6.428571E-2,-4.5918375E-2,1.85567E-2,1.011745E-1,-1.4562448E-2,1.0271435E-2,5.6085046E-2,-3.2142863E-2,-1.0862073E-2,7.806122E-2,7.570094E-2,-3.879311E-2,5.5872485E-2,-4.0909093E-2,3.232044E-2,-2.1979438E-2,-3.0948568E-9,7.806122E-2,1.0074625E-2,-3.336348E-2,4.090909E-2,-4.256757E-2,8.513514E-2,-3.2142863E-2,3.2142855E-2,-5.2200004E-2,1.38739925E-2,6E-2,5.3669725E-2,1.042683E-1,-3.2142863E-2,3.2142855E-2,-4.7368426E-2,3.5643563E-2,9.3600005E-2,-9.000002E-3],"split_indices":[7,16,16,38,77,17,2,11,87,0,0,5,18,60,76,34,19,115,58,98,68,62,24,123,43,5,3,93,21,88,5,50,43,36,122,105,32,75,47,76,79,1,0,3,114,0,74,12,2,55,55,0,0,0,0,0,0,0,0,0,0,0,0,0,0,0,0,0,0,0,0,0,0,0,0,0,0,0,0,0,0,0,0,0,0,0,0,0,0,0,0,0,0,0,0],"split_type":[0,0,0,0,0,0,0,0,0,0,0,0,0,0,0,0,0,0,0,0,0,0,0,0,0,0,0,0,0,0,0,0,0,0,0,0,0,0,0,0,0,0,0,0,0,0,0,0,0,0,0,0,0,0,0,0,0,0,0,0,0,0,0,0,0,0,0,0,0,0,0,0,0,0,0,0,0,0,0,0,0,0,0,0,0,0,0,0,0,0,0,0,0,0,0],"sum_hessian":[1.3902222E3,9.337777E2,4.5644443E2,9.217777E2,1.1999999E1,2.4444443E2,2.1199998E2,5.4622217E2,3.7555554E2,9.777777E0,2.222222E0,1.3599998E2,1.08444435E2,1.2799999E2,8.399999E1,7.199999E1,4.742222E2,3.1111109E1,3.4444443E2,5.6444443E1,7.955555E1,9.822221E1,1.0222221E1,1.8666666E1,1.0933333E2,5.3777775E1,3.0222221E1,2.4888887E1,4.7111107E1,2.8755554E2,1.8666666E2,5.7777777E0,2.5333332E1,2.9999997E2,4.4444443E1,1.9555553E1,3.6888885E1,1.8222221E1,6.133333E1,1.6444443E1,8.177777E1,5.7777777E0,4.444444E0,4.444444E0,1.4222221E1,4.8888884E0,1.04444435E2,5.1111107E1,2.6666665E0,1.5555554E1,1.4666666E1,1.0222221E1,1.4666666E1,2.4444443E1,2.2666666E1,9.333333E1,1.9422221E2,9.955555E1,8.711111E1,1.3333333E0,4.444444E0,9.777777E0,1.5555554E1,1.20888885E2,1.791111E2,3.6888885E1,7.5555553E0,1.5111111E1,4.444444E0,3.4666664E1,2.222222E0,1.5555554E1,2.6666665E0,1.911111E1,4.222222E1,1.1999999E1,4.444444E0,2.1333332E1,6.0444443E1,2.6666665E0,3.111111E0,3.111111E0,1.3333333E0,1.3333333E0,1.2888888E1,4.0444443E1,6.3999996E1,1.1111111E1,3.9999996E1,1.3333333E0,1.3333333E0,5.333333E0,1.0222221E1,1.2888888E1,1.7777777E0],"tree_param":{"num_deleted":"0","num_feature":"128","num_nodes":"95","size_leaf_vector":"1"}},{"base_weights":[-2.569418E-1,-1.2207995E-1,-3.315554E-1,-1.2312168E-2,-2.9023567E-1,4.253585E-2,-3.5422438E-1,-1.4040549E-1,1.7985903E-1,1.0093324E-2,-3.9091817E-1,-2.1227983E-1,5.6332636E-1,-1.8866488E-1,-4.0488544E-1,-1.6848448E-1,8.026874E-2,-3.5863644E-1,3.617264E-1,5.0056964E-1,-2.6136172E-1,-2.5064865E-1,-6.008798E-1,-3.6466885E-1,7.697769E-1,-2.360345E-1,8.5705596E-1,-2.5352284E-1,3.6319837E-1,-4.2461008E-1,-1.9026642E-3,-2.5368983E-1,2.6825815E-1,5.735586E-1,-5.217963E-1,1.0078884E0,2.2342885E-1,8.351363E-1,-1.8758291E-1,-6.289514E-1,9.604909E-2,-3.014971E-1,6.400871E-2,3.305841E-2,-6.3311857E-1,2.563819E-2,-6.395451E-1,7.85974E-2,-2.4429572E-4,-4.1626092E-2,3.1089244E-2,1.0413023E0,-3.1707916E-2,7.7719174E-2,-2.797169E-1,8.030059E-1,-1.3142486E-1,5.9056795E-1,-4.3233576E-1,8.550256E-2,-1.7101894E-1,3.0535145E-3,-2.7393416E-2,-4.226063E-3,6.5184854E-2,7.7555805E-2,-3.1490758E-2,2.261429E-2,-5.2522797E-2,8.710134E-2,5.685255E-3,2.5870176E-2,-2.897715E-2,-3.2376528E-2,7.7147864E-2,6.2126447E-2,-4.498775E-2,-5.148785E-2,1.2229041E-3,4.508943E-2,-1.3654346E-2,-2.714763E-2,4.8233736E-2,3.1388815E-2,-4.9988896E-2,4.8468012E-2,-2.5697852E-2,-5.1795494E-2,1.0762513E-3,9.421202E-2,7.678095E-3,-2.4775783E-2,2.7712455E-2,7.537391E-2,-3.1528614E-2,-3.3487905E-2,6.916909E-2,-8.33423E-3,7.524754E-2,-2.0975769E-2,-3.6381032E-2,3.8278744E-2,-3.6922853E-2],"categories":[],"categories_nodes":[],"categories_segments":[],"categories_sizes":[],"default_left":[0,0,0,0,0,0,0,0,0,0,0,0,0,0,0,0,0,0,0,0,0,0,0,0,0,0,0,0,0,0,0,0,0,0,0,0,0,0,0,0,0,0,0,0,0,0,0,0,0,0,0,0,0,0,0,0,0,0,0,0,0,0,0,0,0,0,0,0,0,0,0,0,0,0,0,0,0,0,0,0,0,0,0,0,0,0,0,0,0,0,0,0,0,0,0,0,0,0,0,0,0,0,0],"id":3,"left_children":[1,3,5,7,9,11,13,15,17,19,21,23,25,27,29,31,-1,33,35,37,39,41,43,45,47,49,51,53,55,57,59,61,63,65,67,69,71,73,75,77,79,81,-1,-1,83,85,87,-1,-1,-1,-1,89,-1,-1,91,93,95,97,99,-1,101,-1,-1,-1,-1,-1,-1,-1,-1,-1,-1,-1,-1,-1,-1,-1,-1,-1,-1,-1,-1,-1,-1,-1,-1,-1,-1,-1,-1,-1,-1,-1,-1,-1,-1,-1,-1,-1,-1,-1,-1,-1,-1],"loss_changes":[1.3809349E1,9.07481E0,7.5246506E0,7.3762207E0,5.876457E0,6.952353E0,6.927536E0,6.2907276E0,1.1869927E1,6.7527294E0,4.1338043E0,5.563327E0,4.2383184E0,7.162112E0,5.074623E0,6.6375747E0,0E0,4.9788804E0,7.827317E0,4.3152175E0,4.3530188E0,5.2498293E0,2.2116241E0,3.3675442E0,1.0922267E0,1.3512982E0,3.4553041E0,6.281308E0,4.713918E0,5.029503E0,6.143007E0,4.8832273E0,5.764854E0,2.748812E0,4.1363897E0,2.143592E0,5.7280254E0,3.4682484E0,3.3136382E0,6.1427975E-1,2.5585682E0,5.131049E0,0E0,0E0,2.254036E0,3.391242E0,6.2314796E-1,0E0,0E0,0E0,0E0,2.1845083E0,0E0,0E0,5.8607864E0,3.2280636E0,4.007313E0,1.5653806E0,4.733368E0,0E0,6.3146734E0,0E0,0E0,0E0,0E0,0E0,0E0,0E0,0E0,0E0,0E0,0E0,0E0,0E0,0E0,0E0,0E0,0E0,0E0,0E0,0E0,0E0,0E0,0E0,0E0,0E0,0E0,0E0,0E0,0E0,0E0,0E0,0E0,0E0,0E0,0E0,0E0,0E0,0E0,0E0,0E0,0E0,0E0],"parents":[2147483647,0,0,1,1,2,2,3,3,4,4,5,5,6,6,7,7,8,8,9,9,10,10,11,11,12,12,13,13,14,14,15,15,17,17,18,18,19,19,20,20,21,21,22,22,23,23,24,24,25,25,26,26,27,27,28,28,29,29,30,30,31,31,32,32,33,33,34,34,35,35,36,36,37,37,38,38,39,39,40,40,41,41,44,44,45,45,46,46,51,51,54,54,55,55,56,56,57,57,58,58,60,60],"right_children":[2,4,6,8,10,12,14,16,18,20,22,24,26,28,30,32,-1,34,36,38,40,42,44,46,48,50,52,54,56,58,60,62,64,66,68,70,72,74,76,78,80,82,-1,-1,84,86,88,-1,-1,-1,-1,90,-1,-1,92,94,96,98,100,-1,102,-1,-1,-1,-1,-1,-1,-1,-1,-1,-1,-1,-1,-1,-1,-1,-1,-1,-1,-1,-1,-1,-1,-1,-1,-1,-1,-1,-1,-1,-1,-1,-1,-1,-1,-1,-1,-1,-1,-1,-1,-1,-1],"split_conditions":[-6.888053E-1,6.826847E-1,-5.0824924E0,4.8889977E-1,-2.7938638E0,4.4299844E-1,-8.555099E-1,2.879662E0,-6.728166E-1,-7.021618E-1,5.041903E-1,1.0353456E0,-1.2921771E-1,1.2398283E0,2.9881895E0,9.268224E-1,8.026874E-2,-1.7575077E0,-1.4596679E0,4.6919946E-2,-3.489634E-1,1.7504389E0,-1.7369727E0,-3.1361043E-1,1.2571186E-1,4.91324E-1,8.9746934E-1,-3.7468007E0,-1.2050518E-1,-4.3673115E0,-7.825764E-1,-1.6609603E0,5.065128E-1,1.8306546E-1,-7.604888E-1,1.1449268E0,1.4087224E0,-1.013926E0,-1.552197E0,1.5636533E0,-2.4725401E-1,2.0289419E0,6.400871E-2,3.305841E-2,-2.6281981E0,-3.2914E-1,5.50658E-1,7.85974E-2,-2.4429572E-4,-4.1626092E-2,3.1089244E-2,2.4788254E-1,-3.1707916E-2,7.7719174E-2,1.667475E0,1.0141866E0,1.2969432E0,1.2461524E0,-7.5382954E-1,8.550256E-2,-4.3672135E-1,3.0535145E-3,-2.7393416E-2,-4.226063E-3,6.5184854E-2,7.7555805E-2,-3.1490758E-2,2.261429E-2,-5.2522797E-2,8.710134E-2,5.685255E-3,2.5870176E-2,-2.897715E-2,-3.2376528E-2,7.7147864E-2,6.2126447E-2,-4.498775E-2,-5.148785E-2,1.2229041E-3,4.508943E-2,-1.3654346E-2,-2.714763E-2,4.8233736E-2,3.1388815E-2,-4.9988896E-2,4.8468012E-2,-2.5697852E-2,-5.1795494E-2,1.0762513E-3,9.421202E-2,7.678095E-3,-2.4775783E-2,2.7712455E-2,7.537391E-2,-3.1528614E-2,-3.3487905E-2,6.916909E-2,-8.33423E-3,7.524754E-2,-2.0975769E-2,-3.6381032E-2,3.8278744E-2,-3.6922853E-2],"split_indices":[15,6,2,27,15,105,45,48,58,44,36,82,15,81,22,90,0,36,14,40,32,50,82,36,68,24,26,30,56,16,111,2,78,62,116,42,10,121,16,24,116,52,0,0,52,40,106,0,0,0,0,62,0,0,62,94,83,4,43,0,104,0,0,0,0,0,0,0,0,0,0,0,0,0,0,0,0,0,0,0,0,0,0,0,0,0,0,0,0,0,0,0,0,0,0,0,0,0,0,0,0,0,0],"split_type":[0,0,0,0,0,0,0,0,0,0,0,0,0,0,0,0,0,0,0,0,0,0,0,0,0,0,0,0,0,0,0,0,0,0,0,0,0,0,0,0,0,0,0,0,0,0,0,0,0,0,0,0,0,0,0,0,0,0,0,0,0,0,0,0,0,0,0,0,0,0,0,0,0,0,0,0,0,0,0,0,0,0,0,0,0,0,0,0,0,0,0,0,0,0,0,0,0,0,0,0,0,0,0],"sum_hessian":[1.3753761E3,4.908379E2,8.8453827E2,2.9762744E2,1.9321043E2,5.0488186E1,8.340501E2,1.7874971E2,1.1887775E2,4.873551E1,1.4447491E2,3.4298695E1,1.6189493E1,1.9652705E2,6.37523E2,1.7553922E2,3.2104864E0,2.9767242E1,8.9110504E1,1.706241E1,3.1673103E1,8.792706E1,5.6547855E1,3.0235603E1,4.063091E0,4.4031386E0,1.1786355E1,1.7634288E2,2.018417E1,6.077233E2,2.979969E1,1.4723404E2,2.8305172E1,4.059342E0,2.5707901E1,1.4601357E1,7.450915E1,1.1336991E1,5.72542E0,1.5239671E1,1.6433432E1,8.4750854E1,3.1762125E0,1.3171597E0,5.5230698E1,1.2869066E1,1.7366537E1,2.7263277E0,1.3367633E0,3.0530415E0,1.3500971E0,1.0466021E1,1.3203335E0,2.7425158E0,1.7360036E2,1.0354087E1,9.830084E0,4.020155E0,6.037032E2,3.1033795E0,2.669631E1,4.063375E1,1.06600296E2,1.896569E1,9.339482E0,2.745652E0,1.31369E0,4.4578924E0,2.1250008E1,1.2325979E1,2.2753782E0,6.249145E1,1.2017697E1,1.3391147E0,9.997876E0,1.3613231E0,4.3640966E0,1.3933002E1,1.3066686E0,5.42249E0,1.10109415E1,8.023148E1,4.5193686E0,1.3451982E0,5.3885498E1,4.5115843E0,8.357482E0,1.6056566E1,1.3099701E0,8.24209E0,2.2239306E0,1.614977E2,1.2102662E1,9.040101E0,1.3139857E0,8.01085E0,1.8192334E0,1.7595271E0,2.260628E0,1.5664058E2,4.4706262E2,8.365561E0,1.833075E1],"tree_param":{"num_deleted":"0","num_feature":"128","num_nodes":"103","size_leaf_vector":"1"}},{"base_weights":[1.3659507E-1,2.3718289E-1,-3.871969E-2,-1.898607E-2,3.0546463E-1,1.018641E-1,-1.9680625E-1,-4.365051E-1,9.753571E-2,3.6493325E-1,7.759575E-2,-1.6541499E-1,2.4248807E-1,5.7503825E-1,-2.3555976E-1,-5.0031126E-1,6.1513968E-2,1.9607861E-1,-3.9638272E-1,6.674359E-1,3.076689E-1,-2.6028204E-1,2.3438534E-1,-2.3943095E-1,5.886143E-1,5.223991E-1,6.685645E-2,-4.0196665E-2,9.521142E-1,1.8125689E-1,-3.0146515E-1,-5.8812284E-1,4.0557885E-1,-1.1478881E-1,4.004403E-1,-6.0872376E-1,3.8930815E-1,8.809552E-1,1.8875901E-1,2.0923559E-2,3.7485754E-1,-3.839125E-1,5.1848906E-1,9.575948E-1,1.4472485E-1,-3.5983837E-1,2.5104812E-1,9.2974806E-1,-3.5760097E-2,-2.927794E-1,6.221049E-1,-5.672496E-2,6.8219763E-1,9.129225E-2,-8.09012E-3,-2.9854122E-1,7.000988E-1,4.343472E-1,-3.4532762E-1,-4.7880523E-2,3.1768914E-2,7.101079E-2,-3.1617746E-2,-2.2279585E-2,3.7816655E-2,-2.6285453E-2,3.755669E-2,-5.277868E-2,1.697671E-2,-3.8400423E-2,7.978538E-2,-3.673284E-2,6.98631E-2,5.055439E-2,-1.8750658E-2,-8.759169E-3,3.666642E-2,3.5231486E-2,1.2576167E-2,-3.3459093E-2,6.148039E-2,-3.225427E-2,6.1980087E-2,9.639617E-2,-1.6112044E-2,3.418815E-2,-4.4551184E-3,1.2242302E-2,-3.4328293E-2,-3.6122926E-2,4.824007E-2,8.697069E-2,-8.4390613E-4,-4.805226E-2,6.2417835E-2,6.6129185E-2,1.8704874E-2,-8.913388E-3,6.4879805E-2,1.8226229E-2,9.427811E-2,3.802465E-2,-4.0806185E-2,7.428677E-2,-4.0229324E-2,6.177146E-2,-2.6912445E-2,7.712288E-3,-3.1818375E-2],"categories":[],"categories_nodes":[],"categories_segments":[],"categories_sizes":[],"default_left":[0,0,0,0,0,0,0,0,0,0,0,0,0,0,0,0,0,0,0,0,0,0,0,0,0,0,0,0,0,0,0,0,0,0,0,0,0,0,0,0,0,0,0,0,0,0,0,0,0,0,0,0,0,0,0,0,0,0,0,0,0,0,0,0,0,0,0,0,0,0,0,0,0,0,0,0,0,0,0,0,0,0,0,0,0,0,0,0,0,0,0,0,0,0,0,0,0,0,0,0,0,0,0,0,0,0,0,0,0],"id":4,"left_children":[1,3,5,7,9,11,13,15,17,19,21,23,25,27,29,31,-1,33,35,37,39,41,43,45,47,49,51,-1,53,55,57,59,61,63,65,67,69,71,73,75,77,79,81,83,85,87,89,91,-1,93,95,97,99,-1,-1,101,103,105,107,-1,-1,-1,-1,-1,-1,-1,-1,-1,-1,-1,-1,-1,-1,-1,-1,-1,-1,-1,-1,-1,-1,-1,-1,-1,-1,-1,-1,-1,-1,-1,-1,-1,-1,-1,-1,-1,-1,-1,-1,-1,-1,-1,-1,-1,-1,-1,-1,-1,-1],"loss_changes":[2.4661026E1,1.5545689E1,1.1365902E1,9.184497E0,9.477806E0,1.0221148E1,7.3333797E0,3.712585E0,7.268007E0,9.426865E0,7.81965E0,5.385861E0,8.710674E0,5.451646E0,6.36856E0,3.4056482E0,0E0,7.912588E0,4.3915586E0,8.792286E0,9.03558E0,4.7140646E0,6.382183E0,5.1863027E0,3.6014977E0,5.7448063E0,8.438313E0,0E0,2.7072458E0,8.176259E0,6.5674305E0,2.1376534E0,2.2391744E0,5.7790313E0,5.820183E0,1.7453527E0,4.136437E0,4.637512E0,6.196724E0,5.867811E0,7.396576E0,3.4390216E0,2.356093E0,4.469163E0,5.783875E0,3.6425028E0,5.365778E0,1.5100555E0,0E0,3.7188067E0,5.711687E0,5.4227743E0,4.377679E0,0E0,0E0,3.70341E0,6.1598983E0,3.8861694E0,6.700138E0,0E0,0E0,0E0,0E0,0E0,0E0,0E0,0E0,0E0,0E0,0E0,0E0,0E0,0E0,0E0,0E0,0E0,0E0,0E0,0E0,0E0,0E0,0E0,0E0,0E0,0E0,0E0,0E0,0E0,0E0,0E0,0E0,0E0,0E0,0E0,0E0,0E0,0E0,0E0,0E0,0E0,0E0,0E0,0E0,0E0,0E0,0E0,0E0,0E0,0E0],"parents":[2147483647,0,0,1,1,2,2,3,3,4,4,5,5,6,6,7,7,8,8,9,9,10,10,11,11,12,12,13,13,14,14,15,15,17,17,18,18,19,19,20,20,21,21,22,22,23,23,24,24,25,25,26,26,28,28,29,29,30,30,31,31,32,32,33,33,34,34,35,35,36,36,37,37,38,38,39,39,40,40,41,41,42,42,43,43,44,44,45,45,46,46,47,47,49,49,50,50,51,51,52,52,55,55,56,56,57,57,58,58],"right_children":[2,4,6,8,10,12,14,16,18,20,22,24,26,28,30,32,-1,34,36,38,40,42,44,46,48,50,52,-1,54,56,58,60,62,64,66,68,70,72,74,76,78,80,82,84,86,88,90,92,-1,94,96,98,100,-1,-1,102,104,106,108,-1,-1,-1,-1,-1,-1,-1,-1,-1,-1,-1,-1,-1,-1,-1,-1,-1,-1,-1,-1,-1,-1,-1,-1,-1,-1,-1,-1,-1,-1,-1,-1,-1,-1,-1,-1,-1,-1,-1,-1,-1,-1,-1,-1,-1,-1,-1,-1,-1,-1],"split_conditions":[7.1708775E-1,-2.0148423E0,2.2499308E-1,-1.8441837E0,7.648527E-1,-1.003441E0,-1.5425183E0,1.2971772E0,1.7827293E0,-9.970041E-1,-4.750582E-1,1.3536657E0,-7.7098656E-1,-9.648709E-1,-1.1472421E0,1.3695518E0,6.1513968E-2,-2.0956722E-1,1.3188231E0,4.1309604E-1,-6.337033E-1,9.645255E-1,-2.073117E0,1.3969274E0,4.152447E-1,-1.4110193E0,1.5181441E0,-4.0196665E-2,8.229316E-1,-1.7053215E-1,-4.7819843E0,3.9761095E0,6.965618E-1,5.009302E-1,-7.8155243E-1,1.4762156E0,1.1285786E-1,-1.3078903E0,-9.4982946E-1,2.1454985E0,4.435611E-1,4.366488E0,-6.944865E-1,5.183552E-1,-1.5727127E-1,-2.3277006E0,-8.990654E-1,6.313448E-1,-3.5760097E-2,2.0162938E0,2.372712E0,3.879236E0,2.0788279E-1,9.129225E-2,-8.09012E-3,-7.5991064E-1,7.749088E-1,-8.0398554E-1,-1.2845614E0,-4.7880523E-2,3.1768914E-2,7.101079E-2,-3.1617746E-2,-2.2279585E-2,3.7816655E-2,-2.6285453E-2,3.755669E-2,-5.277868E-2,1.697671E-2,-3.8400423E-2,7.978538E-2,-3.673284E-2,6.98631E-2,5.055439E-2,-1.8750658E-2,-8.759169E-3,3.666642E-2,3.5231486E-2,1.2576167E-2,-3.3459093E-2,6.148039E-2,-3.225427E-2,6.1980087E-2,9.639617E-2,-1.6112044E-2,3.418815E-2,-4.4551184E-3,1.2242302E-2,-3.4328293E-2,-3.6122926E-2,4.824007E-2,8.697069E-2,-8.4390613E-4,-4.805226E-2,6.2417835E-2,6.6129185E-2,1.8704874E-2,-8.913388E-3,6.4879805E-2,1.8226229E-2,9.427811E-2,3.802465E-2,-4.0806185E-2,7.428677E-2,-4.0229324E-2,6.177146E-2,-2.6912445E-2,7.712288E-3,-3.1818375E-2],"split_indices":[7,6,16,11,83,9,81,111,19,69,45,64,4,51,60,51,0,53,9,91,106,78,25,2,71,66,20,0,96,40,2,2,10,127,98,42,96,119,2,6,81,3,31,89,127,4,47,44,0,2,7,9,71,0,0,100,66,21,58,0,0,0,0,0,0,0,0,0,0,0,0,0,0,0,0,0,0,0,0,0,0,0,0,0,0,0,0,0,0,0,0,0,0,0,0,0,0,0,0,0,0,0,0,0,0,0,0,0,0],"split_type":[0,0,0,0,0,0,0,0,0,0,0,0,0,0,0,0,0,0,0,0,0,0,0,0,0,0,0,0,0,0,0,0,0,0,0,0,0,0,0,0,0,0,0,0,0,0,0,0,0,0,0,0,0,0,0,0,0,0,0,0,0,0,0,0,0,0,0,0,0,0,0,0,0,0,0,0,0,0,0,0,0,0,0,0,0,0,0,0,0,0,0,0,0,0,0,0,0,0,0,0,0,0,0,0,0,0,0,0,0],"sum_hessian":[1.3969303E3,8.8741693E2,5.095133E2,1.8691183E2,7.005051E2,2.6987424E2,2.3963908E2,4.0182915E1,1.4672891E2,5.550485E2,1.454566E2,9.297796E1,1.7689626E2,1.0795207E1,2.2884387E2,3.8814083E1,1.3688304E0,1.2282651E2,2.3902409E1,8.6651436E1,4.683971E2,4.5894657E1,9.956194E1,8.528846E1,7.6895013E0,6.7440025E1,1.0945623E2,2.6287303E0,8.166477E0,3.1004782E1,1.978391E2,3.5703934E1,3.1101487E0,4.8892048E1,7.393446E1,1.8994255E1,4.908154E0,5.9341206E1,2.7310228E1,8.9166595E1,3.792305E2,4.004458E1,5.850078E0,9.914058E0,8.964789E1,6.869172E1,1.6596739E1,5.9210024E0,1.7684991E0,7.1387024E0,6.0301327E1,9.1906166E1,1.7550066E1,6.413921E0,1.7525558E0,1.6329088E1,1.4675693E1,1.0629079E1,1.8721002E2,3.4364906E1,1.3390284E0,1.7925527E0,1.317596E0,3.8172096E1,1.0719951E1,8.419148E0,6.551531E1,1.7195536E1,1.7987182E0,2.2039611E0,2.7041929E0,1.8016481E0,5.753956E1,1.2712882E1,1.4597347E1,6.947255E1,1.9694044E1,2.5922595E2,1.20004524E2,3.867508E1,1.3694971E0,1.336427E0,4.513651E0,7.673173E0,2.2408848E0,3.5027676E1,5.462021E1,1.0721866E1,5.7969856E1,5.7065644E0,1.0890175E1,4.5718956E0,1.3491064E0,5.781305E0,1.3573979E0,3.4738014E1,2.556331E1,8.691965E1,4.986522E0,1.0755559E1,6.794506E0,3.5658736E0,1.2763214E1,1.2045694E1,2.6299984E0,7.1041627E0,3.5249166E0,2.7985004E1,1.59225E2],"tree_param":{"num_deleted":"0","num_feature":"128","num_nodes":"109","size_leaf_vector":"1"}},{"base_weights":[1.16481625E-1,5.3950963E-3,3.4057364E-1,-1.0065457E-2,1.0686955E0,1.210705E-1,5.8785987E-1,-1.03352144E-1,1.24636486E-1,6.085587E-3,9.4648376E-2,3.016346E-1,-1.0906172E-1,3.656378E-1,9.137628E-1,2.078369E-1,-1.5144137E-1,6.910226E-1,7.069751E-2,6.138766E-1,7.1919955E-2,-1.4922868E-1,8.125044E-2,-2.5072467E-1,4.6984512E-1,1.0234166E0,2.740003E-1,6.3044494E-1,-2.7911013E-2,-2.5010726E-1,6.3338402E-6,-1.9176935E-1,8.860829E-1,2.834994E-3,5.123083E-1,1.6981064E-1,8.6219305E-1,-2.922181E-2,6.6926736E-1,3.492806E-1,-2.5966093E-1,6.328208E-1,-5.59366E-1,3.532035E-1,1.0340459E0,1.083784E0,-1.790099E-2,9.188235E-1,-3.0481726E-1,8.928579E-2,1.34801045E-2,2.1322867E-2,-2.7677262E-2,-3.325633E-2,-1.1709595E-2,5.5838097E-3,-3.2503996E-2,6.189608E-2,-4.5208707E-2,7.761656E-2,-3.9265208E-2,-1.4067791E-2,9.788517E-3,1.6476255E-2,8.918324E-2,6.981256E-2,-1.2248876E-2,7.366589E-2,-2.511731E-2,2.6013808E-2,-1.846946E-2,7.4668E-2,-3.8393542E-2,4.8124205E-2,-3.37673E-2,4.3071307E-2,-2.552822E-2,7.9468146E-2,-3.1515427E-2,3.0897906E-2,-5.1405776E-2,-2.6866259E-2,3.3695463E-2,-1.6458694E-2,9.139231E-2,9.1365755E-2,4.522898E-2,-4.117816E-2,6.0891617E-2,8.598963E-2,-1.0167481E-3,-4.856028E-2,6.04571E-2],"categories":[],"categories_nodes":[],"categories_segments":[],"categories_sizes":[],"default_left":[0,0,0,0,0,0,0,0,0,0,0,0,0,0,0,0,0,0,0,0,0,0,0,0,0,0,0,0,0,0,0,0,0,0,0,0,0,0,0,0,0,0,0,0,0,0,0,0,0,0,0,0,0,0,0,0,0,0,0,0,0,0,0,0,0,0,0,0,0,0,0,0,0,0,0,0,0,0,0,0,0,0,0,0,0,0,0,0,0,0,0,0,0],"id":5,"left_children":[1,3,5,7,9,11,13,15,17,-1,-1,19,21,23,25,27,29,31,33,35,37,39,-1,41,43,45,47,49,51,53,55,57,59,61,63,65,67,69,71,73,75,77,79,81,83,85,87,89,91,-1,-1,-1,-1,-1,-1,-1,-1,-1,-1,-1,-1,-1,-1,-1,-1,-1,-1,-1,-1,-1,-1,-1,-1,-1,-1,-1,-1,-1,-1,-1,-1,-1,-1,-1,-1,-1,-1,-1,-1,-1,-1,-1,-1],"loss_changes":[3.476883E1,1.5379159E1,2.5055561E1,1.1604356E1,2.4567995E0,1.027544E1,1.5411987E1,8.195665E0,1.1495996E1,0E0,0E0,9.881744E0,5.387241E0,8.527977E0,5.856476E0,7.3347683E0,7.0696135E0,5.808564E0,1.0372294E1,6.3069115E0,4.9049616E0,5.9497156E0,0E0,5.695666E0,7.0285263E0,4.69088E0,5.5671415E0,6.435005E0,5.2279687E0,5.135269E0,6.0861E0,3.3182805E0,6.204668E0,7.343197E0,8.86928E0,5.788804E0,5.6864243E0,5.808014E0,5.0386677E0,4.9002857E0,6.0987973E0,2.9349742E0,2.1247115E0,6.627946E0,4.5993385E0,3.8056183E0,2.6740336E0,1.4910402E0,3.6492949E0,0E0,0E0,0E0,0E0,0E0,0E0,0E0,0E0,0E0,0E0,0E0,0E0,0E0,0E0,0E0,0E0,0E0,0E0,0E0,0E0,0E0,0E0,0E0,0E0,0E0,0E0,0E0,0E0,0E0,0E0,0E0,0E0,0E0,0E0,0E0,0E0,0E0,0E0,0E0,0E0,0E0,0E0,0E0,0E0],"parents":[2147483647,0,0,1,1,2,2,3,3,4,4,5,5,6,6,7,7,8,8,11,11,12,12,13,13,14,14,15,15,16,16,17,17,18,18,19,19,20,20,21,21,23,23,24,24,25,25,26,26,27,27,28,28,29,29,30,30,31,31,32,32,33,33,34,34,35,35,36,36,37,37,38,38,39,39,40,40,41,41,42,42,43,43,44,44,45,45,46,46,47,47,48,48],"right_children":[2,4,6,8,10,12,14,16,18,-1,-1,20,22,24,26,28,30,32,34,36,38,40,-1,42,44,46,48,50,52,54,56,58,60,62,64,66,68,70,72,74,76,78,80,82,84,86,88,90,92,-1,-1,-1,-1,-1,-1,-1,-1,-1,-1,-1,-1,-1,-1,-1,-1,-1,-1,-1,-1,-1,-1,-1,-1,-1,-1,-1,-1,-1,-1,-1,-1,-1,-1,-1,-1,-1,-1,-1,-1,-1,-1,-1,-1],"split_conditions":[9.607301E-1,4.410268E0,2.4437162E-1,3.8588464E-1,-2.6376316E-1,4.6580186E-1,1.1494532E0,-2.1924753E0,-1.1083955E0,6.085587E-3,9.4648376E-2,-5.6869453E-1,1.4849148E0,-1.0586109E0,7.576663E-1,-6.555546E-1,2.5175E-1,-5.5874527E-1,1.2314185E0,-4.4810924E-1,1.9559505E0,-6.116125E-1,8.125044E-2,-5.8501285E-1,1.734014E0,1.806726E0,-4.2860922E-1,-1.9595318E-1,-1.3302444E-1,-3.8381228E-1,7.682411E-1,-5.5992913E-1,2.2076836E0,-3.1361043E-1,1.0664155E0,-4.6598688E-1,1.4392418E0,-3.3225617E-1,9.7866905E-1,7.506928E-1,-1.5050098E0,-2.1669465E-1,-1.107187E0,-8.698242E-1,-1.0194036E0,9.210687E-1,1.7450772E-2,5.4136807E-1,1.2254139E0,8.928579E-2,1.34801045E-2,2.1322867E-2,-2.7677262E-2,-3.325633E-2,-1.1709595E-2,5.5838097E-3,-3.2503996E-2,6.189608E-2,-4.5208707E-2,7.761656E-2,-3.9265208E-2,-1.4067791E-2,9.788517E-3,1.6476255E-2,8.918324E-2,6.981256E-2,-1.2248876E-2,7.366589E-2,-2.511731E-2,2.6013808E-2,-1.846946E-2,7.4668E-2,-3.8393542E-2,4.8124205E-2,-3.37673E-2,4.3071307E-2,-2.552822E-2,7.9468146E-2,-3.1515427E-2,3.0897906E-2,-5.1405776E-2,-2.6866259E-2,3.3695463E-2,-1.6458694E-2,9.139231E-2,9.1365755E-2,4.522898E-2,-4.117816E-2,6.0891617E-2,8.598963E-2,-1.0167481E-3,-4.856028E-2,6.04571E-2],"split_indices":[7,16,16,38,124,17,2,11,87,0,0,5,107,60,63,34,19,115,58,97,23,123,0,123,14,57,98,93,21,88,107,50,28,36,19,107,46,108,81,65,54,3,114,122,31,33,14,68,45,0,0,0,0,0,0,0,0,0,0,0,0,0,0,0,0,0,0,0,0,0,0,0,0,0,0,0,0,0,0,0,0,0,0,0,0,0,0,0,0,0,0,0,0],"split_type":[0,0,0,0,0,0,0,0,0,0,0,0,0,0,0,0,0,0,0,0,0,0,0,0,0,0,0,0,0,0,0,0,0,0,0,0,0,0,0,0,0,0,0,0,0,0,0,0,0,0,0,0,0,0,0,0,0,0,0,0,0,0,0,0,0,0,0,0,0,0,0,0,0,0,0,0,0,0,0,0,0,0,0,0,0,0,0,0,0,0,0,0,0],"sum_hessian":[1.3957712E3,9.338625E2,4.6190872E2,9.214549E2,1.2407564E1,2.4548979E2,2.1641893E2,5.4455835E2,3.7689655E2,2.2633026E0,1.0144261E1,1.3738522E2,1.0810457E2,1.2993953E2,8.64794E1,7.244422E1,4.7211414E2,3.1745178E1,3.4515137E2,5.7523495E1,7.986173E1,1.0542799E2,2.6765747E0,1.8588245E1,1.1135129E2,7.331387E1,1.3165522E1,2.5341726E1,4.7102497E1,2.8547806E2,1.8663608E2,5.7480183E0,2.599716E1,3.0004913E2,4.5102257E1,2.1234161E1,3.6289333E1,6.911105E1,1.0750675E1,1.8727255E1,8.670074E1,4.54033E0,1.4047916E1,9.362209E1,1.7729193E1,6.9258064E1,4.055809E0,5.9498096E0,7.2157125E0,1.0568478E1,1.4773249E1,2.4680105E1,2.2422392E1,9.2170334E1,1.9330772E2,1.5998369E2,2.6652391E1,1.3642561E0,4.3837624E0,2.37553E1,2.2418592E0,1.2025105E2,1.7979807E2,3.2412735E1,1.2689521E1,5.9187446E0,1.5315416E1,3.3145687E1,3.1436439E0,2.5071037E1,4.4040016E1,8.546742E0,2.203933E0,1.3857212E1,4.870042E0,7.1113935E0,7.958934E1,3.2265172E0,1.3138127E0,1.3529766E0,1.269494E1,1.0813837E1,8.280826E1,2.2506232E0,1.5478569E1,5.2924732E1,1.6333336E1,2.6792066E0,1.3766022E0,4.5973663E0,1.3524432E0,5.8335624E0,1.3821499E0],"tree_param":{"num_deleted":"0","num_feature":"128","num_nodes":"93","size_leaf_vector":"1"}},{"base_weights":[-2.4526113E-1,-1.17172025E-1,-3.2014158E-1,-1.5671043E-2,-2.7478805E-1,6.0518906E-2,-3.434265E-1,-1.20601736E-1,2.0112333E-1,3.5375547E-1,-3.1877348E-1,-1.9390012E-1,5.765165E-1,-3.7639335E-1,-9.9752344E-2,-1.4799204E-1,8.280453E-2,-3.005916E-2,4.782867E-1,6.7405313E-1,-4.147029E-2,-1.8898666E-2,-4.1605037E-1,-3.4530663E-1,7.4103695E-1,7.654465E-1,-3.7044268E-2,6.2633716E-2,-3.830404E-1,-4.0318662E-1,1.4395492E-1,-3.572297E-1,3.4499269E-3,-2.1095574E-1,4.484558E-1,8.543013E-1,4.36278E-2,9.560459E-1,-3.472047E-2,6.506682E-1,-2.2222249E-1,5.251009E-1,-4.4428948E-1,2.9402567E-2,-6.212189E-1,7.575458E-2,-6.7184085E-4,1.1082891E0,5.896661E-2,5.070741E-1,-3.922659E-1,-4.9342263E-1,3.9487708E-1,6.8815464E-1,-7.5774774E-2,1.5936717E-2,-3.4852576E-2,-2.6492957E-2,1.3801332E-2,-2.5486914E-2,5.8555912E-2,-2.8576862E-2,5.6806672E-2,2.5028355E-2,9.724473E-2,-1.9904505E-2,5.3918328E-2,-7.6723294E-3,9.288804E-2,-2.0448595E-2,7.3162116E-2,-3.390262E-2,1.5447565E-2,7.75173E-2,-3.1110492E-2,-3.8349107E-2,-6.535981E-3,-3.6226634E-2,3.3711974E-2,2.479056E-3,-5.0603162E-2,8.850972E-2,2.8878346E-2,-2.2756303E-2,4.1509595E-2,6.491256E-2,-3.4772824E-2,3.6529328E-3,-3.091597E-2,8.215754E-3,-4.4841178E-2,-3.4882657E-2,7.4484594E-2,7.6692164E-2,-4.1312445E-2,3.2112263E-2,-2.0459507E-2],"categories":[],"categories_nodes":[],"categories_segments":[],"categories_sizes":[],"default_left":[0,0,0,0,0,0,0,0,0,0,0,0,0,0,0,0,0,0,0,0,0,0,0,0,0,0,0,0,0,0,0,0,0,0,0,0,0,0,0,0,0,0,0,0,0,0,0,0,0,0,0,0,0,0,0,0,0,0,0,0,0,0,0,0,0,0,0,0,0,0,0,0,0,0,0,0,0,0,0,0,0,0,0,0,0,0,0,0,0,0,0,0,0,0,0,0,0],"id":6,"left_children":[1,3,5,7,9,11,13,15,17,19,21,23,25,27,29,31,-1,33,35,37,-1,39,41,43,45,47,-1,-1,49,51,53,55,57,59,61,63,65,67,-1,69,71,73,75,77,79,-1,-1,81,83,85,87,89,91,93,95,-1,-1,-1,-1,-1,-1,-1,-1,-1,-1,-1,-1,-1,-1,-1,-1,-1,-1,-1,-1,-1,-1,-1,-1,-1,-1,-1,-1,-1,-1,-1,-1,-1,-1,-1,-1,-1,-1,-1,-1,-1,-1],"loss_changes":[1.3017418E1,8.0543785E0,7.6292343E0,7.018634E0,5.5663147E0,6.719196E0,6.4617386E0,7.1342025E0,6.4638963E0,4.257041E0,5.385334E0,5.133621E0,3.7903776E0,6.05587E0,7.2883806E0,6.470125E0,0E0,4.926545E0,7.4538383E0,3.7560415E0,0E0,6.452195E0,3.942173E0,3.1547885E0,1.0421689E0,3.503312E0,0E0,0E0,6.021698E0,3.3500462E0,6.6241803E0,5.3476667E0,7.7564745E0,5.529093E0,4.295109E0,5.2134476E0,4.8470516E0,2.6996517E0,0E0,3.5790963E0,3.663703E0,2.5905647E0,3.2119293E0,3.1921313E0,6.353588E-1,0E0,0E0,5.8092117E-2,1.2198324E0,3.083798E0,6.198166E0,2.5727987E0,3.0375068E0,7.1542063E0,4.093488E0,0E0,0E0,0E0,0E0,0E0,0E0,0E0,0E0,0E0,0E0,0E0,0E0,0E0,0E0,0E0,0E0,0E0,0E0,0E0,0E0,0E0,0E0,0E0,0E0,0E0,0E0,0E0,0E0,0E0,0E0,0E0,0E0,0E0,0E0,0E0,0E0,0E0,0E0,0E0,0E0,0E0,0E0],"parents":[2147483647,0,0,1,1,2,2,3,3,4,4,5,5,6,6,7,7,8,8,9,9,10,10,11,11,12,12,13,13,14,14,15,15,17,17,18,18,19,19,21,21,22,22,23,23,24,24,25,25,28,28,29,29,30,30,31,31,32,32,33,33,34,34,35,35,36,36,37,37,39,39,40,40,41,41,42,42,43,43,44,44,47,47,48,48,49,49,50,50,51,51,52,52,53,53,54,54],"right_children":[2,4,6,8,10,12,14,16,18,20,22,24,26,28,30,32,-1,34,36,38,-1,40,42,44,46,48,-1,-1,50,52,54,56,58,60,62,64,66,68,-1,70,72,74,76,78,80,-1,-1,82,84,86,88,90,92,94,96,-1,-1,-1,-1,-1,-1,-1,-1,-1,-1,-1,-1,-1,-1,-1,-1,-1,-1,-1,-1,-1,-1,-1,-1,-1,-1,-1,-1,-1,-1,-1,-1,-1,-1,-1,-1,-1,-1,-1,-1,-1,-1],"split_conditions":[-6.22549E-1,6.826847E-1,-5.0824924E0,4.619813E-1,-2.0619574E0,4.4299844E-1,1.027994E0,3.9799178E0,4.158318E-1,7.10664E-3,-2.7938638E0,1.0353456E0,1.024001E0,-4.0299215E0,-1.2392835E-1,-2.0956722E-1,8.280453E-2,5.271851E-1,-1.0801724E-1,3.7331681E0,-4.147029E-2,-9.9193966E-1,-1.9745536E0,-3.1361043E-1,2.10922E0,2.1972317E-2,-3.7044268E-2,6.2633716E-2,-4.3673115E0,1.2794541E0,-1.3325604E0,-1.0200397E0,-2.887888E-1,1.4071959E0,-9.8085976E-1,-1.5228773E-3,4.8191813E-1,-2.5422132E0,-3.472047E-2,-1.1279126E0,4.2481032E-1,1.5838015E0,7.8994167E-1,1.1831955E-1,-1.1868665E0,7.575458E-2,-6.7184085E-4,2.267677E0,-5.9016323E-1,5.101732E-1,-2.1497796E0,-8.238531E-1,-3.8086733E-1,1.083444E0,-5.5300146E-1,1.5936717E-2,-3.4852576E-2,-2.6492957E-2,1.3801332E-2,-2.5486914E-2,5.8555912E-2,-2.8576862E-2,5.6806672E-2,2.5028355E-2,9.724473E-2,-1.9904505E-2,5.3918328E-2,-7.6723294E-3,9.288804E-2,-2.0448595E-2,7.3162116E-2,-3.390262E-2,1.5447565E-2,7.75173E-2,-3.1110492E-2,-3.8349107E-2,-6.535981E-3,-3.6226634E-2,3.3711974E-2,2.479056E-3,-5.0603162E-2,8.850972E-2,2.8878346E-2,-2.2756303E-2,4.1509595E-2,6.491256E-2,-3.4772824E-2,3.6529328E-3,-3.091597E-2,8.215754E-3,-4.4841178E-2,-3.4882657E-2,7.4484594E-2,7.6692164E-2,-4.1312445E-2,3.2112263E-2,-2.0459507E-2],"split_indices":[15,6,2,63,41,105,81,23,27,103,15,82,49,30,122,53,0,92,73,0,0,44,70,36,25,62,0,0,16,86,6,36,92,62,61,40,22,41,0,14,98,6,108,68,47,0,0,23,50,125,43,91,18,91,44,0,0,0,0,0,0,0,0,0,0,0,0,0,0,0,0,0,0,0,0,0,0,0,0,0,0,0,0,0,0,0,0,0,0,0,0,0,0,0,0,0,0],"split_type":[0,0,0,0,0,0,0,0,0,0,0,0,0,0,0,0,0,0,0,0,0,0,0,0,0,0,0,0,0,0,0,0,0,0,0,0,0,0,0,0,0,0,0,0,0,0,0,0,0,0,0,0,0,0,0,0,0,0,0,0,0,0,0,0,0,0,0,0,0,0,0,0,0,0,0,0,0,0,0,0,0,0,0,0,0,0,0,0,0,0,0,0,0,0,0,0,0],"sum_hessian":[1.3601124E3,5.0272513E2,8.573873E2,3.0646704E2,1.9625807E2,4.933081E1,8.080565E2,2.0681175E2,9.96553E1,1.2375268E1,1.8388281E2,3.3458103E1,1.587271E1,7.11282E2,9.67745E1,2.0314738E2,3.664357E0,5.482075E1,4.4834545E1,9.334389E0,3.0408797E0,4.533211E1,1.385507E2,2.9337727E1,4.1203756E0,1.3733675E1,2.1390355E0,3.2011185E0,7.080809E2,4.281373E1,5.3960773E1,8.472685E1,1.1842053E2,4.018751E1,1.463324E1,2.3521297E1,2.1313246E1,7.6068983E0,1.72749E0,1.0046795E1,3.5285316E1,3.5235376E0,1.3502716E2,1.282028E1,1.6517447E1,2.777372E0,1.3430041E0,8.863582E0,4.870093E0,6.7099648E0,7.013709E2,3.8807537E1,4.006191E0,1.4907606E1,3.9053165E1,1.3291215E1,7.143564E1,3.9478798E1,7.894174E1,3.6147537E1,4.0399756E0,3.908062E0,1.0725178E1,1.1610276E1,1.191102E1,1.50384035E1,6.2748427E0,1.7368804E0,5.870018E0,2.6564631E0,7.3903317E0,2.292541E1,1.2359906E1,2.221906E0,1.3016318E0,1.1332548E2,2.1701685E1,5.7079473E0,7.1123323E0,1.2771946E0,1.5240252E1,7.488069E0,1.3755126E0,3.033466E0,1.8366269E0,4.9796567E0,1.7303083E0,3.0290588E1,6.710803E2,5.723201E0,3.3084335E1,1.7348812E0,2.2713096E0,1.1876714E1,3.0308928E0,1.0646955E1,2.8406212E1],"tree_param":{"num_deleted":"0","num_feature":"128","num_nodes":"97","size_leaf_vector":"1"}},{"base_weights":[1.2844265E-1,1.9536534E-1,-1.0433911E-1,-6.301404E-2,2.7327433E-1,-2.0533691E-1,1.5304425E-1,1.1336111E-1,-3.403729E-1,4.4079682E-1,2.0959204E-1,6.013808E-1,-2.393534E-1,-3.258598E-2,4.8657385E-1,4.9307647E-1,-1.9295214E-2,6.05008E-1,-4.1712278E-1,3.3230105E-1,8.7514436E-1,1.5933633E-1,4.86483E-1,-3.0230877E-1,8.074467E-2,3.9755365E-1,-2.8629237E-1,-1.6747195E-1,5.39137E-1,-4.2786956E-1,6.498193E-1,8.151523E-1,-3.474845E-2,-3.9200866E-1,1.08273886E-1,-3.805135E-2,8.453308E-2,-4.9009022E-1,2.6746434E-1,-2.073855E-2,4.6731845E-1,1.9851471E-1,1.0393338E0,5.1637E-1,1.1509273E-1,1.9827437E-1,9.549488E-1,-3.5110194E-2,2.1634486E-3,-1.3556089E-1,1.0603596E0,-3.8162938E-1,-1.9201683E-2,-4.6854028E-1,1.4709009E-1,-3.07472E-1,8.8741535E-1,-4.2873167E-2,1.0808042E-3,9.6718585E-1,6.528365E-2,8.504136E-2,1.6388346E-2,-4.1496802E-2,3.6475714E-2,4.4968218E-2,-4.0013768E-2,-1.1568087E-2,3.5110313E-2,2.248607E-2,-4.112709E-2,6.0694467E-2,-2.9436594E-2,2.7125297E-2,-2.7752107E-2,4.6337675E-2,-9.9530975E-5,-2.504652E-2,6.663569E-2,8.463773E-2,-1.6174437E-2,5.203124E-2,-5.236922E-3,3.1751826E-2,3.6149512E-3,3.9913118E-2,-2.3378365E-2,8.131652E-2,-1.9228552E-3,5.912198E-2,-4.712155E-2,2.8648248E-2,8.70379E-2,8.131538E-3,-3.3880096E-2,3.062171E-2,-2.397765E-2,-4.34739E-2,6.1898753E-2,-2.509523E-2,4.0998824E-2,2.486756E-3,-3.5761956E-2,-3.198593E-2,8.988577E-2,8.860868E-2,-4.0829745E-3,6.4120606E-2,-2.8401634E-2],"categories":[],"categories_nodes":[],"categories_segments":[],"categories_sizes":[],"default_left":[0,0,0,0,0,0,0,0,0,0,0,0,0,0,0,0,0,0,0,0,0,0,0,0,0,0,0,0,0,0,0,0,0,0,0,0,0,0,0,0,0,0,0,0,0,0,0,0,0,0,0,0,0,0,0,0,0,0,0,0,0,0,0,0,0,0,0,0,0,0,0,0,0,0,0,0,0,0,0,0,0,0,0,0,0,0,0,0,0,0,0,0,0,0,0,0,0,0,0,0,0,0,0,0,0,0,0,0,0],"id":7,"left_children":[1,3,5,7,9,11,13,15,17,19,21,23,25,27,29,31,33,35,37,39,41,43,45,47,-1,49,51,53,55,57,59,61,63,65,67,-1,-1,69,71,73,75,77,79,81,83,85,87,-1,-1,89,91,93,95,97,99,101,103,-1,-1,105,107,-1,-1,-1,-1,-1,-1,-1,-1,-1,-1,-1,-1,-1,-1,-1,-1,-1,-1,-1,-1,-1,-1,-1,-1,-1,-1,-1,-1,-1,-1,-1,-1,-1,-1,-1,-1,-1,-1,-1,-1,-1,-1,-1,-1,-1,-1,-1,-1],"loss_changes":[2.1876804E1,2.1960236E1,8.19221E0,1.2432295E1,8.84449E0,6.342744E0,5.5289173E0,7.8482733E0,7.416155E0,1.0539894E1,8.395285E0,4.372698E0,6.6151133E0,4.574161E0,5.0402713E0,6.884121E0,5.5716615E0,5.1143885E0,4.7222424E0,8.852152E0,4.82885E0,8.104697E0,1.2373646E1,2.3473653E-1,0E0,5.566067E0,5.1648464E0,4.5964932E0,3.615374E0,3.5385966E-1,5.0321827E0,4.5229015E0,4.6577506E0,4.51113E0,8.330784E0,0E0,0E0,4.0036736E0,3.714335E0,7.1164956E0,9.469315E0,4.0022955E0,4.298485E0,5.9438133E0,9.488613E0,1.0190412E1,4.487152E0,0E0,0E0,4.7703166E0,2.9148102E-2,5.1897373E0,7.129606E0,4.024517E0,4.8291864E0,2.4926057E-1,3.8989635E0,0E0,0E0,3.945116E0,4.088129E0,0E0,0E0,0E0,0E0,0E0,0E0,0E0,0E0,0E0,0E0,0E0,0E0,0E0,0E0,0E0,0E0,0E0,0E0,0E0,0E0,0E0,0E0,0E0,0E0,0E0,0E0,0E0,0E0,0E0,0E0,0E0,0E0,0E0,0E0,0E0,0E0,0E0,0E0,0E0,0E0,0E0,0E0,0E0,0E0,0E0,0E0,0E0,0E0],"parents":[2147483647,0,0,1,1,2,2,3,3,4,4,5,5,6,6,7,7,8,8,9,9,10,10,11,11,12,12,13,13,14,14,15,15,16,16,17,17,18,18,19,19,20,20,21,21,22,22,23,23,25,25,26,26,27,27,28,28,29,29,30,30,31,31,32,32,33,33,34,34,37,37,38,38,39,39,40,40,41,41,42,42,43,43,44,44,45,45,46,46,49,49,50,50,51,51,52,52,53,53,54,54,55,55,56,56,59,59,60,60],"right_children":[2,4,6,8,10,12,14,16,18,20,22,24,26,28,30,32,34,36,38,40,42,44,46,48,-1,50,52,54,56,58,60,62,64,66,68,-1,-1,70,72,74,76,78,80,82,84,86,88,-1,-1,90,92,94,96,98,100,102,104,-1,-1,106,108,-1,-1,-1,-1,-1,-1,-1,-1,-1,-1,-1,-1,-1,-1,-1,-1,-1,-1,-1,-1,-1,-1,-1,-1,-1,-1,-1,-1,-1,-1,-1,-1,-1,-1,-1,-1,-1,-1,-1,-1,-1,-1,-1,-1,-1,-1,-1,-1],"split_conditions":[1.729971E0,-1.8669775E0,7.0842075E-1,4.6544102E-1,-9.307444E-1,-3.3180597E0,4.8144987E-1,-7.399618E-1,-1.6562451E0,1.0006804E0,1.844872E0,-6.735259E-1,-8.892922E-1,1.0402104E0,-8.4940815E-1,3.3782187E-1,-5.342343E-1,-7.2255087E-1,2.7301507E0,-1.0792531E0,-4.256502E-1,-1.4061103E0,4.614089E-1,1.5751772E0,8.074467E-2,-3.3756724E-1,6.6301465E-1,-9.9342026E-2,-1.0539926E0,6.820875E-2,2.2353975E-1,2.145192E-1,-3.8686913E-1,-1.1503798E0,1.6991931E-1,-3.805135E-2,8.453308E-2,-1.4944898E0,5.7323164E-1,-2.0797402E-1,7.78242E-1,-1.3270353E-1,1.7522542E0,4.7366634E-1,-1.0362444E0,4.442201E-1,2.014824E0,-3.5110194E-2,2.1634486E-3,-1.1302373E0,-4.192289E-1,-7.9981244E-1,-3.6614832E-1,3.0426636E0,4.8725507E-3,-8.566688E-1,-2.1727388E0,-4.2873167E-2,1.0808042E-3,1.2668879E0,-1.9093906E0,8.504136E-2,1.6388346E-2,-4.1496802E-2,3.6475714E-2,4.4968218E-2,-4.0013768E-2,-1.1568087E-2,3.5110313E-2,2.248607E-2,-4.112709E-2,6.0694467E-2,-2.9436594E-2,2.7125297E-2,-2.7752107E-2,4.6337675E-2,-9.9530975E-5,-2.504652E-2,6.663569E-2,8.463773E-2,-1.6174437E-2,5.203124E-2,-5.236922E-3,3.1751826E-2,3.6149512E-3,3.9913118E-2,-2.3378365E-2,8.131652E-2,-1.9228552E-3,5.912198E-2,-4.712155E-2,2.8648248E-2,8.70379E-2,8.131538E-3,-3.3880096E-2,3.062171E-2,-2.397765E-2,-4.34739E-2,6.1898753E-2,-2.509523E-2,4.0998824E-2,2.486756E-3,-3.5761956E-2,-3.198593E-2,8.988577E-2,8.860868E-2,-4.0829745E-3,6.4120606E-2,-2.8401634E-2],"split_indices":[7,6,33,16,23,24,43,65,58,55,14,63,127,64,114,77,106,32,9,5,119,54,43,1,0,33,63,26,32,126,98,126,17,93,115,0,0,81,63,65,48,104,48,74,58,42,43,0,0,4,42,88,58,13,116,8,0,0,0,77,4,0,0,0,0,0,0,0,0,0,0,0,0,0,0,0,0,0,0,0,0,0,0,0,0,0,0,0,0,0,0,0,0,0,0,0,0,0,0,0,0,0,0,0,0,0,0,0,0],"split_type":[0,0,0,0,0,0,0,0,0,0,0,0,0,0,0,0,0,0,0,0,0,0,0,0,0,0,0,0,0,0,0,0,0,0,0,0,0,0,0,0,0,0,0,0,0,0,0,0,0,0,0,0,0,0,0,0,0,0,0,0,0,0,0,0,0,0,0,0,0,0,0,0,0,0,0,0,0,0,0,0,0,0,0,0,0,0,0,0,0,0,0,0,0,0,0,0,0,0,0,0,0,0,0,0,0,0,0,0,0],"sum_hessian":[1.4019965E3,1.0890615E3,3.1293484E2,2.5235059E2,8.36711E2,2.2488982E2,8.804505E1,1.546185E2,9.773209E1,2.288298E2,6.0788116E2,8.424299E0,2.1646552E2,5.714343E1,3.0901619E1,3.932829E1,1.1529021E2,6.821699E0,9.09104E1,1.8450685E2,4.432295E1,5.1583295E2,9.204824E1,3.0286782E0,5.3956213E0,1.4345412E1,2.021201E2,4.680731E1,1.0336122E1,4.435348E0,2.6466272E1,2.4086487E1,1.5241801E1,2.8869743E1,8.642046E1,2.1880972E0,4.633602E0,8.2410675E1,8.499722E0,5.127662E1,1.3323022E2,9.0864525E0,3.5236496E1,5.569758E1,4.6013535E2,5.7869263E1,3.417898E1,1.742478E0,1.2862003E0,8.391418E0,5.953994E0,1.4863615E2,5.3483948E1,2.3666512E1,2.3140795E1,3.0468593E0,7.2892623E0,3.126518E0,1.3088301E0,1.6728899E1,9.737373E0,1.5112675E1,8.973811E0,7.608614E0,7.633187E0,3.2011828E0,2.566856E1,5.0299286E1,3.6121178E1,5.3769584E0,7.7033714E1,4.5434694E0,3.9562516E0,2.4460896E1,2.6815723E1,1.0060128E2,3.262895E1,5.419787E0,3.666666E0,3.2993073E1,2.2434235E0,4.2618084E1,1.3079495E1,8.109522E1,3.7904013E2,3.494584E1,2.2923424E1,3.0104586E1,4.074395E0,2.7101228E0,5.6812954E0,1.3851633E0,4.5688305E0,1.8533897E1,1.3010225E2,2.1929043E1,3.1554907E1,2.2303194E1,1.3633188E0,1.0565754E1,1.2575041E1,1.2788574E0,1.7680019E0,1.3243382E0,5.964924E0,1.3699328E1,3.0295699E0,3.1712534E0,6.56612E0],"tree_param":{"num_deleted":"0","num_feature":"128","num_nodes":"109","size_leaf_vector":"1"}},{"base_weights":[1.0968037E-1,4.9410043E-3,3.188634E-1,-9.837907E-3,9.9691355E-1,1.1322362E-1,5.476212E-1,-9.988804E-2,1.1947595E-1,5.8255233E-3,8.790135E-2,2.83568E-1,-1.0633862E-1,3.3930662E-1,8.500663E-1,1.9634788E-1,-1.4610602E-1,-1.12429254E-1,2.447812E-1,5.760131E-1,6.571525E-2,3.6668488E-1,-2.0633678E-1,-2.4098463E-1,4.3478322E-1,1.0291657E0,5.027478E-1,-3.0964926E-1,3.7026122E-1,-2.4165595E-1,-5.342082E-4,-2.5569457E-1,2.0214362E-1,4.6056247E-1,2.7289428E-2,7.068839E-1,-1.7303222E-1,4.9160582E-1,-6.919009E-2,-6.318168E-2,8.563887E-1,-3.6797687E-2,-5.7283574E-1,6.070766E-1,-5.453813E-1,-4.6871353E-2,4.8803008E-1,1.0814624E0,-2.5580281E-2,4.236903E-2,9.44814E-1,-3.8650632E-2,2.8321384E-2,7.93343E-3,6.353426E-2,-3.23127E-2,-1.1287784E-2,1.2270811E-2,-1.4237301E-2,3.2721996E-2,-2.8120574E-2,3.581529E-2,-1.5729282E-2,2.0584205E-2,6.0713205E-2,-1.3648445E-2,2.1032315E-2,6.1608505E-2,-2.2223203E-2,-3.9532304E-2,5.0023105E-2,5.1118582E-2,-4.014585E-2,2.8990837E-2,-2.1438442E-2,-3.8486894E-2,5.144455E-2,1.005984E-3,8.9757964E-2,-1.22935455E-2,5.231041E-2,-5.011345E-2,5.8962028E-3,7.518621E-2,-3.047852E-2,2.9601838E-2,-5.032903E-2,1.0794172E-2,5.219492E-2,8.6397454E-2,3.292148E-2,2.9582717E-2,-3.2868966E-2,-4.7369257E-2,3.0482298E-2,-1.0777751E-2,8.172411E-2],"categories":[],"categories_nodes":[],"categories_segments":[],"categories_sizes":[],"default_left":[0,0,0,0,0,0,0,0,0,0,0,0,0,0,0,0,0,0,0,0,0,0,0,0,0,0,0,0,0,0,0,0,0,0,0,0,0,0,0,0,0,0,0,0,0,0,0,0,0,0,0,0,0,0,0,0,0,0,0,0,0,0,0,0,0,0,0,0,0,0,0,0,0,0,0,0,0,0,0,0,0,0,0,0,0,0,0,0,0,0,0,0,0,0,0,0,0],"id":8,"left_children":[1,3,5,7,9,11,13,15,17,-1,-1,19,21,23,25,27,29,31,33,35,37,39,41,43,45,47,49,51,53,55,57,59,61,63,65,67,69,71,73,75,77,79,81,83,85,-1,87,89,91,93,95,-1,-1,-1,-1,-1,-1,-1,-1,-1,-1,-1,-1,-1,-1,-1,-1,-1,-1,-1,-1,-1,-1,-1,-1,-1,-1,-1,-1,-1,-1,-1,-1,-1,-1,-1,-1,-1,-1,-1,-1,-1,-1,-1,-1,-1,-1],"loss_changes":[3.0686161E1,1.370749E1,2.1920872E1,1.0743886E1,2.1182947E0,9.281279E0,1.3632729E1,7.474512E0,1.1034559E1,0E0,0E0,8.8534E0,5.221593E0,7.4460516E0,5.0470276E0,6.6110277E0,6.551306E0,6.070795E0,1.1542941E1,5.950136E0,4.6940575E0,4.126387E0,5.5988026E0,5.329937E0,6.745615E0,3.2304802E0,6.5517683E0,2.9409995E0,6.8969135E0,4.838684E0,5.861732E0,7.7722297E0,4.903843E0,7.8003864E0,6.6034346E0,6.0823517E0,3.2202926E0,4.195227E0,6.278933E0,4.1385045E0,2.5984588E0,5.9859657E0,1.8250427E0,2.6466136E0,2.0105658E0,0E0,7.714981E0,2.0014114E0,8.1762284E-1,4.406507E0,2.7542677E0,0E0,0E0,0E0,0E0,0E0,0E0,0E0,0E0,0E0,0E0,0E0,0E0,0E0,0E0,0E0,0E0,0E0,0E0,0E0,0E0,0E0,0E0,0E0,0E0,0E0,0E0,0E0,0E0,0E0,0E0,0E0,0E0,0E0,0E0,0E0,0E0,0E0,0E0,0E0,0E0,0E0,0E0,0E0,0E0,0E0,0E0],"parents":[2147483647,0,0,1,1,2,2,3,3,4,4,5,5,6,6,7,7,8,8,11,11,12,12,13,13,14,14,15,15,16,16,17,17,18,18,19,19,20,20,21,21,22,22,23,23,24,24,25,25,26,26,27,27,28,28,29,29,30,30,31,31,32,32,33,33,34,34,35,35,36,36,37,37,38,38,39,39,40,40,41,41,42,42,43,43,44,44,46,46,47,47,48,48,49,49,50,50],"right_children":[2,4,6,8,10,12,14,16,18,-1,-1,20,22,24,26,28,30,32,34,36,38,40,42,44,46,48,50,52,54,56,58,60,62,64,66,68,70,72,74,76,78,80,82,84,86,-1,88,90,92,94,96,-1,-1,-1,-1,-1,-1,-1,-1,-1,-1,-1,-1,-1,-1,-1,-1,-1,-1,-1,-1,-1,-1,-1,-1,-1,-1,-1,-1,-1,-1,-1,-1,-1,-1,-1,-1,-1,-1,-1,-1,-1,-1,-1,-1,-1,-1],"split_conditions":[9.607301E-1,4.410268E0,2.4437162E-1,3.8588464E-1,-2.6376316E-1,4.6580186E-1,1.1494532E0,-2.1924753E0,-5.620488E-1,5.8255233E-3,8.790135E-2,-5.6869453E-1,-9.741152E-1,-1.0586109E0,2.3009825E-1,-7.3002017E-1,2.5175E-1,9.866902E-1,-3.9463146E-3,1.4701127E0,-8.2830006E-1,-1.5793481E-1,8.4334594E-1,-5.8501285E-1,-2.184106E0,3.2244246E0,-7.0991896E-2,2.6399755E-1,4.0960196E-1,-3.8381228E-1,8.187338E-2,-1.5977255E0,2.4607585E-1,2.7886096E-1,7.9811454E-2,1.6009356E0,2.6755887E-1,1.0981609E0,-5.9776103E-1,1.1995241E-1,-8.8272053E-1,1.0975618E0,1.2690232E0,-2.1669465E-1,-1.107187E0,-4.6871353E-2,-2.5146118E-1,1.8396492E0,-9.697591E-1,-6.594329E-1,-1.1083955E0,-3.8650632E-2,2.8321384E-2,7.93343E-3,6.353426E-2,-3.23127E-2,-1.1287784E-2,1.2270811E-2,-1.4237301E-2,3.2721996E-2,-2.8120574E-2,3.581529E-2,-1.5729282E-2,2.0584205E-2,6.0713205E-2,-1.3648445E-2,2.1032315E-2,6.1608505E-2,-2.2223203E-2,-3.9532304E-2,5.0023105E-2,5.1118582E-2,-4.014585E-2,2.8990837E-2,-2.1438442E-2,-3.8486894E-2,5.144455E-2,1.005984E-3,8.9757964E-2,-1.22935455E-2,5.231041E-2,-5.011345E-2,5.8962028E-3,7.518621E-2,-3.047852E-2,2.9601838E-2,-5.032903E-2,1.0794172E-2,5.219492E-2,8.6397454E-2,3.292148E-2,2.9582717E-2,-3.2868966E-2,-4.7369257E-2,3.0482298E-2,-1.0777751E-2,8.172411E-2],"split_indices":[7,16,16,38,124,17,2,11,37,0,0,5,62,60,76,60,19,2,27,40,68,28,32,123,43,5,3,113,83,88,5,34,8,118,36,46,117,75,47,96,89,99,87,3,114,0,74,23,18,55,87,0,0,0,0,0,0,0,0,0,0,0,0,0,0,0,0,0,0,0,0,0,0,0,0,0,0,0,0,0,0,0,0,0,0,0,0,0,0,0,0,0,0,0,0,0,0],"split_type":[0,0,0,0,0,0,0,0,0,0,0,0,0,0,0,0,0,0,0,0,0,0,0,0,0,0,0,0,0,0,0,0,0,0,0,0,0,0,0,0,0,0,0,0,0,0,0,0,0,0,0,0,0,0,0,0,0,0,0,0,0,0,0,0,0,0,0,0,0,0,0,0,0,0,0,0,0,0,0,0,0,0,0,0,0,0,0,0,0,0,0,0,0,0,0,0,0],"sum_hessian":[1.3996462E3,9.3334015E2,4.6630615E2,9.2061444E2,1.27257E1,2.4634839E2,2.1995775E2,5.428313E2,3.7778317E2,2.2672064E0,1.0458493E1,1.385583E2,1.07790085E2,1.3150392E2,8.845383E1,7.282275E1,4.7000854E2,1.3255797E2,2.4522522E2,5.8450466E1,8.0107834E1,1.8345072E1,8.9445015E1,1.836435E1,1.1313958E2,5.706455E1,3.1389277E1,1.842759E1,5.4395157E1,2.8335855E2,1.8664998E2,9.120693E1,4.135103E1,1.2253566E2,1.2268957E2,4.9804985E1,8.645483E0,1.863472E1,6.1473114E1,1.0233228E1,8.111843E0,6.1907547E1,2.7537468E1,4.5879045E0,1.3776444E1,4.899116E0,1.0824046E2,5.4344692E1,2.7198563E0,1.5912965E1,1.5476313E1,1.4375347E1,4.0522428E0,3.5775055E1,1.8620102E1,9.09245E1,1.9243405E2,1.0003882E2,8.661116E1,1.3016033E1,7.81909E1,2.468563E1,1.6665398E1,8.1079475E1,4.1456184E1,6.731897E1,5.537059E1,4.4862892E1,4.942092E0,6.343985E0,2.3014977E0,1.6009245E1,2.625475E0,1.9555037E1,4.191808E1,6.5898147E0,3.6434135E0,2.632285E0,5.4795585E0,5.3433876E1,8.473667E0,2.3999352E1,3.5381167E0,3.3080697E0,1.2798345E0,1.3720927E0,1.2404352E1,4.1403687E1,6.683678E1,4.8256508E1,6.0881834E0,1.3698349E0,1.3500214E0,5.3233724E0,1.0589592E1,1.818399E0,1.3657913E1],"tree_param":{"num_deleted":"0","num_feature":"128","num_nodes":"97","size_leaf_vector":"1"}},{"base_weights":[-2.3417415E-1,-1.0926621E-1,-3.0760175E-1,-1.1636929E-2,-2.622652E-1,6.0384534E-2,-3.3034134E-1,-1.1331889E-1,1.9692157E-1,3.1439382E-1,-3.0777133E-1,-1.8601803E-1,5.5148697E-1,-1.691741E-1,-3.805182E-1,1.7714114E-1,-2.2310734E-1,-2.467168E-2,4.5903996E-1,-1.437407E-1,7.4547134E-2,-8.8969424E-2,-4.3444866E-1,-3.3461443E-1,7.092076E-1,7.3004925E-1,-3.633138E-2,-2.3265338E-1,3.4876725E-1,-3.982789E-1,1.0479689E-1,-2.511117E-2,8.080153E-1,-4.187265E-1,-1.2530024E-2,-1.997853E-1,4.2969054E-1,8.123365E-1,4.3672305E-2,6.879412E-2,-5.0716686E-1,-2.9824233E-1,2.7585474E-1,5.621047E-1,-4.6294326E-1,2.87443E-2,-6.0790795E-1,-1.2106278E-3,7.268495E-2,1.0480115E0,5.9853856E-2,7.203314E-2,-2.5852597E-1,-4.191965E-2,5.5288327E-1,-2.8083453E-1,-4.6496806E-1,-3.040219E-1,6.830815E-1,-2.4418168E-2,3.619808E-2,7.26322E-2,-3.1343583E-2,-4.6553288E-2,-1.22041935E-2,-1.5030465E-2,3.9380714E-2,-2.4443526E-2,5.561584E-2,5.8136843E-2,-2.1315714E-2,2.424181E-2,9.14626E-2,-1.9195363E-2,5.1231142E-2,1.6554514E-3,-4.6090595E-2,-3.0596556E-2,5.4766882E-2,-6.2867394E-3,6.317056E-2,1.4044911E-3,6.417467E-2,4.5394685E-2,-3.641909E-2,4.6337962E-2,-2.4738172E-2,-4.9656726E-2,3.1211996E-3,8.3823524E-2,2.699838E-2,2.846095E-2,-3.407664E-2,-2.3227423E-2,2.7873702E-2,7.017874E-2,2.1831086E-3,-2.9229477E-2,-1.4849367E-3,-2.5476588E-2,-4.131419E-2,6.4268835E-2,-3.7357673E-2,8.640405E-2,1.170837E-3],"categories":[],"categories_nodes":[],"categories_segments":[],"categories_sizes":[],"default_left":[0,0,0,0,0,0,0,0,0,0,0,0,0,0,0,0,0,0,0,0,0,0,0,0,0,0,0,0,0,0,0,0,0,0,0,0,0,0,0,0,0,0,0,0,0,0,0,0,0,0,0,0,0,0,0,0,0,0,0,0,0,0,0,0,0,0,0,0,0,0,0,0,0,0,0,0,0,0,0,0,0,0,0,0,0,0,0,0,0,0,0,0,0,0,0,0,0,0,0,0,0,0,0,0,0],"id":9,"left_children":[1,3,5,7,9,11,13,15,17,19,21,23,25,27,29,31,33,35,37,39,-1,41,43,45,47,49,-1,51,53,55,57,59,61,63,65,67,69,71,73,-1,75,77,79,81,83,85,87,-1,-1,89,91,-1,93,-1,95,97,99,101,103,-1,-1,-1,-1,-1,-1,-1,-1,-1,-1,-1,-1,-1,-1,-1,-1,-1,-1,-1,-1,-1,-1,-1,-1,-1,-1,-1,-1,-1,-1,-1,-1,-1,-1,-1,-1,-1,-1,-1,-1,-1,-1,-1,-1,-1,-1],"loss_changes":[1.23106E1,7.462999E0,7.1081314E0,6.515227E0,5.2048407E0,6.1704154E0,6.3883743E0,6.6233344E0,5.86118E0,4.7294855E0,4.9760685E0,4.778635E0,3.4991937E0,6.368941E0,5.2797165E0,7.317408E0,6.1848173E0,4.503696E0,6.7427015E0,4.1952047E0,0E0,5.243175E0,3.5066967E0,2.9923973E0,9.9234176E-1,3.1132584E0,0E0,5.525671E0,4.2516813E0,4.46257E0,5.466832E0,6.911909E0,3.1409187E0,3.925601E0,7.5187745E0,5.0811863E0,4.108137E0,4.5651913E0,4.444338E0,0E0,4.5961452E-1,5.199093E0,5.196496E0,5.629642E-1,2.9957657E0,3.122042E0,6.308589E-1,0E0,0E0,7.9071045E-2,1.1349196E0,0E0,5.536704E0,0E0,3.5572238E0,6.1013374E0,3.8212204E0,3.519147E0,2.9624004E0,0E0,0E0,0E0,0E0,0E0,0E0,0E0,0E0,0E0,0E0,0E0,0E0,0E0,0E0,0E0,0E0,0E0,0E0,0E0,0E0,0E0,0E0,0E0,0E0,0E0,0E0,0E0,0E0,0E0,0E0,0E0,0E0,0E0,0E0,0E0,0E0,0E0,0E0,0E0,0E0,0E0,0E0,0E0,0E0,0E0,0E0],"parents":[2147483647,0,0,1,1,2,2,3,3,4,4,5,5,6,6,7,7,8,8,9,9,10,10,11,11,12,12,13,13,14,14,15,15,16,16,17,17,18,18,19,19,21,21,22,22,23,23,24,24,25,25,27,27,28,28,29,29,30,30,31,31,32,32,33,33,34,34,35,35,36,36,37,37,38,38,40,40,41,41,42,42,43,43,44,44,45,45,46,46,49,49,50,50,52,52,54,54,55,55,56,56,57,57,58,58],"right_children":[2,4,6,8,10,12,14,16,18,20,22,24,26,28,30,32,34,36,38,40,-1,42,44,46,48,50,-1,52,54,56,58,60,62,64,66,68,70,72,74,-1,76,78,80,82,84,86,88,-1,-1,90,92,-1,94,-1,96,98,100,102,104,-1,-1,-1,-1,-1,-1,-1,-1,-1,-1,-1,-1,-1,-1,-1,-1,-1,-1,-1,-1,-1,-1,-1,-1,-1,-1,-1,-1,-1,-1,-1,-1,-1,-1,-1,-1,-1,-1,-1,-1,-1,-1,-1,-1,-1,-1],"split_conditions":[-6.22549E-1,6.826847E-1,-5.0824924E0,4.619813E-1,-1.978759E0,4.4299844E-1,-8.555099E-1,-1.4447904E0,4.158318E-1,1.5746481E0,-3.6307165E-1,1.0353456E0,1.024001E0,1.2398283E0,1.1749772E0,8.7775415E-1,-1.7866287E-2,5.271851E-1,-1.0801724E-1,-7.061618E-1,7.4547134E-2,6.399775E-1,-3.2823467E0,-3.1361043E-1,-5.8197165E-1,2.1972317E-2,-3.633138E-2,-3.7468007E0,-3.3351827E0,-4.1490203E-1,2.69045E-1,5.33043E-1,2.225675E0,2.1700221E-1,1.0498563E0,1.4071959E0,4.4107717E-2,-1.5228773E-3,4.8191813E-1,6.879412E-2,-9.422504E-1,1.9704684E0,3.0071607E-1,-6.095416E-1,-1.4288533E0,-3.2914E-1,1.865577E0,-1.2106278E-3,7.268495E-2,2.0669696E0,-6.0150415E-1,7.203314E-2,1.667475E0,-4.191965E-2,-1.2050518E-1,4.9858633E-1,-9.557977E-1,1.2167184E0,1.1477823E0,-2.4418168E-2,3.619808E-2,7.26322E-2,-3.1343583E-2,-4.6553288E-2,-1.22041935E-2,-1.5030465E-2,3.9380714E-2,-2.4443526E-2,5.561584E-2,5.8136843E-2,-2.1315714E-2,2.424181E-2,9.14626E-2,-1.9195363E-2,5.1231142E-2,1.6554514E-3,-4.6090595E-2,-3.0596556E-2,5.4766882E-2,-6.2867394E-3,6.317056E-2,1.4044911E-3,6.417467E-2,4.5394685E-2,-3.641909E-2,4.6337962E-2,-2.4738172E-2,-4.9656726E-2,3.1211996E-3,8.3823524E-2,2.699838E-2,2.846095E-2,-3.407664E-2,-2.3227423E-2,2.7873702E-2,7.017874E-2,2.1831086E-3,-2.9229477E-2,-1.4849367E-3,-2.5476588E-2,-4.131419E-2,6.4268835E-2,-3.7357673E-2,8.640405E-2,1.170837E-3],"split_indices":[15,6,2,63,41,105,45,7,27,4,36,82,49,81,127,57,95,92,73,47,0,5,29,36,69,62,0,30,4,43,66,28,20,25,22,62,75,40,22,0,43,66,60,9,125,40,34,0,0,7,1,0,62,0,56,95,1,127,5,0,0,0,0,0,0,0,0,0,0,0,0,0,0,0,0,0,0,0,0,0,0,0,0,0,0,0,0,0,0,0,0,0,0,0,0,0,0,0,0,0,0,0,0,0,0],"split_type":[0,0,0,0,0,0,0,0,0,0,0,0,0,0,0,0,0,0,0,0,0,0,0,0,0,0,0,0,0,0,0,0,0,0,0,0,0,0,0,0,0,0,0,0,0,0,0,0,0,0,0,0,0,0,0,0,0,0,0,0,0,0,0,0,0,0,0,0,0,0,0,0,0,0,0,0,0,0,0,0,0,0,0,0,0,0,0,0,0,0,0,0,0,0,0,0,0,0,0,0,0,0,0,0,0],"sum_hessian":[1.3449033E3,4.9883E2,8.460733E2,3.0517358E2,1.9365643E2,4.9143658E1,7.969296E2,2.0545927E2,9.971429E1,1.3732153E1,1.7992427E2,3.313829E1,1.600537E1,1.9024323E2,6.066864E2,5.618935E1,1.4926993E2,5.4525036E1,4.518925E1,8.6734085E0,5.0587444E0,6.659727E1,1.1332701E2,2.8957865E1,4.180424E0,1.3903955E1,2.1014137E0,1.6996321E2,2.0280006E1,5.854408E2,2.1245594E1,4.327575E1,1.2913602E1,7.687095E1,7.239898E1,3.9761166E1,1.4763871E1,2.3902746E1,2.1286507E1,1.8241191E0,6.8492894E0,4.2436855E1,2.4160412E1,2.629728E0,1.1069728E2,1.2814762E1,1.6143105E1,1.3502635E0,2.8301606E0,9.047697E0,4.856259E0,2.84078E0,1.6712244E2,3.404049E0,1.6875957E1,2.1392126E2,3.7151956E2,1.2724363E1,8.52123E0,2.7412867E1,1.5862882E1,1.1605108E1,1.3084941E0,4.217264E1,3.4698307E1,5.411481E1,1.828417E1,3.5639603E1,4.121561E0,9.891441E0,4.87243E0,1.1673559E1,1.2229186E1,1.4903055E1,6.3834515E0,1.2892272E0,5.560062E0,3.889145E1,3.5454068E0,1.5298091E1,8.86232E0,1.2955122E0,1.3342159E0,1.7638352E0,1.0893345E2,4.5753217E0,8.23944E0,1.4882312E1,1.2607918E0,7.649125E0,1.3985717E0,3.1563358E0,1.6999228E0,1.5504099E2,1.2081453E1,9.295377E0,7.580581E0,1.506035E2,6.331777E1,1.5312245E2,2.183971E2,1.3333473E0,1.1391016E1,4.578395E0,3.9428344E0],"tree_param":{"num_deleted":"0","num_feature":"128","num_nodes":"105","size_leaf_vector":"1"}},{"base_weights":[1.2095053E-1,1.8332483E-1,-9.8634325E-2,-6.212549E-2,2.5655755E-1,-1.9635758E-1,1.4806472E-1,1.0597061E-1,-3.3038154E-1,4.330009E-1,2.0076606E-1,-9.067779E-2,-4.4883516E-1,-3.0002762E-2,4.6389353E-1,5.7476234E-1,7.2967736E-3,5.760716E-1,-4.0572625E-1,5.3011316E-1,-4.5984467E-3,2.9981425E-1,2.569174E-2,-2.1981205E-1,2.4241418E-1,3.0412185E-1,-5.0823355E-1,-1.6001187E-1,5.1120955E-1,-4.166151E-1,6.175013E-1,1.0060654E-1,9.091663E-1,2.6470116E-1,-1.6888231E-1,-3.746917E-2,8.007985E-2,-4.7778276E-1,2.5857186E-1,1.4927419E-1,6.370775E-1,3.558984E-1,-3.617992E-1,3.9947566E-1,5.385903E-2,4.8970535E-1,-5.610331E-2,6.898358E-2,-3.571399E-1,8.312745E-1,-2.869347E-2,7.263831E-2,-3.6960606E-2,-5.752E-1,1.7321014E-1,-4.5334575E-1,1.4028394E-1,-2.9958692E-1,8.368709E-1,1.9535176E-3,-4.220337E-2,9.1234654E-1,6.348906E-2,5.3633768E-2,-3.7571054E-2,7.850023E-2,-8.69195E-3,2.8802564E-2,-4.7027342E-2,-1.8582325E-2,5.5515684E-2,4.3417346E-3,-4.2138346E-2,5.7718668E-2,-2.860764E-2,-1.17037045E-2,4.213206E-2,5.0549027E-2,-3.0542731E-2,-2.3624073E-3,6.4768076E-2,-4.718398E-2,2.010777E-2,2.0358004E-2,4.6382364E-2,-3.344263E-3,4.3472603E-2,-2.005633E-2,5.581347E-2,-1.3987213E-2,1.4385779E-2,7.453534E-2,-1.2361049E-2,2.1974478E-2,-3.207233E-2,8.177261E-2,-5.7471604E-3,3.7544973E-2,-2.6717344E-2,-4.7687795E-2,-4.744089E-3,-4.055669E-2,7.389672E-2,-4.234585E-2,6.0247548E-2,-2.4282271E-2,3.8701277E-2,-3.5165388E-2,2.7590326E-3,-3.147666E-2,8.44483E-2,8.1075825E-2,-1.5541653E-2,6.1026238E-2,-2.7689947E-2],"categories":[],"categories_nodes":[],"categories_segments":[],"categories_sizes":[],"default_left":[0,0,0,0,0,0,0,0,0,0,0,0,0,0,0,0,0,0,0,0,0,0,0,0,0,0,0,0,0,0,0,0,0,0,0,0,0,0,0,0,0,0,0,0,0,0,0,0,0,0,0,0,0,0,0,0,0,0,0,0,0,0,0,0,0,0,0,0,0,0,0,0,0,0,0,0,0,0,0,0,0,0,0,0,0,0,0,0,0,0,0,0,0,0,0,0,0,0,0,0,0,0,0,0,0,0,0,0,0,0,0,0,0,0,0],"id":10,"left_children":[1,3,5,7,9,11,13,15,17,19,21,23,25,27,29,31,33,35,37,39,41,43,45,47,49,51,53,55,57,59,61,63,65,67,69,-1,-1,71,73,75,77,79,81,83,85,87,89,91,93,95,97,-1,-1,99,101,103,105,107,109,-1,-1,111,113,-1,-1,-1,-1,-1,-1,-1,-1,-1,-1,-1,-1,-1,-1,-1,-1,-1,-1,-1,-1,-1,-1,-1,-1,-1,-1,-1,-1,-1,-1,-1,-1,-1,-1,-1,-1,-1,-1,-1,-1,-1,-1,-1,-1,-1,-1,-1,-1,-1,-1,-1,-1],"loss_changes":[1.9289312E1,1.9718601E1,7.5486317E0,1.1429514E1,8.22562E0,5.931755E0,5.0230074E0,7.216753E0,6.8985586E0,8.586597E0,1.114983E1,6.89442E0,3.0971756E0,4.1554465E0,4.608759E0,4.2104425E0,5.9388456E0,4.7125826E0,4.4643393E0,6.639427E0,4.9804854E0,1.0049213E1,8.892848E0,4.590932E0,7.1933184E0,3.355721E0,2.8996296E0,4.2427063E0,3.2745898E0,3.6233765E-1,4.482645E0,4.921828E0,2.346304E0,5.902132E0,5.760411E0,0E0,0E0,3.7322369E0,3.4079957E0,4.817674E0,5.2376595E0,3.8143876E0,3.4389186E0,8.024227E0,6.217966E0,6.9631023E0,6.4840207E0,8.367989E0,3.7087917E0,3.4208775E0,5.677052E0,0E0,0E0,1.7012615E0,4.1616116E0,3.8422685E0,4.3877497E0,2.4605027E-1,3.536471E0,0E0,0E0,3.6356335E0,3.7833314E0,0E0,0E0,0E0,0E0,0E0,0E0,0E0,0E0,0E0,0E0,0E0,0E0,0E0,0E0,0E0,0E0,0E0,0E0,0E0,0E0,0E0,0E0,0E0,0E0,0E0,0E0,0E0,0E0,0E0,0E0,0E0,0E0,0E0,0E0,0E0,0E0,0E0,0E0,0E0,0E0,0E0,0E0,0E0,0E0,0E0,0E0,0E0,0E0,0E0,0E0,0E0,0E0],"parents":[2147483647,0,0,1,1,2,2,3,3,4,4,5,5,6,6,7,7,8,8,9,9,10,10,11,11,12,12,13,13,14,14,15,15,16,16,17,17,18,18,19,19,20,20,21,21,22,22,23,23,24,24,25,25,26,26,27,27,28,28,29,29,30,30,31,31,32,32,33,33,34,34,37,37,38,38,39,39,40,40,41,41,42,42,43,43,44,44,45,45,46,46,47,47,48,48,49,49,50,50,53,53,54,54,55,55,56,56,57,57,58,58,61,61,62,62],"right_children":[2,4,6,8,10,12,14,16,18,20,22,24,26,28,30,32,34,36,38,40,42,44,46,48,50,52,54,56,58,60,62,64,66,68,70,-1,-1,72,74,76,78,80,82,84,86,88,90,92,94,96,98,-1,-1,100,102,104,106,108,110,-1,-1,112,114,-1,-1,-1,-1,-1,-1,-1,-1,-1,-1,-1,-1,-1,-1,-1,-1,-1,-1,-1,-1,-1,-1,-1,-1,-1,-1,-1,-1,-1,-1,-1,-1,-1,-1,-1,-1,-1,-1,-1,-1,-1,-1,-1,-1,-1,-1,-1,-1,-1,-1,-1,-1],"split_conditions":[1.729971E0,-1.8669775E0,7.0842075E-1,4.6544102E-1,-6.079225E-1,6.921807E-1,4.8144987E-1,-1.0074097E0,-1.6562451E0,1.1192616E0,4.924955E-1,5.29236E-1,-1.6003585E0,1.0402104E0,-8.4940815E-1,-2.7920774E-1,-1.1464626E-1,-7.2255087E-1,2.7301507E0,-1.0066994E0,-3.6491826E-1,4.373241E-1,-1.0731031E0,-3.0749935E-1,-5.2511376E-1,6.7877096E-1,1.5339102E0,-9.9342026E-2,-1.0539926E0,1.9951112E0,2.2353975E-1,-3.6980674E-2,1.0924698E0,1.6665425E0,1.2738124E0,-3.746917E-2,8.007985E-2,-1.0222397E0,5.7323164E-1,2.0248407E-1,3.3224964E0,-8.6835635E-1,6.0104674E-1,2.576347E-1,2.7606618E0,-2.7829878E0,8.377427E-1,-1.9266185E0,-8.892922E-1,1.1256366E0,-1.9025211E-1,7.263831E-2,-3.6960606E-2,2.198704E0,6.2027985E-1,3.0426636E0,4.8725507E-3,-4.59771E-1,-2.1727388E0,1.9535176E-3,-4.220337E-2,7.97008E-1,-1.9093906E0,5.3633768E-2,-3.7571054E-2,7.850023E-2,-8.69195E-3,2.8802564E-2,-4.7027342E-2,-1.8582325E-2,5.5515684E-2,4.3417346E-3,-4.2138346E-2,5.7718668E-2,-2.860764E-2,-1.17037045E-2,4.213206E-2,5.0549027E-2,-3.0542731E-2,-2.3624073E-3,6.4768076E-2,-4.718398E-2,2.010777E-2,2.0358004E-2,4.6382364E-2,-3.344263E-3,4.3472603E-2,-2.005633E-2,5.581347E-2,-1.3987213E-2,1.4385779E-2,7.453534E-2,-1.2361049E-2,2.1974478E-2,-3.207233E-2,8.177261E-2,-5.7471604E-3,3.7544973E-2,-2.6717344E-2,-4.7687795E-2,-4.744089E-3,-4.055669E-2,7.389672E-2,-4.234585E-2,6.0247548E-2,-2.4282271E-2,3.8701277E-2,-3.5165388E-2,2.7590326E-3,-3.147666E-2,8.44483E-2,8.1075825E-2,-1.5541653E-2,6.1026238E-2,-2.7689947E-2],"split_indices":[7,6,33,16,81,37,43,65,58,58,25,72,60,64,114,99,63,32,9,40,66,90,69,85,58,72,70,26,32,7,98,112,50,37,106,0,0,81,63,15,19,66,93,94,6,5,14,13,127,29,70,0,0,23,8,13,116,11,0,0,0,83,4,0,0,0,0,0,0,0,0,0,0,0,0,0,0,0,0,0,0,0,0,0,0,0,0,0,0,0,0,0,0,0,0,0,0,0,0,0,0,0,0,0,0,0,0,0,0,0,0,0,0,0,0],"split_type":[0,0,0,0,0,0,0,0,0,0,0,0,0,0,0,0,0,0,0,0,0,0,0,0,0,0,0,0,0,0,0,0,0,0,0,0,0,0,0,0,0,0,0,0,0,0,0,0,0,0,0,0,0,0,0,0,0,0,0,0,0,0,0,0,0,0,0,0,0,0,0,0,0,0,0,0,0,0,0,0,0,0,0,0,0,0,0,0,0,0,0,0,0,0,0,0,0,0,0,0,0,0,0,0,0,0,0,0,0,0,0,0,0,0,0],"sum_hessian":[1.4060233E3,1.0951149E3,3.1090836E2,2.5169011E2,8.434248E2,2.2284021E2,8.806815E1,1.5510335E2,9.658677E1,2.0099797E2,6.424268E2,1.5804591E2,6.479428E1,5.6895115E1,3.1173035E1,2.6131199E1,1.2897215E2,6.9022117E0,8.9684555E1,1.6432048E2,3.6677498E1,4.0984482E2,2.32582E2,1.14136986E2,4.3908936E1,4.4364233E0,6.035786E1,4.6443E1,1.0452113E1,4.376116E0,2.6796919E1,1.1345342E1,1.4785857E1,5.2201424E1,7.677073E1,2.1601267E0,4.742085E0,8.1161705E1,8.52285E0,3.6557095E1,1.2776339E2,1.825634E1,1.8421156E1,2.912185E2,1.1862631E2,3.410746E1,1.9847455E2,3.694359E1,7.71934E1,1.3191051E1,3.0717884E1,2.3019872E0,2.1344361E0,5.5099102E1,5.2587585E0,2.3236015E1,2.3206985E1,3.0180826E0,7.4340305E0,1.2898071E0,3.0863087E0,1.7067043E1,9.7298765E0,5.5188465E0,5.826495E0,1.3018454E1,1.7674032E0,4.6542385E1,5.6590376E0,7.131056E1,5.460169E0,1.1051144E1,7.011056E1,4.6264367E0,3.8964133E0,2.136463E1,1.5192464E1,1.2374447E2,4.018919E0,1.0886799E1,7.369541E0,1.2933593E1,5.4875627E0,1.851757E2,1.0604281E2,1.00688095E2,1.7938215E1,8.567169E0,2.5540289E1,1.3022766E2,6.824689E1,6.7988853E0,3.0144701E1,7.24227E0,6.9951126E1,1.0106689E1,3.084361E0,1.1540441E1,1.9177444E1,4.904766E1,6.0514383E0,2.976224E0,2.2825344E0,2.1851912E1,1.384105E0,1.044511E1,1.2761875E1,1.7456567E0,1.2724259E0,1.306002E0,6.1280284E0,1.4862438E1,2.2046046E0,3.2370157E0,6.492861E0],"tree_param":{"num_deleted":"0","num_feature":"128","num_nodes":"115","size_leaf_vector":"1"}},{"base_weights":[1.03318535E-1,4.1619767E-3,2.9994163E-1,-6.833786E-2,1.9056012E-1,1.0561328E-1,5.141999E-1,-1.5827933E-1,7.198453E-2,1.214133E-1,8.216454E-1,2.6611468E-1,-1.03512004E-1,3.4135035E-1,8.3716714E-1,-3.3432886E-1,-7.477795E-2,6.9630665E-1,2.0682873E-2,4.9094793E-1,1.4332952E-2,-3.7743013E-2,9.6554285E-1,5.416533E-1,5.8823325E-2,-1.7533535E-1,5.2160805E-1,2.4537982E-1,8.126819E-1,9.520465E-1,1.9407515E-1,-3.697846E-1,7.434772E-1,4.6123853E-1,-1.2386103E-1,8.361411E-1,-3.581306E-2,4.904161E-1,-4.52533E-2,-1.648421E-1,6.8727523E-1,-5.4517124E-2,5.636721E-1,1.138851E0,-1.1054567E-1,1.12476744E-1,7.5366455E-1,-4.8761483E-2,1.3447146E-1,2.9786295E-1,-2.7575654E-1,-4.504308E-2,8.268801E-2,3.997032E-1,-1.1710375E-1,9.5773834E-1,-2.7677912E-1,9.8756254E-1,-1.2750994E-2,7.547961E-1,-2.8117058E-1,-4.1456558E-2,-1.5418536E-2,7.8596584E-2,2.971728E-4,-5.803226E-3,7.6471984E-2,-1.2789375E-2,2.597146E-2,8.06127E-2,-5.129381E-4,-6.739328E-3,6.097541E-2,2.857423E-3,-3.5516392E-2,-4.274141E-2,6.1230935E-2,-4.1979086E-2,6.0195234E-2,3.0815853E-2,-1.0854291E-2,-1.6891181E-2,8.0976084E-2,-1.2499073E-3,9.1591194E-2,-3.606453E-2,2.7428148E-2,-1.2727287E-2,6.738369E-2,6.326996E-2,-3.9492544E-2,-3.6141474E-2,1.7236147E-2,-4.143753E-2,3.8442343E-2,1.0080641E-2,-3.1763103E-2,3.9277606E-2,-4.15739E-2,8.083328E-3,5.171749E-2,-4.3692354E-2,1.4530003E-2,-3.2950267E-2,8.031077E-2,-3.2849904E-2,5.6619965E-4,7.680052E-2,-1.1542935E-2,-2.1224257E-3,7.3540956E-2,-4.7250737E-2,5.503117E-2],"categories":[],"categories_nodes":[],"categories_segments":[],"categories_sizes":[],"default_left":[0,0,0,0,0,0,0,0,0,0,0,0,0,0,0,0,0,0,0,0,0,0,0,0,0,0,0,0,0,0,0,0,0,0,0,0,0,0,0,0,0,0,0,0,0,0,0,0,0,0,0,0,0,0,0,0,0,0,0,0,0,0,0,0,0,0,0,0,0,0,0,0,0,0,0,0,0,0,0,0,0,0,0,0,0,0,0,0,0,0,0,0,0,0,0,0,0,0,0,0,0,0,0,0,0,0,0,0,0,0,0,0,0],"id":11,"left_children":[1,3,5,7,9,11,13,15,17,19,21,23,25,27,29,31,33,35,37,39,41,-1,43,45,47,49,51,53,55,57,59,61,63,65,67,69,-1,71,73,75,77,79,81,83,85,87,89,-1,91,93,95,97,-1,99,101,103,105,107,-1,109,111,-1,-1,-1,-1,-1,-1,-1,-1,-1,-1,-1,-1,-1,-1,-1,-1,-1,-1,-1,-1,-1,-1,-1,-1,-1,-1,-1,-1,-1,-1,-1,-1,-1,-1,-1,-1,-1,-1,-1,-1,-1,-1,-1,-1,-1,-1,-1,-1,-1,-1,-1,-1],"loss_changes":[2.7359783E1,1.2634005E1,1.9533703E1,8.506905E0,1.1324322E1,8.3502655E0,1.219075E1,6.009804E0,8.42887E0,9.375633E0,5.3814335E0,7.996978E0,4.957979E0,6.4621487E0,5.5204773E0,5.310912E0,7.416849E0,3.6798086E0,7.5989447E0,6.968235E0,7.0230374E0,0E0,4.5095196E0,5.3953915E0,4.4499607E0,4.737512E0,3.8093045E0,6.9714794E0,4.133894E0,2.768776E0,3.6659229E0,3.739647E0,1.0156751E0,7.2003374E0,5.6986594E0,3.673953E0,0E0,5.7254777E0,7.7089233E0,5.6613665E0,6.369875E0,6.994669E0,8.660738E0,1.955555E0,9.116503E-1,4.829834E0,5.0655956E0,0E0,4.4786468E0,3.50228E0,4.986134E0,2.2432468E0,0E0,7.2917595E0,5.572851E0,3.9187183E0,1.7072684E-1,2.7954216E0,0E0,1.1268044E0,3.2037957E0,0E0,0E0,0E0,0E0,0E0,0E0,0E0,0E0,0E0,0E0,0E0,0E0,0E0,0E0,0E0,0E0,0E0,0E0,0E0,0E0,0E0,0E0,0E0,0E0,0E0,0E0,0E0,0E0,0E0,0E0,0E0,0E0,0E0,0E0,0E0,0E0,0E0,0E0,0E0,0E0,0E0,0E0,0E0,0E0,0E0,0E0,0E0,0E0,0E0,0E0,0E0,0E0],"parents":[2147483647,0,0,1,1,2,2,3,3,4,4,5,5,6,6,7,7,8,8,9,9,10,10,11,11,12,12,13,13,14,14,15,15,16,16,17,17,18,18,19,19,20,20,22,22,23,23,24,24,25,25,26,26,27,27,28,28,29,29,30,30,31,31,32,32,33,33,34,34,35,35,37,37,38,38,39,39,40,40,41,41,42,42,43,43,44,44,45,45,46,46,48,48,49,49,50,50,51,51,53,53,54,54,55,55,56,56,57,57,59,59,60,60],"right_children":[2,4,6,8,10,12,14,16,18,20,22,24,26,28,30,32,34,36,38,40,42,-1,44,46,48,50,52,54,56,58,60,62,64,66,68,70,-1,72,74,76,78,80,82,84,86,88,90,-1,92,94,96,98,-1,100,102,104,106,108,-1,110,112,-1,-1,-1,-1,-1,-1,-1,-1,-1,-1,-1,-1,-1,-1,-1,-1,-1,-1,-1,-1,-1,-1,-1,-1,-1,-1,-1,-1,-1,-1,-1,-1,-1,-1,-1,-1,-1,-1,-1,-1,-1,-1,-1,-1,-1,-1,-1,-1,-1,-1,-1,-1],"split_conditions":[9.607301E-1,9.524381E-1,2.4437162E-1,4.0123323E-1,2.5551755E0,4.6580186E-1,1.5224233E0,-3.8381228E-1,-1.1741953E0,-1.0480912E0,-1.0206126E0,-5.6869453E-1,2.288008E0,1.734014E0,7.576663E-1,2.0759525E0,-1.5973555E0,1.2424833E0,-1.6118127E0,-5.5296844E-1,1.572512E0,-3.7743013E-2,7.9031444E-1,-3.240467E-1,-1.2223198E0,-9.741152E-1,9.754937E-2,6.1429965E-1,1.1650939E0,2.5066466E0,-4.2860922E-1,-1.21104196E-1,1.8347522E0,2.201112E-1,1.6151702E0,1.4301962E0,-3.581306E-2,-2.659242E-1,2.0659838E0,1.5951062E0,-1.1061872E0,-2.6279645E0,1.05572954E-1,-1.070405E0,1.3171475E0,7.0297426E-1,1.5097888E0,-4.8761483E-2,-8.337605E-1,-2.0857139E0,-5.405204E-1,-1.9741094E-1,8.268801E-2,8.101137E-2,-7.1511075E-2,-1.9344319E0,-5.9768283E-1,2.0004034E0,-1.2750994E-2,-8.637692E-1,1.2254139E0,-4.1456558E-2,-1.5418536E-2,7.8596584E-2,2.971728E-4,-5.803226E-3,7.6471984E-2,-1.2789375E-2,2.597146E-2,8.06127E-2,-5.129381E-4,-6.739328E-3,6.097541E-2,2.857423E-3,-3.5516392E-2,-4.274141E-2,6.1230935E-2,-4.1979086E-2,6.0195234E-2,3.0815853E-2,-1.0854291E-2,-1.6891181E-2,8.0976084E-2,-1.2499073E-3,9.1591194E-2,-3.606453E-2,2.7428148E-2,-1.2727287E-2,6.738369E-2,6.326996E-2,-3.9492544E-2,-3.6141474E-2,1.7236147E-2,-4.143753E-2,3.8442343E-2,1.0080641E-2,-3.1763103E-2,3.9277606E-2,-4.15739E-2,8.083328E-3,5.171749E-2,-4.3692354E-2,1.4530003E-2,-3.2950267E-2,8.031077E-2,-3.2849904E-2,5.6619965E-4,7.680052E-2,-1.1542935E-2,-2.1224257E-3,7.3540956E-2,-4.7250737E-2,5.503117E-2],"split_indices":[7,19,16,38,16,17,2,88,87,40,69,5,18,14,63,68,40,89,32,91,58,0,89,98,87,62,24,47,76,31,98,100,13,57,50,6,0,94,9,9,112,7,38,66,13,105,79,0,104,3,79,39,0,37,121,41,6,53,0,25,45,0,0,0,0,0,0,0,0,0,0,0,0,0,0,0,0,0,0,0,0,0,0,0,0,0,0,0,0,0,0,0,0,0,0,0,0,0,0,0,0,0,0,0,0,0,0,0,0,0,0,0,0],"split_type":[0,0,0,0,0,0,0,0,0,0,0,0,0,0,0,0,0,0,0,0,0,0,0,0,0,0,0,0,0,0,0,0,0,0,0,0,0,0,0,0,0,0,0,0,0,0,0,0,0,0,0,0,0,0,0,0,0,0,0,0,0,0,0,0,0,0,0,0,0,0,0,0,0,0,0,0,0,0,0,0,0,0,0,0,0,0,0,0,0,0,0,0,0,0,0,0,0,0,0,0,0,0,0,0,0,0,0,0,0,0,0,0,0],"sum_hessian":[1.4023838E3,9.329304E2,4.6945337E2,6.721356E2,2.607948E2,2.4695898E2,2.224944E2,4.095203E2,2.6261536E2,2.3611635E2,2.4678434E1,1.3956886E2,1.07390114E2,1.462692E2,7.622521E1,1.3078236E2,2.787379E2,1.8986301E1,2.4362904E2,5.224249E1,1.8387387E2,2.1731062E0,2.250533E1,5.922801E1,8.034086E1,9.6968414E1,1.0421697E1,1.2278819E2,2.3480997E1,6.4264786E1,1.1960423E1,1.2725313E2,3.5292363E0,2.2678465E1,2.5605948E2,1.722231E1,1.7639928E0,2.9196156E1,2.1443289E2,1.20735855E1,4.0168903E1,1.6419557E2,1.9678291E1,1.9333302E1,3.1720278E0,2.0090048E1,3.9137962E1,7.013713E0,7.332715E1,1.6631655E1,8.033676E1,5.7425003E0,4.6791964E0,8.6050476E1,3.673772E1,2.0828669E1,2.652329E0,6.240924E1,1.8555435E0,5.2169533E0,6.7434697E0,5.906825E1,6.818488E1,2.2045026E0,1.3247337E0,1.1982096E1,1.069637E1,2.3351907E2,2.2540396E1,1.3207489E1,4.0148206E0,1.068944E1,1.8506716E1,1.8026259E2,3.417031E1,8.84271E0,3.2308757E0,3.0743058E0,3.7094597E1,2.6081404E1,1.3811417E2,8.004438E0,1.1673852E1,1.3394513E0,1.7993849E1,1.7790467E0,1.3929812E0,1.5359786E1,4.730262E0,3.68877E1,2.250262E0,9.280221E0,6.404693E1,3.0355368E0,1.3596118E1,2.1299276E1,5.9037487E1,2.6994762E0,3.043024E0,4.355621E1,4.2494267E1,1.4360102E1,2.2377619E1,1.3434926E0,1.9485176E1,1.3476939E0,1.304635E0,6.057804E1,1.8312029E0,1.3631207E0,3.8538327E0,5.300783E0,1.4426869E0],"tree_param":{"num_deleted":"0","num_feature":"128","num_nodes":"113","size_leaf_vector":"1"}},{"base_weights":[-2.2358945E-1,-9.90321E-2,-2.937095E-1,-3.3137377E-2,-3.424371E-1,-4.5257673E-1,-2.404606E-1,3.1544966E-1,-8.247954E-2,-4.638619E-3,-5.0075704E-1,-4.7476944E-1,4.175793E-1,1.593909E-1,-2.6970977E-1,9.115703E-1,8.932726E-2,5.891373E-3,-3.061652E-1,5.8298385E-1,-3.2845092E-1,7.793256E-2,-5.5694807E-1,4.3248042E-1,-4.9039447E-1,6.678264E-2,-3.415541E-2,1.517876E-2,8.707066E-2,-2.8638294E-1,4.224137E-1,-1.0296591E-2,1.0942894E0,-5.516353E-1,3.166973E-1,-1.3474779E-1,2.256172E-1,2.0476939E-1,-4.3585947E-1,6.1652333E-2,8.138983E-2,-4.4253182E-1,6.150114E-2,6.568628E-1,-4.0399473E-2,4.877923E-4,-6.2415653E-1,-2.9742172E-2,7.104483E-2,-5.0934154E-1,2.0603524E-1,1.0051268E0,-1.992068E-1,-3.205468E-1,-7.3386733E-3,-3.7038732E-1,7.4637175E-1,-2.1486247E-3,9.414038E-2,2.5533047E-3,-4.8383232E-2,-3.2952449E-3,5.5481646E-2,3.510178E-2,-1.4362561E-2,-2.708301E-2,2.9384356E-2,-2.0741375E-2,5.0287496E-2,3.3789795E-2,-3.5906028E-2,-4.1285444E-2,5.652158E-2,-4.2370334E-2,3.0589173E-2,1.5389114E-3,7.062379E-2,7.146307E-2,-3.2810967E-2,-4.934841E-2,3.5805535E-2,-4.04288E-2,-1.4027911E-3,6.2311687E-2,-3.7907068E-2,9.299708E-2,-1.2275283E-3,-2.3235463E-2,5.700437E-2,-2.8951243E-2,-8.47246E-3,-2.2691041E-2,2.4597084E-2,3.4143995E-3,-3.9628364E-2,-2.1147758E-3,9.593069E-2],"categories":[],"categories_nodes":[],"categories_segments":[],"categories_sizes":[],"default_left":[0,0,0,0,0,0,0,0,0,0,0,0,0,0,0,0,0,0,0,0,0,0,0,0,0,0,0,0,0,0,0,0,0,0,0,0,0,0,0,0,0,0,0,0,0,0,0,0,0,0,0,0,0,0,0,0,0,0,0,0,0,0,0,0,0,0,0,0,0,0,0,0,0,0,0,0,0,0,0,0,0,0,0,0,0,0,0,0,0,0,0,0,0,0,0,0,0],"id":12,"left_children":[1,3,5,7,9,11,13,15,17,19,21,23,25,27,29,31,33,35,37,39,41,43,45,47,49,-1,-1,51,-1,53,55,-1,57,59,61,63,65,67,69,71,-1,73,-1,75,-1,77,79,-1,-1,81,83,85,87,89,91,93,95,-1,-1,-1,-1,-1,-1,-1,-1,-1,-1,-1,-1,-1,-1,-1,-1,-1,-1,-1,-1,-1,-1,-1,-1,-1,-1,-1,-1,-1,-1,-1,-1,-1,-1,-1,-1,-1,-1,-1,-1],"loss_changes":[1.159005E1,7.698299E0,7.0873566E0,6.5513563E0,5.468646E0,4.3001976E0,7.5191956E0,6.2875996E0,6.586886E0,6.595275E0,2.3080387E0,3.1549606E0,2.8058236E0,6.3667545E0,6.9992905E0,2.6196413E0,5.3285065E0,7.439863E0,6.3418818E0,3.1579628E0,3.2895079E0,2.8672824E0,2.38315E0,2.1024728E0,2.8040771E0,0E0,0E0,8.615569E0,0E0,5.5519104E0,3.9812746E0,0E0,2.0390062E0,5.4887486E-1,4.1121044E0,5.112304E0,9.301412E0,4.620079E0,3.088666E0,3.423799E0,0E0,2.4130955E0,0E0,7.204443E-1,0E0,3.6879804E0,2.4288712E0,0E0,0E0,2.896782E0,3.1446316E0,1.7531791E0,3.781981E0,7.0103683E0,6.4909835E0,3.4293705E-1,4.398295E0,0E0,0E0,0E0,0E0,0E0,0E0,0E0,0E0,0E0,0E0,0E0,0E0,0E0,0E0,0E0,0E0,0E0,0E0,0E0,0E0,0E0,0E0,0E0,0E0,0E0,0E0,0E0,0E0,0E0,0E0,0E0,0E0,0E0,0E0,0E0,0E0,0E0,0E0,0E0,0E0],"parents":[2147483647,0,0,1,1,2,2,3,3,4,4,5,5,6,6,7,7,8,8,9,9,10,10,11,11,12,12,13,13,14,14,15,15,16,16,17,17,18,18,19,19,20,20,21,21,22,22,23,23,24,24,27,27,29,29,30,30,32,32,33,33,34,34,35,35,36,36,37,37,38,38,39,39,41,41,43,43,45,45,46,46,49,49,50,50,51,51,52,52,53,53,54,54,55,55,56,56],"right_children":[2,4,6,8,10,12,14,16,18,20,22,24,26,28,30,32,34,36,38,40,42,44,46,48,50,-1,-1,52,-1,54,56,-1,58,60,62,64,66,68,70,72,-1,74,-1,76,-1,78,80,-1,-1,82,84,86,88,90,92,94,96,-1,-1,-1,-1,-1,-1,-1,-1,-1,-1,-1,-1,-1,-1,-1,-1,-1,-1,-1,-1,-1,-1,-1,-1,-1,-1,-1,-1,-1,-1,-1,-1,-1,-1,-1,-1,-1,-1,-1,-1],"split_conditions":[-6.888053E-1,1.8451229E0,-1.118212E0,-8.334912E-1,-7.021618E-1,1.4630957E0,-2.4729965E0,-6.417777E-1,7.1942544E-1,-2.7938638E0,-1.2555834E0,-3.8751564E0,-4.2655054E-1,2.5122075E0,1.5738524E0,-1.1804179E0,-8.1004363E-1,4.7369334E-1,-1.1802053E0,-1.5317269E-1,8.49442E-1,6.161808E-2,-1.2453083E0,-4.4826636E0,2.419985E0,6.678264E-2,-3.415541E-2,-1.0551625E0,8.707066E-2,8.6868507E-1,-4.0467063E-1,-1.0296591E-2,-2.4145246E0,-1.7172152E0,2.8905773E-1,-2.0722723E0,-6.728166E-1,-2.4294671E-1,-2.364571E0,6.8046874E-1,8.138983E-2,7.9970944E-1,6.150114E-2,-2.6181664E0,-4.0399473E-2,-5.6603897E-1,6.856609E0,-2.9742172E-2,7.104483E-2,1.1947491E0,-5.634754E-1,5.4458594E-1,1.2698334E0,3.0022495E0,1.1672994E-1,-1.404188E0,-3.8791877E-1,-2.1486247E-3,9.414038E-2,2.5533047E-3,-4.8383232E-2,-3.2952449E-3,5.5481646E-2,3.510178E-2,-1.4362561E-2,-2.708301E-2,2.9384356E-2,-2.0741375E-2,5.0287496E-2,3.3789795E-2,-3.5906028E-2,-4.1285444E-2,5.652158E-2,-4.2370334E-2,3.0589173E-2,1.5389114E-3,7.062379E-2,7.146307E-2,-3.2810967E-2,-4.934841E-2,3.5805535E-2,-4.04288E-2,-1.4027911E-3,6.2311687E-2,-3.7907068E-2,9.299708E-2,-1.2275283E-3,-2.3235463E-2,5.700437E-2,-2.8951243E-2,-8.47246E-3,-2.2691041E-2,2.4597084E-2,3.4143995E-3,-3.9628364E-2,-2.1147758E-3,9.593069E-2],"split_indices":[15,6,22,116,44,114,20,65,36,15,79,11,9,22,99,80,55,27,45,80,107,95,87,11,47,0,0,97,0,108,122,0,6,40,53,42,58,63,39,60,0,90,0,8,0,101,2,0,0,110,75,49,116,0,56,36,46,0,0,0,0,0,0,0,0,0,0,0,0,0,0,0,0,0,0,0,0,0,0,0,0,0,0,0,0,0,0,0,0,0,0,0,0,0,0,0,0],"split_type":[0,0,0,0,0,0,0,0,0,0,0,0,0,0,0,0,0,0,0,0,0,0,0,0,0,0,0,0,0,0,0,0,0,0,0,0,0,0,0,0,0,0,0,0,0,0,0,0,0,0,0,0,0,0,0,0,0,0,0,0,0,0,0,0,0,0,0,0,0,0,0,0,0,0,0,0,0,0,0,0,0,0,0,0,0,0,0,0,0,0,0,0,0,0,0,0,0],"sum_hessian":[1.3293398E3,4.796782E2,8.496616E2,3.783793E2,1.012989E2,2.1141344E2,6.3824817E2,4.6249294E1,3.3213E2,3.265469E1,6.86442E1,2.0659866E2,4.814773E0,4.320216E1,5.95046E2,1.1885238E1,3.436406E1,2.3877246E2,9.335755E1,1.1317122E1,2.1337568E1,6.0412083E0,6.2602993E1,3.046188E0,2.0355247E2,3.110155E0,1.7046177E0,3.865188E1,4.5502815E0,5.8162103E2,1.3424975E1,1.8002042E0,1.0085033E1,8.624681E0,2.5739378E1,1.4582286E2,9.29496E1,1.8782898E1,7.457465E1,6.103767E0,5.213356E0,1.9968687E1,1.3688797E0,3.082076E0,2.9591322E0,6.8425703E0,5.5760426E1,1.2548867E0,1.7913014E0,1.9842282E2,5.1296563E0,6.2239094E0,3.2427967E1,5.1804694E2,6.3574078E1,3.852845E0,9.57213E0,1.3670623E0,8.717971E0,1.2745521E0,7.350129E0,1.4378572E1,1.1360805E1,1.1924674E1,1.3389818E2,2.0256248E1,7.269335E1,9.436601E0,9.346296E0,3.003064E0,7.1571594E1,3.347238E0,2.7565289E0,1.7749474E1,2.2192135E0,1.2843373E0,1.7977388E0,1.7851629E0,5.0574074E0,5.4490055E1,1.2703693E0,1.8700087E2,1.1421949E1,2.641871E0,2.4877856E0,4.886636E0,1.3372737E0,2.968271E1,2.7452579E0,3.9318048E2,1.2486648E2,3.3860184E1,2.9713896E1,1.2566223E0,2.5962226E0,4.2864957E0,5.2856345E0],"tree_param":{"num_deleted":"0","num_feature":"128","num_nodes":"97","size_leaf_vector":"1"}},{"base_weights":[1.1393321E-1,1.6108924E-1,-1.4386122E-1,-4.8094522E-2,2.2118251E-1,-2.4946679E-1,1.5103365E-1,-3.4949055E-1,9.033186E-2,2.6950794E-1,2.5296124E-2,-8.2764365E-2,-4.1975775E-1,-3.952063E-1,3.657219E-1,6.972908E-2,-4.6504316E-1,1.7844631E-1,-4.972478E-1,5.6338567E-1,2.1737908E-1,-2.0347573E-1,1.9634672E-1,-1.9120397E-1,6.1676204E-1,-5.166595E-1,4.2104285E-2,1.4807205E-1,-4.936147E-2,6.951835E-1,-1.3010378E-1,-3.0383065E-1,7.626329E-1,-5.1624984E-1,5.0245095E-2,-2.4601104E-2,4.0314767E-1,4.6700177E-1,-6.444101E-1,6.357663E-1,-1.1432736E-1,1.8023475E-1,6.033992E-1,5.94574E-1,-2.7744344E-1,5.181302E-1,-7.571773E-2,1.8637833E-1,-3.848619E-1,9.784193E-1,-2.9718456E-1,-5.662018E-1,2.7320978E-1,7.4356025E-1,-2.99736E-1,5.9746027E-1,-3.7289485E-2,8.7472284E-1,-3.4846643E-1,5.570717E-1,-4.3373483E-1,5.665739E-2,-3.7333097E-2,8.18742E-2,-3.0068755E-2,-1.5660105E-2,-4.695407E-2,1.5126783E-2,-2.9009156E-2,4.681039E-4,4.925017E-2,-1.6463014E-3,5.6147043E-2,-5.1668193E-2,2.6336564E-3,-2.320128E-2,5.1840734E-2,-3.53785E-2,5.6801733E-2,1.574023E-2,-2.496091E-2,5.814213E-2,-1.176074E-2,7.906172E-2,-1.8327145E-2,3.3304635E-2,-2.6961183E-2,1.824977E-2,7.348507E-2,3.3465527E-2,-1.8098682E-2,-1.36891445E-2,5.386216E-2,4.0535677E-2,-3.7709817E-2,8.871538E-2,-2.5192257E-3,-3.3952687E-2,1.1905885E-3,-4.552239E-2,1.8084416E-2,-3.3073504E-2,6.2371593E-2,-1.0841022E-3,7.639662E-2,4.0420674E-2,-4.0323004E-2,6.686156E-2,-1.0574117E-3,8.3919145E-2,-1.4810438E-2,1.1874065E-3,-3.7707496E-2,6.699468E-2,-2.9224247E-2,1.4682271E-2,-4.8462503E-2],"categories":[],"categories_nodes":[],"categories_segments":[],"categories_sizes":[],"default_left":[0,0,0,0,0,0,0,0,0,0,0,0,0,0,0,0,0,0,0,0,0,0,0,0,0,0,0,0,0,0,0,0,0,0,0,0,0,0,0,0,0,0,0,0,0,0,0,0,0,0,0,0,0,0,0,0,0,0,0,0,0,0,0,0,0,0,0,0,0,0,0,0,0,0,0,0,0,0,0,0,0,0,0,0,0,0,0,0,0,0,0,0,0,0,0,0,0,0,0,0,0,0,0,0,0,0,0,0,0,0,0,0,0,0,0,0,0],"id":13,"left_children":[1,3,5,7,9,11,13,15,17,19,21,23,25,27,29,31,33,35,37,39,41,43,45,47,49,51,53,55,-1,57,59,61,63,65,-1,67,69,71,73,75,77,79,81,83,85,87,89,91,93,95,97,99,101,103,105,107,-1,109,111,113,115,-1,-1,-1,-1,-1,-1,-1,-1,-1,-1,-1,-1,-1,-1,-1,-1,-1,-1,-1,-1,-1,-1,-1,-1,-1,-1,-1,-1,-1,-1,-1,-1,-1,-1,-1,-1,-1,-1,-1,-1,-1,-1,-1,-1,-1,-1,-1,-1,-1,-1,-1,-1,-1,-1,-1,-1],"loss_changes":[1.716046E1,1.49971695E1,6.8429327E0,1.1166024E1,8.761978E0,4.5435658E0,6.974769E0,4.1112614E0,9.59849E0,1.125856E1,7.256058E0,6.3944783E0,3.581314E0,2.5135741E0,7.0052366E0,5.1661263E0,4.1896334E0,7.3309402E0,3.7373185E0,5.5322113E0,8.961948E0,4.8509398E0,9.32112E0,5.3658056E0,4.039633E0,2.730219E0,3.7519362E0,2.133328E0,0E0,5.099579E0,3.943185E0,3.0674849E0,3.103126E0,2.0246906E0,0E0,7.063817E0,7.666113E0,5.3781873E-1,6.722088E-1,5.491089E0,3.967022E0,8.865595E0,7.319496E0,2.9764612E0,4.500231E0,5.9401083E0,5.148464E0,5.0783324E0,5.5298924E0,1.7693052E0,2.010859E-1,2.1952057E0,2.184922E0,1.0800717E0,2.4063168E0,7.654617E-1,0E0,6.0120697E0,2.5928396E-1,2.2177691E0,1.8470552E0,0E0,0E0,0E0,0E0,0E0,0E0,0E0,0E0,0E0,0E0,0E0,0E0,0E0,0E0,0E0,0E0,0E0,0E0,0E0,0E0,0E0,0E0,0E0,0E0,0E0,0E0,0E0,0E0,0E0,0E0,0E0,0E0,0E0,0E0,0E0,0E0,0E0,0E0,0E0,0E0,0E0,0E0,0E0,0E0,0E0,0E0,0E0,0E0,0E0,0E0,0E0,0E0,0E0,0E0,0E0,0E0],"parents":[2147483647,0,0,1,1,2,2,3,3,4,4,5,5,6,6,7,7,8,8,9,9,10,10,11,11,12,12,13,13,14,14,15,15,16,16,17,17,18,18,19,19,20,20,21,21,22,22,23,23,24,24,25,25,26,26,27,27,29,29,30,30,31,31,32,32,33,33,35,35,36,36,37,37,38,38,39,39,40,40,41,41,42,42,43,43,44,44,45,45,46,46,47,47,48,48,49,49,50,50,51,51,52,52,53,53,54,54,55,55,57,57,58,58,59,59,60,60],"right_children":[2,4,6,8,10,12,14,16,18,20,22,24,26,28,30,32,34,36,38,40,42,44,46,48,50,52,54,56,-1,58,60,62,64,66,-1,68,70,72,74,76,78,80,82,84,86,88,90,92,94,96,98,100,102,104,106,108,-1,110,112,114,116,-1,-1,-1,-1,-1,-1,-1,-1,-1,-1,-1,-1,-1,-1,-1,-1,-1,-1,-1,-1,-1,-1,-1,-1,-1,-1,-1,-1,-1,-1,-1,-1,-1,-1,-1,-1,-1,-1,-1,-1,-1,-1,-1,-1,-1,-1,-1,-1,-1,-1,-1,-1,-1,-1,-1,-1],"split_conditions":[2.372712E0,-1.8669775E0,6.897395E-1,-1.1446546E0,2.4117987E0,-1.7187277E-2,-6.906367E-1,-9.493081E-1,1.9356185E0,-1.0614798E0,-5.189412E-1,1.0632106E0,9.3121034E-1,-3.7236157E-1,-7.914014E-3,3.288389E-1,1.3979561E0,1.6327631E-1,-8.3956784E-1,9.7391045E-1,3.7649193E0,-1.1029801E0,-2.4094383E-1,-4.8391384E-1,7.9479474E-1,1.2378488E0,-5.8197165E-1,2.3652807E-1,-4.936147E-2,3.0444555E0,-4.2543322E-1,-9.648014E-1,6.8544847E-1,-3.4363297E-1,5.0245095E-2,2.6924515E-1,-4.8949134E-1,-7.684252E-1,2.2290065E0,-2.4084816E0,5.779448E-1,1.2591888E0,4.7666636E-1,4.352861E-1,-9.590219E-1,1.43335E-1,-1.4275438E0,1.3402167E-1,-1.1940033E0,1.1447521E0,9.14685E-1,1.657308E0,-1.6805428E0,-1.4900779E0,-7.476505E-1,9.5245525E-2,-3.7289485E-2,9.801124E-1,-1.0151262E0,7.895361E-2,-9.116391E-1,5.665739E-2,-3.7333097E-2,8.18742E-2,-3.0068755E-2,-1.5660105E-2,-4.695407E-2,1.5126783E-2,-2.9009156E-2,4.681039E-4,4.925017E-2,-1.6463014E-3,5.6147043E-2,-5.1668193E-2,2.6336564E-3,-2.320128E-2,5.1840734E-2,-3.53785E-2,5.6801733E-2,1.574023E-2,-2.496091E-2,5.814213E-2,-1.176074E-2,7.906172E-2,-1.8327145E-2,3.3304635E-2,-2.6961183E-2,1.824977E-2,7.348507E-2,3.3465527E-2,-1.8098682E-2,-1.36891445E-2,5.386216E-2,4.0535677E-2,-3.7709817E-2,8.871538E-2,-2.5192257E-3,-3.3952687E-2,1.1905885E-3,-4.552239E-2,1.8084416E-2,-3.3073504E-2,6.2371593E-2,-1.0841022E-3,7.639662E-2,4.0420674E-2,-4.0323004E-2,6.686156E-2,-1.0574117E-3,8.3919145E-2,-1.4810438E-2,1.1874065E-3,-3.7707496E-2,6.699468E-2,-2.9224247E-2,1.4682271E-2,-4.8462503E-2],"split_indices":[7,6,63,11,4,105,69,38,19,69,5,91,84,80,58,109,94,40,126,101,6,92,58,37,124,93,69,97,0,3,92,125,83,117,0,16,75,27,31,38,82,99,49,77,95,119,22,68,59,12,9,67,10,69,104,35,0,37,14,126,121,0,0,0,0,0,0,0,0,0,0,0,0,0,0,0,0,0,0,0,0,0,0,0,0,0,0,0,0,0,0,0,0,0,0,0,0,0,0,0,0,0,0,0,0,0,0,0,0,0,0,0,0,0,0,0,0],"split_type":[0,0,0,0,0,0,0,0,0,0,0,0,0,0,0,0,0,0,0,0,0,0,0,0,0,0,0,0,0,0,0,0,0,0,0,0,0,0,0,0,0,0,0,0,0,0,0,0,0,0,0,0,0,0,0,0,0,0,0,0,0,0,0,0,0,0,0,0,0,0,0,0,0,0,0,0,0,0,0,0,0,0,0,0,0,0,0,0,0,0,0,0,0,0,0,0,0,0,0,0,0,0,0,0,0,0,0,0,0,0,0,0,0,0,0,0,0],"sum_hessian":[1.4087147E3,1.1911952E3,2.1751958E2,2.6587787E2,9.253173E2,1.6027657E2,5.724301E1,8.320051E1,1.8267737E2,7.41911E2,1.834063E2,8.174258E1,7.8534E1,1.5913307E1,4.1329704E1,1.8063501E1,6.513701E1,1.5946068E2,2.3216694E1,1.1029768E2,6.316133E2,7.838312E1,1.0502318E2,7.140079E1,1.0341784E1,6.481644E1,1.3717565E1,5.3325377E0,1.058077E1,2.4588978E1,1.6740726E1,1.2101063E1,5.9624386E0,6.2846703E1,2.2903032E0,8.423433E1,7.522635E1,2.78635E0,2.0430344E1,9.971037E1,1.0587312E1,5.7751E2,5.410332E1,6.05173E0,7.233139E1,4.770078E1,5.73224E1,2.4218546E1,4.7182243E1,7.3591537E0,2.98263E0,6.1257404E1,3.5590272E0,4.109567E0,9.607997E0,3.1870415E0,2.1454964E0,2.1117918E1,3.4710588E0,4.8743763E0,1.1866349E1,1.4246974E0,1.0676365E1,4.6962447E0,1.2661939E0,1.7302338E1,4.5544365E1,5.2115913E1,3.2118416E1,2.972082E1,4.5505527E1,1.3553228E0,1.4310273E0,1.9161716E1,1.2686269E0,5.2714205E0,9.443896E1,7.8341837E0,2.753128E0,5.4653174E2,3.0978235E1,4.41128E1,9.9905205E0,3.744109E0,2.3076212E0,6.934243E0,6.539715E1,3.0859415E1,1.6841364E1,1.3398636E1,4.3923763E1,1.4686939E1,9.531608E0,4.9286513E0,4.2253593E1,5.981832E0,1.3773218E0,1.694697E0,1.2879331E0,5.8549328E1,2.708077E0,1.6539611E0,1.9050663E0,1.3464541E0,2.763113E0,1.8435588E0,7.764438E0,1.8431551E0,1.3438865E0,1.7164923E1,3.9529963E0,1.2997586E0,2.1713004E0,3.6387143E0,1.2356619E0,3.0138586E0,8.85249E0],"tree_param":{"num_deleted":"0","num_feature":"128","num_nodes":"117","size_leaf_vector":"1"}},{"base_weights":[9.7408235E-2,3.8440216E-2,3.937712E-1,1.9336333E-2,9.960652E-1,5.329181E-1,-1.6692448E-2,9.392865E-2,-1.1014469E-1,-3.8181108E-3,1.066308E0,1.14732206E-1,6.420258E-1,-2.360347E-1,4.217373E-1,-1.4718683E-1,1.6608661E-1,-8.107133E-3,-2.806086E-1,8.267931E-2,2.4387732E-2,-6.1183516E-2,8.292071E-2,7.694625E-1,2.3011166E-1,-4.762568E-1,2.5283572E-1,-3.5147798E-1,7.5187445E-1,-2.431195E-1,3.1872925E-1,3.2709628E-1,5.9395388E-2,-4.5934886E-1,4.3660082E-2,7.1761444E-2,-3.0519414E-1,-3.9613736E-1,5.848703E-1,9.554851E-1,5.077591E-1,5.332256E-1,-1.8985158E-1,-4.763197E-2,-6.553709E-1,-6.660925E-2,7.389821E-2,3.0090224E-2,-4.6029914E-2,-9.806717E-2,9.9354655E-1,-4.4771964E-3,-2.9303063E-2,3.9239343E-2,-4.5454156E-2,-2.1767963E-2,2.9244633E-2,2.081765E-2,-2.9224197E-3,2.2092411E-2,-4.6466645E-2,-1.4895663E-2,1.1618083E-2,-5.3764484E-3,-3.3360858E-2,4.8495676E-2,-4.1352183E-2,-3.721887E-2,6.636571E-2,-1.4100918E-2,7.746236E-2,4.9629312E-2,-4.7652967E-2,6.537722E-2,-3.883222E-4,4.8470978E-2,-3.333228E-2,6.262729E-2,-2.93865E-2,1.4419868E-3,-5.2849207E-2,-4.576637E-2,2.6629144E-2,2.9632881E-2,-3.608362E-2,8.457146E-2,-6.6222576E-4],"categories":[],"categories_nodes":[],"categories_segments":[],"categories_sizes":[],"default_left":[0,0,0,0,0,0,0,0,0,0,0,0,0,0,0,0,0,0,0,0,0,0,0,0,0,0,0,0,0,0,0,0,0,0,0,0,0,0,0,0,0,0,0,0,0,0,0,0,0,0,0,0,0,0,0,0,0,0,0,0,0,0,0,0,0,0,0,0,0,0,0,0,0,0,0,0,0,0,0,0,0,0,0,0,0,0,0],"id":14,"left_children":[1,3,5,7,9,11,13,15,17,-1,19,21,23,25,27,29,31,33,35,-1,-1,37,-1,39,41,43,45,47,49,51,53,55,57,59,61,-1,63,65,67,69,71,73,75,77,79,81,-1,-1,-1,83,85,-1,-1,-1,-1,-1,-1,-1,-1,-1,-1,-1,-1,-1,-1,-1,-1,-1,-1,-1,-1,-1,-1,-1,-1,-1,-1,-1,-1,-1,-1,-1,-1,-1,-1,-1,-1],"loss_changes":[2.4534615E1,2.1435574E1,1.3317631E1,1.1125481E1,1.739748E0,7.8679543E0,5.8660054E0,1.2737934E1,7.322424E0,0E0,2.1710587E-1,6.5577397E0,7.057579E0,4.8894434E0,5.46008E0,7.624171E0,9.649986E0,6.197648E0,5.088311E0,0E0,0E0,7.2791047E0,0E0,4.6182747E0,4.428143E0,2.0858655E0,3.3491752E0,1.5829315E0,3.0928183E0,3.7823563E0,5.849974E0,8.806219E0,7.3022103E0,3.480259E0,6.4494514E0,0E0,5.0325193E0,3.9244826E0,4.176653E0,5.513382E0,8.46187E0,3.6499848E0,3.477242E0,3.1238654E0,6.575661E-1,2.6712143E0,0E0,0E0,0E0,9.719108E-1,1.5479403E0,0E0,0E0,0E0,0E0,0E0,0E0,0E0,0E0,0E0,0E0,0E0,0E0,0E0,0E0,0E0,0E0,0E0,0E0,0E0,0E0,0E0,0E0,0E0,0E0,0E0,0E0,0E0,0E0,0E0,0E0,0E0,0E0,0E0,0E0,0E0,0E0],"parents":[2147483647,0,0,1,1,2,2,3,3,4,4,5,5,6,6,7,7,8,8,10,10,11,11,12,12,13,13,14,14,15,15,16,16,17,17,18,18,21,21,23,23,24,24,25,25,26,26,27,27,28,28,29,29,30,30,31,31,32,32,33,33,34,34,36,36,37,37,38,38,39,39,40,40,41,41,42,42,43,43,44,44,45,45,49,49,50,50],"right_children":[2,4,6,8,10,12,14,16,18,-1,20,22,24,26,28,30,32,34,36,-1,-1,38,-1,40,42,44,46,48,50,52,54,56,58,60,62,-1,64,66,68,70,72,74,76,78,80,82,-1,-1,-1,84,86,-1,-1,-1,-1,-1,-1,-1,-1,-1,-1,-1,-1,-1,-1,-1,-1,-1,-1,-1,-1,-1,-1,-1,-1,-1,-1,-1,-1,-1,-1,-1,-1,-1,-1,-1,-1],"split_conditions":[2.372712E0,4.410268E0,6.897395E-1,9.242456E-1,-1.2151961E0,-1.2867688E0,5.9994286E-1,-7.594965E-1,3.768117E-1,-3.8181108E-3,7.9396194E-1,1.7466366E0,8.377127E-1,2.020032E0,-5.262023E-1,6.130939E-1,-3.7886494E-1,-1.1298349E0,-5.734747E0,8.267931E-2,2.4387732E-2,7.7859885E-1,8.292071E-2,1.3293725E-1,4.4729704E-1,-6.0555696E-1,2.6041356E-1,-7.221388E-1,-2.4404496E-1,-1.3750947E-1,1.2146355E0,-4.57465E0,-1.3061675E0,-1.4494127E0,-1.526336E0,7.1761444E-2,-3.6696655E-1,-2.3104417E0,-2.476698E0,-2.6111171E0,1.5426041E0,7.5578615E-2,-7.6032764E-1,-6.551275E-1,-1.2109562E0,-3.0266153E-2,7.389821E-2,3.0090224E-2,-4.6029914E-2,-1.1172671E0,5.2775884E-1,-4.4771964E-3,-2.9303063E-2,3.9239343E-2,-4.5454156E-2,-2.1767963E-2,2.9244633E-2,2.081765E-2,-2.9224197E-3,2.2092411E-2,-4.6466645E-2,-1.4895663E-2,1.1618083E-2,-5.3764484E-3,-3.3360858E-2,4.8495676E-2,-4.1352183E-2,-3.721887E-2,6.636571E-2,-1.4100918E-2,7.746236E-2,4.9629312E-2,-4.7652967E-2,6.537722E-2,-3.883222E-4,4.8470978E-2,-3.333228E-2,6.262729E-2,-2.93865E-2,1.4419868E-3,-5.2849207E-2,-4.576637E-2,2.6629144E-2,2.9632881E-2,-3.608362E-2,8.457146E-2,-6.6222576E-4],"split_indices":[7,16,63,5,60,16,53,