tree
version=v4
num_class=3
num_tree_per_iteration=3
label_index=0
max_feature_idx=127
objective=multiclass num_class:3
feature_names=Column_0 Column_1 Column_2 Column_3 Column_4 Column_5 Column_6 Column_7 Column_8 Column_9 Column_10 Column_11 Column_12 Column_13 Column_14 Column_15 Column_16 Column_17 Column_18 Column_19 Column_20 Column_21 Column_22 Column_23 Column_24 Column_25 Column_26 Column_27 Column_28 Column_29 Column_30 Column_31 Column_32 Column_33 Column_34 Column_35 Column_36 Column_37 Column_38 Column_39 Column_40 Column_41 Column_42 Column_43 Column_44 Column_45 Column_46 Column_47 Column_48 Column_49 Column_50 Column_51 Column_52 Column_53 Column_54 Column_55 Column_56 Column_57 Column_58 Column_59 Column_60 Column_61 Column_62 Column_63 Column_64 Column_65 Column_66 Column_67 Column_68 Column_69 Column_70 Column_71 Column_72 Column_73 Column_74 Column_75 Column_76 Column_77 Column_78 Column_79 Column_80 Column_81 Column_82 Column_83 Column_84 Column_85 Column_86 Column_87 Column_88 Column_89 Column_90 Column_91 Column_92 Column_93 Column_94 Column_95 Column_96 Column_97 Column_98 Column_99 Column_100 Column_101 Column_102 Column_103 Column_104 Column_105 Column_106 Column_107 Column_108 Column_109 Column_110 Column_111 Column_112 Column_113 Column_114 Column_115 Column_116 Column_117 Column_118 Column_119 Column_120 Column_121 Column_122 Column_123 Column_124 Column_125 Column_126 Column_127
feature_infos=[-8.4657280000000004:11.008513000000001] [-9.8625950000000007:11.354036000000001] [-10.557829:9.1238364999999995] [-11.385636999999999:8.9262449999999998] [-8.6899184999999992:8.6796109999999995] [-10.17235:8.2401420000000005] [-9.1066699999999994:8.4260940000000009] [-7.1125854999999998:9.241384] [-8.4483390000000007:8.5819644999999998] [-7.2570233000000002:7.5934505000000003] [-6.1675700000000004:7.7568469999999996] [-7.5155589999999997:6.9880247000000004] [-6.9812890000000003:6.4721656000000003] [-6.4931406999999997:6.6377243999999997] [-6.1281730000000003:7.1524789999999996] [-8.0758620000000008:6.1041645999999998] [-5.9876839999999998:8.9284560000000006] [-5.8382550000000002:5.1341662000000001] [-5.9440727000000004:7.1459060000000001] [-6.3011017000000002:6.0079710000000004] [-6.3207149999999999:5.6527805000000004] [-5.7832084000000004:5.7294929999999997] [-6.4542929999999998:5.7883654] [-5.2871722999999999:5.3699409999999999] [-6.8882599999999998:6.6808763000000004] [-5.4856470000000002:5.4480760000000004] [-5.3719716000000002:4.9175744000000003] [-5.748996:5.7850640000000002] [-5.1869282999999999:5.5187030000000004] [-5.3094105999999996:5.5037465000000001] [-6.5671819999999999:4.5595454999999996] [-5.2793619999999999:5.1534542999999999] [-5.3891882999999998:4.8900680000000003] [-5.6735670000000002:5.0865703] [-5.3917570000000001:5.7804909999999996] [-5.5746473999999999:4.3192170000000001] [-4.7812247000000001:5.1124872999999997] [-5.2700214000000001:5.7787620000000004] [-5.2527245999999996:4.5690245999999997] [-4.5988879999999996:4.7157869999999997] [-4.5619719999999999:4.9161562999999999] [-4.2691970000000001:4.8704556999999999] [-4.4595409999999998:4.3946129999999997] [-5.0890060000000004:5.0084790000000003] [-4.5656214000000004:4.632403] [-5.279223:4.3127722999999998] [-4.7298745999999996:4.4333714999999998] [-4.1501700000000001:4.3057449999999999] [-4.4927149999999996:4.6577070000000003] [-4.7787375000000001:4.4116572999999999] [-4.708583:4.8713870000000004] [-4.7250880000000004:3.9607999999999999] [-4.4104036999999998:4.3663949999999998] [-3.9287204999999998:4.5964394000000004] [-4.1704549999999996:4.5117792999999997] [-4.6504183000000001:4.6261429999999999] [-4.4910680000000003:4.0732717999999997] [-4.069801:4.0800767000000002] [-3.942151:4.4998255] [-3.5362089999999999:4.2152900000000004] [-3.9673424000000002:4.1809710000000004] [-4.8295120000000002:4.1305230000000002] [-3.8609426:4.2833405000000004] [-3.4748372999999999:4.6366149999999999] [-3.7198867999999998:3.8318007000000001] [-3.3462543:4.3694769999999998] [-3.1872826000000001:3.5879517000000001] [-3.5954282000000002:4.1187649999999998] [-3.5805185000000002:3.412137] [-3.7794851999999999:4.6296629999999999] [-3.7333995999999998:4.1368900000000002] [-4.3475574999999997:3.8200829999999999] [-3.6914272000000001:3.8858074999999999] [-3.8300706999999998:3.9206753000000001] [-3.5927258000000002:4.1566890000000001] [-3.4258285000000002:3.3817705999999998] [-4.2701497000000002:3.1793559999999998] [-3.720628:3.2690725] [-4.2022760000000003:4.5920009999999998] [-3.9080176:3.0800526000000001] [-3.3052823999999998:3.0475737999999999] [-3.0874093:3.2935565000000002] [-3.3014269999999999:3.5267626999999999] [-2.7625250000000001:2.9114490000000002] [-4.7523099999999996:3.6156716000000002] [-2.9275994000000001:3.2726229999999998] [-2.8781680000000001:3.1396172] [-3.3943305000000001:3.3823370000000001] [-2.8100003999999998:3.6309046999999999] [-3.2959816000000002:2.8706836999999998] [-3.3749158000000001:3.0833724] [-3.6554880000000001:3.5738880000000002] [-3.4192931999999998:3.2152452] [-3.0589502:3.3801458000000002] [-2.6711056000000002:3.1143968000000002] [-2.8438058000000002:3.9279556000000002] [-2.7368925000000002:2.9499702000000001] [-2.5823502999999999:3.1814979999999999] [-3.2533783999999999:2.7211196000000002] [-3.2811697:2.7404168000000002] [-2.5253315000000001:3.0024734] [-2.816751:2.6803843999999999] [-3.0638394:2.9041009999999998] [-3.6266767999999998:2.7260059999999999] [-3.0094655000000001:2.1695755000000001] [-2.8221132999999998:2.9107208] [-3.0115783:2.9808105999999999] [-2.9352261999999998:3.4201128000000001] [-2.4606857:3.673349] [-2.5339195999999999:2.9836434999999999] [-2.891797:2.3649035] [-2.9300416:3.0654447] [-2.4070575000000001:3.311674] [-2.3189877999999999:2.4028716000000001] [-2.1407794999999998:2.6216526] [-2.479174:2.6967534999999998] [-2.9445394999999999:2.4656180999999999] [-2.6539006000000001:2.4763679999999999] [-2.4798643999999999:2.268472] [-2.5421520000000002:2.9512537000000001] [-2.7974505000000001:2.3589277000000002] [-2.8560623999999999:2.2489547999999999] [-2.6997802000000002:2.0390863000000001] [-2.5770862000000001:2.4908763999999999] [-2.5406876:2.4522624] [-2.2028124:2.3894972999999999] [-2.7450125000000001:2.5364515999999999] [-2.0772857999999998:2.2922351000000001]
tree_sizes=6591 6698 6704 6785 6833 6817 6751 6773 6815 6782 6813 6791 6773 6809 6816 6790 6827 6829 6809 6794 6817 6793 6800 6813 6776 6804 6820 6783 6807 6827 6804 6809 6838 6797 6835 6816 6793 6816 6808 6783 6828 6814 6809 6803 6831 6786 6816 6811 6796 6832 6796 6810 6829 6821 6813 6829 6821 6792 6825 6820 6815 6818 6789 6812 6822 6828 6792 6816 6832 6788 6828 6800 6787 6815 6795 6795 6828 6831 6821 6810 6801 6811 6799 6831 6802 6842 6819 6811 6833 6825 6816 6831 6831 6793 6811 6833 6829 6832 6831 6811 6815 6822 6804 6834 6824 6814 6838 6831 6803 6823 6856 6804 6830 6834 6820 6848 6831 6819 6824 6832 6845 6841 6817 6793 6829 6843 6828 6814 6836 6795 6830 6852 6820 6825 6837 6840 6845 6841 6852 6802 6850 6819 6846 6815 6820 6839 6829 6836 6806 6828 6829 6854 6848 6817 6847 6793 6824 6829 6844 6842 6835 6828 6835 6865 6828 6842 6855 6857 6809 6838 6834 6833 6826 6865 6827 6861 6855 6822 6813 6817 6847 6846 6831 6863 6838 6846 6825 6830 6856 6840 6850 6856 6795 6844 6815 6805 6835 6825 6815 6853 6851 6834 6860 6827 6833 6811 6849 6826 6846 6833 6862 6849 6847 6839 6853 6837 6826 6839 6847 6859 6832 6862 6831 6831 6862 6832 6858 6860 6854 6856 6848 6858 6851 6823 6893 6836 6859 6849 6843 6850 6855 6856 6857 6868 6848 6868

Tree=0
num_leaves=63
num_cat=0
split_feature=15 6 27 58 14 22 16 85 79 36 15 44 63 17 98 2 106 81 43 85 25 35 111 77 113 32 76 92 33 10 116 123 124 96 116 52 56 26 79 28 121 1 62 101 27 110 19 41 114 36 50 43 61 71 123 53 25 108 22 112 26 7
split_gain=25.9405 17.3713 13.7924 21.2935 16.15 13.2778 13.4597 13.4503 14.6224 12.8482 11.2688 12.8526 10.9628 12.271 12.5333 10.9502 18.2444 11.8972 13.279 11.2419 10.5727 10.4927 10.2108 10.0398 9.39168 8.96926 8.80962 10.9106 9.49887 8.5175 12.6947 8.99099 12.6373 8.87812 8.24166 8.23361 12.9385 8.22515 10.4383 7.996 15.2899 10.4063 10.4036 11.1658 10.1493 7.91829 10.4546 7.52935 7.45502 7.22167 9.7823 7.93962 9.84487 11.7225 8.01524 7.48525 7.10173 7.09477 9.10454 6.94654 6.46416 6.44399
threshold=-0.69373989999999985 0.69828285000000012 0.48850022000000004 -0.67101942499999989 -1.4300598999999996 -1.1336681999999998 3.0857590500000005 1.7975824000000002 0.28287364500000006 -1.5521917499999998 -2.8255158499999995 -0.69770684999999988 0.11816993000000002 -0.96275857499999995 0.20260984000000001 -5.0877774999999987 -0.6729790699999999 0.97489962500000005 -0.39598516499999997 -0.36674819499999994 2.4914781000000006 0.41797858500000007 0.12415791000000002 0.32512909000000006 1.5212150000000002 -0.31589272499999993 -0.42960509499999994 0.44088206500000005 -0.5291528499999999 -0.43063758999999996 -0.85960493499999979 -0.22631838999999998 0.40167866000000002 -0.51767209499999989 -0.69898823499999996 0.68840653500000015 -0.32840381999999996 1.2718044000000002 0.67575128000000007 1.6842249000000002 0.084191445000000018 -5.9633509999999985 1.0486327000000002 -0.70461322499999979 0.60717315000000005 0.64195440000000015 -1.2225236999999998 -2.0305923999999997 1.4192441500000001 0.43104733500000009 1.4426123500000003 0.089160437500000009 0.037903092500000006 0.23040230500000003 0.45588402500000008 -0.45617226999999994 1.4175414000000002 1.2361024000000003 0.29735666500000008 0.20816331500000004 -2.8409251499999995 0.84767318500000011
decision_type=2 2 2 2 2 2 2 2 2 2 2 2 2 2 2 2 2 2 2 2 2 2 2 2 2 2 2 2 2 2 2 2 2 2 2 2 2 2 2 2 2 2 2 2 2 2 2 2 2 2 2 2 2 2 2 2 2 2 2 2 2 2
left_child=1 2 20 9 -5 48 7 15 -9 -4 11 23 45 -14 56 16 -7 24 26 21 29 -18 -22 -3 39 -13 -19 28 -28 60 -31 32 33 -32 -11 -20 -37 -33 -39 41 -41 61 43 -42 -45 46 -6 -12 -2 50 51 52 53 55 -54 -49 -15 -43 -59 -16 -1 -17
right_child=5 10 3 4 12 6 -8 8 -10 34 47 25 13 14 59 17 19 18 35 -21 22 -23 -24 -25 -26 -27 27 -29 -30 30 31 37 -34 -35 -36 36 -38 38 -40 40 42 57 -44 44 -46 -47 -48 49 -50 -51 -52 -53 54 -55 -56 -57 -58 58 -60 -61 -62 -63
leaf_value=-1.4779879452742521 -1.5664791673794221 -1.4309193336498154 -1.4473149000323275 -1.4238590419061496 -1.4473149000323278 -1.4274676354640232 -1.5839644572324909 -1.5389903601811612 -1.412582187037795 -1.487009429168936 -1.4969330614530878 -1.5804083212550732 -1.4183073595094213 -1.5767946736445977 -1.5011860467177245 -1.5531669777299497 -1.5578925169128794 -1.4350284981567105 -1.5614366713000765 -1.5749044579714258 -1.529539281815302 -1.4429043967949264 -1.4043124934676683 -1.540444372237447 -1.4817864648088557 -1.5090619453559404 -1.4058160741167822 -1.5862457520104567 -1.5200882034494427 -1.4373912677481753 -1.4586561940713585 -1.5611515094528308 -1.4161263414249923 -1.5542340349648049 -1.5862457520104567 -1.430302958973781 -1.5614366713000765 -1.5557114988284504 -1.4238590419061499 -1.5590863373380406 -1.4444795765225698 -1.5595717517933738 -1.4373912677481753 -1.5794018676765589 -1.4704700420286823 -1.4586561940713585 -1.5578925169128794 -1.5068566937372401 -1.4870094291689357 -1.5783698533722408 -1.464108739282431 -1.5748392781206269 -1.5862457520104567 -1.5597827325860512 -1.4946429924644373 -1.387773106327415 -1.4779879452742521 -1.5720691344616682 -1.4649569129819311 -1.4019497238762035 -1.5566393352511081 -1.4578222753920178
leaf_weight=2.7711627781391135 123.94655334949493 5.7942494451999682 2.5192388892173794 8.3134883344173414 2.5192388892173829 5.0384777784347561 21.917378336191177 5.2904016673564893 4.0307822227478027 2.5192388892173776 5.0384777784347525 8.5654122233390826 6.5500211119651803 5.2904016673564893 3.5269344449043283 3.0230866670608512 3.5269344449043309 5.2904016673564938 20.153911113739017 8.8173361122608149 3.5269344449043265 4.5346300005912781 3.0230866670608521 3.2750105559825897 4.7865538895130149 9.0692600011825544 2.7711627781391144 3.5269344449043265 5.2904016673564893 4.0307822227478018 3.5269344449043265 21.917378336191181 3.5269344449043265 7.8096405565738669 12.344270557165142 3.5269344449043274 4.0307822227478018 3.2750105559825888 2.7711627781391144 23.932769447565079 3.5269344449043283 221.18917447328568 5.0384777784347525 7.3057927787303925 3.0230866670608521 3.5269344449043265 14.107737779617308 2.5192388892173767 3.0230866670608512 31.742410004138947 3.2750105559825888 21.917378336191177 8.8173361122608167 3.7788583338260651 3.2750105559825888 2.7711627781391162 2.7711627781391144 3.5269344449043256 4.5346300005912781 3.5269344449043274 45.598223894834518 4.2827061116695404
leaf_count=11 492 23 10 33 10 20 87 21 16 10 20 34 26 21 14 12 14 21 80 35 14 18 12 13 19 36 11 14 21 16 14 87 14 31 49 14 16 13 11 95 14 878 20 29 12 14 56 10 12 126 13 87 35 15 13 11 11 14 18 14 181 17
internal_value=-1.54386 -1.53161 -1.52156 -1.50404 -1.48751 -1.55058 -1.54592 -1.54361 -1.48433 -1.55173 -1.5471 -1.51884 -1.50016 -1.47547 -1.50024 -1.54518 -1.51096 -1.54746 -1.52345 -1.53589 -1.53319 -1.49321 -1.47174 -1.47047 -1.55123 -1.54372 -1.48849 -1.5129 -1.48081 -1.53742 -1.52222 -1.53021 -1.49878 -1.5245 -1.56943 -1.54475 -1.50024 -1.54691 -1.49528 -1.55242 -1.53254 -1.55602 -1.49892 -1.52129 -1.54752 -1.5267 -1.54114 -1.55617 -1.56459 -1.56 -1.54741 -1.55375 -1.5319 -1.49252 -1.56144 -1.44448 -1.54283 -1.55789 -1.51182 -1.45157 -1.55213 -1.49728
internal_weight=788.018 279.132 169.293 67.5156 50.1329 508.886 381.917 359.999 9.32118 17.3827 109.839 26.7039 41.8194 21.6655 15.1154 350.678 21.9174 328.761 44.5905 16.8789 101.777 8.06156 6.55002 9.06926 284.17 17.6347 16.8789 11.5885 8.06156 95.2272 46.8578 42.8271 14.8635 11.3366 14.8635 27.7116 7.55772 27.9636 6.04617 279.384 42.8271 236.557 18.8943 13.8558 10.3289 20.1539 16.627 83.1349 126.97 78.0964 46.354 43.079 21.1616 9.06926 12.0923 5.2904 8.06156 229.251 8.06156 7.05387 48.3694 7.30579
internal_count=3128 1108 672 268 199 2020 1516 1429 37 69 436 106 166 86 60 1392 87 1305 177 67 404 32 26 36 1128 70 67 46 32 378 186 170 59 45 59 110 30 111 24 1109 170 939 75 55 41 80 66 330 504 310 184 171 84 36 48 21 32 910 32 28 192 29
is_linear=0
shrinkage=1


Tree=1
num_leaves=63
num_cat=0
split_feature=6 16 81 6 38 58 88 23 69 4 99 58 75 58 14 43 52 37 57 20 21 121 23 0 88 119 41 32 13 5 51 105 107 15 11 68 92 105 40 50 29 71 75 11 113 45 16 38 83 119 113 118 25 115 111 24 69 108 26 74 117 3
split_gain=26.5869 21.3755 17.7285 14.0882 13.9238 13.1249 13.0707 12.697 12.4209 12.6596 12.0701 10.9813 10.7777 10.7113 10.3872 10.4055 10.0819 11.4779 10.5108 9.79595 9.53017 9.45194 9.32377 9.13342 8.43759 8.45746 8.2403 8.09778 8.03531 9.16175 8.02161 7.80895 7.74046 7.68629 7.89476 7.79499 7.53779 7.30547 7.25476 7.83813 7.20348 7.83715 7.19505 7.03508 6.9349 6.90832 8.24963 8.16375 9.82212 9.1613 10.6764 11.4033 7.60728 10.0943 9.86162 9.32621 9.30394 7.84213 9.91929 7.42621 7.34874 7.04164
threshold=-1.9387252999999998 0.46674749000000004 -1.0231898999999998 4.5863924000000011 0.98769523000000015 1.1762366000000002 -0.67454369999999997 0.20890498500000002 -0.99075084499999988 1.7892084500000001 1.1951392500000002 -0.89480897499999978 -1.3342723999999999 -1.2471605999999997 1.9505334500000002 0.47871281000000004 -0.60350956999999983 1.3831120000000003 0.69122822000000006 0.012847224500000002 1.6770481500000003 -0.038189256499999998 -0.8736351349999999 -5.1484245 1.0860508500000001 0.86410795000000007 0.20678597000000001 0.83674480000000007 -3.1230824999999993 1.9491885000000002 -1.0000000180025095e-35 0.1017676175 -0.048226517499999996 0.073145268000000013 0.29934437500000005 -0.24875749499999997 0.90390630000000016 -0.49508919999999995 -1.2496994499999998 1.7140890000000002 0.66813155000000013 -0.083129689999999992 0.55107160000000011 -2.1326436999999996 -0.59525479999999986 1.5257064000000002 0.46674749000000004 0.71595008000000016 0.92199632000000009 -0.16802169999999997 0.14225503000000003 -0.19143134999999997 -1.1889359499999996 0.36072282000000006 -0.55846719999999983 -0.83312239999999993 1.1424636500000003 0.39430443000000004 0.67978478000000009 -0.98934791999999983 0.83452435000000014 -0.74534804999999993
decision_type=2 2 2 2 2 2 2 2 2 2 2 2 2 2 2 2 2 2 2 2 2 2 2 2 2 2 2 2 2 2 2 2 2 2 2 2 2 2 2 2 2 2 2 2 2 2 2 2 2 2 2 2 2 2 2 2 2 2 2 2 2 2
left_child=1 4 5 6 16 20 11 -5 9 19 14 12 -4 32 38 28 18 24 21 33 26 -1 -17 -13 25 27 43 -18 -16 -30 -29 -14 -3 37 35 -35 -21 -8 -10 45 -11 -42 -24 -2 -28 47 60 48 52 -49 51 -51 53 56 55 -54 -40 -56 61 -57 -47 -59
right_child=2 13 3 7 -6 -7 8 -9 10 40 -12 23 31 -15 15 22 17 -19 -20 36 -22 -23 42 -25 -26 -27 44 30 29 -31 -32 -33 -34 34 -36 -37 -38 -39 39 -41 41 -43 -44 -45 -46 46 -48 49 -50 50 -52 -53 54 -55 57 59 -58 58 -60 -61 -62 -63
leaf_value=-0.9498768959569921 -0.94350688831002893 -0.96271883137326986 -0.95522770238044119 -0.86280468233904817 -0.95217009870989888 -0.93953200353832389 -0.8803164124521542 -0.93025727240434553 -0.94446423049974593 -0.95178789825108112 -0.95841270620392283 -0.85947642953977366 -0.85170597810636528 -0.95989023079921421 -0.85142205776552926 -0.944526089533543 -0.92876134802789745 -0.96868115853082748 -0.85142205776552926 -0.86456126020533197 -0.92903691304461156 -0.88388361673445359 -0.85045144636778736 -0.91898890747521289 -0.86533415446649686 -0.97663092807423746 -0.91038284854582041 -0.92252832979269683 -0.94228007202246566 -0.87924625116746435 -0.84483211722296558 -0.90171963814595046 -0.87024430624330895 -0.86533415446649686 -0.84523890367621035 -0.96503751415676453 -0.9386888461625077 -0.95228475884754415 -0.87275393937367951 -0.9527816194440073 -0.93953200353832389 -0.84910337498203459 -0.92604148552526444 -0.88947080416456104 -0.85692218901940009 -0.87007018738597519 -0.94734230344062154 -0.95905775329406795 -0.9480932938158424 -0.94681929228644979 -0.94919862472021688 -0.88009801218997263 -0.94033850189780033 -0.94638723959387316 -0.93706441452102696 -0.9386888461625077 -0.94681929228644979 -0.88620229951794827 -0.86426399318180702 -0.86224257742183741 -0.94880673467230237 -0.94734230344062154
leaf_weight=9.3443861603736877 7.5473888218402854 3.593994677066803 4.672193080186843 19.76697072386742 32.705351561307907 16.172976046800613 4.6721930801868448 10.781984031200407 62.176107913255692 20.1263701915741 30.189555287361145 6.8285898864269248 17.610573917627338 86.615271717309952 3.5939946770668021 4.6721930801868465 33.424150496721268 12.578981369733809 10.781984031200407 25.876761674880985 13.65717977285385 12.938380837440491 15.454177111387255 115.36722913384438 7.1879893541336051 6.4691904187202445 7.5473888218402854 6.4691904187202454 29.111356884241104 7.1879893541336051 6.8285898864269239 14.01657924056053 6.1097909510135633 3.593994677066803 6.4691904187202454 4.3127936124801618 3.9533941447734824 14.375978708267212 26.954960078001026 25.157962739467621 5.3909920156002045 4.3127936124801618 3.9533941447734824 29.830155819654465 30.908354222774506 16.891774982213981 6.8285898864269248 34.142949432134628 28.033158481121063 10.06318509578705 25.517362207174301 17.610573917627335 8.2661877572536486 8.2661877572536451 78.349083960056305 3.9533941447734859 5.0315925478935233 7.1879893541336104 9.344386160373686 16.172976046800613 3.5939946770668021 13.657179772853851
leaf_count=26 21 10 13 55 91 45 13 30 173 56 84 19 49 241 10 13 93 35 30 72 38 36 43 321 20 18 21 18 81 20 19 39 17 10 18 12 11 40 75 70 15 12 11 83 86 47 19 95 78 28 71 49 23 23 218 11 14 20 26 45 10 38
internal_value=-0.921258 -0.936214 -0.917305 -0.919898 -0.92365 -0.89808 -0.921248 -0.886611 -0.92465 -0.907876 -0.927764 -0.90849 -0.884343 -0.954309 -0.9258 -0.90707 -0.914852 -0.925232 -0.891949 -0.895214 -0.890588 -0.911558 -0.881115 -0.915663 -0.91618 -0.923051 -0.883664 -0.915632 -0.922737 -0.929798 -0.88263 -0.873871 -0.904494 -0.913802 -0.886202 -0.919718 -0.874385 -0.934632 -0.928743 -0.92591 -0.934727 -0.899342 -0.865849 -0.900382 -0.867414 -0.923796 -0.899748 -0.926041 -0.920593 -0.938845 -0.925871 -0.90436 -0.916242 -0.897133 -0.921859 -0.895624 -0.884405 -0.928722 -0.90707 -0.877259 -0.883884 -0.92626
internal_weight=1124.2 235.047 889.154 783.491 138.728 105.663 752.942 30.549 594.447 93.0845 501.362 158.495 36.2993 96.3191 471.173 63.9731 106.023 72.9581 33.0648 63.2543 89.4905 22.2828 24.0798 122.196 60.3791 53.1911 75.8333 46.7219 39.8933 36.2993 13.2978 31.6272 9.70379 33.4242 14.376 7.90679 29.8302 19.0482 407.2 345.023 29.8302 9.70379 19.4076 37.3775 38.4557 319.866 27.3144 292.551 205.217 87.3341 53.1911 27.6738 177.184 40.2527 136.931 28.3926 31.9866 108.539 30.1896 20.1264 20.4858 20.8452
internal_count=3128 654 2474 2180 386 294 2095 85 1654 259 1395 441 101 268 1311 178 295 203 92 176 249 62 67 340 168 148 211 130 111 101 37 88 27 93 40 22 83 53 1133 960 83 27 54 104 107 890 76 814 571 243 148 77 493 112 381 79 89 302 84 56 57 58
is_linear=0
shrinkage=1


Tree=2
num_leaves=63
num_cat=0
split_feature=7 16 16 2 38 87 17 5 58 19 60 19 36 37 27 34 2 43 16 35 23 56 5 58 100 103 26 106 69 22 72 123 76 3 112 51 40 116 1 30 47 68 38 0 115 43 3 123 127 127 65 48 94 21 29 26 28 40 87 58 124 119
split_gain=48.7532 36.5809 24.7882 22.6281 15.18 16.5034 14.3938 15.6453 13.6987 14.0329 12.0038 11.4316 10.9874 11.2145 11.1525 10.5627 10.1646 10.313 10.1059 11.166 10.2982 9.55653 9.44988 10.3807 9.42504 8.99668 9.86779 8.76864 9.21782 9.62512 8.95718 8.68985 8.66442 11.3959 8.64773 9.31716 8.43062 8.30476 8.85477 8.26274 8.14031 9.21188 8.02808 7.81572 7.76751 10.33 7.59056 7.58643 7.58216 7.42295 7.21429 8.20537 7.15103 8.76414 7.03204 10.7627 6.95879 6.91233 6.89559 6.79786 8.67711 8.25692
threshold=0.91523620000000017 0.25198571000000008 4.1640091000000012 1.2235362500000002 0.38012731500000008 -1.1699590999999996 0.28759217000000009 -0.6745500499999999 1.222396 1.0990728000000003 -1.0067703999999997 0.26193405000000008 -0.31467389999999995 0.16677403500000001 -0.08535646999999999 -0.31373774999999993 -4.5738647999999991 -2.1974776999999999 1.9213554000000002 1.0854160500000003 0.069761730000000008 -0.78866234999999996 4.1391656500000007 -1.4076633499999998 0.8787972300000001 -0.90826139999999989 -0.46666898999999995 0.56936143000000017 -0.067882682499999986 1.1102273500000004 -0.20043364499999997 -0.5396181699999999 0.23882800500000004 0.23746062000000004 0.59368150000000008 -1.1294755999999999 -1.9497744499999998 -0.6786424499999999 -2.2607124999999999 -0.35533405999999995 -1.7052741499999997 -0.79340049999999984 -0.6655278349999999 7.2520095000000007 -0.54148994999999989 -0.38526613999999998 0.45836847000000008 -0.60035463499999986 0.16590355500000001 -0.49540978999999991 0.8628210300000001 -0.41472619999999999 0.64189794500000008 0.75790275000000007 0.08249656000000001 -1.1385153499999998 0.093813123000000012 -0.83397064999999992 0.68873852000000013 -0.91804434999999984 0.64855942000000011 0.64714680000000013
decision_type=2 2 2 2 2 2 2 2 2 2 2 2 2 2 2 2 2 2 2 2 2 2 2 2 2 2 2 2 2 2 2 2 2 2 2 2 2 2 2 2 2 2 2 2 2 2 2 2 2 2 2 2 2 2 2 2 2 2 2 2 2 2
left_child=2 6 4 10 11 44 7 37 12 24 31 36 43 27 58 18 -12 -18 19 20 -13 -16 23 -19 34 26 -17 28 -14 30 -30 -3 -5 39 35 -10 56 -2 -39 -34 -9 -42 48 -7 -6 -46 59 50 -40 -32 51 -8 53 -22 -25 -56 -1 -29 -15 -38 61 -61
right_child=1 3 -4 32 5 8 47 40 9 -11 16 15 13 14 21 25 17 22 -20 -21 52 -23 -24 54 -26 -27 -28 57 29 -31 49 -33 33 -35 -36 -37 46 38 42 -41 41 -43 -44 -45 45 -47 -48 -49 -50 -51 -52 -53 -54 -55 55 -57 -58 -59 -60 60 -62 -63
leaf_value=-0.8981027773845307 -0.96507390185008513 -0.90192969878256235 -0.88109423783772323 -0.87823624553682522 -0.97208992441314312 -0.96957835213376053 -0.96507390185008513 -0.89285014017154607 -0.9066070471579345 -0.86985645278001111 -0.97910594697620124 -0.98297191859258026 -0.96666845243259836 -0.8893747110381427 -0.88789765365644624 -0.96897169216289514 -1.0001540146653756 -0.96507390185008513 -0.87987934215580843 -0.8981027773845307 -0.97137033235539361 -0.9622897659123637 -0.96674438341271796 -0.88649444914383457 -0.87152693434264406 -0.96560541871092287 -0.88534637272442507 -0.92361558670474198 -0.95338053091165498 -0.97112219716306625 -0.95805787928702701 -0.9913839864615529 -0.90660704715793439 -0.8832203052810742 -0.89725235040719031 -0.99213570316473776 -0.98527154256191896 -0.95338053091165498 -0.98612196953925935 -0.99189987047354244 -0.91672023283441451 -0.96401086812840964 -0.8734129619133586 -0.90300908686918668 -0.94107171939751799 -0.86396063550013036 -0.97870375459997505 -0.96619518399486604 -0.88534637272442507 -0.87737361981185913 -0.98739761000526993 -0.87896817039437236 -0.87987934215580843 -0.90994801028320016 -0.97676727278851527 -0.9038146003666675 -0.97208992441314324 -0.99723067193076798 -0.95697849120040268 -0.9678221134531263 -0.92252993524430738 -0.92398005540931638
leaf_weight=7.8391991853713971 5.7012357711791983 3.5632723569869986 11.758798778057097 43.471922755241394 3.5632723569870022 91.576099574565887 4.2759268283844003 6.0575630068778983 4.2759268283844056 9.9771625995635969 7.1265447139739981 17.460034549236298 31.356796741485596 20.310652434825901 5.3449085354805019 6.4138902425765991 3.5632723569869986 7.1265447139739981 7.4828719496726981 11.758798778057097 13.896762192249303 22.448615849018097 7.4828719496726981 35.632723569869995 4.2759268283843985 94.070390224456787 7.8391991853713971 3.9195995926857021 9.6208353638649005 10.333489835262297 3.5632723569870022 11.402471542358397 5.3449085354804993 12.827780485153196 5.3449085354804984 12.4714532494545 23.517597556114197 6.4138902425765982 3.5632723569870022 6.0575630068779009 13.184107720851896 47.035195112228394 22.092288613319397 4.6322540640830985 6.7702174782753053 12.115126013755793 111.88675200939178 78.035664618015289 3.9195995926856995 14.253089427947996 3.9195995926856986 7.8391991853713998 4.9885812997817984 9.9771625995635969 6.4138902425766018 23.873924791812897 5.3449085354804993 17.103707313537598 4.6322540640830985 77.323010146617889 16.747380077838898 12.471453249454497
leaf_count=22 16 10 33 122 10 257 12 17 12 28 20 49 88 57 15 18 10 20 21 33 39 63 21 100 12 264 22 11 27 29 10 32 15 36 15 35 66 18 10 17 37 132 62 13 19 34 314 219 11 40 11 22 14 28 18 67 15 48 13 217 47 35
internal_value=-0.94565 -0.930991 -0.95311 -0.914179 -0.954275 -0.945604 -0.945461 -0.933004 -0.948963 -0.920364 -0.928581 -0.960296 -0.953311 -0.944516 -0.926201 -0.950409 -0.921772 -0.916913 -0.934569 -0.941615 -0.952661 -0.947984 -0.91323 -0.907748 -0.939475 -0.959997 -0.922978 -0.955229 -0.94663 -0.929994 -0.914504 -0.970085 -0.89159 -0.915549 -0.952626 -0.970299 -0.967034 -0.909006 -0.900124 -0.951919 -0.9481 -0.953657 -0.888574 -0.966373 -0.90438 -0.891604 -0.969155 -0.959759 -0.933335 -0.89351 -0.928435 -0.909358 -0.934325 -0.945701 -0.90155 -0.919263 -0.928098 -0.983506 -0.90193 -0.960941 -0.955571 -0.961733
internal_weight=1114.59 375.925 738.666 173.888 726.908 297.89 202.038 107.967 275.441 36.3454 106.186 429.018 239.096 142.887 52.7364 173.888 91.2198 84.0932 65.5642 58.0813 46.3225 27.7935 80.53 73.0471 26.3682 108.323 14.2531 90.1508 69.1275 37.7707 27.4372 14.9657 67.7022 24.2303 22.0923 16.7474 255.13 41.6903 35.9891 11.4025 66.2769 60.2193 29.5752 96.2084 22.4486 18.8853 241.946 94.0704 7.48287 17.8164 16.0347 12.1151 28.8625 23.8739 65.9205 30.2878 13.1841 21.0233 24.9429 130.059 106.542 89.7945
internal_count=3128 1055 2073 488 2040 836 567 303 773 102 298 1204 671 401 148 488 256 236 184 163 130 78 226 205 74 304 40 253 194 106 77 42 190 68 62 47 716 117 101 32 186 169 83 270 63 53 679 264 21 50 45 34 81 67 185 85 37 59 70 365 299 252
is_linear=0
shrinkage=1


Tree=3
num_leaves=63
num_cat=0
split_feature=15 6 18 95 40 73 10 126 63 79 2 82 45 62 36 90 7 0 65 120 15 118 102 11 13 50 105 70 112 77 77 31 33 113 127 127 66 43 74 81 3 60 85 65 18 95 126 101 28 117 82 34 60 48 98 41 36 50 43 61 71 123
split_gain=23.9143 15.6019 12.5288 12.2893 20.3534 15.1955 15.0337 12.2028 13.0256 12.1423 11.4843 12.9372 11.5923 12.0181 11.2662 10.9951 10.9833 10.8134 10.4202 10.8232 10.3251 11.4548 11.0332 10.162 11.5403 10.137 10.02 9.49664 9.41599 9.32563 9.18385 8.84546 8.65624 9.65054 8.94982 8.61634 13.1236 9.67387 9.57455 8.97935 18.3217 15.2474 10.7976 8.35096 8.0529 7.9387 7.90636 9.20599 7.79739 7.73676 7.54288 7.29638 7.19688 7.12021 6.92649 6.88125 6.90131 8.6377 7.44992 8.94762 10.0709 7.50164
threshold=-0.69373989999999985 0.69828285000000012 -4.7382732999999986 -0.028918621499999995 0.03724813200000001 0.12376779500000001 -2.8789168499999995 0.34988279500000002 -0.054973223499999994 1.4738287500000002 -5.0877774999999987 1.0292979500000004 -0.85499901499999986 1.7207337500000002 0.19646745000000002 1.0430883500000003 -2.7591816499999995 3.6526900000000002 1.1516865500000002 -0.0099167114999999979 -2.8255158499999995 -0.19987143999999998 -0.18937936499999999 2.6168221000000007 -0.44406978999999996 1.9801448500000003 -1.1591417499999996 -0.25394407999999996 0.41010398000000009 0.5058877650000001 1.4143125000000001 -0.21373942499999998 -0.87892698999999996 -0.25412074999999995 0.056326303500000008 1.1431337000000001 0.27946999500000008 -2.1974776999999999 1.0433153500000001 0.56877982000000016 -0.72082894999999991 0.5695403200000001 1.0642981000000002 0.12349908750000001 -0.70466648499999984 0.53318002000000009 0.39511504500000005 0.074152633000000009 2.4521087500000003 -0.13128986499999998 0.25927052000000006 -0.5465159249999999 -1.3042124499999999 -0.12203858199999999 0.55919878500000009 -2.0305923999999997 0.43104733500000009 1.4426123500000003 0.089160437500000009 0.037903092500000006 0.23040230500000003 0.45588402500000008
decision_type=2 2 2 2 2 2 2 2 2 2 2 2 2 2 2 2 2 2 2 2 2 2 2 2 2 2 2 2 2 2 2 2 2 2 2 2 2 2 2 2 2 2 2 2 2 2 2 2 2 2 2 2 2 2 2 2 2 2 2 2 2 2
left_child=1 3 -2 7 6 23 -5 9 -9 16 11 14 13 15 32 17 43 25 19 27 21 22 -3 24 49 -12 -18 -7 -19 45 48 -15 -4 -34 -35 37 -37 38 53 -39 41 42 46 -1 -24 -17 47 51 52 -6 -49 -41 -8 -14 -55 -22 57 58 59 60 -57 -61
right_child=2 20 10 4 5 18 30 8 -10 -11 12 -13 35 31 -16 29 26 28 -20 -21 55 -23 44 -25 -26 -27 -28 -29 -30 -31 -32 -33 33 34 -36 36 -38 39 -40 40 -42 -43 -44 -45 -46 -47 -48 50 -50 -51 -52 -53 -54 54 -56 56 -58 -59 -60 61 -62 -63
leaf_value=0.0044173127274879792 0.098322899520559712 -0.0076526815284463133 -0.028982990663411042 0.094563139930868012 0.093619298282544589 -0.0076196801856233849 0.053422693471262508 0.0028894143086759805 0.078717446762087376 0.095683603255613536 -0.017351232795201763 0.11377985536024529 -0.03397998857086814 0.12176685008733212 -0.031795035390907521 -0.010465572048684505 0.069059686424592773 0.0061961849456941345 0.11223013860538074 -0.035714183873769394 0.043838562070340883 -0.007320334105657432 0.015979201478910049 0.0025738135764493937 0.12194184844975516 0.061454438970635641 -0.023399198747722869 0.095180724218274712 0.090527662943762896 0.12118348467290628 0.090758979425307834 0.015819718556152895 0.12786208379168526 0.075218327692924053 -0.028758884872965792 -0.011813415751974254 0.092033138934217301 -0.021407663390250731 0.10308875410406937 0.075261865374899345 -0.021491972366864249 -0.035970737737506052 0.12900150396404028 0.11490122382398989 0.12176558152224165 0.094011431119849026 -0.030626967308675271 0.12201401041886722 0.069602647295676764 -0.012063621862909192 0.016668457707318021 -0.0077548570397649374 -0.021034386901062942 -0.0090545667567655374 0.10022962045542086 0.09047923667212221 -0.033917847752553375 0.07271520882871535 -0.030369614399694728 -0.042012758162812296 -0.01548254965442823 0.045921413671224896
leaf_weight=4.2729208767414084 2.8342896103858939 4.3031713068485251 3.7521281987428692 4.7208179980516425 3.6583209633827209 4.3017056882381475 3.6327560842037157 12.057127147912981 10.679914280772207 2.8825781941413871 72.223912835121155 3.4956963658332816 6.0084533244371405 3.6423168331384659 9.5085370242595655 6.2729727029800397 3.1236205250024787 10.298037707805632 2.8955906778573981 7.3462385684251794 5.189423441886901 14.201407313346861 2.5580693632364264 3.3175814747810355 14.529583483934401 4.3250810801982871 47.344353660941124 4.7024190872907639 4.8778088539838782 3.0532615333795539 2.6152352839708319 4.2910109013319007 3.5001670122146633 4.6571159511804563 3.7248215526342392 8.2215942293405515 4.8294418007135382 247.06995491683483 3.0855756700038901 3.8184978216886583 52.953700825572014 7.9789803177118293 3.1909756809473029 2.8518227636814117 6.062718108296397 2.5603448748588562 4.2670651823282233 5.1569515764713278 3.1105511337518683 3.2884419560432496 2.5342214852571487 8.6254452168941516 30.438983827829365 3.0058163106441489 2.801016241312027 5.6016106307506579 30.939096450805664 3.4487634301185599 21.42206047475338 8.6027821153402311 3.7392314523458481 3.3776456117629996
leaf_count=17 11 17 15 18 14 17 14 47 41 11 289 13 24 14 38 25 12 41 11 29 20 56 10 13 55 17 188 18 19 12 10 17 13 18 15 33 19 990 12 15 212 32 12 11 23 10 17 20 12 13 10 34 121 12 11 21 126 13 87 35 15 13
internal_value=-1.58719e-05 0.0116762 -0.00650667 0.021077 0.034041 0.0581412 0.0101998 0.00728015 0.0385069 -0.00446026 -0.00709651 0.023653 -0.00895008 0.00515003 0.0111223 0.000608649 -0.00947257 -0.00525477 0.0248057 0.00932316 -0.00307787 0.0236759 0.0577358 0.0840174 0.0965985 -0.0128986 -0.0176766 0.046068 0.0333019 0.0458548 0.000192598 0.0644617 0.0372241 0.0581309 0.0290122 -0.0132763 0.0266143 -0.0147617 0.0246596 -0.016512 -0.00284861 0.0249044 0.0425074 0.0486407 0.0903753 0.0198172 0.0311969 0.0442987 -0.00617743 0.0435914 0.0873029 0.0177193 -0.0130957 0.00417775 0.0436604 -0.0118935 -0.0156431 -0.00340287 -0.00954449 0.0113791 0.0480617 -0.0172215
internal_weight=787.782 281.217 506.565 171.771 88.5582 44.0399 44.5183 83.2123 22.737 60.4753 503.731 28.6385 475.092 111.545 25.1428 103.611 57.5927 91.7248 19.246 16.3504 109.446 27.1254 12.924 24.7939 21.4763 76.549 50.468 9.00412 15.1758 11.8866 39.7975 7.93333 15.6342 11.8821 8.38194 363.548 13.051 350.497 14.9009 335.596 88.5258 35.5721 27.5932 7.12474 8.62079 8.83332 24.4022 20.1351 37.1823 6.94676 7.69117 12.4439 34.0717 11.8153 5.80683 82.3206 77.1312 46.1921 42.7433 21.3213 9.34084 11.9804
internal_count=3128 1108 2020 672 345 170 175 327 88 239 2009 112 1897 444 99 413 228 366 75 64 436 106 50 95 82 306 200 35 60 47 157 31 61 46 33 1453 52 1401 59 1342 352 140 108 28 33 35 96 79 147 27 30 49 135 47 23 330 310 184 171 84 36 48
is_linear=0
shrinkage=0.05


Tree=4
num_leaves=63
num_cat=0
split_feature=7 6 16 9 11 83 69 91 45 17 19 81 41 58 48 23 88 23 82 58 120 25 3 74 52 56 50 68 81 39 23 60 2 19 38 73 53 38 24 47 36 25 122 50 115 53 12 14 122 8 73 81 47 68 90 30 88 47 86 55 68 5
split_gain=32.7043 19.6759 14.8138 13.4578 12.7848 12.5798 12.5719 11.6613 10.5149 10.2991 10.2889 10.0882 10.0477 9.86247 9.98884 13.7979 14.1507 9.60273 9.71454 9.53462 9.04628 8.93475 8.82327 9.04678 8.60202 8.56956 10.1384 9.27799 8.45755 10.1024 8.26748 8.26016 8.08199 7.84357 8.31209 9.25885 7.73894 7.62579 7.93448 7.55305 8.24252 7.39019 7.38084 7.33292 8.21384 7.32491 7.31772 7.21935 7.18276 9.92164 7.85186 7.14413 7.06804 6.86543 6.85826 8.35038 7.08986 7.90485 6.6951 6.67236 8.68125 6.65133
threshold=0.70671906500000004 -2.0321978999999994 0.20574339500000002 -0.99703339999999996 -1.8480496999999996 0.76417615000000005 -0.99075084499999988 0.4343263200000001 -0.46956126999999998 -0.60840119999999998 1.7973492000000002 -1.8436959999999998 -0.82486289999999995 -1.0204953499999998 0.76587290000000008 -0.93126539999999991 -0.7914228499999999 0.26729846000000007 0.28365797000000009 -1.2471605999999997 0.22315567500000003 -2.0199138499999996 0.18635969000000002 -0.041385457499999993 -0.33007648999999994 -0.38483443499999997 0.29305646000000002 0.048535668500000011 -0.36252316999999995 1.0111289000000003 -0.21051372999999998 -0.52224191499999983 -2.3917721999999997 -2.2506021999999999 0.016670644000000002 -0.053682171999999993 -0.14310590999999998 -0.71477992999999984 -0.96439769999999991 -1.0000000180025095e-35 -0.31467389999999995 -0.44439409499999993 -0.89898712999999986 0.021332340000000002 -0.69538542999999986 -1.1139185999999996 -0.20135718499999997 -0.39985180999999997 0.36089596500000004 1.1854635500000004 -0.34090815499999993 -0.53119563999999986 -0.65407779499999985 0.77952692500000009 0.18899946000000004 1.1044005000000003 -0.39054806999999997 -0.36616378999999993 -0.55569282499999983 0.60019885000000006 0.048535668500000011 4.1391656500000007
decision_type=2 2 2 2 2 2 2 2 2 2 2 2 2 2 2 2 2 2 2 2 2 2 2 2 2 2 2 2 2 2 2 2 2 2 2 2 2 2 2 2 2 2 2 2 2 2 2 2 2 2 2 2 2 2 2 2 2 2 2 2 2 2
left_child=1 4 3 42 -1 6 7 -3 -7 12 17 -4 47 28 15 43 -17 18 45 22 54 -10 23 -13 -22 48 -27 -28 -8 37 -20 -21 -9 -23 35 46 -19 -30 -39 40 -29 -16 -2 -15 -45 -6 -35 -5 49 50 -11 52 -44 -25 55 -18 57 -56 -49 -43 -61 -33
right_child=2 5 11 9 10 8 13 32 21 25 -12 19 -14 14 41 16 20 36 30 31 24 33 -24 53 -26 26 27 39 29 -31 -32 61 -34 34 -36 -37 -38 38 -40 -41 -42 59 51 44 -46 -47 -48 58 -50 -51 -52 -53 -54 -55 56 -57 -58 -59 -60 60 -62 -63
leaf_value=-0.037627490586011787 0.037086852275949905 0.047325504605507107 0.046324659857112413 0.072116383728666078 -0.029446205193544302 -0.025708833748864585 0.057390188522972056 0.059923280843889586 0.05670006630407505 -0.020412424454471445 -0.036034159283624065 0.074317098411352686 -0.026077741738100454 0.047085338102803354 0.010996224102071911 0.034933495957291283 -0.010616831493273589 -0.035176437210648608 -0.031876397807852376 -0.010842057309251406 0.039528998915678432 0.056783280170321054 -0.026925898745497962 -0.044782441464098904 -0.0024770788898474238 0.047568760502029975 -0.02655425590366299 0.050119321934548447 0.070352331104520868 -0.023726168725512652 0.043666851910948122 -0.038363071270858987 -0.01462543836970843 0.039973445498146611 -0.021774996460164991 0.040008690607919367 0.0066953709282916753 -0.036787768865385775 0.034329173700427533 0.074925283489707131 -0.043831553869063004 -0.029972402725431158 -0.055093543224270194 0.083520089060730773 0.0025179058271454714 0.043091872761926213 -0.033840208318714031 0.037610623468035592 -0.039707412876957587 -0.026678407009844488 0.059413190545460903 -0.032894447464854724 0.020896478993666784 0.04461199588706579 -0.041126034617478234 0.038584584207670025 -0.039597459577950571 0.059256118742043243 -0.054935801868312643 0.052402172055070917 -0.03071147747449314 0.010143072315581723
leaf_weight=32.132469564676285 5.3970516026020041 49.218334913253784 5.3968871831893912 5.0650402307510376 3.9318473637104026 37.294472634792328 18.866270482540131 4.7188021540641811 7.9633383750915518 4.304787039756774 18.581595033407211 6.5115740895271292 34.678100228309631 36.847828418016434 33.079238444566727 32.480381041765213 38.038837909698486 20.361333072185516 12.899458110332491 50.843941986560822 20.940311908721924 5.7709484100341788 12.510232031345366 4.6749112010002154 29.15775141119957 31.397382080554962 12.196511685848238 4.7019569575786582 9.0655846297740954 11.115968763828276 5.0356352031230918 105.39241951704025 15.838209241628645 4.6917513012886056 32.966567188501358 16.635253965854645 24.092372089624405 5.3873926103115108 14.419492721557615 6.1238216757774344 4.6365970075130454 37.651955306529999 3.9406685233116177 3.5966483354568508 24.102066159248352 30.300933331251144 11.80878534913063 4.3065794110298157 9.6819804310798627 10.423442572355269 10.83214130997658 52.214130014181137 13.693010002374647 3.9730978906154633 3.5810899436473846 11.151840180158613 28.700175702571869 4.3355975747108451 3.5777475833892805 6.4774665832519513 6.1009723246097565 7.5753082036972037
leaf_count=90 15 136 15 14 11 104 52 13 22 12 52 18 97 102 92 90 106 57 36 142 58 16 35 13 81 87 34 13 25 31 14 296 44 13 92 46 67 15 40 17 13 105 11 10 67 84 33 12 27 29 30 146 38 11 10 31 80 12 10 18 17 21
internal_value=6.93856e-06 0.00652482 -0.0111593 -0.0021545 -0.00973912 0.0107886 0.0146271 0.0341153 -0.00379012 0.00690832 -0.0019605 -0.0210923 -0.012044 0.0110019 0.00750424 0.0128186 0.00528426 0.00459231 0.019143 -0.0229924 -0.00180168 0.00644888 0.00415492 0.0298039 0.0150809 0.0164806 0.0281244 0.00605192 0.0297955 0.0167765 -0.0106661 -0.027578 0.002487 0.000881202 -0.00399923 0.0136858 -0.0124834 0.0323701 0.0149857 0.0317712 0.00347266 -0.0073546 -0.0192487 0.0324738 0.013036 0.0347604 -0.0128521 0.0255379 -0.00303119 0.0108613 0.0367116 -0.0236017 0.00391469 -0.00371254 -0.0116584 0.000537443 -0.0280423 0.0138486 -0.00438507 -0.0194395 0.0120892 -0.0351104
internal_weight=1123.39 709.339 414.049 217.171 147.336 562.003 444.872 69.7753 117.131 141.926 115.203 196.878 47.6275 375.097 316.242 232.933 168.386 96.6216 52.1679 191.481 135.906 79.8366 27.6698 15.1596 50.0981 94.2986 59.0563 27.6589 58.8547 39.9884 17.9351 163.812 20.557 71.8733 66.1024 33.1358 44.4537 28.8725 19.8069 15.4624 9.33855 83.3096 75.2449 64.5465 27.6987 34.2328 16.5005 12.9494 35.2424 25.5604 15.1369 69.8478 17.6337 8.64801 85.8075 49.1907 36.6169 7.91669 7.88433 50.2304 12.5784 112.968
internal_count=3128 1972 1156 605 411 1561 1235 193 326 395 321 551 133 1042 879 647 468 269 145 536 378 222 77 42 139 262 164 77 163 111 50 459 57 200 184 92 124 80 55 43 26 232 210 179 77 95 46 36 98 71 42 195 49 24 239 137 102 22 22 140 35 317
is_linear=0
shrinkage=0.05


Tree=5
num_leaves=63
num_cat=0
split_feature=7 19 3 17 14 5 123 38 87 91 110 32 56 79 63 37 88 9 123 21 60 37 1 38 111 81 55 50 42 97 11 111 113 124 108 13 28 40 57 54 121 127 65 91 39 118 36 62 3 43 119 55 83 23 126 5 88 99 21 17 7 70
split_gain=44.5135 20.0485 18.8886 14.9543 14.7868 12.9499 12.9072 12.6195 11.9743 11.7141 13.5173 10.1937 10.1613 11.9277 9.61542 9.32644 9.30258 9.26873 9.27724 9.23535 11.5718 9.0335 8.98401 9.39235 10.8135 9.24656 10.6328 8.95012 8.93241 9.21821 8.65025 8.57732 8.63851 8.40783 8.37636 8.16834 8.72193 8.0577 10.6294 8.05626 8.05538 7.84133 7.98319 7.7972 7.65722 7.48253 7.42876 7.27249 7.11924 8.99633 7.04194 10.6453 6.99278 6.92042 6.96039 7.51264 7.28915 7.08861 6.87502 6.83347 6.98395 6.73032
threshold=0.91523620000000017 0.8765327300000002 0.3911658300000001 0.37552687500000009 4.3535614000000011 -0.6745500499999999 -0.58808395499999988 0.40019514000000006 -1.1699590999999996 0.10652592000000001 -0.076994166999999988 -1.6139330999999999 0.2742429400000001 -0.68244459999999985 0.86698785500000008 -0.6621466199999998 -0.27906161499999993 2.0660381500000002 -0.27289817499999997 -0.68891592999999984 -0.16736306999999997 -0.73082024999999995 3.7548923500000004 -1.0207219999999999 0.46622648000000005 -0.15822917499999997 -0.40775521499999995 -1.3496365999999997 -0.77894383499999986 0.24299758000000002 -0.81206303499999988 0.059509583500000011 0.072196082000000009 0.77789340000000007 0.9731934000000001 0.9164621500000002 0.9847125750000002 -1.7063407499999996 0.37369533000000005 -1.2693566499999998 -0.22778758999999996 -0.064710959999999998 -0.067064196999999992 0.76631910000000014 -0.99253551999999989 1.0886531500000001 1.9268075000000002 1.2007200500000004 1.0951020500000002 0.35393458500000002 0.080612647000000009 0.44803926000000005 -0.85823037999999985 2.1817826000000005 0.24763685500000002 -0.45717565499999996 0.043682905000000008 -0.016770000999999996 0.12741295500000002 -0.040816194999999993 3.3439962500000004 -0.36020979499999994
decision_type=2 2 2 2 2 2 2 2 2 2 2 2 2 2 2 2 2 2 2 2 2 2 2 2 2 2 2 2 2 2 2 2 2 2 2 2 2 2 2 2 2 2 2 2 2 2 2 2 2 2 2 2 2 2 2 2 2 2 2 2 2 2
left_child=1 7 6 5 12 14 15 16 -9 10 58 44 13 43 -4 -2 -1 18 34 20 -15 -20 23 -8 25 26 -25 -12 -7 59 -28 -24 -33 47 -13 36 -26 38 -18 -23 -32 42 -17 -3 -10 -14 52 -27 53 -50 -11 -52 -41 54 55 -39 57 -57 -5 60 -30 -54
right_child=2 4 3 9 -6 28 22 8 11 50 27 17 45 19 -16 41 37 -19 21 -21 -22 39 31 24 35 33 30 -29 29 -31 40 32 -34 -35 -36 -37 -38 48 -40 46 -42 -43 -44 -45 -46 -47 -48 -49 49 -51 51 -53 61 -55 -56 56 -58 -59 -60 -61 -62 -63
leaf_value=-0.029653360492804953 -0.0081654308261077078 -0.029105108937943016 0.068989777657596188 -0.037316159443369787 0.082236453561501166 0.054114293621817459 -0.02979423318962467 0.041248407320310293 -0.031970694588392655 -0.030564925166892618 -0.010750659232046763 -0.028862632340083266 -0.013599285751934725 -0.035494716225925711 0.0161219210044489 0.05940020765003428 -0.016084322894934788 -0.038230809625285661 -0.019221341298912783 0.032607539127723288 0.027647231345009828 -0.038642077439258592 0.066018458298011826 -0.024424381604409667 0.029716885725813838 -0.039918272199782133 0.077444869042138903 0.067027937885588709 -0.032382518064946346 0.044163045943527324 0.071406757917128735 0.04484091805430851 -0.034109789958272047 0.030225333954902324 0.047281243404398605 0.067172015147916764 -0.053858468496119409 0.0078625098385621799 0.069313660865415863 -0.03213626034678807 -0.012203337577633193 0.075311948049890096 -0.021623646602683979 0.038117019969169538 0.040422678654313621 0.041080724199933638 0.083624247405554228 0.019359496777366772 -0.042668832863910468 -0.0059267990769973876 0.046414224478917833 -0.044170905369213483 -0.010935846774945879 -0.054027974182380027 0.013871817261623684 -0.028267596743568588 -0.03839807630610198 0.041713850356949168 0.030565530318175084 0.050061130777159485 0.03858685819259438 0.033332798089917237
leaf_weight=119.29828149080276 10.714814752340315 21.982456505298618 37.583350151777267 8.8749260902404767 6.1438289582729331 15.076056897640226 34.50665208697319 14.41946882009506 4.5921799838542965 20.979736745357513 4.6086246371269253 45.410823851823807 81.011748254299164 13.468264520168306 11.152689546346663 6.1014593839645386 7.8245601356029493 25.179059952497482 28.700954645872116 62.229792177677155 15.731837928295134 6.3942610919475547 8.6355880498886126 13.202604889869688 11.802829951047903 35.118794232606888 7.1652771234512338 18.733208745718002 18.145469665527347 12.563505053520201 3.9466740787029275 6.4746954739093763 7.4528391659259796 6.4460486471652976 3.9239064753055564 8.9768204689025861 4.2443198263645163 27.354480236768723 6.8195975124835968 6.7514069676399222 10.666474103927611 12.600819766521454 6.0591661334037781 5.3669275045394889 17.854314565658569 6.7801252603530875 4.3141615390777579 6.0682048201560965 40.618563503026962 28.245276123285294 9.332083582878111 4.9708474874496451 11.417598366737364 7.4378032088279715 35.910125941038132 7.7882773280143738 32.201080024242401 6.7588018774986249 6.434201478958129 4.2885206341743496 4.2852272093296042 34.618075966835022
leaf_count=337 30 62 104 25 17 42 97 40 13 59 13 128 228 38 31 17 22 71 81 174 44 18 24 37 33 99 20 52 51 35 11 18 21 18 11 25 12 77 19 19 30 35 17 15 50 19 12 17 115 80 26 14 32 21 101 22 91 19 18 12 12 97
internal_value=4.22793e-06 -0.00714917 0.013972 0.0258699 0.005796 0.0381764 0.00345036 -0.0124059 -0.00267211 0.00870943 0.0277248 -0.00602019 0.00352251 0.0130563 0.0568916 0.0308067 -0.0185933 -0.0102793 -0.00530659 0.0217221 -0.00147638 0.00405765 -0.00244191 -0.00709437 0.000182768 -0.00853933 0.0109803 0.0516713 0.0213971 0.00884074 0.0324434 0.0268679 0.00259317 -0.0228742 -0.0228064 0.0289779 0.00761199 -0.0120275 0.0236844 0.0145801 0.0103778 0.0476708 0.0190292 -0.0159137 0.0256122 -0.00937637 0.02054 -0.0311847 -0.0148344 -0.0275987 -0.0121212 0.0149322 0.0153843 -0.00735046 -0.00419466 -0.0129497 -0.0251278 0.00424688 -0.00878648 -0.00776798 -0.0188243 0.0223535
internal_weight=1113.76 736.548 377.213 177.028 212.715 103.095 200.184 523.833 203.576 73.9336 38.651 189.157 206.571 118.779 48.736 35.4763 320.257 166.71 141.531 91.4299 29.2001 92.1965 164.708 142.145 107.638 82.6141 34.981 23.3418 54.3588 39.2827 21.7784 22.5631 13.9275 47.633 49.3347 25.024 16.0471 200.959 14.6442 63.4955 14.6131 24.7614 12.1606 27.3494 22.4465 87.7919 57.1012 41.187 186.314 68.8638 35.2827 14.3029 52.7871 117.451 110.013 74.1026 46.7482 14.5471 15.3091 26.7192 22.4307 46.0357
internal_count=3128 2073 1055 494 597 287 561 1476 572 207 108 532 580 333 135 99 904 469 398 256 82 259 462 399 302 232 98 65 152 110 61 63 39 134 139 70 45 567 41 178 41 69 34 77 63 247 160 116 526 195 99 40 148 331 310 209 132 41 43 75 63 129
is_linear=0
shrinkage=0.05


Tree=6
num_leaves=63
num_cat=0
split_feature=15 6 22 20 97 22 99 112 36 37 30 37 14 59 113 8 104 85 44 15 88 23 8 80 87 16 36 44 20 2 83 25 0 56 67 1 41 124 3 74 12 22 11 87 62 56 126 40 51 7 13 75 20 12 37 25 114 39 102 66 45 72
split_gain=22.0661 14.5424 12.1518 13.2953 13.8905 15.3947 12.1002 11.1235 11.857 11.8519 10.7522 14.9391 13.6995 12.3948 15.1802 11.0607 10.1607 11.1944 10.0574 11.5326 9.89453 9.84807 10.2498 9.59055 9.48285 9.26445 10.9274 11.5772 11.7709 9.52869 8.62148 11.6055 9.70906 8.21407 7.84757 7.81915 9.3466 7.78448 7.72318 7.60277 7.59911 7.59299 8.34138 11.0527 7.99116 7.9483 7.76682 7.57649 7.50117 7.48331 8.30032 7.47309 7.34594 6.95088 10.9364 6.88986 6.56705 6.53789 6.4907 9.49389 6.29424 5.87315
threshold=-0.69373989999999985 1.8460393500000001 -1.1336681999999998 -2.4704686499999995 -1.1355613499999999 2.4964871500000005 1.5954730000000004 1.3393642500000003 0.71005585000000015 -1.0506599499999998 1.2082249500000002 0.8146820050000001 -0.40872838999999994 -0.22899213499999996 0.42087097500000004 1.5319241000000001 -0.06368073099999999 0.19689257000000002 -0.69770684999999988 -2.7272555999999994 -0.36506031499999997 -1.0073512499999999 1.4020721 -0.076377029999999985 -0.26497995999999996 3.0857590500000005 -0.28172874499999995 -1.0511663499999997 -0.04452842499999999 -5.0877774999999987 0.64936321500000005 -1.5264032499999998 1.0000000180025095e-35 -0.024925801499999994 0.55783152500000011 -0.29446163499999994 -0.024292397999999996 0.16358577500000002 -1.0563494499999997 -0.43287817999999995 -2.3434358499999997 3.6375374500000004 -3.5604779499999997 -0.24103132999999996 1.7207337500000002 -0.100587685 -0.028430692999999996 1.5191883500000001 1.2273373000000001 1.7012642000000002 -0.74813089999999993 0.17308273000000002 0.74479188000000007 -0.44001045999999994 -0.33316446499999997 1.4951921000000004 1.4192441500000001 -0.63429319999999989 0.15766754500000002 -0.33664764999999991 -0.90769334999999984 0.4886173900000001
decision_type=2 2 2 2 2 2 2 2 2 2 2 2 2 2 2 2 2 2 2 2 2 2 2 2 2 2 2 2 2 2 2 2 2 2 2 2 2 2 2 2 2 2 2 2 2 2 2 2 2 2 2 2 2 2 2 2 2 2 2 2 2 2
left_child=1 7 56 4 -4 58 25 8 10 16 11 13 57 14 30 47 60 -18 19 23 -17 -14 24 -3 -23 26 27 28 35 52 31 -1 -32 -12 38 -5 -37 -22 -35 -8 49 42 43 -28 -44 -43 -46 -15 61 50 -31 -9 -29 -33 -55 -11 -2 -13 59 -6 -10 -30
right_child=2 18 3 6 5 -7 39 51 9 55 33 12 21 15 -16 20 17 -19 -20 -21 37 22 -24 -25 -26 -27 41 29 48 40 32 53 -34 34 -36 36 -38 -39 -40 -41 -42 45 44 -45 46 -47 -48 -49 -50 -51 -52 -53 -54 54 -56 -57 -58 -59 -60 -61 -62 -63
leaf_value=0.0034730458731756252 -0.021754514024922171 0.019142299890499103 0.13103130934214316 0.14763844003917101 -0.021086962775383196 0.12545321389196465 0.12521828346902011 0.021706426950147753 0.053364402025217819 -0.025986158786568583 -0.027561597186461013 0.036290765760401134 -0.042239222722809971 -0.019858904967398353 -0.013483747773217453 0.11441691976923062 0.11328013437198026 -0.00072471322276019808 -0.024856881600526876 -0.010086409550896217 -0.030988450880907334 0.010516232417490933 -0.042231705572115454 0.1370668891825246 0.10304834006247594 -0.039218155868921932 -0.041971041821878358 0.077612055264884364 -0.035055094306336292 0.082403323169071188 0.075497825839017124 0.13087409409716583 -0.031849950571426054 0.069901083894075719 0.068995232040272525 0.10428383835548197 -0.022758942620929642 0.074281650040301836 -0.029137531306184856 0.022024000900705349 -0.0079847200448902502 -0.0096273401088916421 -0.018297464094638321 0.085180321068971152 0.074591558273799721 0.10915946458275005 -0.010528112914460701 0.057971628888220272 0.080884614518916154 0.10994505058349141 -0.023903238299735102 0.12627117095471063 -0.022722680438734627 0.10353340332700683 -0.022575426801294974 0.031757691813851394 0.051036806330701859 0.10281753458400156 -0.026597257635375317 0.075656603717485726 -0.042060802023426783 0.052535306891767997
leaf_weight=4.3335531204938915 120.86309349536896 3.9930702745914459 3.1570522338151958 3.1449312120676041 4.7257070392370277 2.9577717483043662 2.6672265529632568 3.0929620563983908 2.5952661484479904 36.834981888532639 16.81894139945507 5.0210959613323238 4.2318392544984844 33.330418989062309 10.245682567358015 3.4807586371898651 5.4105155915021879 3.5766534507274628 40.595805495977402 12.423263192176817 4.3093845397233945 4.6680019199848175 2.7401555180549613 3.0343254059553173 6.8054575622081739 19.5672417730093 2.6925313621759415 6.5743882805109006 7.1430553346872312 2.8001996129751197 3.774933770298956 7.4308637678623208 4.765328660607338 2.6474554836750039 5.7882999479770652 3.3928977251052856 2.5252948403358477 2.9640301018953323 7.6751879155635843 5.3951578140258771 96.158365070819855 3.0391040295362473 164.93601942062378 4.6792905628681174 4.6755962520837784 2.6242576390504828 6.2787335962057096 3.4505692720413199 2.8288675993680945 2.6137890517711631 5.3335591703653327 3.817958265542984 2.5248406380414963 5.4293243139982232 2.5158333033323288 6.008457973599433 3.1800231933593741 13.962696343660353 9.5081762969493848 5.4728096723556519 5.1714489161968258 2.6142212748527527
leaf_count=17 492 15 12 12 19 11 10 12 10 148 67 19 17 133 40 13 20 14 165 50 17 18 11 11 25 81 11 24 29 11 14 27 19 10 22 13 10 11 31 21 385 12 663 18 18 10 25 13 11 10 21 14 10 20 10 23 12 51 38 21 21 10
internal_value=-2.7532e-05 0.0111472 -0.00630007 -0.00186481 0.0327729 0.019086 -0.00438986 0.0170306 0.0150326 -0.0039447 0.0222645 0.0290354 0.0554042 0.0175632 0.0386526 0.000484254 0.0317115 0.0679092 -0.0106925 0.0188701 0.0450885 0.0247167 0.0446515 0.0700604 0.0654015 -0.00580025 -0.00379799 0.00691679 0.0404824 0.000652666 0.0575615 0.0757438 0.0155995 -0.00312081 0.022394 0.0839296 0.0500746 0.0119108 -0.00373703 0.0561631 -0.00352804 -0.011605 -0.0133671 0.0387387 -0.0155509 0.0454154 0.0258032 -0.0125573 0.00919665 0.0363459 0.0126948 0.0794735 0.0497713 0.0961125 0.0636011 -0.017888 -0.0198884 0.0852216 0.00312137 0.0308283 -0.0101742 -0.0115874
internal_weight=787.019 282.945 504.074 380.031 25.8215 22.6645 354.21 222.898 215.987 59.5973 156.39 123.46 37.4292 86.0307 38.4955 47.5352 16.7539 8.98717 60.0465 19.4507 10.7542 18.4455 14.2136 7.0274 11.4735 346.147 326.58 137.654 21.6493 116.005 28.2498 19.7096 8.54026 32.9299 16.1109 9.06312 5.91819 7.27341 10.3226 8.06238 106.906 188.926 183.262 7.37182 175.89 5.66336 10.9543 36.781 12.5861 10.7475 8.13376 6.91092 9.09923 15.376 7.94516 42.8434 124.043 18.9838 19.7067 10.1985 7.76672 9.75728
internal_count=3128 1108 2020 1516 101 89 1415 867 841 236 605 475 141 334 147 187 65 34 241 76 41 71 54 26 43 1384 1303 546 85 461 107 74 33 130 63 35 23 28 41 31 427 757 735 29 706 22 43 146 50 42 32 26 34 57 30 171 504 70 78 40 31 39
is_linear=0
shrinkage=0.05


Tree=7
num_leaves=63
num_cat=0
split_feature=7 19 81 37 58 3 13 7 25 72 10 76 16 68 69 50 56 117 92 41 97 35 5 58 57 4 73 38 79 49 96 87 67 99 5 44 54 91 54 64 27 17 116 69 2 14 36 55 93 51 69 116 25 68 84 52 68 37 117 67 107 50
split_gain=29.3065 15.1956 13.1028 11.2611 11.1127 11.7641 10.8455 13.0432 11.3257 10.4264 10.0323 9.73306 9.69766 10.5193 10.9362 10.4975 10.5815 11.6104 11.9457 9.62474 8.99125 8.95942 16.3859 8.67197 8.65841 8.40086 11.4383 8.91861 8.2228 8.56577 8.78893 8.15172 7.93895 8.94302 7.85899 9.26691 7.97439 8.42608 7.79798 7.74629 8.06462 7.66551 8.38083 7.62671 7.61402 7.98202 7.38617 7.36106 7.19045 7.14597 6.87816 6.81214 6.75539 8.33212 6.75055 6.68397 6.66215 6.63997 6.47796 6.41118 6.85473 8.3132
threshold=1.0594126000000001 0.85296355000000013 -1.5054031499999998 0.79484257500000011 -0.51016794999999993 1.0000000180025095e-35 0.20999220000000005 -1.4691397999999998 -1.6047493999999998 0.14865257500000004 2.0579190000000005 0.14288557500000001 2.6356387500000005 1.7017282 0.81485637500000008 2.0478060000000005 0.72524518500000013 0.032657049500000007 0.30117935000000001 1.9151835500000003 -0.58159268499999983 -1.6041549499999996 -0.45717565499999996 -1.9533851499999997 -0.060776546499999994 3.2603507000000005 0.4617478550000001 -2.1262866499999995 -0.45929537499999989 0.4735928350000001 0.82186482500000013 1.0119815500000002 0.077346487000000005 0.35691808000000008 -2.4476908499999994 1.3191906500000001 0.25089946500000004 -0.048905785999999993 -0.99606114999999995 1.3706924000000003 -0.19776403999999997 2.4089853000000008 -1.0521575999999999 -0.63130356499999984 1.45968655 -2.4131446999999997 -0.13669571999999999 1.1662889500000002 0.27042937000000006 -0.4375348799999999 -1.7542923999999998 0.024399501500000004 0.37269091000000004 0.11356545250000001 0.089190090000000014 -1.3832891999999999 -0.82811687999999994 0.56346050000000003 0.56020126000000015 1.07865465 0.037191107000000008 0.67697155000000009
decision_type=2 2 2 2 2 2 2 2 2 2 2 2 2 2 2 2 2 2 2 2 2 2 2 2 2 2 2 2 2 2 2 2 2 2 2 2 2 2 2 2 2 2 2 2 2 2 2 2 2 2 2 2 2 2 2 2 2 2 2 2 2 2
left_child=1 6 49 4 5 9 8 10 44 11 41 -4 13 14 15 16 17 18 32 23 -18 22 -10 -9 -19 26 27 -25 29 48 -31 -7 -3 51 -6 39 37 -37 -16 -36 -41 42 -8 57 45 -1 58 -40 54 -2 -30 -34 -44 -54 -23 -22 -57 -26 -28 60 61 -29
right_child=2 12 3 -5 34 31 7 19 21 -11 -12 -13 -14 -15 38 -17 20 24 -20 -21 55 28 -24 25 43 -27 46 59 50 30 -32 -33 33 -35 35 36 -38 -39 47 40 -42 -43 52 -45 -46 -47 -48 -49 -50 -51 -52 -53 53 -55 -56 56 -58 -59 -60 -61 -62 -63
leaf_value=-0.028939176228796128 -0.014558130441632195 0.05517510337748327 -0.03023624537299574 -0.028833470643047365 -0.039611253604360908 -0.018931470698809821 -0.022827694603232071 0.057908278868876353 -0.028311842465029338 0.058539945479045057 -0.0056758956631160987 0.037077010115173496 -0.03882327481878195 -0.054344684525082426 0.02062195901219473 -0.048122211983138985 0.071071468514515193 -0.03419986042653371 -0.018990575296217404 0.065553667166789023 0.081271969430982929 -0.03739761177186756 0.052525236662645892 0.067650388786298879 -0.00012464961208759958 -0.038192095803111316 -0.0092995526003116068 -0.015513835515720706 0.054927842308260567 0.046318081823864279 -0.031924913570587465 0.056381688010938402 -0.012553520467533389 -0.04512652743999733 -0.020657004958808161 -0.0034195954753777681 -0.029493265909401552 0.070993506353827798 -0.045026056455355845 0.080741549700148033 -0.014592424211733497 -0.023563130172940622 0.05661708740199161 -0.014716542613147886 -0.0074536386211253016 0.046866539621448051 0.05134128895457292 0.025438680780684276 0.021717635880634762 0.051921979706576429 -0.011417232652070078 0.066609957051096999 0.04685014001514988 -0.014897095577588049 0.015872226674331313 0.052272396919084231 -0.0039928150082042813 0.079407646768802159 0.065436342369506892 0.027859398342367198 -0.032605206335628426 0.040541198970539968
leaf_weight=3.9129277467727652 6.1034538745880154 19.618429988622665 10.301235407590868 94.602656811475754 28.830436021089554 36.583001226186752 4.646251529455184 7.3238849937915793 9.3024927973747271 15.600706815719603 15.05842813849449 11.218553751707075 19.789323300123215 9.2421284019947034 7.892765372991561 8.4979798197746259 10.171742796897886 28.638344734907147 15.3393437564373 6.9208097159862509 3.6270972788333884 17.439506649971012 19.223318785429001 4.00577488541603 5.3922885656356794 11.809762895107268 14.026012510061266 22.594658195972446 4.0061801970005027 21.802951782941822 4.2963410317897788 3.9842226505279532 4.6657809317111987 5.3361910581588736 100.2841209769249 6.7859566509723672 6.0327957868576041 8.6578444540500641 26.336650162935261 3.9953189194202423 4.9876776337623578 4.6752065718173972 50.973094165325165 18.588650286197669 12.287654042243956 30.855130642652512 18.504377245903015 4.3132582306861869 18.019917577505112 11.96908715367317 157.10300543904305 6.5080844461917877 14.913937568664553 8.6217338442802411 9.0249705314636213 6.8884074985980979 22.269822239875797 5.1125050485134125 3.6550535857677451 10.111884653568266 29.250412613153458 9.3518252074718458
leaf_count=11 17 54 29 267 82 103 13 20 26 43 42 31 56 26 22 24 28 80 43 19 10 49 53 11 15 33 39 63 11 60 12 11 13 15 282 19 17 24 74 11 14 13 140 52 34 85 51 12 50 33 437 18 41 24 25 19 62 14 10 28 82 26
internal_value=1.31662e-05 0.00545418 -0.0119895 -0.0142473 -0.00843137 0.0070772 0.00999918 0.0180494 0.00380464 0.0274173 0.0318999 0.00485505 -0.00537353 -0.0021978 0.000221651 0.00595999 0.00898049 0.00071049 0.0179777 0.00809226 0.0300034 -0.000277386 0.0261636 0.00504803 -0.0146832 0.00190843 0.00615577 -0.0049447 -0.00353278 0.0106981 0.0334381 -0.0115348 0.0336736 0.00812399 -0.0159816 -0.010771 0.0192544 0.0382966 -0.023697 -0.0166726 0.0278088 0.0386496 0.0423241 0.00452814 0.0263783 0.0383351 0.0292597 -0.0351098 -0.00264361 0.0294703 -0.00976748 0.0335543 0.0463869 0.0242305 -0.0192314 0.0172619 0.00929941 0.0385824 0.00614995 -0.00902274 -0.015117 0.000895385
internal_weight=1121.88 771.946 349.937 331.865 237.262 77.6877 543.718 236.443 307.274 37.1205 98.8887 21.5198 228.229 208.439 199.197 160.655 152.157 109.2 51.4678 137.554 42.9571 260.219 28.5258 130.634 57.7318 123.31 111.5 75.3146 231.693 70.5837 26.0993 40.5672 36.1285 16.5101 159.574 130.744 21.4766 15.4438 38.5427 109.267 8.983 83.8302 79.155 29.0934 47.0557 34.7681 36.1854 30.6499 44.4844 18.0725 161.109 11.1739 74.5088 23.5357 26.4645 32.7853 29.1582 10.5048 17.6811 71.3088 61.1969 31.9465
internal_count=3128 2145 983 933 666 217 1508 655 853 103 273 60 637 581 555 447 423 304 143 382 119 723 79 363 161 343 310 210 644 196 72 114 100 46 449 367 60 43 108 307 25 231 218 81 130 96 100 86 124 50 448 31 205 65 74 91 81 29 49 199 171 89
is_linear=0
shrinkage=0.05


Tree=8
num_leaves=63
num_cat=0
split_feature=7 16 16 2 40 17 9 19 89 42 25 60 32 49 36 43 74 1 63 74 62 98 40 28 20 66 39 28 107 123 76 31 33 7 76 88 118 43 10 91 27 43 32 60 99 123 68 10 101 3 23 13 84 20 121 74 127 32 108 31 30 79
split_gain=39.9195 30.7428 20.7915 19.2593 12.9426 12.3777 12.323 10.6424 10.6058 10.3957 13.7681 10.2392 9.97255 9.37695 9.15293 8.88355 10.7605 8.79996 8.53577 8.52173 8.50565 8.38842 8.37475 8.2514 8.81881 8.22169 7.88619 7.87179 7.83773 7.82326 7.71794 7.52708 10.7344 7.51089 7.64031 7.4225 7.37119 7.28611 7.24777 13.9647 7.24722 8.43154 7.19811 8.02824 9.21357 7.0573 6.95102 6.90752 7.7061 6.89241 7.61565 9.27475 6.8267 6.79925 6.65554 6.58192 8.88285 7.37858 6.56199 6.54818 6.36846 6.25002
threshold=0.91523620000000017 0.25198571000000008 4.1640091000000012 1.2235362500000002 -1.3027681999999998 0.28759217000000009 -2.1026445499999995 0.13011026000000001 -0.36598121999999994 1.2907648000000003 1.3054275500000003 -1.0067703999999997 0.76641835000000014 -0.10350671249999999 -0.31467389999999995 -2.1974776999999999 -0.25643445499999995 3.4123120000000005 0.79346639000000019 -1.5674779499999998 -0.98122509999999985 -0.34367253999999997 0.63117828000000009 -1.2920766999999997 -0.55763167999999996 -0.72538844999999985 0.61845600000000012 -0.14159344999999998 0.75196745000000009 -0.5396181699999999 0.20240184000000003 -0.80494356999999994 0.049400523000000009 -2.7591816499999995 -0.71681727499999992 -0.13588312999999996 0.5419322550000002 0.55282096500000011 0.90572130000000006 -0.89485291999999983 0.48850022000000004 1.2706759500000002 0.89167032000000013 1.7486976500000002 1.1086535500000003 -0.7617733499999999 -0.58939975499999986 -1.8464889999999998 0.8694400000000001 -0.97403623499999992 0.099699490000000016 0.20999220000000005 1.0000000180025095e-35 0.91062130000000019 -0.53699179999999991 -0.086902837999999996 -0.14001791999999999 -0.036142963499999993 -0.13532329999999995 1.3270209000000002 -0.058368434999999989 0.29459830000000004
decision_type=2 2 2 2 2 2 2 2 2 2 2 2 2 2 2 2 2 2 2 2 2 2 2 2 2 2 2 2 2 2 2 2 2 2 2 2 2 2 2 2 2 2 2 2 2 2 2 2 2 2 2 2 2 2 2 2 2 2 2 2 2 2
left_child=2 5 4 11 28 8 17 9 12 38 40 29 36 22 19 -13 25 23 -5 60 27 -20 30 24 -6 -17 -19 -7 35 -3 37 32 53 52 -35 -1 -2 54 -8 -40 41 -11 43 44 45 -22 -21 -25 -49 50 -36 58 -16 -18 -10 -37 -57 -58 -52 -51 -9 -42
right_child=1 3 -4 18 6 20 7 14 13 10 -12 15 -14 -15 33 16 31 26 21 46 42 -23 -24 47 -26 -27 -28 -29 -30 -31 -32 -33 -34 34 49 55 -38 -39 39 -41 61 -43 -44 -45 -46 -47 -48 48 -50 59 51 -53 -54 -55 -56 56 57 -59 -60 -61 -62 -63
leaf_value=-0.0019980525804265802 0.063976103213752231 0.040514599055647395 0.058303516636117117 0.056597556423802445 -0.01093932746508299 -0.013298353921183391 -0.029580019711931228 0.081877961372022676 0.041742656972177876 0.048608680540969035 -0.04878321376737757 -0.053008239231286336 -0.0081374702844241777 -0.017251731253481589 -0.013926991540420387 0.037995589740877668 -0.0036767766853175671 0.00091278883197573298 0.058069891543098454 -0.041520373672081723 0.035331489715126424 -0.03057328789763495 -0.017299988448093141 -0.039153141221138228 0.062543205640157515 -0.014208892236886379 0.08286975594636789 0.056818908073529399 -0.027152419797397121 -0.04407402971978068 0.080450445149914243 0.05092667947377294 -0.054329323184331084 -0.02845448435199141 -0.036422922548938218 0.048932383473754962 0.003797316079059285 0.057464623240107537 0.046711397814698942 -0.019661533544837087 0.01664398047076391 -0.029918261018725065 -0.044411653069953969 0.052144977758713101 0.036171447715779882 -0.031833680733173331 -0.011924324604367285 -0.0071402374212438174 0.044001417083221278 0.0066845624081338876 0.081731854504622448 -0.032843242365102443 0.056581210712696922 0.071802830428047013 -0.045225957934004128 -0.027504988379342767 0.065358977704599613 0.0006137026742385022 -0.00060861447814165902 0.048530980306828425 -0.012333231634393517 -0.046045736716168816
leaf_weight=38.27899506688118 20.302917391061786 3.616644710302352 12.063939422369002 58.32947450876236 7.0409841537475613 8.519239544868471 176.60187315940857 3.6187762022018433 3.5973018109798414 17.859045207500461 10.883533030748366 3.847068339586257 10.689476698637007 37.382494807243347 4.9622628092765835 11.169064939022062 5.7540415823459643 5.3610717654228193 4.7517651617527008 29.204827576875687 4.3459405004978171 6.0886364281177503 10.687335193157194 13.753561109304426 9.7190310359001142 23.22442564368248 6.4865996539592743 7.5503634810447684 13.077023237943648 11.192613512277601 6.9101164937019339 37.476444900035858 4.6135476529598227 21.561639875173569 17.58637523651123 20.524051249027252 6.7903860211372367 6.5497907400131217 9.3140360713005048 53.132215529680252 9.198647469282152 4.2274468541145316 22.14723339676857 4.657428801059722 7.1416803300380698 39.081280022859573 61.863121181726456 52.077210605144501 8.5793681144714338 49.794461578130722 5.0690506398677835 7.0800123810768119 11.139467954635618 6.1967915892601013 5.6629915833473241 9.5202904641628283 8.6559160649776477 8.9508095383644086 4.629393696784974 11.509342342615126 3.5568773448467246 7.0024339258670798
leaf_count=108 56 10 33 160 20 24 503 10 10 50 31 11 30 105 14 31 16 15 13 83 12 17 30 39 27 65 18 21 37 32 19 103 13 61 50 57 19 18 26 151 26 12 63 13 20 111 175 147 24 140 14 20 31 17 16 27 24 25 13 32 10 20
internal_value=6.20179e-06 0.0132006 -0.00679476 0.0284605 -0.00788276 -0.000113861 -0.0105522 -0.0136833 0.0113679 -0.0200962 0.000841204 0.0151775 0.0327583 -4.87866e-05 -0.00570168 0.021371 0.0246067 0.00524606 0.0490255 -0.017282 -0.0134547 0.00828243 0.019201 -2.19226e-05 0.0316727 0.00274418 0.0457842 0.0196465 0.0089096 -0.0234162 0.0363707 0.0385207 0.0104525 0.00283106 -0.00156703 0.0143976 0.0488935 0.0171048 -0.0244029 -0.00976182 0.0149473 0.0335783 -0.0203294 -0.0106718 -0.0164573 -0.0251122 -0.0214156 -0.00716078 9.33239e-05 0.00449282 -0.0134321 0.0106658 0.0348519 0.0354612 -0.0114417 0.0275685 0.0114048 0.0324441 0.042428 0.0145409 0.0351787 -0.0104518
internal_weight=1112.16 378.276 733.884 176.261 721.82 202.016 622.813 519.795 108.573 288.219 49.1711 107.091 37.7828 70.79 231.576 92.2814 88.4343 103.018 69.1699 98.2436 93.4432 10.8404 33.4075 91.1702 16.76 34.3935 11.8477 16.0696 99.0071 14.8093 22.7202 54.0408 16.5644 133.332 117.23 85.9301 27.0933 15.8101 239.048 62.4463 38.2876 22.0865 77.3736 55.2263 50.5689 43.4272 91.0679 74.4101 60.6566 95.6686 34.3648 16.7785 16.1017 11.9508 9.26029 47.6511 27.127 17.6067 9.69844 61.3038 7.17565 16.2011
internal_count=3128 1055 2073 488 2040 567 1762 1472 303 819 139 298 105 198 653 256 245 290 190 278 264 30 93 257 47 96 33 45 278 42 63 149 46 375 330 241 75 44 680 177 108 62 219 156 143 123 258 210 171 269 97 47 45 33 26 133 76 49 27 172 20 46
is_linear=0
shrinkage=0.05


Tree=9
num_leaves=63
num_cat=0
split_feature=15 6 22 20 97 22 99 27 58 36 59 100 119 44 15 90 116 81 36 108 0 65 56 18 126 95 45 21 111 34 21 11 113 76 80 124 36 65 105 46 80 22 119 88 66 10 58 105 95 59 81 55 116 45 4 122 62 109 38 114 9 16
split_gain=20.224 13.3394 11.4855 12.1508 11.6143 13.106 10.9551 10.9359 16.8039 13.6498 11.7586 10.0216 11.1255 9.45883 10.299 9.38857 11.5001 10.4602 9.22475 8.91325 11.5721 10.1987 10.0122 9.44402 9.03738 9.01834 9.51329 9.99194 8.77837 8.97634 8.72457 8.68426 8.58884 13.717 8.4807 8.43313 10.3548 8.38983 7.93837 8.50557 7.85026 7.84926 10.897 7.76584 7.75863 7.61549 7.54562 9.21958 7.49684 7.48853 7.21436 11.5796 6.77928 6.76953 7.86444 6.17886 7.30871 6.17005 6.1077 6.07634 6.06806 7.32263
threshold=-0.69373989999999985 1.8460393500000001 -1.1336681999999998 -2.4704686499999995 -1.1355613499999999 2.4964871500000005 1.5954730000000004 0.48850022000000004 -0.67846424999999988 1.3274227000000003 1.2790142000000002 0.80062645500000007 0.35585354500000005 -0.69770684999999988 -2.7272555999999994 0.93617639000000008 -0.84470864999999995 -0.15822917499999997 -1.5521917499999998 0.85958341500000002 3.0019990500000007 0.24327510000000002 0.12959867500000002 3.4988602500000003 -0.05304562849999999 0.21318482500000005 -0.83918167999999993 -0.7784850499999999 -0.30462997999999997 -0.78099434999999984 1.0205767500000003 0.34773095000000004 -0.30516871499999992 -1.0000000180025095e-35 -0.023341981999999994 -0.82496834999999991 -0.66199409999999992 0.33748845500000008 1.4532072000000003 2.2890106500000003 -0.076377029999999985 0.35415202500000004 -0.013463584499999999 -0.37445138499999991 1.1775561000000001 0.49870509000000002 1.2409619500000002 -0.56829352999999994 0.33352874500000002 0.50346298000000012 0.68243006000000006 -0.37631983999999991 -0.69898823499999996 -1.6611343999999997 -0.070682284999999997 0.50377260000000013 0.51285217000000005 -0.58441188999999993 -1.6915894999999999 1.4192441500000001 0.4344712750000001 0.16884670500000001
decision_type=2 2 2 2 2 2 2 2 2 2 2 2 2 2 2 2 2 2 2 2 2 2 2 2 2 2 2 2 2 2 2 2 2 2 2 2 2 2 2 2 2 2 2 2 2 2 2 2 2 2 2 2 2 2 2 2 2 2 2 2 2 2
left_child=1 7 59 4 -4 -6 19 15 18 10 11 12 57 14 40 16 28 -17 -9 20 21 -5 44 38 34 26 27 -22 -1 -30 31 41 -14 -34 -24 36 -18 -38 39 46 -3 42 -27 -19 58 -45 -23 -48 -13 -29 -28 -52 -20 54 -37 56 -8 -10 -21 -2 61 -26
right_child=2 13 3 6 5 -7 55 8 9 -11 -12 48 32 -15 -16 17 35 43 52 22 25 23 24 -25 60 30 50 49 29 -31 -32 -33 33 -35 -36 53 37 -39 -40 -41 -42 -43 -44 45 -46 -47 47 -49 -50 -51 51 -53 -54 -55 -56 -57 -58 -59 -60 -61 -62 -63
leaf_value=-0.010831431760973892 -0.021245061427076703 0.018451236000107292 0.1173215978358174 -0.022687436481418868 0.0030354594656295214 0.11255300121623149 0.074170010890755575 0.069395007328005701 0.038046884271612881 -0.010310875761354308 -0.0085448287263559207 -0.018717237413824743 -0.030093007967627507 -0.024377963146161183 -0.0098149569442641908 -0.01300476560569796 0.10618465418521653 0.10859553803118177 0.047602597411577505 0.050402167395755287 0.10983779654362609 -0.017026685536531496 0.11803751703232644 0.069984763183889562 -0.023623008417191605 0.0082196177087263574 -0.026979869979689264 0.058804817856404026 -0.0043492920389590723 0.10627165745147292 0.102054897444797 -0.016344114779902726 -0.00041560455426401774 0.12475013160741162 0.011139911389408133 0.072446478922145383 -0.042090606405129967 0.072218056220117441 0.076217258844449548 0.067485633334898695 0.12284009865914627 0.0072264596686359671 0.13297366787905085 -0.010636033003133226 0.073591452173884478 0.084252164963190962 0.084459230165826127 -0.0059327560039774676 0.079407096205674862 -0.04214987205756128 0.098508304681717909 -0.042144425194079765 -0.038328354663084763 -0.013953364543014522 -0.019208358886406582 0.11190306637380715 -0.042149409079462026 0.096847368919782198 -0.031926537598229499 0.047836931603181754 -0.042038643305012335 0.083179879201293161
leaf_weight=4.6515870094299308 119.08388784527779 4.0259214788675308 3.3950631022453335 136.70767472684383 19.705443337559704 3.1714074313640586 2.966397821903227 3.0705965757370022 5.4625324159860567 10.833012923598288 7.3256719857454291 6.3060144037008268 4.0281677991151801 39.973558232188225 12.346933379769323 6.7827999740839031 3.6467811316251755 5.5524452328681955 2.7281980365514817 2.6583685129880967 3.2529285848140717 71.69399319589138 5.5414271503686905 4.4215624481439582 2.7041920423507673 2.9754045605659512 29.923832520842552 3.4253402799367887 2.5900885164737693 6.2808973789215079 3.7710687965154639 9.6643316745758039 4.6846822798252097 4.108684539794921 2.789318650960924 5.1509794741868973 4.1873572319746 2.6031314730644226 2.9227443635463706 3.6214518994092932 3.2588786184787777 6.9639677256345749 4.2515400350093868 4.6397214680910075 2.5767163038253775 3.8851807713508606 4.2910462170839301 8.2338103502988798 2.8157015293836594 3.9610896706581116 3.1693346947431564 2.718436360359191 14.462147176265711 80.477430880069733 4.2894000560045225 2.8672666251659393 2.4789990186691284 24.341642975807197 14.76468153297901 3.2705361247062674 3.4393118619918823 3.9478064030408859
leaf_count=18 492 15 12 557 78 11 11 11 20 43 29 25 16 165 50 27 13 20 10 10 12 291 20 17 11 12 122 13 10 22 14 39 18 14 11 19 17 10 11 14 11 27 16 18 10 14 16 33 10 16 12 11 60 320 17 10 10 86 60 12 14 15
internal_value=-3.66683e-05 0.0106109 -0.00607926 -0.00177908 0.0310248 0.0182178 -0.00422254 0.0161844 0.0296622 0.0412827 0.050744 0.0591373 0.0693161 -0.0104194 0.0180025 0.00716507 0.00151616 0.038003 -0.0104317 -0.00559158 -0.00844202 -0.0139379 0.0171077 -0.00137144 0.0437021 0.00876227 -0.00469184 0.0368219 0.0448016 0.0739733 0.031384 0.0202123 0.0303702 0.0580679 0.0822458 -0.00431643 0.0382262 0.00172958 -0.00484759 -0.00754489 0.0651499 0.0451081 0.0816112 0.0625798 -0.00738875 0.0326088 -0.0107712 0.0250358 0.0115719 0.00466627 -0.0170253 0.0335677 -0.0246907 -0.0092546 0.0308015 0.0524965 0.021216 0.0860704 -0.019365 -0.0193985 0.0118828 0.039762
internal_weight=785.841 284.51 501.33 378.976 26.2719 22.8769 352.704 224.905 90.1671 69.9061 59.0731 51.7474 42.6257 59.6053 19.6317 134.738 113.878 20.8601 20.2609 344.391 305.97 231.892 38.4218 95.1846 18.4221 74.0773 46.451 10.6394 13.5226 8.87099 27.6263 23.8552 12.8215 8.79337 8.33075 100.355 10.4373 6.79049 90.763 87.8403 7.2848 14.1909 7.22694 14.0773 19.9998 8.5249 84.2188 12.5249 9.12172 7.38643 35.8116 5.88777 17.1903 89.9178 9.44038 8.31266 5.4454 29.8042 17.4231 122.354 10.0913 6.652
internal_count=3128 1108 2020 1516 101 89 1415 867 342 261 218 189 154 241 76 525 446 79 81 1384 1233 939 151 382 71 294 186 41 50 32 108 94 48 32 31 396 40 27 365 354 26 55 28 52 80 32 340 49 35 29 145 23 70 356 36 31 21 106 70 504 40 26
is_linear=0
shrinkage=0.05


Tree=10
num_leaves=63
num_cat=0
split_feature=7 6 16 23 55 30 33 65 69 25 127 38 19 58 54 4 37 4 24 13 72 100 81 55 126 50 79 58 19 43 9 24 15 127 33 60 21 19 40 58 0 4 115 106 52 34 127 123 91 118 118 72 15 9 50 68 37 69 63 58 20 99
split_gain=26.4712 27.4539 14.8726 10.3283 12.9115 9.85246 9.794 9.62038 9.5462 10.3878 11.4065 9.95134 9.20958 9.20244 9.01491 8.39924 8.19368 8.90468 8.10326 8.09025 8.02196 8.32072 8.01829 8.33265 7.8418 7.76931 7.93599 8.13759 7.6476 7.63995 7.36756 7.92272 7.39794 7.27475 7.699 7.18149 8.90627 7.15392 6.82817 6.96019 9.16863 6.78833 7.37482 12.436 8.00248 6.71325 6.94037 6.71163 6.67667 6.65872 6.49869 6.46552 6.45275 6.41966 6.39781 8.15471 6.31335 6.09144 6.07181 10.1681 6.04229 6.02706
threshold=1.7356564500000002 -1.8445811499999998 0.46674749000000004 -0.93126539999999991 0.97586752500000007 2.4455058500000004 0.68080513000000009 -0.99367174999999985 -0.99075084499999988 0.53278577000000016 0.4168926750000001 0.47415704000000009 1.8967529500000002 -1.4577823499999998 -0.37866697999999993 -0.13215826999999999 -0.73082024999999995 -3.1436937999999999 -3.2761855499999997 -1.1355894999999998 -0.28206640499999996 -0.20426822499999997 -0.60388327499999994 -1.3458028499999999 0.096936975000000009 0.69860241000000012 -0.11337718299999998 0.70006092500000017 -0.36353013499999992 0.47871281000000004 -0.88108992999999991 -1.0894601499999996 -0.86234393499999984 -0.87152324999999986 -0.19466105999999997 0.031453763500000002 -1.2760440999999998 -0.023594144499999997 -1.2295959499999998 0.16966816000000004 -2.1049594999999992 1.8911695000000004 0.045495836500000005 -0.34553178499999998 -1.0189488999999996 -0.51509522499999993 -0.12941488499999998 0.6607805000000001 0.19756884500000002 0.14146968500000004 0.25165787000000006 0.037396949000000006 0.76692338000000004 3.1082346500000004 -0.25809955499999993 0.61613786500000012 1.0073808000000002 0.47371853500000005 0.66576630000000014 -0.36708166999999997 1.4959104500000002 -0.23509905499999997
decision_type=2 2 2 2 2 2 2 2 2 2 2 2 2 2 2 2 2 2 2 2 2 2 2 2 2 2 2 2 2 2 2 2 2 2 2 2 2 2 2 2 2 2 2 2 2 2 2 2 2 2 2 2 2 2 2 2 2 2 2 2 2 2
left_child=1 2 5 4 12 7 18 61 25 11 22 19 14 -4 30 24 20 -18 -2 47 -13 -22 48 -24 49 -5 -27 -28 -21 -8 31 -3 -33 34 -20 36 -25 -31 -30 45 -41 42 -9 44 -44 46 -40 60 -11 -16 -23 -38 -50 -15 -45 -56 58 -53 -35 -60 -10 -1
right_child=6 3 13 8 -6 -7 29 41 9 10 -12 16 -14 53 15 -17 17 -19 33 28 21 50 23 35 -26 26 27 -29 38 37 -32 32 -34 56 -36 -37 51 -39 39 40 -42 -43 43 54 -46 -47 -48 -49 52 -51 -52 57 -54 -55 55 -57 -58 -59 59 -61 -62 -63
leaf_value=-0.002308924807566119 0.032975731157912837 0.067028446397357389 0.033951337386980383 0.033020630457711315 0.045464956019504975 0.062385215126589115 -0.011043900437228539 -0.021892025563586878 -0.01726247652137175 0.048198916153803409 -0.031140834889898591 0.056904139514013234 -0.016992144170712872 -0.037420996811990299 -0.014278122158637857 -0.0072246283190106897 0.035538223528070921 -0.022194697587527113 -0.019134865785168001 0.039061456773017131 0.041378675119267884 -0.053616063073420567 0.03793588590885541 0.046194651579530607 0.056263924015098055 -0.021061662272514877 0.06031365295448831 -0.018417176015736333 -0.027513205506672855 -0.00044003406475563587 0.049475288085921408 0.036153200068616047 -0.047526356530167721 -0.027298701533821329 0.061541101830391909 -0.029822985591454611 -0.034482459158709532 0.05223883473044616 0.038937868223933296 0.045490538165909894 -0.02123528708392983 -0.043558980989629459 0.040369974758015299 0.048851995476164756 -0.043201558990394143 0.050043456879665354 -0.032295208564178515 0.047289601912609426 -0.037989909231365852 0.045190995290691538 0.017841437142211605 0.035046741414836539 0.044032925523740718 0.01942176118384345 -0.020285759836964002 0.066903940650635027 -0.044390542490278274 -0.033139649823573876 0.02941396879558621 -0.025162457513280719 0.030936075397014831 0.05240152586365291
leaf_weight=9.3398227989673632 6.7813010811805716 4.0153149664401999 5.4549811482429496 50.225726246833801 37.246235966682434 5.8271023631095877 46.067334353923798 37.788132160902023 35.180361896753311 13.780789613723757 40.494900405406952 8.7465247213840502 22.433491438627243 69.017761886119843 13.272982120513918 43.148088097572327 7.5988751649856559 55.173682361841202 7.0904413461685181 44.467092335224152 7.6241131424903914 7.7493365108966792 9.0172391533851606 8.7188320755958539 13.136998325586317 17.509695172309879 8.4241330921649915 5.3769100904464713 9.2386193573474866 14.610337942838671 30.699764609336853 4.3271890580654135 6.7792333066463462 88.65183362364769 5.0730846822261793 33.859110504388809 14.923814892768862 11.53155407309532 7.2675871849060059 7.2844474613666561 17.555160373449326 13.52232778072357 3.6147705316543606 16.000266462564468 13.80085808038711 21.843907117843628 6.4580578804016096 6.1974563598632804 6.0427358746528608 7.2935789227485648 5.3982280194759369 9.7875827848911268 3.9752108454704285 5.3522785007953635 10.27056029438973 3.6294324398040763 34.90742763876915 4.9228206276893607 14.471370398998259 20.802315592765808 7.9767421782016745 10.918866962194441
leaf_count=26 19 11 15 138 102 16 130 106 98 38 114 24 63 197 37 120 21 155 20 122 21 22 25 24 36 49 23 15 26 41 84 12 19 252 14 95 42 32 20 20 49 38 10 44 39 60 18 17 17 20 15 27 11 15 29 10 100 14 40 59 22 30
internal_value=1.85204e-05 0.00414024 -0.0118799 0.00906634 0.0192044 -0.00109308 -0.014321 -0.00420444 0.00523737 0.00206822 -0.00859668 0.00813637 0.0124638 -0.0287323 0.0178504 0.00738437 -0.00498967 -0.0152059 -0.0206284 0.015547 0.0167359 -0.000178179 9.54924e-05 -0.00738239 0.0260872 0.0208344 0.00128644 0.02964 0.0228622 0.00120764 0.0354041 0.00683716 -0.0149238 -0.0227542 0.0145129 -0.0130413 0.00177394 0.0227974 0.0125196 0.018642 -0.00166731 -0.0106508 -0.00542192 0.00773169 -0.0258555 0.0328248 0.00542197 -0.00136676 0.0256189 0.00681158 -0.0242765 -0.0112953 -0.00544251 -0.0333301 0.0272948 0.00248038 -0.0256081 0.0122282 -0.0203175 -0.00277195 -0.00835392 0.0271785
internal_weight=1119.7 869.71 204.537 665.173 182.353 124.712 249.987 118.885 482.82 401.283 145.523 255.76 145.107 79.825 122.673 76.8516 92.2908 62.7726 177.778 163.469 29.5182 20.7717 105.028 81.2294 33.7036 81.5365 31.3107 13.801 114.115 72.2092 45.8215 15.1217 11.1064 170.996 12.1635 72.2122 38.3531 26.1419 69.6478 60.4092 24.8396 98.6263 85.104 47.3159 17.4156 35.5696 13.7256 49.3546 23.7987 20.5666 13.1476 29.6342 10.0179 74.37 29.9003 13.9 158.833 14.7104 123.926 35.2737 43.1571 20.2587
internal_count=3128 2421 575 1846 504 348 707 332 1342 1117 407 710 402 227 339 213 258 176 504 452 82 58 293 227 93 225 87 38 315 203 126 42 31 485 34 202 107 73 193 167 69 276 238 132 49 98 38 137 66 57 37 83 28 212 83 39 451 41 351 99 120 56
is_linear=0
shrinkage=0.05


Tree=11
num_leaves=63
num_cat=0
split_feature=7 63 11 14 2 38 19 53 110 83 54 33 85 44 82 82 79 24 89 37 58 122 28 19 109 13 61 96 55 26 73 24 71 103 37 22 102 53 102 28 5 37 78 111 86 116 100 22 18 96 45 93 49 89 51 18 89 124 122 60 106 27
split_gain=36.1868 18.1627 17.3166 19.7384 14.3566 13.6707 11.3631 10.9761 11.9178 10.9535 10.8139 11.6873 10.575 10.37 10.3589 9.41406 9.00453 8.73641 8.79771 8.55453 8.35989 9.84687 8.68449 10.9327 8.91693 10.7112 8.34054 8.89259 10.6476 7.6636 8.17616 7.62515 7.63358 7.5657 7.49764 7.37421 9.29703 7.14076 8.27814 7.13845 7.13227 7.07019 7.03852 7.95374 6.95235 6.72672 6.6917 6.66215 6.64921 6.64144 6.68117 6.61307 6.42847 6.42042 6.35714 6.34783 6.44787 6.28525 6.7621 6.28247 6.19658 6.09917
threshold=2.3655861000000002 0.74466545000000017 -1.8480496999999996 2.1923784000000004 0.87450220000000012 0.23529553000000003 -0.32986685499999996 -0.86489791999999988 -0.43283919999999992 -1.2352851499999999 0.89696795000000018 0.034594727000000006 0.72912472000000006 0.54925435000000011 -0.109022362 -0.4212881899999999 0.89299560000000011 1.0373013500000001 0.54784980000000016 1.1190559000000002 1.5830020000000002 0.60878995000000014 -0.18235280499999998 2.8421057000000003 0.14038486500000003 -1.5480216499999997 -1.3104698999999997 0.79200710000000007 -0.37631983999999991 1.6022914500000003 -0.8650261749999999 0.28315101500000006 0.42124677000000005 0.63220555000000012 -0.95256157499999994 0.20441140500000002 0.25793270500000004 0.61633750000000009 -0.51482872499999999 1.4068373000000001 -0.5070924 0.39427544000000009 -1.1048274999999996 -0.029881968999999998 0.067289675000000007 -0.24065781499999997 -0.88920569999999988 -0.56925242999999981 0.27713300000000007 -0.15774221999999996 0.6601714500000001 1.0000000180025095e-35 -0.79936129999999983 -0.01263477425 -0.87377134999999984 -0.85263552999999981 0.37920911500000004 0.019053940500000002 -0.13553012499999997 0.21974795000000003 -0.44541936999999993 -1.0000000180025095e-35
decision_type=2 2 2 2 2 2 2 2 2 2 2 2 2 2 2 2 2 2 2 2 2 2 2 2 2 2 2 2 2 2 2 2 2 2 2 2 2 2 2 2 2 2 2 2 2 2 2 2 2 2 2 2 2 2 2 2 2 2 2 2 2 2
left_child=2 10 3 7 6 26 17 13 14 -8 11 35 40 19 -9 -13 -5 42 47 -1 22 51 23 24 25 34 60 55 -29 30 -17 32 -24 -27 -11 54 45 -3 -39 -12 44 -42 43 -4 53 -37 -34 57 -43 50 -26 -22 -48 61 -2 -28 -57 58 -19 -16 -6 -7
right_child=1 37 4 16 5 12 9 8 -10 20 39 15 -14 -15 59 29 -18 18 -20 -21 21 -23 31 -25 49 33 27 28 -30 -31 -32 -33 46 -35 -36 36 -38 38 -40 -41 41 48 -44 -45 -46 -47 52 -49 -50 -51 -52 -53 -54 -55 -56 56 -58 -59 -60 -61 -62 -63
leaf_value=0.066475383528614623 0.014449430811202261 -0.021184482676776931 0.033111101576636451 0.05405229299750014 0.082376578551266455 0.072827207290180343 -0.039842385286793944 0.046070667567018046 -0.016841979031789172 -0.03907305970237282 0.066536829414904214 -0.029822983748599999 -0.016246163345229703 -0.0082595991001149227 -0.037136757378876659 -0.040490441028634534 -0.021245503053205224 0.054916168399481283 -0.043335320907608443 -0.010996028622585278 0.063461481953928714 -0.0524806159625857 -0.016225725692815173 0.057933683755796939 -0.024241607368021428 -0.041757364313574574 0.00065629380708771997 -0.027007275870868472 0.049435981748313457 -0.024590702793015288 0.040716029884748747 -0.030950239839531879 0.07125100340098349 0.017329844788397612 0.046169589594388084 0.030869098652569912 0.052024702885702483 -0.040374397857412037 0.045613166372560222 0.011178885259043694 -0.0059413200119228186 0.054835833340501718 -0.031022124650448703 -0.034265731221862439 0.055160097413550768 -0.040549769009295189 -0.05315067019741513 -0.0095959002371528417 0.0029467373748559809 0.039168002288616006 0.044582590142483669 0.0062391008776094296 0.018368418170666402 -0.014044684964013614 0.068992803084730131 -0.032439052297198387 -0.002897452277511035 0.063514209892647472 -0.034072365191013525 0.024609934905125322 0.0072118754253352978 0.00083377425835180058
leaf_weight=15.881496459245684 7.1401109695434597 30.072047621011734 9.634930759668352 29.885134071111679 3.9689372181892386 6.540448009967804 21.462044954299927 17.207986116409302 75.398733764886856 3.5068281888961783 26.002720892429352 14.453937470912932 23.684025645256042 12.81373408436775 9.1254124045372027 3.5509546995162955 4.5787316858768454 3.6028464138507852 11.079402148723601 4.594074308872222 11.613023757934576 3.4699712991714469 50.144097894430161 9.096411317586897 11.930666565895082 26.236841946840286 38.204792201519012 7.3955185711383846 11.861149191856383 8.1960440874099714 24.386672079563144 44.527669191360474 4.6971877217292812 6.8272765576839438 9.7560598552227003 5.7570104002952576 10.933262318372725 3.8590065240859976 10.189786195755003 7.5041014552116385 32.951876908540726 12.614418655633928 139.21212586760521 8.0312976539134961 22.78816482424736 7.7157059907913226 3.8500151038169923 24.934914201498032 12.09212604165077 18.986470282077789 5.0057116150856009 8.9328716993331891 17.084919184446331 9.9152196347713453 21.215205013751984 62.572406321763992 26.207048028707504 7.9208092987537375 5.2390775382518777 7.5094992220401755 8.869711756706236 5.3469118773937243
leaf_count=44 20 85 27 82 11 18 61 48 214 10 71 41 67 36 26 10 13 10 32 13 32 10 142 25 34 75 108 21 33 23 67 127 13 19 27 16 30 11 28 21 93 35 398 23 63 22 11 71 34 53 14 25 48 28 58 179 74 22 15 21 25 15
internal_value=7.27915e-06 0.0204612 -0.00397821 0.0100924 -0.00729083 0.00155159 -0.0126899 0.0018818 -0.00577765 -0.0056456 0.029455 0.0214521 0.0138591 0.027017 0.0188726 0.00428055 0.0440485 -0.0213293 -0.00373215 0.0490932 -0.00253131 0.0254251 -0.00570352 0.00591973 0.000167249 -0.0143298 -0.0081915 -0.0115837 0.020078 0.0179224 0.0303944 -0.014529 -0.00487954 -0.0295567 0.0236307 0.0379162 0.0177679 -0.00743588 0.0219936 0.054139 0.0208324 0.00921941 -0.0272493 0.00248072 0.0358487 -0.0100319 0.017317 0.00679074 0.0294397 0.018863 -0.00389995 0.0385825 0.00521578 0.0156644 0.0552583 -0.0163851 -0.0237186 0.0311662 0.00218807 -0.00926244 0.0304483 0.0404447
internal_weight=1109.77 180.977 928.791 176.995 751.796 285.013 466.783 142.531 109.242 257.128 136.856 103.349 125.933 33.2893 33.8429 50.5876 34.4639 209.655 52.777 20.4756 235.666 24.0159 211.65 91.3463 82.2499 46.327 159.08 146.241 19.2567 36.1337 27.9376 120.304 75.7762 33.0641 13.2629 52.7613 24.406 44.1208 14.0488 33.5068 102.249 57.6584 156.878 17.6662 44.5907 13.4727 25.6321 41.6976 24.7065 35.9228 16.9364 20.5459 20.9349 21.8026 28.3553 126.984 88.7795 16.7627 8.84192 16.6349 12.8386 11.8874
internal_count=3128 503 2625 497 2128 804 1324 402 309 726 379 287 353 93 95 141 95 598 150 57 665 67 598 257 232 131 451 415 54 100 77 341 214 94 37 146 68 124 39 92 286 162 448 50 124 38 72 118 69 101 48 57 59 61 78 361 253 47 25 47 36 33
is_linear=0
shrinkage=0.05


Tree=12
num_leaves=63
num_cat=0
split_feature=15 6 22 16 20 36 111 44 12 63 27 95 7 89 14 63 47 11 81 44 107 18 69 75 93 88 121 87 59 37 34 90 18 3 80 2 84 4 10 66 119 65 126 37 5 25 1 98 95 124 51 91 106 74 27 78 13 41 115 114 9 9
split_gain=18.7764 12.2489 10.8444 11.7665 11.4054 10.9366 11.3034 10.9126 10.9086 10.0262 11.8431 10.6911 10.1699 9.86489 9.64298 9.60906 9.33616 9.09325 8.6789 10.1704 10.9674 8.87154 8.41321 8.82378 8.10752 8.04536 9.57432 8.63575 7.94298 7.91724 10.159 9.20251 9.16948 8.92157 8.24511 7.79362 8.03084 7.78441 7.40978 7.78699 7.26999 7.26162 8.1895 10.3856 7.22295 7.16927 6.75011 8.57031 6.64073 6.45132 6.11319 6.07725 6.07247 7.03323 6.03798 5.98507 5.77514 7.12468 5.57589 5.57159 5.51353 8.90572
threshold=-0.69373989999999985 0.69828285000000012 -1.1336681999999998 3.0857590500000005 -2.4704686499999995 -0.25926392999999998 -0.096004704999999982 -1.0362996999999996 1.6933414000000002 -0.097425301999999991 0.43621024000000003 0.61213292500000016 -2.4796099999999996 0.099757112500000009 1.9505334500000002 -1.5366218999999999 -0.49982265999999992 -1.3861815499999997 -0.17332438499999997 -0.68318014999999988 0.80126407000000011 2.9647304000000001 1.2670809000000003 0.55804499500000004 -1.6579796499999999 -0.13006014999999996 0.74316755000000012 0.29385640000000007 -0.21365394999999995 -0.041143784999999995 -0.13272476499999997 0.78597392500000007 -1.9011343499999998 -1.2594548999999999 0.57604848500000017 -3.6959276499999993 0.13408745000000002 0.42798232000000008 -0.73722317999999987 -0.26426381999999993 -0.32145372999999994 0.77134851500000012 0.40988280000000005 1.6612308500000001 2.2080730000000002 0.27681430000000007 -1.8125143499999998 -0.14159114499999997 0.13788951000000002 0.059715410000000003 -2.5200630499999996 -1.2157548499999997 0.31149764000000008 0.26061880000000004 2.1682430500000005 -0.79724409999999979 -2.2330175999999997 0.87650762500000012 -0.11484314 1.4192441500000001 2.1369644500000002 -0.075222289999999983
decision_type=2 2 2 2 2 2 2 2 2 2 2 2 2 2 2 2 2 2 2 2 2 2 2 2 2 2 2 2 2 2 2 2 2 2 2 2 2 2 2 2 2 2 2 2 2 2 2 2 2 2 2 2 2 2 2 2 2 2 2 2 2 2
left_child=1 9 59 4 13 7 29 8 17 12 16 14 15 60 41 -1 -11 -6 -3 20 37 46 24 40 -9 26 51 45 -15 30 34 -31 -32 -33 38 36 -14 44 39 -7 -24 42 43 -12 -20 58 47 -21 -39 -49 -26 -18 53 -17 -19 -34 57 -37 -27 -2 61 -4
right_child=2 18 3 -5 5 6 -8 22 -10 10 11 -13 35 28 -16 52 25 54 19 21 -22 -23 23 -25 50 27 -28 -29 -30 31 32 33 55 -35 -36 56 -38 48 -40 -41 -42 -43 -44 -45 -46 -47 -48 49 -50 -51 -52 -53 -54 -55 -56 -57 -58 -59 -60 -61 -62 -63
leaf_value=-0.04196153755880163 -0.020758100756451778 -0.020296202715563892 -0.015282800330847768 -0.038817510050583315 0.087562351801908023 -0.0020603564799736049 -0.020839797800106006 0.073098249463995693 0.10437404581335874 -0.019733399063076563 -0.010634920317083596 0.09006299756354047 -0.0039782069244762384 0.0080956584382518969 -0.041473664472092872 -0.014718718883987536 0.051019949712169603 -0.010921835366824006 -0.035028254765927351 -0.025022197196774912 0.12762191297515843 0.081545608438443148 -0.0041762717885766021 -0.027407415697091445 0.070041554838291969 0.047522928223003302 0.077974304225758115 0.088742730630067684 0.095493020077884211 -0.020371620051052239 0.082278272844811498 0.10736362339339936 0.042067374907088798 -0.002122116028526235 0.10046702659537286 0.074874219689387206 0.10147677397484399 0.099398465564407137 -0.021134479562279512 0.11683174216479426 0.095274119472572139 0.091665012801051535 0.078219353753112938 0.083230842382133047 0.059491482260115115 0.065816108885118838 -0.024490356735219949 0.10050968437189987 0.0093123630436096321 0.0043324960307767014 -0.0069984690851837388 -0.033287075625582918 0.11180508275197294 0.082330293809129429 0.066012468027658575 -0.030943736062622542 -0.015256411798507577 -0.025932506692335957 -0.042305014986792795 0.044446458242028593 -0.042103441573571092 0.08342285837145226
leaf_weight=2.6810609251260749 117.39069610834122 43.569357812404633 5.516218736767768 20.237486153841019 4.1602941304445329 2.4803905934095374 106.03389759361744 3.4281916767358771 4.9894973188638678 15.319139704108236 12.427722290158281 11.352439299225805 3.8342832475900641 3.8991289734840393 3.7698885053396216 3.5561656504869443 2.6441412717103967 12.700219869613646 6.9227766394615227 5.973854586482048 2.8931479454040518 2.771703526377677 2.572531431913375 3.4266720265150061 2.6419031471014014 2.7174012660980216 3.2737122774124137 7.8613641113042823 7.8009772896766645 37.213113993406296 2.7631272673606899 2.9765222817659378 3.5369365364313152 4.963216930627822 5.5597198307514182 4.1791860759258261 3.4118332415819168 4.5071995407342893 4.7275641262531272 3.0965706557035446 6.4328026771545401 6.167951211333274 6.4415914565324774 3.8627752959728232 2.8546601831912994 5.4600367844104767 28.446468979120255 3.8057510554790479 3.7458093017339706 3.2178259044885635 101.66441488265991 11.15730607509613 4.1209704875946045 3.9299516230821609 3.1911002546548835 13.59976790845394 50.836863607168198 3.018936812877655 4.7425960004329708 3.3701994121074668 4.4161512404680243 3.9014643877744701
leaf_count=11 492 179 22 87 15 10 434 13 17 61 49 38 15 15 16 14 10 51 28 25 10 10 10 14 10 10 12 28 27 154 10 11 14 20 21 15 12 16 19 11 23 21 22 13 10 20 117 14 14 13 408 45 14 14 12 56 201 12 19 12 18 14
internal_value=-4.08554e-05 0.0101851 -0.0058947 -0.00172682 0.000371693 -0.00210377 -0.0100997 0.00819078 0.0382172 0.0183071 0.0290812 0.0482632 0.00514597 0.0325738 0.0337382 0.0433545 0.0132011 0.0217552 -0.00302188 0.00853232 0.0372525 -0.00505855 0.00193367 0.04088 -0.00256053 0.0265285 0.00109957 0.0474222 0.0663673 0.00397413 0.0215476 -0.00994519 -0.00224588 0.0389229 0.0513936 -0.00321678 0.0456753 0.0227519 0.0249165 0.0639537 0.0668644 0.0435493 0.030494 0.0116224 -0.00743189 0.0222803 -0.0108505 0.019002 0.0585109 0.0564465 -0.00504718 -0.0171352 0.0630612 0.0362286 0.00452717 -0.0158746 -0.00932133 0.0325953 -0.00958402 -0.0189384 0.00399259 0.025608
internal_weight=784.167 285.476 498.691 377.93 357.692 332.158 186.951 145.208 25.0411 176.767 97.1981 44.0224 79.5693 25.5339 32.6699 14.2881 53.1757 20.0516 108.709 65.1392 20.9236 44.2156 120.167 12.432 107.735 37.8566 17.0752 20.7814 11.7001 80.9169 35.7641 45.1529 19.8998 7.93974 15.8642 65.2811 7.24612 18.0304 10.3045 5.57696 9.00533 28.9 22.7321 16.2905 9.77744 12.92 41.4439 12.9974 8.25301 7.02358 104.306 13.8014 11.6071 7.48612 15.8913 17.1367 58.035 7.19812 7.46 120.761 13.8338 9.41768
internal_count=3128 1108 2020 1516 1429 1333 760 573 95 672 364 159 308 96 121 53 205 78 436 257 78 179 478 47 431 144 67 77 42 326 141 185 80 31 61 255 27 68 40 21 33 105 84 62 38 49 169 52 30 27 418 55 42 28 63 70 228 27 29 504 54 36
is_linear=0
shrinkage=0.05


Tree=13
num_leaves=63
num_cat=0
split_feature=7 6 16 9 16 83 69 106 45 37 17 70 124 81 90 81 4 74 38 58 7 5 46 58 57 71 33 33 83 6 3 74 30 54 3 25 57 67 19 47 9 81 107 25 78 109 111 46 74 81 70 26 11 16 125 78 18 79 86 38 104 68
split_gain=23.9629 15.712 12.2119 11.6078 10.4949 9.66223 11.1056 9.58021 9.17609 9.0697 11.7102 9.05079 9.02869 8.90944 8.9639 8.78685 8.40173 8.35685 8.24071 8.16047 8.12692 10.5503 9.06091 8.07917 7.97563 8.30705 7.66269 7.55283 7.55149 7.43929 7.27336 7.63174 7.18942 7.67825 6.85233 7.19924 6.63045 6.60765 7.29442 6.6049 8.53469 6.57599 6.47091 6.39711 8.97154 6.27818 7.26154 6.3144 7.56775 7.2349 9.74147 7.23137 6.29554 6.25351 8.54555 6.23501 6.21274 6.16445 6.14333 7.07285 6.4426 6.12521
threshold=0.70671906500000004 -1.8445811499999998 0.20574339500000002 3.6998675000000003 0.46674749000000004 0.76417615000000005 -1.1648953999999998 -0.52599382499999991 -0.46956126999999998 0.79484257500000011 0.67466007500000014 -0.26456582999999995 0.64855942000000011 -0.24465948499999998 0.92400125000000011 -1.8436959999999998 2.8574239000000001 -0.70231322499999993 0.91521455000000007 -0.95654490499999989 1.4219192500000002 -0.76363474999999992 1.7919950000000002 -1.2471605999999997 0.69122822000000006 0.93053575000000011 -1.8152121999999997 1.5618746500000003 0.36772080000000007 0.088294895000000012 0.18635969000000002 -0.041385457499999993 -0.58307772999999996 0.48595809000000006 -2.1537457999999998 -1.3489897499999997 -1.8084364499999996 -0.020314406499999996 1.2825266500000001 0.013243469000000003 0.49859640000000005 -0.62217050999999979 1.1878859500000003 -0.54356199499999991 -0.028929127999999995 0.95968960000000014 -0.035320911499999989 0.14688994500000002 -0.96940352499999982 0.64045500500000008 -0.29491446999999998 -1.56960565 2.3915285000000002 -0.9744548999999999 0.58840985000000012 0.96301343000000006 1.6779393500000002 -0.12121346249999999 -0.46745734999999994 0.94986438000000006 -0.68035182499999991 0.77952692500000009
decision_type=2 2 2 2 2 2 2 2 2 2 2 2 2 2 2 2 2 2 2 2 2 2 2 2 2 2 2 2 2 2 2 2 2 2 2 2 2 2 2 2 2 2 2 2 2 2 2 2 2 2 2 2 2 2 2 2 2 2 2 2 2 2
left_child=1 4 3 9 12 6 16 19 55 10 11 32 18 58 42 -4 -3 -10 24 -8 21 -11 -22 30 25 26 -1 29 -16 -25 31 -17 33 -2 -21 -36 -12 -19 53 40 -38 57 45 44 -6 47 -47 48 -15 51 -51 -49 -53 -39 -55 -7 -41 -37 -9 60 -60 -33
right_child=2 5 15 -5 43 8 7 13 17 20 36 -13 -14 14 28 23 -18 37 -20 34 22 -23 -24 27 -26 -27 -28 -29 -30 -31 -32 61 -34 -35 35 41 39 38 -40 56 -42 -43 -44 -45 -46 46 -48 49 -50 50 -52 52 -54 54 -56 -57 -58 -59 59 -61 -62 -63
leaf_value=-0.043787003091912628 0.070248881241845418 0.043955427065365954 0.043797706151048943 0.052638921333577039 -0.03345953572246381 -0.032130473787719202 0.030526599971752305 0.045815067748284005 -0.02018844146580728 -0.044383121884392779 -0.034436509982348096 -0.021250377874935694 -0.033014653834792462 0.046704367782648741 -0.034345180383723382 0.067655878785081613 -0.014493501380507879 0.035595901615688805 -0.018636931478915059 -0.042748308789808231 -0.04170260903265674 0.039195990087996929 0.027881998798300431 -0.039114863153702141 0.043688372256931278 -0.041710599931715157 0.022818509037592975 0.0073845183674880232 0.035983151070205041 -0.016242352115696777 -0.024369252433605298 -0.043106157192548178 -0.004354796760466708 -0.015413326957295123 0.028469039792682772 0.059081728073932797 -0.01679119799317506 0.050857376957643932 -0.045441781271381182 0.057425867630262396 0.039753935206822272 -0.022189856704145094 0.062366706718459564 -0.037118457718121382 0.035887917111868207 0.024176322284699667 -0.049047218500065576 -0.016111323894605043 -0.00063301056899799123 0.039551781327485935 -0.026675266000933173 0.057195036704320912 -0.0080591867309020068 -0.028498438962385797 0.049720091329422816 0.029783219678991415 -0.0090344508197687245 -0.012041924274991725 -0.020761653802665082 -0.0040740354055346364 0.035559719112626224 0.041469791135353276
