{"learner":{"attributes":{"best_iteration":"94","best_score":"0.9423011974586398"},"feature_names":[],"feature_types":[],"gradient_booster":{"model":{"gbtree_model_param":{"num_parallel_tree":"1","num_trees":"435"},"iteration_indptr":[0,3,6,9,12,15,18,21,24,27,30,33,36,39,42,45,48,51,54,57,60,63,66,69,72,75,78,81,84,87,90,93,96,99,102,105,108,111,114,117,120,123,126,129,132,135,138,141,144,147,150,153,156,159,162,165,168,171,174,177,180,183,186,189,192,195,198,201,204,207,210,213,216,219,222,225,228,231,234,237,240,243,246,249,252,255,258,261,264,267,270,273,276,279,282,285,288,291,294,297,300,303,306,309,312,315,318,321,324,327,330,333,336,339,342,345,348,351,354,357,360,363,366,369,372,375,378,381,384,387,390,393,396,399,402,405,408,411,414,417,420,423,426,429,432,435],"tree_info":[0,1,2,0,1,2,0,1,2,0,1,2,0,1,2,0,1,2,0,1,2,0,1,2,0,1,2,0,1,2,0,1,2,0,1,2,0,1,2,0,1,2,0,1,2,0,1,2,0,1,2,0,1,2,0,1,2,0,1,2,0,1,2,0,1,2,0,1,2,0,1,2,0,1,2,0,1,2,0,1,2,0,1,2,0,1,2,0,1,2,0,1,2,0,1,2,0,1,2,0,1,2,0,1,2,0,1,2,0,1,2,0,1,2,0,1,2,0,1,2,0,1,2,0,1,2,0,1,2,0,1,2,0,1,2,0,1,2,0,1,2,0,1,2,0,1,2,0,1,2,0,1,2,0,1,2,0,1,2,0,1,2,0,1,2,0,1,2,0,1,2,0,1,2,0,1,2,0,1,2,0,1,2,0,1,2,0,1,2,0,1,2,0,1,2,0,1,2,0,1,2,0,1,2,0,1,2,0,1,2,0,1,2,0,1,2,0,1,2,0,1,2,0,1,2,0,1,2,0,1,2,0,1,2,0,1,2,0,1,2,0,1,2,0,1,2,0,1,2,0,1,2,0,1,2,0,1,2,0,1,2,0,1,2,0,1,2,0,1,2,0,1,2,0,1,2,0,1,2,0,1,2,0,1,2,0,1,2,0,1,2,0,1,2,0,1,2,0,1,2,0,1,2,0,1,2,0,1,2,0,1,2,0,1,2,0,1,2,0,1,2,0,1,2,0,1,2,0,1,2,0,1,2,0,1,2,0,1,2,0,1,2,0,1,2,0,1,2,0,1,2,0,1,2,0,1,2,0,1,2,0,1,2,0,1,2,0,1,2,0,1,2,0,1,2,0,1,2,0,1,2,0,1,2,0,1,2,0,1,2,0,1,2,0,1,2,0,1,2,0,1,2,0,1,2,0,1,2,0,1,2,0,1,2,0,1,2,0,1,2,0,1,2,0,1,2,0,1,2,0,1,2,0,1,2],"trees":[{"base_weights":[-2.7104455E-1,-1.7605966E-1,-3.9507434E-1,-2.3165604E-1,1.340101E-1,-4.116294E-1,1.9148932E-1,-2.8581226E-1,-1.36737E-2,-9.360379E-2,5.439093E-1,-4.7746095E-1,-2.6880318E-1,7.8947365E-2,-1.9354843E-2,-4.4402283E-1,-1.9572197E-1,3.9688712E-1,-1.3780923E-1,4.7586203E-1,-2.554456E-1,7.2631574E-1,-1.9480525E-2,-6.7092694E-2,-5.194454E-1,2.7906972E-1,-3.1724632E-1,-1.8302391E-1,-5.218467E-1,-3.1855097E-1,-3.2151736E-2,-9.3167745E-2,1.11428574E-1,5.0442475E-1,-2.335571E-1,9.677416E-3,9.836065E-2,1.6799997E-1,-3.8560417E-1,-1.6438361E-2,9.909502E-1,-2.8915668E-1,6.9863014E-2,1.1111108E-2,-5.3552866E-1,-1.9480525E-2,8.3606556E-2,-3.5452512E-1,3.333333E-2,8.3606556E-2,-3.6923084E-1,-2.6848254E-1,-5.84456E-1,-1.2941182E-1,-4.863906E-1,-3.2673272E-1,1.7573218E-1,-4.285715E-1,4.6153843E-2,9.473684E-2,4.615381E-3,1.5254234E-1,-3.483536E-1,6.315789E-2,-1.9480525E-2,-4.896143E-1,2.459016E-2,1.1538461E0,3.9344262E-2,-5.793104E-1,1.0619465E-1,1.8461535E-2,-5.503712E-1,-3.8754869E-1,3.9344262E-2,7.6923035E-3,-5.944701E-2,-5.6390982E-2,4.511274E-3,-6.2376242E-2,4.615381E-3,6E-2,-2.1770688E-2,1.7647056E-2,-5.5396624E-2,-4.3708615E-2,5.4098357E-2,-2.8571432E-2,3.3519547E-2,-1.5789477E-2,-6.31579E-2,-5.0769236E-2,4.9586773E-2,-1.2460069E-2,-5.9340667E-2,-6.4E-2,-1.7355377E-2,6E-2,1.380531E-1,-3.1578954E-2,-6.804124E-2,6.8852454E-2,-4.9180333E-2,-5.9055127E-2,-3.1058831E-2,-5.7045847E-2,-2.2978729E-2],"categories":[],"categories_nodes":[],"categories_segments":[],"categories_sizes":[],"default_left":[0,0,0,0,0,0,0,0,0,0,0,0,0,0,0,0,0,0,0,0,0,0,0,0,0,0,0,0,0,0,0,0,0,0,0,0,0,0,0,0,0,0,0,0,0,0,0,0,0,0,0,0,0,0,0,0,0,0,0,0,0,0,0,0,0,0,0,0,0,0,0,0,0,0,0,0,0,0,0,0,0,0,0,0,0,0,0,0,0,0,0,0,0,0,0,0,0,0,0,0,0,0,0,0,0,0,0],"id":0,"left_children":[1,3,5,7,9,11,13,15,17,19,21,23,25,-1,-1,27,29,31,33,35,37,39,-1,41,43,45,47,49,51,53,55,57,-1,59,61,-1,-1,63,65,-1,67,69,-1,-1,71,-1,-1,73,-1,-1,75,77,79,81,83,85,87,89,-1,-1,-1,91,93,-1,-1,95,-1,97,-1,99,101,-1,103,105,-1,-1,-1,-1,-1,-1,-1,-1,-1,-1,-1,-1,-1,-1,-1,-1,-1,-1,-1,-1,-1,-1,-1,-1,-1,-1,-1,-1,-1,-1,-1,-1,-1],"loss_changes":[1.4780983E1,1.2368246E1,5.3797455E0,7.164406E0,1.0261942E1,4.866455E0,3.7599974E0,6.844921E0,6.2667847E0,6.6856375E0,5.4265385E0,6.2078247E0,4.597501E0,0E0,0E0,3.472618E0,6.251504E0,1.014294E1,5.918607E0,3.0058753E0,3.157349E0,7.627037E0,0E0,6.1156077E0,3.3915024E0,3.9461012E0,3.9150877E0,8.257598E0,1.98106E0,5.5841446E0,8.311026E0,3.5260391E0,0E0,2.5049052E0,3.722087E0,0E0,0E0,2.458991E0,2.959361E0,0E0,1.936058E0,3.2352366E0,0E0,0E0,3.5279617E0,0E0,0E0,3.8218842E0,0E0,0E0,3.6745834E0,2.6709573E0,2.6865044E0,5.6049175E0,4.3033504E0,5.609401E0,5.957945E0,5.4135346E-1,0E0,0E0,0E0,4.709697E0,3.4413586E0,0E0,0E0,1.6686983E0,0E0,1.5292015E0,0E0,2.1437311E-1,4.710866E0,0E0,2.8450317E0,3.988926E0,0E0,0E0,0E0,0E0,0E0,0E0,0E0,0E0,0E0,0E0,0E0,0E0,0E0,0E0,0E0,0E0,0E0,0E0,0E0,0E0,0E0,0E0,0E0,0E0,0E0,0E0,0E0,0E0,0E0,0E0,0E0,0E0,0E0],"parents":[2147483647,0,0,1,1,2,2,3,3,4,4,5,5,6,6,7,7,8,8,9,9,10,10,11,11,12,12,15,15,16,16,17,17,18,18,19,19,20,20,21,21,23,23,24,24,25,25,26,26,27,27,28,28,29,29,30,30,31,31,33,33,34,34,37,37,38,38,40,40,41,41,44,44,47,47,50,50,51,51,52,52,53,53,54,54,55,55,56,56,57,57,61,61,62,62,65,65,67,67,69,69,70,70,72,72,73,73],"right_children":[2,4,6,8,10,12,14,16,18,20,22,24,26,-1,-1,28,30,32,34,36,38,40,-1,42,44,46,48,50,52,54,56,58,-1,60,62,-1,-1,64,66,-1,68,70,-1,-1,72,-1,-1,74,-1,-1,76,78,80,82,84,86,88,90,-1,-1,-1,92,94,-1,-1,96,-1,98,-1,100,102,-1,104,106,-1,-1,-1,-1,-1,-1,-1,-1,-1,-1,-1,-1,-1,-1,-1,-1,-1,-1,-1,-1,-1,-1,-1,-1,-1,-1,-1,-1,-1,-1,-1,-1,-1],"split_conditions":[4.009496E-1,1.643867E0,1.5986615E0,8.238276E-1,4.0462252E-1,1.510935E0,-9.3762094E-1,-4.0235713E-1,-1.4835988E0,-6.146944E-1,1.0267812E0,-2.6664703E0,-1.3318846E0,7.8947365E-2,-1.9354843E-2,-5.70525E-1,3.8425753E-1,9.987727E-1,8.984213E-1,9.450703E-2,-4.6088752E-1,-1.2939569E0,-1.9480525E-2,7.10635E-1,-2.192638E0,-6.4016056E-1,3.5724032E0,-1.0827839E0,-5.274032E-1,-3.9156105E-2,-1.7614359E-1,5.939607E-1,1.11428574E-1,-1.672153E-1,-1.212894E0,9.677416E-3,9.836065E-2,-2.828249E-1,1.0043212E0,-1.6438361E-2,8.333904E-1,7.645089E-1,6.9863014E-2,1.1111108E-2,-3.5774188E0,-1.9480525E-2,8.3606556E-2,1.4117063E0,3.333333E-2,8.3606556E-2,-1.7694843E0,-1.7419575E-1,2.8232195E0,-5.055591E0,-1.3867619E0,2.5681038E0,-5.850315E-1,-1.7694843E0,4.6153843E-2,9.473684E-2,4.615381E-3,-8.868917E-1,-1.0363652E-1,6.315789E-2,-1.9480525E-2,8.532294E-1,2.459016E-2,-3.6146402E-1,3.9344262E-2,-1.8483609E0,-3.9517087E-1,1.8461535E-2,1.7441922E0,-3.886266E-2,3.9344262E-2,7.6923035E-3,-5.944701E-2,-5.6390982E-2,4.511274E-3,-6.2376242E-2,4.615381E-3,6E-2,-2.1770688E-2,1.7647056E-2,-5.5396624E-2,-4.3708615E-2,5.4098357E-2,-2.8571432E-2,3.3519547E-2,-1.5789477E-2,-6.31579E-2,-5.0769236E-2,4.9586773E-2,-1.2460069E-2,-5.9340667E-2,-6.4E-2,-1.7355377E-2,6E-2,1.380531E-1,-3.1578954E-2,-6.804124E-2,6.8852454E-2,-4.9180333E-2,-5.9055127E-2,-3.1058831E-2,-5.7045847E-2,-2.2978729E-2],"split_indices":[15,25,93,63,81,0,29,48,5,92,55,10,75,0,0,97,27,12,63,84,97,27,0,69,55,25,10,41,116,54,28,81,0,116,48,0,0,41,75,0,93,27,0,0,28,0,0,81,0,0,0,89,29,2,57,13,58,0,0,0,0,27,14,0,0,56,0,93,0,1,2,0,28,103,0,0,0,0,0,0,0,0,0,0,0,0,0,0,0,0,0,0,0,0,0,0,0,0,0,0,0,0,0,0,0,0,0],"split_type":[0,0,0,0,0,0,0,0,0,0,0,0,0,0,0,0,0,0,0,0,0,0,0,0,0,0,0,0,0,0,0,0,0,0,0,0,0,0,0,0,0,0,0,0,0,0,0,0,0,0,0,0,0,0,0,0,0,0,0,0,0,0,0,0,0,0,0,0,0,0,0,0,0,0,0,0,0,0,0,0,0,0,0,0,0,0,0,0,0,0,0,0,0,0,0,0,0,0,0,0,0,0,0,0,0,0,0],"sum_hessian":[1.2595554E3,7.146666E2,5.4488885E2,6.0622217E2,1.08444435E2,5.3022217E2,1.4666666E1,4.853333E2,1.20888885E2,7.022222E1,3.822222E1,3.613333E2,1.6888889E2,5.333333E0,9.333333E0,1.7466666E2,3.1066666E2,2.7555553E1,9.333333E1,1.5111111E1,5.5111107E1,3.0666664E1,7.5555553E0,3.3777775E1,3.2755554E2,1.3333332E1,1.5555554E2,4.0888885E1,1.3377777E2,1.7688889E2,1.3377777E2,1.6888887E1,1.0666666E1,1.1555555E1,8.177777E1,9.333333E0,5.7777777E0,1.2888888E1,4.222222E1,7.1111107E0,2.3555553E1,2.6666664E1,7.1111107E0,7.9999995E0,3.1955554E2,7.5555553E0,5.7777777E0,1.4755554E2,7.9999995E0,5.7777777E0,3.511111E1,2.7555553E1,1.0622221E2,8.399999E1,9.2888885E1,5.5111107E1,7.8666664E1,1.0666666E1,6.222222E0,5.333333E0,6.222222E0,1.8666666E1,6.3111107E1,5.333333E0,7.5555553E0,3.6444443E1,5.7777777E0,1.7777777E1,5.7777777E0,1.5111111E1,1.1555555E1,6.222222E0,3.133333E2,1.4177777E2,5.7777777E0,1.1999999E1,2.311111E1,1.3777777E1,1.3777777E1,9.999999E1,6.222222E0,8.444444E0,7.555555E1,8.444444E0,8.444444E1,4.9333332E1,5.7777777E0,1.9999998E1,5.8666664E1,5.333333E0,5.333333E0,6.222222E0,1.2444444E1,3.3777775E1,2.9333332E1,2.3999998E1,1.2444444E1,6.222222E0,1.1555555E1,5.333333E0,9.777777E0,5.7777777E0,5.7777777E0,2.6711108E2,4.622222E1,6.444444E1,7.733333E1],"tree_param":{"num_deleted":"0","num_feature":"128","num_nodes":"107","size_leaf_vector":"1"}},{"base_weights":[1.5256463E-1,2.5214216E-1,6.021247E-2,3.2287952E-1,1.8676998E-2,1.166417E-1,-1.5035805E-1,3.5298485E-1,-3.6464092E-1,2.7536228E-1,-2.1842502E-1,6.802974E-1,8.210808E-2,-2.3692009E-1,2.0158099E-1,4.7327247E-1,1.9255011E-1,-6.31579E-2,3.1578943E-2,4.5415774E-1,-2.6086962E-1,-3.9860144E-1,9.486162E-2,8.986175E-1,-1.9672137E-2,3.765517E-1,2.4291454E-2,4.9411763E-2,-3.0096057E-1,-2.571429E-1,4.9681526E-1,5.321411E-1,-4.9792577E-2,-4.4280488E-2,3.9532408E-1,1.0645161E-1,2.9610386E-1,-5.876289E-2,2.0547941E-2,1.8461535E-2,-4.9061668E-1,-1.907515E-1,6.4044945E-2,-3.7645043E-9,1.1538461E0,7.712078E-2,7.043478E-1,1.4763494E-1,-1.3510184E-1,8.287289E-2,-3.8823536E-1,-4.7368426E-2,-3.7645043E-9,1.3761464E-1,1.10526316E-1,5.930807E-1,8.171202E-2,3.191489E-1,-5.229358E-1,-1.9211827E-1,3.8028166E-1,1.032E0,2.945454E-1,1.2875494E-2,6.8944097E-1,-6.5060246E-1,-1.5789478E-1,-5.5200005E-1,6.315789E-2,6.315789E-2,1.3140497E-1,2.2796349E-1,-6.52174E-2,2.307692E-1,9.113924E-1,2.5789118E-1,-1.2234915E-1,-3.969755E-1,-8.1744315E-3,6E-2,-3.4285718E-1,-6.217621E-2,-4.9053362E-1,-3.1578954E-2,5.4098357E-2,9.502258E-3,6.5817274E-2,8.769231E-2,-1.7910453E-2,6.774193E-2,-3.1578954E-2,-6.393444E-2,-3.1578954E-2,-3.8074404E-2,3.5403725E-2,7.021277E-2,-2.2222226E-2,1.3246754E-1,4.736842E-2,7.228916E-2,1.0769227E-2,-2.7272731E-2,6.2337663E-2,4.615381E-3,1.02857135E-1,-7.1641795E-2,-3.1578954E-2,3.9344262E-2,-5.555556E-2,-3.1578954E-2,-6.623378E-2,4.3190658E-2,-4.4444453E-2,6.521739E-2,-3.1578954E-2,3.2307692E-2,1.077348E-1,4.425711E-2,-6.557382E-3,-3.226545E-2,3.567567E-2,1.1881185E-2,-5.080092E-2,8.324436E-3,-5.0289024E-2,-6.31579E-2,-3.7645043E-9,2.7906973E-2,-6.575343E-2,-4.8000044E-3,-6.000001E-2],"categories":[],"categories_nodes":[],"categories_segments":[],"categories_sizes":[],"default_left":[0,0,0,0,0,0,0,0,0,0,0,0,0,0,0,0,0,0,0,0,0,0,0,0,0,0,0,0,0,0,0,0,0,0,0,0,0,0,0,0,0,0,0,0,0,0,0,0,0,0,0,0,0,0,0,0,0,0,0,0,0,0,0,0,0,0,0,0,0,0,0,0,0,0,0,0,0,0,0,0,0,0,0,0,0,0,0,0,0,0,0,0,0,0,0,0,0,0,0,0,0,0,0,0,0,0,0,0,0,0,0,0,0,0,0,0,0,0,0,0,0,0,0,0,0,0,0,0,0,0,0],"id":1,"left_children":[1,3,5,7,9,11,13,15,17,19,21,23,25,27,29,31,33,-1,-1,35,37,39,41,43,-1,45,47,-1,49,51,53,55,57,59,61,-1,63,-1,-1,-1,65,67,-1,-1,69,71,73,75,77,79,81,-1,-1,83,-1,85,87,89,91,93,95,97,99,101,103,105,107,109,-1,-1,-1,111,-1,113,115,117,119,121,123,-1,125,127,129,-1,-1,-1,-1,-1,-1,-1,-1,-1,-1,-1,-1,-1,-1,-1,-1,-1,-1,-1,-1,-1,-1,-1,-1,-1,-1,-1,-1,-1,-1,-1,-1,-1,-1,-1,-1,-1,-1,-1,-1,-1,-1,-1,-1,-1,-1,-1,-1],"loss_changes":[1.1638453E1,1.0058762E1,7.8453536E0,9.808495E0,8.749686E0,1.0068144E1,4.3026423E0,8.565231E0,3.852283E0,6.7339077E0,4.2587833E0,5.899626E0,8.353291E0,5.418111E0,3.9348683E0,7.899021E0,9.328646E0,0E0,0E0,4.7119265E0,2.8467238E0,2.6485987E0,4.5026374E0,5.529955E0,0E0,7.8523912E0,8.113362E0,0E0,3.5197906E0,6.4962405E-1,3.6604671E0,6.2617493E0,4.8412814E0,5.74295E0,6.404663E0,0E0,4.756748E0,0E0,0E0,0E0,2.1033945E0,6.0588937E0,0E0,0E0,7.411938E-1,4.9034963E0,3.5483341E0,6.9541345E0,5.983458E0,4.6333065E0,2.8047009E0,0E0,0E0,2.3858275E0,0E0,6.4970245E0,6.0796027E0,3.7777696E0,9.014416E-2,7.10575E0,4.7453136E0,1.6420403E0,7.2589507E0,4.6840196E0,3.855136E0,3.834219E-1,3.4585366E0,1.5282583E-1,0E0,0E0,0E0,5.20493E0,0E0,3.200141E0,2.2229671E0,9.912254E0,6.6515603E0,3.426548E0,5.574549E0,0E0,1.1548872E0,4.540227E0,3.0984354E0,0E0,0E0,0E0,0E0,0E0,0E0,0E0,0E0,0E0,0E0,0E0,0E0,0E0,0E0,0E0,0E0,0E0,0E0,0E0,0E0,0E0,0E0,0E0,0E0,0E0,0E0,0E0,0E0,0E0,0E0,0E0,0E0,0E0,0E0,0E0,0E0,0E0,0E0,0E0,0E0,0E0,0E0,0E0,0E0,0E0,0E0,0E0,0E0],"parents":[2147483647,0,0,1,1,2,2,3,3,4,4,5,5,6,6,7,7,8,8,9,9,10,10,11,11,12,12,13,13,14,14,15,15,16,16,19,19,20,20,21,21,22,22,23,23,25,25,26,26,28,28,29,29,30,30,31,31,32,32,33,33,34,34,36,36,40,40,41,41,44,44,45,45,46,46,47,47,48,48,49,49,50,50,53,53,55,55,56,56,57,57,58,58,59,59,60,60,61,61,62,62,63,63,64,64,65,65,66,66,67,67,71,71,73,73,74,74,75,75,76,76,77,77,78,78,80,80,81,81,82,82],"right_children":[2,4,6,8,10,12,14,16,18,20,22,24,26,28,30,32,34,-1,-1,36,38,40,42,44,-1,46,48,-1,50,52,54,56,58,60,62,-1,64,-1,-1,-1,66,68,-1,-1,70,72,74,76,78,80,82,-1,-1,84,-1,86,88,90,92,94,96,98,100,102,104,106,108,110,-1,-1,-1,112,-1,114,116,118,120,122,124,-1,126,128,130,-1,-1,-1,-1,-1,-1,-1,-1,-1,-1,-1,-1,-1,-1,-1,-1,-1,-1,-1,-1,-1,-1,-1,-1,-1,-1,-1,-1,-1,-1,-1,-1,-1,-1,-1,-1,-1,-1,-1,-1,-1,-1,-1,-1,-1,-1,-1,-1],"split_conditions":[-2.7050577E-2,1.0773158E0,2.1816652E0,3.215325E0,5.1609702E-2,-1.1287711E0,5.5786926E-1,7.4383324E-1,6.32133E-1,1.4678112E0,1.3938488E-1,6.276201E-1,-6.57665E-1,-8.7045854E-1,-3.341335E-1,2.0986032E0,-1.8443607E-1,-6.31579E-2,3.1578943E-2,-8.897819E-1,1.6511624E-1,-8.033751E-1,7.372056E-1,-2.3390195E0,-1.9672137E-2,-1.836282E-2,2.2408967E-1,4.9411763E-2,-1.482017E0,3.7068317E0,1.5408069E-1,3.1379411E0,-3.2751364E-1,4.4683677E-1,-1.7539955E0,1.0645161E-1,3.217831E-1,-5.876289E-2,2.0547941E-2,1.8461535E-2,3.428367E-1,5.050708E-1,6.4044945E-2,-3.7645043E-9,-1.2790458E0,1.1630051E0,-5.260421E-1,7.7912617E-1,-9.306613E-1,-4.638293E-1,-7.6643836E-1,-4.7368426E-2,-3.7645043E-9,2.136711E-1,1.10526316E-1,-1.823421E0,-1.376204E0,1.1471618E-1,8.1395143E-1,8.5135955E-1,8.0164045E-1,3.980267E-1,-3.6757997E-1,4.1080043E-1,-2.6665106E-1,1.5833118E0,-1.689575E-1,-1.6599872E0,6.315789E-2,6.315789E-2,1.3140497E-1,1.2931787E0,-6.52174E-2,-8.840029E-2,-8.9537615E-1,3.3266795E-1,6.321845E-1,-3.3356636E0,7.737461E-1,6E-2,2.1240559E-1,3.427902E-1,-8.9988244E-1,-3.1578954E-2,5.4098357E-2,9.502258E-3,6.5817274E-2,8.769231E-2,-1.7910453E-2,6.774193E-2,-3.1578954E-2,-6.393444E-2,-3.1578954E-2,-3.8074404E-2,3.5403725E-2,7.021277E-2,-2.2222226E-2,1.3246754E-1,4.736842E-2,7.228916E-2,1.0769227E-2,-2.7272731E-2,6.2337663E-2,4.615381E-3,1.02857135E-1,-7.1641795E-2,-3.1578954E-2,3.9344262E-2,-5.555556E-2,-3.1578954E-2,-6.623378E-2,4.3190658E-2,-4.4444453E-2,6.521739E-2,-3.1578954E-2,3.2307692E-2,1.077348E-1,4.425711E-2,-6.557382E-3,-3.226545E-2,3.567567E-2,1.1881185E-2,-5.080092E-2,8.324436E-3,-5.0289024E-2,-6.31579E-2,-3.7645043E-9,2.7906973E-2,-6.575343E-2,-4.8000044E-3,-6.000001E-2],"split_indices":[58,38,4,19,22,109,121,3,48,8,67,96,122,117,83,25,26,0,0,86,119,109,8,4,0,87,25,0,36,4,76,4,17,108,19,0,55,0,0,0,100,112,0,0,10,19,22,38,20,76,84,0,0,8,0,31,21,10,4,42,59,115,109,112,75,10,90,0,0,0,0,12,0,102,68,51,73,3,108,0,25,83,54,0,0,0,0,0,0,0,0,0,0,0,0,0,0,0,0,0,0,0,0,0,0,0,0,0,0,0,0,0,0,0,0,0,0,0,0,0,0,0,0,0,0,0,0,0,0,0,0],"split_type":[0,0,0,0,0,0,0,0,0,0,0,0,0,0,0,0,0,0,0,0,0,0,0,0,0,0,0,0,0,0,0,0,0,0,0,0,0,0,0,0,0,0,0,0,0,0,0,0,0,0,0,0,0,0,0,0,0,0,0,0,0,0,0,0,0,0,0,0,0,0,0,0,0,0,0,0,0,0,0,0,0,0,0,0,0,0,0,0,0,0,0,0,0,0,0,0,0,0,0,0,0,0,0,0,0,0,0,0,0,0,0,0,0,0,0,0,0,0,0,0,0,0,0,0,0,0,0,0,0,0,0],"sum_hessian":[1.2662222E3,6.084444E2,6.577777E2,4.6666663E2,1.4177777E2,5.191111E2,1.3866666E2,4.4755554E2,1.911111E1,6.799999E1,7.377777E1,2.8888887E1,4.902222E2,1.1155555E2,2.7111109E1,2.5466666E2,1.9288887E2,1.3777777E1,5.333333E0,5.1111107E1,1.6888887E1,4.6666664E1,2.7111109E1,2.311111E1,5.7777777E0,7.955555E1,4.1066666E2,8.444444E0,1.0311111E2,1.0666666E1,1.6444443E1,2.2888887E2,2.5777777E1,8.933333E1,1.0355555E2,9.333333E0,4.1777775E1,9.777777E0,7.1111107E0,6.222222E0,4.0444443E1,1.8222221E1,8.888888E0,5.333333E0,1.7777777E1,4.222222E1,3.7333332E1,2.3155554E2,1.791111E2,1.911111E1,8.399999E1,5.333333E0,5.333333E0,1.1111111E1,5.333333E0,2.0133333E2,2.7555553E1,1.4666666E1,1.1111111E1,6.6666664E1,2.2666666E1,1.2888888E1,9.0666664E1,2.4888887E1,1.6888887E1,2.6666664E1,1.3777777E1,1.2888888E1,5.333333E0,5.333333E0,1.2444444E1,3.5555553E1,6.666666E0,1.1999999E1,2.5333332E1,1.6444443E2,6.711111E1,5.7777775E1,1.2133333E2,8.444444E0,1.0666666E1,2.0444443E1,6.3555553E1,5.333333E0,5.7777777E0,2.3555553E1,1.7777777E2,6.222222E0,2.1333332E1,9.333333E0,5.333333E0,5.7777777E0,5.333333E0,4.9777775E1,1.6888887E1,1.4666666E1,7.9999995E0,7.5555553E0,5.333333E0,2.6666664E1,6.3999996E1,1.7333332E1,7.5555553E0,6.222222E0,1.0666666E1,2.1333332E1,5.333333E0,5.7777777E0,7.9999995E0,5.333333E0,7.5555553E0,2.7555553E1,7.9999995E0,6.666666E0,5.333333E0,6.222222E0,1.911111E1,1.04444435E2,5.9999996E1,4.7555553E1,1.9555553E1,1.0222221E1,4.7555553E1,1.0311111E2,1.8222221E1,5.333333E0,5.333333E0,1.3333332E1,7.1111107E0,1.2888888E1,5.0666664E1],"tree_param":{"num_deleted":"0","num_feature":"128","num_nodes":"131","size_leaf_vector":"1"}},{"base_weights":[1.2911522E-1,4.3710828E-2,4.2960286E-1,1.6824844E-1,-3.780332E-2,7.2839504E-1,3.045685E-1,2.3864797E-1,-2.0466791E-1,-2.813991E-1,-5.109689E-3,2.9610386E-1,1.1813031E0,3.8140413E-1,-3.1343287E-1,4.6153802E-2,3.5351878E-1,-4.4699147E-1,1.9354835E-1,3.1199998E-1,-4.210527E-1,-1.0206566E-1,1.0192218E-1,6.157205E-1,-1.6363642E-1,1.3516483E0,5.3932585E-2,4.6923643E-1,-1.2448137E-1,-5.1063836E-1,1.3043475E-2,4.2627344E-1,-1.4574903E-1,2.4631575E-1,7.122302E-1,-5.86207E-1,-3.0927877E-3,8.769231E-2,-9.3167745E-2,-1.9480525E-2,9.473684E-2,3.1578943E-2,-5.0322586E-1,6.2240623E-2,-2.5687358E-1,-1.4701383E-1,2.033898E-1,1.2077922E-1,2.9813662E-1,5.4098357E-2,-5.309735E-1,1.44E-1,7.8947365E-2,-1.17647104E-1,5.4024893E-1,-6.804124E-2,2.3529409E-1,-6.7741945E-2,-1.5789477E-2,-2.6966298E-2,6.2457335E-1,3.4883717E-1,-2.4637686E-1,1.3344735E-1,7.35849E-1,3.406113E-1,1.1116751E0,-2.2222226E-2,-7.142858E-2,2.2018345E-1,-6.393444E-2,-9.677424E-3,-5.9055126E-1,-2.1126765E-1,2.51046E-1,-3.2850683E-1,2.033898E-1,-2.581756E-1,6.666666E-2,-6.52174E-2,2.4070446E-1,6.534653E-2,-2.6086962E-2,-3.1578954E-2,-6.461539E-2,2.3595503E-2,-5.3424664E-2,3.4079996E-1,7.436333E-1,6.8571424E-1,-6.31579E-2,1.14159286E-1,2.8571425E-2,-2.6086962E-2,9.130435E-2,3.9344262E-2,-3.1107211E-2,-1.4687928E-3,4.6537396E-2,9.400921E-2,-1.5789477E-2,6.6206895E-2,-1.9354843E-2,1.3448276E-1,3.9344262E-2,7.8947365E-2,-3.4426235E-2,-6.69903E-2,-2.2222226E-2,-5.820896E-2,3.934422E-3,-6.31579E-2,3.2286994E-2,-3.7907213E-2,2.0792076E-2,-2.4705887E-2,5.643564E-2,-5.299685E-2,6.5934025E-3,2.8858129E-2,-4.9484544E-2,1.1917808E-1,2.245989E-2,8.3302066E-2,-9.230773E-3,1.578947E-2,1.10526316E-1],"categories":[],"categories_nodes":[],"categories_segments":[],"categories_sizes":[],"default_left":[0,0,0,0,0,0,0,0,0,0,0,0,0,0,0,0,0,0,0,0,0,0,0,0,0,0,0,0,0,0,0,0,0,0,0,0,0,0,0,0,0,0,0,0,0,0,0,0,0,0,0,0,0,0,0,0,0,0,0,0,0,0,0,0,0,0,0,0,0,0,0,0,0,0,0,0,0,0,0,0,0,0,0,0,0,0,0,0,0,0,0,0,0,0,0,0,0,0,0,0,0,0,0,0,0,0,0,0,0,0,0,0,0,0,0,0,0,0,0,0,0,0,0,0,0,0,0],"id":2,"left_children":[1,3,5,7,9,11,13,15,17,19,21,23,25,27,29,31,33,35,37,39,41,43,45,47,49,51,-1,53,55,57,-1,59,61,63,65,67,-1,-1,69,-1,-1,-1,71,73,75,77,79,-1,81,-1,83,-1,-1,85,87,-1,89,-1,-1,-1,91,93,95,97,99,101,103,-1,-1,105,-1,-1,107,109,111,113,115,117,-1,-1,119,-1,-1,-1,-1,-1,-1,121,123,125,-1,-1,-1,-1,-1,-1,-1,-1,-1,-1,-1,-1,-1,-1,-1,-1,-1,-1,-1,-1,-1,-1,-1,-1,-1,-1,-1,-1,-1,-1,-1,-1,-1,-1,-1,-1,-1],"loss_changes":[3.2114105E1,9.915428E0,1.0126678E1,1.0191303E1,4.7035336E0,1.5509052E1,9.473997E0,7.179899E0,6.0586176E0,5.9230814E0,5.426241E0,6.386548E0,3.5602722E0,7.863823E0,2.0215108E0,9.018281E0,7.656555E0,2.2279754E0,4.8059E0,4.656886E0,3.6101866E0,6.993905E0,6.3081512E0,4.4242926E0,5.0325203E0,3.6979294E-1,0E0,6.310337E0,5.5159297E0,8.1472397E-1,0E0,5.887929E0,4.1836042E0,8.650169E0,6.4991283E0,1.1932135E0,0E0,0E0,3.2023683E0,0E0,0E0,0E0,1.7766829E0,6.967037E0,4.730262E0,6.734779E0,5.807719E0,0E0,3.7237563E0,0E0,1.0714054E-1,0E0,0E0,2.630336E0,5.177746E0,0E0,7.0708537E0,0E0,0E0,0E0,5.3774567E0,5.1688576E0,2.9785247E0,6.3934765E0,5.5232534E0,4.497201E0,3.1363487E0,0E0,0E0,4.163491E0,0E0,0E0,1.0884323E0,5.1548343E0,5.2542744E0,3.4091148E0,3.3371687E0,5.721687E0,0E0,0E0,6.141227E0,0E0,0E0,0E0,0E0,0E0,0E0,6.599334E0,4.9670715E0,2.4090223E0,0E0,0E0,0E0,0E0,0E0,0E0,0E0,0E0,0E0,0E0,0E0,0E0,0E0,0E0,0E0,0E0,0E0,0E0,0E0,0E0,0E0,0E0,0E0,0E0,0E0,0E0,0E0,0E0,0E0,0E0,0E0,0E0,0E0,0E0,0E0,0E0,0E0],"parents":[2147483647,0,0,1,1,2,2,3,3,4,4,5,5,6,6,7,7,8,8,9,9,10,10,11,11,12,12,13,13,14,14,15,15,16,16,17,17,18,18,19,19,20,20,21,21,22,22,23,23,24,24,25,25,27,27,28,28,29,29,31,31,32,32,33,33,34,34,35,35,38,38,42,42,43,43,44,44,45,45,46,46,48,48,50,50,53,53,54,54,56,56,60,60,61,61,62,62,63,63,64,64,65,65,66,66,69,69,72,72,73,73,74,74,75,75,76,76,77,77,80,80,87,87,88,88,89,89],"right_children":[2,4,6,8,10,12,14,16,18,20,22,24,26,28,30,32,34,36,38,40,42,44,46,48,50,52,-1,54,56,58,-1,60,62,64,66,68,-1,-1,70,-1,-1,-1,72,74,76,78,80,-1,82,-1,84,-1,-1,86,88,-1,90,-1,-1,-1,92,94,96,98,100,102,104,-1,-1,106,-1,-1,108,110,112,114,116,118,-1,-1,120,-1,-1,-1,-1,-1,-1,122,124,126,-1,-1,-1,-1,-1,-1,-1,-1,-1,-1,-1,-1,-1,-1,-1,-1,-1,-1,-1,-1,-1,-1,-1,-1,-1,-1,-1,-1,-1,-1,-1,-1,-1,-1,-1,-1,-1],"split_conditions":[1.7222077E0,-3.9901814E-1,-1.1299891E0,1.5373023E0,-1.0158777E0,6.676395E-2,1.5603939E0,-4.050402E-1,1.6151491E-1,-8.365712E-1,3.8653973E-2,-5.1316258E-2,4.526488E-1,9.5675224E-1,9.7408843E-1,-9.239459E-1,5.847947E-1,1.1513358E0,-2.7675014E0,3.9134267E-1,-8.2260984E-1,-2.1927856E-1,-8.3550376E-1,-7.1809804E-1,-3.2908744E-1,6.131831E-1,5.3932585E-2,-1.4371544E0,-1.9572546E-1,3.4112785E0,1.3043475E-2,-9.886501E-1,-7.379239E-1,1.4340028E0,3.320935E-1,-6.7435056E-1,-3.0927877E-3,8.769231E-2,4.7003487E-1,-1.9480525E-2,9.473684E-2,3.1578943E-2,-1.08032E0,-3.575064E-1,1.5417591E0,1.3519408E0,-1.8554466E0,1.2077922E-1,3.6298418E-1,5.4098357E-2,1.0449458E0,1.44E-1,7.8947365E-2,7.810649E-1,-8.220109E-2,-6.804124E-2,5.3668916E-1,-6.7741945E-2,-1.5789477E-2,-2.6966298E-2,-2.1056054E0,1.4102083E-1,-1.2447258E0,4.319742E-1,6.887429E-1,-2.0641491E-1,6.080426E-1,-2.2222226E-2,-7.142858E-2,1.0090032E-1,-6.393444E-2,-9.677424E-3,6.2558204E-1,-6.93726E-2,-1.2569861E0,1.0705824E0,-2.562192E-1,8.699665E-3,6.666666E-2,-6.52174E-2,1.9812311E0,6.534653E-2,-2.6086962E-2,-3.1578954E-2,-6.461539E-2,2.3595503E-2,-5.3424664E-2,-1.3228687E0,1.6925955E0,6.479784E-2,-6.31579E-2,1.14159286E-1,2.8571425E-2,-2.6086962E-2,9.130435E-2,3.9344262E-2,-3.1107211E-2,-1.4687928E-3,4.6537396E-2,9.400921E-2,-1.5789477E-2,6.6206895E-2,-1.9354843E-2,1.3448276E-1,3.9344262E-2,7.8947365E-2,-3.4426235E-2,-6.69903E-2,-2.2222226E-2,-5.820896E-2,3.934422E-3,-6.31579E-2,3.2286994E-2,-3.7907213E-2,2.0792076E-2,-2.4705887E-2,5.643564E-2,-5.299685E-2,6.5934025E-3,2.8858129E-2,-4.9484544E-2,1.1917808E-1,2.245989E-2,8.3302066E-2,-9.230773E-3,1.578947E-2,1.10526316E-1],"split_indices":[7,28,17,35,91,34,43,65,31,84,45,79,109,84,28,4,116,36,0,64,116,3,31,25,49,49,0,48,126,7,0,69,110,31,44,51,0,0,88,0,0,0,64,49,34,51,72,0,14,0,0,0,0,72,31,0,126,0,0,0,0,108,80,102,78,80,84,0,0,73,0,0,76,4,88,118,73,92,0,0,49,0,0,0,0,0,0,65,48,91,0,0,0,0,0,0,0,0,0,0,0,0,0,0,0,0,0,0,0,0,0,0,0,0,0,0,0,0,0,0,0,0,0,0,0,0,0],"split_type":[0,0,0,0,0,0,0,0,0,0,0,0,0,0,0,0,0,0,0,0,0,0,0,0,0,0,0,0,0,0,0,0,0,0,0,0,0,0,0,0,0,0,0,0,0,0,0,0,0,0,0,0,0,0,0,0,0,0,0,0,0,0,0,0,0,0,0,0,0,0,0,0,0,0,0,0,0,0,0,0,0,0,0,0,0,0,0,0,0,0,0,0,0,0,0,0,0,0,0,0,0,0,0,0,0,0,0,0,0,0,0,0,0,0,0,0,0,0,0,0,0,0,0,0,0,0,0],"sum_hessian":[1.2511111E3,9.75111E2,2.7599997E2,3.853333E2,5.897778E2,7.999999E1,1.9599998E2,3.2444443E2,6.0888885E1,6.8888885E1,5.2088885E2,4.1777775E1,3.822222E1,1.7466666E2,2.1333332E1,1.2177777E2,2.0266666E2,3.7777775E1,2.311111E1,1.2888888E1,5.5999996E1,2.733333E2,2.4755554E2,2.4444443E1,1.7333332E1,2.9333332E1,8.888888E0,1.4888889E2,2.5777777E1,1.4666666E1,6.666666E0,4.0444443E1,8.133333E1,1.5733333E2,4.5333332E1,2.7999998E1,9.777777E0,6.222222E0,1.6888887E1,7.5555553E0,5.333333E0,5.333333E0,5.0666664E1,1.3288889E2,1.4044444E2,7.155555E1,1.7599998E2,7.5555553E0,1.6888887E1,5.7777777E0,1.1555555E1,2.3999998E1,5.333333E0,1.5999999E1,1.3288889E2,9.777777E0,1.5999999E1,9.333333E0,5.333333E0,8.888888E0,3.1555553E1,1.3333332E1,6.799999E1,1.2888889E2,2.8444443E1,2.4444443E1,2.0888887E1,7.9999995E0,1.9999998E1,1.1111111E1,5.7777777E0,9.333333E0,4.1333332E1,5.4222218E1,7.8666664E1,1.2177777E2,1.8666666E1,6.3555553E1,7.9999995E0,6.666666E0,1.6933333E2,1.0222221E1,6.666666E0,5.333333E0,6.222222E0,8.888888E0,7.1111107E0,6.844444E1,6.444444E1,1.0666666E1,5.333333E0,1.1555555E1,1.9999998E1,6.666666E0,6.666666E0,5.7777777E0,6.2222218E1,8.977777E1,3.9111107E1,2.311111E1,5.333333E0,1.5111111E1,9.333333E0,1.5111111E1,5.7777777E0,5.333333E0,5.7777777E0,3.3333332E1,7.9999995E0,2.1333332E1,3.2888885E1,5.333333E0,7.333333E1,1.1155555E2,1.0222221E1,8.444444E0,1.0222221E1,3.422222E1,2.9333332E1,1.5955554E2,9.777777E0,7.1111107E0,6.133333E1,5.8222218E1,6.222222E0,5.333333E0,5.333333E0],"tree_param":{"num_deleted":"0","num_feature":"128","num_nodes":"127","size_leaf_vector":"1"}},{"base_weights":[-2.4796033E-1,-1.5092476E-1,-3.7594822E-1,-2.5893098E-1,1.2857676E-3,-4.1685227E-1,-7.799612E-2,-3.0794352E-1,1.8041658E-1,-4.5564184E-1,8.57473E-2,-3.254989E-1,-5.263403E-1,-2.7061045E-1,3.3021688E-1,7.750282E-2,-3.585441E-1,6.164769E-3,1.0025034E-1,-5.922818E-1,-7.8961484E-2,1.78556E-1,-2.4796732E-1,-3.582544E-1,1.9026476E-1,-2.739667E-1,-5.838171E-1,2.2148088E-1,-4.6418345E-1,-3.3298545E-2,7.7983296E-1,-1.6879915E-1,5.4332024E-1,9.5688164E-2,-3.87007E-1,-4.536395E-1,2.5951234E-1,-3.0587902E-2,-7.028612E-2,3.5143163E-2,-4.9672615E-2,5.49457E-2,5.350888E-1,-4.042538E-1,2.1291694E-1,-3.0404142E-1,-6.5873826E-1,6.8414055E-2,-3.8891237E-2,-5.603056E-1,4.3763176E-2,-6.469585E-1,-3.4322503E-1,6.6438735E-2,-3.2087963E-2,-5.967094E-1,1.873198E-2,1.055295E-1,3.227852E-2,4.0038556E-2,-3.8455167E-1,-4.5245126E-4,9.71628E-2,-2.1694165E-1,8.110283E-2,-4.0523943E-1,3.3385176E-2,-6.488257E-2,-1.4312868E-2,6.7498036E-2,-9.8464474E-2,1.7024572E-1,-3.5019132E-1,7.682591E-1,-1.5877187E-1,-1.8079825E-1,-6.9729604E-2,8.1819884E-2,-3.002168E-2,4.0464383E-2,-3.264696E-1,-7.110225E-2,-2.9595187E-2,-6.8894684E-2,-1.3548756E-2,3.751675E-1,-5.145377E-2,-6.6675514E-1,-1.3837615E-2,-4.8742738E-1,2.9098952E-2,-3.532583E-2,-6.93229E-2,1.5785562E-2,-5.7137705E-2,3.1581532E-2,-5.5488616E-2,-2.4560485E-2,-4.7434594E-2,-4.081893E-2,3.1144608E-2,6.554082E-2,7.5550894E-3,-4.9457323E-2,3.233887E-2,9.430203E-2,-9.044671E-3,3.4149554E-2,-5.271578E-2,-4.8005115E-2,2.1625688E-2,-3.637458E-2,1.27366185E-2,-1.7975882E-2,8.1696294E-2,-6.880857E-2,-1.7714046E-2,1.9704483E-3,-5.9250157E-2],"categories":[],"categories_nodes":[],"categories_segments":[],"categories_sizes":[],"default_left":[0,0,0,0,0,0,0,0,0,0,0,0,0,0,0,0,0,0,0,0,0,0,0,0,0,0,0,0,0,0,0,0,0,0,0,0,0,0,0,0,0,0,0,0,0,0,0,0,0,0,0,0,0,0,0,0,0,0,0,0,0,0,0,0,0,0,0,0,0,0,0,0,0,0,0,0,0,0,0,0,0,0,0,0,0,0,0,0,0,0,0,0,0,0,0,0,0,0,0,0,0,0,0,0,0,0,0,0,0,0,0,0,0,0,0,0,0,0,0],"id":3,"left_children":[1,3,5,7,9,11,13,15,17,19,21,23,25,27,29,31,33,35,-1,37,39,41,43,45,47,49,51,53,55,-1,57,59,61,63,65,67,69,-1,-1,-1,-1,71,73,75,77,79,81,-1,-1,83,85,87,89,-1,-1,91,-1,-1,-1,-1,93,-1,-1,95,-1,97,-1,-1,-1,-1,99,101,103,105,107,109,-1,-1,-1,-1,111,-1,-1,-1,-1,113,-1,115,-1,117,-1,-1,-1,-1,-1,-1,-1,-1,-1,-1,-1,-1,-1,-1,-1,-1,-1,-1,-1,-1,-1,-1,-1,-1,-1,-1,-1,-1,-1],"loss_changes":[1.5110001E1,1.1446769E1,6.3774414E0,8.8257065E0,1.1230602E1,4.4519424E0,5.1780176E0,7.1812553E0,5.939508E0,2.2899218E0,7.6506186E0,4.3694553E0,2.8662987E0,4.343631E0,6.580612E0,5.069236E0,4.23098E0,4.2243357E0,0E0,8.352213E-1,2.5549119E0,8.464566E0,3.9654326E0,3.7052116E0,4.8018527E0,3.716786E0,2.3459167E0,3.3950176E0,2.898408E0,0E0,1.2875576E0,3.732655E0,3.5809531E0,4.6329937E0,4.149948E0,6.8821096E-1,3.5415397E0,0E0,0E0,0E0,0E0,6.7969093E0,8.131064E0,2.530151E0,4.68503E0,3.389841E0,4.6836758E-1,0E0,0E0,1.0771813E0,3.9240408E0,1.2444992E0,3.5504723E0,0E0,0E0,3.909197E-1,0E0,0E0,0E0,0E0,2.2832665E0,0E0,0E0,2.8142445E0,0E0,3.1751175E0,0E0,0E0,0E0,0E0,1.8314016E0,5.139632E0,3.2992952E0,5.671383E0,2.627428E0,2.998826E0,0E0,0E0,0E0,0E0,3.4166832E0,0E0,0E0,0E0,0E0,3.3908982E0,0E0,1.2100487E0,0E0,1.649723E0,0E0,0E0,0E0,0E0,0E0,0E0,0E0,0E0,0E0,0E0,0E0,0E0,0E0,0E0,0E0,0E0,0E0,0E0,0E0,0E0,0E0,0E0,0E0,0E0,0E0,0E0,0E0,0E0,0E0],"parents":[2147483647,0,0,1,1,2,2,3,3,4,4,5,5,6,6,7,7,8,8,9,9,10,10,11,11,12,12,13,13,14,14,15,15,16,16,17,17,19,19,20,20,21,21,22,22,23,23,24,24,25,25,26,26,27,27,28,28,30,30,31,31,32,32,33,33,34,34,35,35,36,36,41,41,42,42,43,43,44,44,45,45,46,46,49,49,50,50,51,51,52,52,55,55,60,60,63,63,65,65,70,70,71,71,72,72,73,73,74,74,75,75,80,80,85,85,87,87,89,89],"right_children":[2,4,6,8,10,12,14,16,18,20,22,24,26,28,30,32,34,36,-1,38,40,42,44,46,48,50,52,54,56,-1,58,60,62,64,66,68,70,-1,-1,-1,-1,72,74,76,78,80,82,-1,-1,84,86,88,90,-1,-1,92,-1,-1,-1,-1,94,-1,-1,96,-1,98,-1,-1,-1,-1,100,102,104,106,108,110,-1,-1,-1,-1,112,-1,-1,-1,-1,114,-1,116,-1,118,-1,-1,-1,-1,-1,-1,-1,-1,-1,-1,-1,-1,-1,-1,-1,-1,-1,-1,-1,-1,-1,-1,-1,-1,-1,-1,-1,-1,-1],"split_conditions":[4.009496E-1,3.8425753E-1,8.31949E-1,2.1685333E0,-1.0146209E0,2.0978178E-1,7.337241E-1,-3.760011E0,1.7977154E0,4.6853438E-1,1.6775753E0,1.0457501E0,-1.9093683E0,-4.5760027E-1,7.722539E-2,3.3759123E-1,-1.8972871E0,-3.1953943E-1,1.0025034E-1,-4.1248587E-1,3.771264E-1,5.6156504E-1,1.0641228E0,2.0785174E0,-1.22665174E-1,1.1815887E-2,1.25561E0,3.548689E-2,1.5373023E0,-3.3298545E-2,3.1652313E-1,-4.4544032E-1,-5.308514E-1,2.5521338E-1,1.294845E0,-6.417848E-1,-4.7236612E-1,-3.0587902E-2,-7.028612E-2,3.5143163E-2,-4.9672615E-2,7.613916E-1,4.7233295E-1,5.617183E-1,-6.982055E-1,-2.7929776E0,8.6265296E-1,6.8414055E-2,-3.8891237E-2,4.1859055E-1,1.9672598E-1,2.2144291E0,8.544155E-1,6.6438735E-2,-3.2087963E-2,-2.348309E-1,1.873198E-2,1.055295E-1,3.227852E-2,4.0038556E-2,-6.410846E-1,-4.5245126E-4,9.71628E-2,-5.405314E-1,8.110283E-2,-3.5447183E-1,3.3385176E-2,-6.488257E-2,-1.4312868E-2,6.7498036E-2,6.091574E-1,-1.8539087E0,9.6959513E-1,3.279441E0,1.2066082E0,-7.2382696E-2,-6.9729604E-2,8.1819884E-2,-3.002168E-2,4.0464383E-2,2.1418788E0,-7.110225E-2,-2.9595187E-2,-6.8894684E-2,-1.3548756E-2,-4.7144583E-1,-5.145377E-2,1.3305093E0,-1.3837615E-2,-5.998762E-1,2.9098952E-2,-3.532583E-2,-6.93229E-2,1.5785562E-2,-5.7137705E-2,3.1581532E-2,-5.5488616E-2,-2.4560485E-2,-4.7434594E-2,-4.081893E-2,3.1144608E-2,6.554082E-2,7.5550894E-3,-4.9457323E-2,3.233887E-2,9.430203E-2,-9.044671E-3,3.4149554E-2,-5.271578E-2,-4.8005115E-2,2.1625688E-2,-3.637458E-2,1.27366185E-2,-1.7975882E-2,8.1696294E-2,-6.880857E-2,-1.7714046E-2,1.9704483E-3,-5.9250157E-2],"split_indices":[15,27,108,25,58,37,50,1,4,98,6,116,13,104,123,104,54,77,0,108,104,101,13,13,118,90,28,38,35,0,114,56,69,108,124,23,26,0,0,0,0,78,42,3,44,28,92,0,0,35,91,47,61,0,0,87,0,0,0,0,50,0,0,104,0,108,0,0,0,0,48,31,60,1,27,23,0,0,0,0,28,0,0,0,0,91,0,91,0,105,0,0,0,0,0,0,0,0,0,0,0,0,0,0,0,0,0,0,0,0,0,0,0,0,0,0,0,0,0],"split_type":[0,0,0,0,0,0,0,0,0,0,0,0,0,0,0,0,0,0,0,0,0,0,0,0,0,0,0,0,0,0,0,0,0,0,0,0,0,0,0,0,0,0,0,0,0,0,0,0,0,0,0,0,0,0,0,0,0,0,0,0,0,0,0,0,0,0,0,0,0,0,0,0,0,0,0,0,0,0,0,0,0,0,0,0,0,0,0,0,0,0,0,0,0,0,0,0,0,0,0,0,0,0,0,0,0,0,0,0,0,0,0,0,0,0,0,0,0,0,0],"sum_hessian":[1.220216E3,6.952687E2,5.2494727E2,4.0627856E2,2.8899014E2,4.6122885E2,6.3718407E1,3.6577292E2,4.0505642E1,4.4399433E1,2.4459071E2,2.5360324E2,2.0762563E2,4.3520466E1,2.019794E1,4.2384014E1,3.2338892E2,3.4252815E1,6.2528234E0,3.21608E1,1.2238634E1,1.9173314E2,5.285757E1,2.3874617E2,1.4857076E1,3.958396E1,1.6804167E2,1.2245757E1,3.1274708E1,8.265454E0,1.1932487E1,2.8141672E1,1.4242341E1,1.8929863E1,3.0445905E2,1.1887476E1,2.2365341E1,1.000745E1,2.2153349E1,6.1064134E0,6.1322207E0,1.4322945E2,4.850369E1,3.956418E1,1.3293394E1,2.0395981E2,3.478636E1,7.921245E0,6.9358306E0,2.0418919E1,1.9165043E1,1.3177057E2,3.627109E1,6.6170783E0,5.6286793E0,2.6058172E1,5.216535E0,6.628538E0,5.3039484E0,7.499967E0,2.0641705E1,6.683267E0,7.5590744E0,1.3657684E1,5.2721786E0,2.9737546E2,7.083588E0,6.6302066E0,5.2572694E0,9.941587E0,1.2423753E1,1.1194907E2,3.1280376E1,3.6223606E1,1.2280085E1,2.33647E1,1.6199478E1,5.826299E0,7.4670944E0,5.734033E0,1.9822577E2,2.9565533E1,5.220828E0,1.5195691E1,5.2232275E0,1.2232135E1,6.932909E0,1.265342E2,5.236372E0,2.9740414E1,6.5306764E0,8.721054E0,1.7337118E1,5.328017E0,1.5313687E1,5.3263593E0,8.331326E0,9.121793E1,2.0615752E2,7.079069E0,5.3446836E0,1.7315096E1,9.463398E1,2.597779E1,5.3025866E0,3.0016542E1,6.2070627E0,5.2387996E0,7.041285E0,1.3204038E1,1.0160663E1,1.8336356E2,1.4862212E1,5.6847744E0,6.5473604E0,1.20863304E2,5.6708975E0,5.243854E0,2.449656E1],"tree_param":{"num_deleted":"0","num_feature":"128","num_nodes":"119","size_leaf_vector":"1"}},{"base_weights":[1.3510655E-1,1.5373245E-1,-5.059248E-1,3.4704024E-1,1.0086681E-1,-7.209159E-2,2.0069523E-2,8.814317E-1,2.7774718E-1,1.298006E-1,-3.0465603E-1,2.343871E-2,1.063463E0,1.2539499E-1,4.927286E-1,3.813267E-1,8.413651E-2,5.8829404E-2,-4.6587327E-1,4.5314472E-2,1.22667424E-1,6.097397E-1,4.5179825E-2,-9.063649E-2,6.3024956E-1,-3.2388717E-1,4.6848178E-1,5.396891E-2,4.8819235E-1,-3.8815606E-2,4.6289865E-2,1.4018354E-2,-5.528686E-1,1.0111982E0,-1.3705625E-2,1.8130173E-1,-2.3156396E-1,4.6201926E-2,-3.3739173E-1,9.074432E-1,2.3981893E-1,-5.8101308E-2,1.4234883E-2,9.096647E-1,3.5542405E-1,-2.7817512E-1,8.2655266E-2,6.059613E-1,-2.7435903E-2,-6.520449E-1,-2.777005E-1,1.2386477E-1,5.9428778E-2,4.1658387E-2,-1.5017821E-2,-3.1945263E-3,-6.8672344E-2,-6.572432E-2,9.353665E-3,1.0971184E-1,3.3080135E-2,-6.507331E-2,4.818974E-2,5.3282466E-2,1.18950725E-1,5.2206602E-2,1.3293888E-3,-6.546575E-2,-8.957309E-3,-9.454666E-3,1.4230962E-2,1.0997486E-1,4.0416576E-2,-3.1669926E-2,-7.1676E-2,-4.9663004E-2,1.9402632E-4],"categories":[],"categories_nodes":[],"categories_segments":[],"categories_sizes":[],"default_left":[0,0,0,0,0,0,0,0,0,0,0,0,0,0,0,0,0,0,0,0,0,0,0,0,0,0,0,0,0,0,0,0,0,0,0,0,0,0,0,0,0,0,0,0,0,0,0,0,0,0,0,0,0,0,0,0,0,0,0,0,0,0,0,0,0,0,0,0,0,0,0,0,0,0,0,0,0],"id":4,"left_children":[1,3,5,7,9,-1,-1,11,13,15,17,-1,19,21,23,25,27,29,31,-1,-1,33,35,37,39,41,43,45,47,-1,-1,-1,49,51,-1,53,55,-1,57,59,61,-1,-1,63,65,67,69,71,-1,73,75,-1,-1,-1,-1,-1,-1,-1,-1,-1,-1,-1,-1,-1,-1,-1,-1,-1,-1,-1,-1,-1,-1,-1,-1,-1,-1],"loss_changes":[1.5063465E1,1.2437016E1,5.5638437E0,9.445007E0,1.130065E1,0E0,0E0,3.234295E0,7.57296E0,1.0265304E1,3.790484E0,0E0,1.7152405E0,5.3248177E0,7.7858257E0,8.601204E0,9.238403E0,3.9036646E0,2.428872E0,0E0,0E0,5.983051E0,4.534976E0,2.781334E0,8.233181E0,1.9663144E0,5.79986E0,6.7724886E0,4.8972797E0,0E0,0E0,0E0,8.887491E-1,4.7745228E-1,0E0,6.3414297E0,3.5908031E0,0E0,1.9756509E0,4.5923615E0,7.595968E0,0E0,0E0,1.9393444E0,5.6579E0,3.9564548E0,6.9145265E0,4.133686E0,0E0,3.822651E-1,7.434401E-1,0E0,0E0,0E0,0E0,0E0,0E0,0E0,0E0,0E0,0E0,0E0,0E0,0E0,0E0,0E0,0E0,0E0,0E0,0E0,0E0,0E0,0E0,0E0,0E0,0E0,0E0],"parents":[2147483647,0,0,1,1,2,2,3,3,4,4,7,7,8,8,9,9,10,10,12,12,13,13,14,14,15,15,16,16,17,17,18,18,21,21,22,22,23,23,24,24,25,25,26,26,27,27,28,28,32,32,33,33,35,35,36,36,38,38,39,39,40,40,43,43,44,44,45,45,46,46,47,47,49,49,50,50],"right_children":[2,4,6,8,10,-1,-1,12,14,16,18,-1,20,22,24,26,28,30,32,-1,-1,34,36,38,40,42,44,46,48,-1,-1,-1,50,52,-1,54,56,-1,58,60,62,-1,-1,64,66,68,70,72,-1,74,76,-1,-1,-1,-1,-1,-1,-1,-1,-1,-1,-1,-1,-1,-1,-1,-1,-1,-1,-1,-1,-1,-1,-1,-1,-1,-1],"split_conditions":[3.7806385E0,-8.31657E-1,-2.7344447E-1,-3.6851072E0,1.1491245E0,-7.209159E-2,2.0069523E-2,-7.1345305E-1,4.8087856E-1,-2.846812E0,-7.5709665E-1,2.343871E-2,-7.25827E-1,-1.2745427E0,-9.7195554E-1,-8.859599E-1,2.9767478E0,2.817299E-1,-8.853576E-1,4.5314472E-2,1.22667424E-1,1.4859269E0,3.098209E-1,-1.3317494E0,-1.9370115E-1,6.7218184E-1,-8.2261086E-1,-9.560713E-1,7.586887E-1,-3.8815606E-2,4.6289865E-2,1.4018354E-2,9.195564E-1,-1.4592844E-1,-1.3705625E-2,1.731495E-1,3.6261296E-1,4.6201926E-2,-7.100198E-1,4.303241E-1,-9.294535E-1,-5.8101308E-2,1.4234883E-2,-5.135396E-2,2.2408967E-1,-4.4276834E-1,-4.7763044E-1,-5.7547075E-1,-2.7435903E-2,-7.0386785E-1,-6.4082444E-1,1.2386477E-1,5.9428778E-2,4.1658387E-2,-1.5017821E-2,-3.1945263E-3,-6.8672344E-2,-6.572432E-2,9.353665E-3,1.0971184E-1,3.3080135E-2,-6.507331E-2,4.818974E-2,5.3282466E-2,1.18950725E-1,5.2206602E-2,1.3293888E-3,-6.546575E-2,-8.957309E-3,-9.454666E-3,1.4230962E-2,1.0997486E-1,4.0416576E-2,-3.1669926E-2,-7.1676E-2,-4.9663004E-2,1.9402632E-4],"split_indices":[16,58,28,2,99,0,0,52,13,4,25,0,71,39,67,99,13,93,104,0,0,2,102,16,17,42,46,114,122,0,0,0,13,67,0,97,91,0,27,86,42,0,0,68,25,104,111,99,0,60,28,0,0,0,0,0,0,0,0,0,0,0,0,0,0,0,0,0,0,0,0,0,0,0,0,0,0],"split_type":[0,0,0,0,0,0,0,0,0,0,0,0,0,0,0,0,0,0,0,0,0,0,0,0,0,0,0,0,0,0,0,0,0,0,0,0,0,0,0,0,0,0,0,0,0,0,0,0,0,0,0,0,0,0,0,0,0,0,0,0,0,0,0,0,0,0,0,0,0,0,0,0,0,0,0,0,0],"sum_hessian":[1.2541047E3,1.2194329E3,3.4671852E1,2.6067773E2,9.587551E2,2.6568182E1,8.103672E0,2.857621E1,2.3210153E2,8.9553894E2,6.3216194E1,6.7764397E0,2.179977E1,1.3676366E2,9.5337875E1,1.3647255E2,7.590664E2,1.9618593E1,4.35976E1,5.396463E0,1.6403307E1,1.8494041E1,1.18269615E2,1.8252321E1,7.708555E1,1.4712264E1,1.21760284E2,7.073852E2,5.16812E1,9.333341E0,1.0285254E1,5.3958406E0,3.820176E1,1.1797798E1,6.696244E0,7.950727E1,3.8762352E1,5.36469E0,1.2887631E1,4.430568E1,3.277987E1,9.3239765E0,5.388287E0,2.3400187E1,9.83601E1,5.5546368E1,6.518388E2,4.4945183E1,6.7360153E0,2.7074076E1,1.1127684E1,6.3580728E0,5.4397254E0,4.635095E1,3.315632E1,2.7689005E1,1.1073346E1,7.0957303E0,5.791901E0,3.266016E1,1.1645522E1,6.6452785E0,2.613459E1,1.1209427E1,1.219076E1,6.578981E1,3.2570286E1,1.7714348E1,3.783202E1,1.640241E2,4.8781476E2,1.1748111E1,3.319707E1,5.3329782E0,2.1741096E1,5.806132E0,5.3215513E0],"tree_param":{"num_deleted":"0","num_feature":"128","num_nodes":"77","size_leaf_vector":"1"}},{"base_weights":[1.1792539E-1,9.5625155E-2,1.1129363E0,1.6945079E-1,-8.904397E-2,1.3055705E-1,2.8214663E-2,4.4339928E-1,9.332601E-2,-3.1303972E-1,1.7033983E-2,2.7695972E-2,6.224024E-1,-3.961992E-2,2.3297451E-1,-3.823218E-1,1.7188483E-1,1.4943646E-1,-2.2564489E-1,-4.5092568E-1,2.033789E-1,1.059078E0,4.6280575E-1,5.829465E-2,-2.62943E-1,5.7299227E-1,1.4979085E-1,-1.572458E-1,-5.566053E-1,6.163285E-2,-3.7675805E-2,2.7030638E-1,-1.9571581E-1,3.7627805E-2,-4.130072E-1,-6.802519E-4,-6.731556E-2,8.0203396E-1,-7.906196E-3,1.2221943E0,1.4010916E-2,9.078476E-1,2.9502237E-1,-2.7017653E-1,1.5303355E-1,-4.9536523E-1,-8.774251E-2,6.998602E-1,-1.3382049E-2,3.4223938E-1,3.4408055E-2,-4.073186E-1,1.6381331E-1,-6.286875E-1,-9.159486E-3,5.9906922E-2,6.361076E-1,-5.282945E-1,1.7189297E-1,3.0304205E-1,-4.6155393E-1,-5.074062E-1,-4.8430628E-4,3.0983264E-2,1.1890673E-1,-6.422394E-2,1.6140815E-2,5.9289824E-2,1.3396357E-1,3.3150483E-2,1.272932E-1,7.970148E-3,6.836634E-2,-5.376196E-2,8.793014E-3,3.448873E-2,-3.0613106E-3,-6.2348794E-2,7.0078573E-3,5.826645E-2,-2.0356443E-2,1.0020623E-1,4.154068E-2,1.0886968E-2,7.107919E-2,-4.8497035E-3,4.216602E-2,-5.6275047E-2,1.4639221E-2,6.2971614E-2,-3.0842412E-2,-6.8331875E-2,-1.94958E-2,-2.0092076E-2,3.1569753E-2,-3.1959524E-4,8.182504E-2,-1.47405015E-2,-6.413386E-2,-4.302272E-2,5.6557577E-2,-2.057098E-2,5.4787558E-2,-6.550877E-2,-1.5230811E-2,-9.428424E-3,-5.799231E-2],"categories":[],"categories_nodes":[],"categories_segments":[],"categories_sizes":[],"default_left":[0,0,0,0,0,0,0,0,0,0,0,0,0,0,0,0,0,0,0,0,0,0,0,0,0,0,0,0,0,0,0,0,0,0,0,0,0,0,0,0,0,0,0,0,0,0,0,0,0,0,0,0,0,0,0,0,0,0,0,0,0,0,0,0,0,0,0,0,0,0,0,0,0,0,0,0,0,0,0,0,0,0,0,0,0,0,0,0,0,0,0,0,0,0,0,0,0,0,0,0,0,0,0,0,0,0,0],"id":5,"left_children":[1,3,5,7,9,-1,-1,11,13,15,17,19,21,23,25,27,29,31,33,35,37,39,41,43,45,47,49,51,53,-1,-1,55,57,59,61,-1,-1,63,65,67,-1,69,71,73,75,77,79,81,-1,83,85,87,89,91,-1,93,95,97,99,101,103,105,-1,-1,-1,-1,-1,-1,-1,-1,-1,-1,-1,-1,-1,-1,-1,-1,-1,-1,-1,-1,-1,-1,-1,-1,-1,-1,-1,-1,-1,-1,-1,-1,-1,-1,-1,-1,-1,-1,-1,-1,-1,-1,-1,-1,-1],"loss_changes":[2.7781946E1,1.6789518E1,4.02586E0,1.8296703E1,8.370526E0,0E0,0E0,1.4191792E1,1.2808313E1,3.8686476E0,7.740778E0,5.012524E0,8.808762E0,7.756691E0,9.427944E0,3.809824E0,3.8508976E0,6.5523486E0,4.211758E0,1.5769529E0,5.508195E0,5.0657806E0,7.161274E0,7.7257695E0,4.358031E0,5.990633E0,6.019288E0,3.6598122E0,1.8061085E0,0E0,0E0,8.874794E0,5.1018634E0,4.947383E0,1.9156895E0,0E0,0E0,1.7950239E0,3.6630309E0,1.3889732E0,0E0,5.2082863E0,6.1157265E0,5.3761225E0,6.7857943E0,3.3938303E0,4.9985633E0,4.3903008E0,0E0,8.669092E0,5.50763E0,2.2722187E0,4.662371E0,1.0034046E0,0E0,5.0420833E0,4.9145184E0,8.425808E-1,5.0370364E0,3.138703E0,6.7780495E-1,1.1563063E0,0E0,0E0,0E0,0E0,0E0,0E0,0E0,0E0,0E0,0E0,0E0,0E0,0E0,0E0,0E0,0E0,0E0,0E0,0E0,0E0,0E0,0E0,0E0,0E0,0E0,0E0,0E0,0E0,0E0,0E0,0E0,0E0,0E0,0E0,0E0,0E0,0E0,0E0,0E0,0E0,0E0,0E0,0E0,0E0,0E0],"parents":[2147483647,0,0,1,1,2,2,3,3,4,4,7,7,8,8,9,9,10,10,11,11,12,12,13,13,14,14,15,15,16,16,17,17,18,18,19,19,20,20,21,21,22,22,23,23,24,24,25,25,26,26,27,27,28,28,31,31,32,32,33,33,34,34,37,37,38,38,39,39,41,41,42,42,43,43,44,44,45,45,46,46,47,47,49,49,50,50,51,51,52,52,53,53,55,55,56,56,57,57,58,58,59,59,60,60,61,61],"right_children":[2,4,6,8,10,-1,-1,12,14,16,18,20,22,24,26,28,30,32,34,36,38,40,42,44,46,48,50,52,54,-1,-1,56,58,60,62,-1,-1,64,66,68,-1,70,72,74,76,78,80,82,-1,84,86,88,90,92,-1,94,96,98,100,102,104,106,-1,-1,-1,-1,-1,-1,-1,-1,-1,-1,-1,-1,-1,-1,-1,-1,-1,-1,-1,-1,-1,-1,-1,-1,-1,-1,-1,-1,-1,-1,-1,-1,-1,-1,-1,-1,-1,-1,-1,-1,-1,-1,-1,-1,-1],"split_conditions":[4.3621683E0,1.4423192E0,7.700783E-1,-1.0528588E0,-8.790872E-1,1.3055705E-1,2.8214663E-2,-3.3279946E-1,4.5193296E-2,9.160805E-1,4.6869504E-1,-7.410087E-1,-4.5727614E-1,1.0675843E0,-1.6641725E0,-2.6665106E-1,1.5439318E-2,4.6044505E-1,2.382462E0,-3.862795E-1,-2.0842102E0,1.3249043E0,-1.6255938E0,-1.1020439E0,-2.2153133E-1,1.255202E0,-6.8719864E-1,1.7097153E-2,4.322103E0,6.163285E-2,-3.7675805E-2,3.071774E-1,-4.4808212E-1,3.924528E-1,6.1549E-1,-6.802519E-4,-6.731556E-2,-1.9588853E-1,-8.5415393E-1,-6.806373E-1,1.4010916E-2,-8.99275E-2,3.9216495E-1,1.2909994E-1,-6.265296E-1,1.6658787E0,-8.984454E-1,-1.3202353E-1,-1.3382049E-2,2.6913822E-1,1.3094479E0,8.751671E-1,1.586903E-1,2.6377847E0,-9.159486E-3,9.323646E-2,-5.9383297E-1,-4.3076313E-1,-1.6446859E-1,-3.306226E-1,-6.755454E-2,-1.6867083E0,-4.8430628E-4,3.0983264E-2,1.1890673E-1,-6.422394E-2,1.6140815E-2,5.9289824E-2,1.3396357E-1,3.3150483E-2,1.272932E-1,7.970148E-3,6.836634E-2,-5.376196E-2,8.793014E-3,3.448873E-2,-3.0613106E-3,-6.2348794E-2,7.0078573E-3,5.826645E-2,-2.0356443E-2,1.0020623E-1,4.154068E-2,1.0886968E-2,7.107919E-2,-4.8497035E-3,4.216602E-2,-5.6275047E-2,1.4639221E-2,6.2971614E-2,-3.0842412E-2,-6.8331875E-2,-1.94958E-2,-2.0092076E-2,3.1569753E-2,-3.1959524E-4,8.182504E-2,-1.47405015E-2,-6.413386E-2,-4.302272E-2,5.6557577E-2,-2.057098E-2,5.4787558E-2,-6.550877E-2,-1.5230811E-2,-9.428424E-3,-5.799231E-2],"split_indices":[16,5,4,40,16,0,0,102,16,119,47,19,114,9,17,75,73,100,5,109,11,47,6,36,96,22,11,77,5,0,0,19,47,112,117,0,0,111,112,105,0,96,100,19,5,4,75,89,0,62,36,66,105,4,0,118,55,101,113,101,69,46,0,0,0,0,0,0,0,0,0,0,0,0,0,0,0,0,0,0,0,0,0,0,0,0,0,0,0,0,0,0,0,0,0,0,0,0,0,0,0,0,0,0,0,0,0],"split_type":[0,0,0,0,0,0,0,0,0,0,0,0,0,0,0,0,0,0,0,0,0,0,0,0,0,0,0,0,0,0,0,0,0,0,0,0,0,0,0,0,0,0,0,0,0,0,0,0,0,0,0,0,0,0,0,0,0,0,0,0,0,0,0,0,0,0,0,0,0,0,0,0,0,0,0,0,0,0,0,0,0,0,0,0,0,0,0,0,0,0,0,0,0,0,0,0,0,0,0,0,0,0,0,0,0,0,0],"sum_hessian":[1.255857E3,1.2293998E3,2.645727E1,8.7834424E2,3.510555E2,2.1013432E1,5.4438367E0,1.8995021E2,6.8839404E2,1.1219399E2,2.3886151E2,5.7521465E1,1.3242874E2,3.530271E2,3.3536694E2,9.8353615E1,1.3840382E1,1.5479279E2,8.406873E1,1.5024037E1,4.249743E1,3.393703E1,9.8491714E1,2.459367E2,1.070904E2,6.4761696E1,2.7060526E2,4.375241E1,5.4601204E1,7.578132E0,6.262249E0,1.14805534E2,3.998725E1,3.5285866E1,4.8782864E1,5.3542533E0,9.669784E0,1.0356721E1,3.2140705E1,2.854105E1,5.395981E0,2.5758091E1,7.273362E1,5.4640327E1,1.9129639E2,4.5243126E1,6.1847275E1,5.4914722E1,9.846973E0,1.0069259E2,1.6991266E2,2.444418E1,1.9308231E1,4.696853E1,7.6326756E0,7.362316E1,4.1182377E1,2.076441E1,1.9222841E1,2.329361E1,1.1992257E1,3.9422264E1,9.3606E0,5.3515434E0,5.0051775E0,6.1830053E0,2.59577E1,5.4399796E0,2.310107E1,1.0728887E1,1.5029205E1,4.7578518E1,2.5155104E1,3.0992823E1,2.3647505E1,9.3128265E1,9.816812E1,3.6801662E1,8.4414625E0,8.517146E0,5.3330128E1,2.5403446E1,2.9511276E1,6.2446487E1,3.8246105E1,1.4067166E2,2.9241E1,1.9073689E1,5.3704915E0,9.55144E0,9.756791E0,4.1203247E1,5.7652807E0,3.6558872E1,3.7064285E1,9.349384E0,3.1832993E1,5.279543E0,1.5484866E1,7.5628996E0,1.1659941E1,7.619814E0,1.5673795E1,6.6882467E0,5.3040104E0,6.2301097E0,3.3192154E1],"tree_param":{"num_deleted":"0","num_feature":"128","num_nodes":"107","size_leaf_vector":"1"}},{"base_weights":[-2.4421516E-1,-2.8664923E-1,-8.468504E-2,6.0033873E-2,-3.043327E-1,-1.821653E-1,2.124441E-1,3.0593488E-1,-3.9540792E-1,-3.3002713E-1,-5.5128653E-2,-8.898108E-2,-5.381136E-1,5.5975384E-1,8.689224E-3,5.555587E-2,1.1144131E-1,-6.591907E-2,1.01244105E-2,-4.684153E-1,-2.8279772E-1,-2.6061818E-1,3.6802468E-1,-1.7259116E-1,3.7484926E-1,-1.2967925E-2,-6.159342E-1,1.2125104E-1,1.0767006E-1,-1.504892E-1,6.378242E-2,4.726333E-1,-4.213468E-1,-5.4344726E-1,-2.2847189E-1,-1.7495686E-1,-3.6189285E-1,9.7989015E-2,-4.889178E-1,-9.496155E-2,9.574041E-1,-2.2536721E-2,-4.2669925E-1,-2.4169806E-2,6.2110835E-1,-1.4598814E-2,-6.9926165E-2,-3.0361954E-2,5.885042E-2,1.526221E-1,-4.1555256E-1,8.6034015E-2,-1.3660632E-2,-1.3135508E-2,-6.18197E-2,-5.683531E-1,3.264054E-3,-3.4235576E-1,6.42304E-2,-4.286112E-1,-7.72194E-2,-4.138453E-1,-1.1127887E-1,5.4787215E-2,-2.5168875E-1,5.8972114E-3,-6.3362545E-1,5.1282447E-2,-4.0893358E-1,4.643564E-2,1.25471E-1,2.3404135E-1,-3.0040196E-1,7.732008E-2,-5.743319E-1,2.734939E-1,1.1191421E-1,-3.712527E-2,5.347804E-2,-5.9369583E-2,2.2806877E-3,-4.1119263E-2,-6.252042E-2,-5.3830665E-2,4.090705E-3,-1.674143E-2,-5.9507E-2,-2.1667853E-2,1.1885956E-2,-4.3936517E-2,1.9765032E-2,-3.55543E-2,2.9294005E-2,-6.443202E-2,3.3591907E-2,-2.905691E-2,-6.973899E-2,-1.1813238E-2,-6.1737668E-2,4.797743E-3,7.2359905E-2,-4.1477825E-2,2.1283818E-2,-3.27167E-2,4.96363E-2,-6.667339E-2,-1.9161453E-2,6.432136E-2,-1.4234948E-2],"categories":[],"categories_nodes":[],"categories_segments":[],"categories_sizes":[],"default_left":[0,0,0,0,0,0,0,0,0,0,0,0,0,0,0,0,0,0,0,0,0,0,0,0,0,0,0,0,0,0,0,0,0,0,0,0,0,0,0,0,0,0,0,0,0,0,0,0,0,0,0,0,0,0,0,0,0,0,0,0,0,0,0,0,0,0,0,0,0,0,0,0,0,0,0,0,0,0,0,0,0,0,0,0,0,0,0,0,0,0,0,0,0,0,0,0,0,0,0,0,0,0,0,0,0,0,0,0,0],"id":6,"left_children":[1,3,5,7,9,11,13,15,17,19,21,23,25,27,29,31,-1,-1,-1,33,35,37,39,41,43,-1,45,-1,47,49,-1,51,53,55,57,59,61,63,65,67,69,71,73,-1,75,-1,-1,-1,-1,77,79,-1,-1,-1,-1,81,-1,83,-1,85,87,89,91,-1,93,-1,95,-1,97,-1,-1,99,101,103,105,107,-1,-1,-1,-1,-1,-1,-1,-1,-1,-1,-1,-1,-1,-1,-1,-1,-1,-1,-1,-1,-1,-1,-1,-1,-1,-1,-1,-1,-1,-1,-1,-1,-1],"loss_changes":[8.163223E0,5.8725204E0,7.4401093E0,5.40482E0,5.800659E0,6.352018E0,4.494915E0,6.2541323E0,2.2910218E0,5.2506332E0,7.586113E0,6.0414257E0,1.1862411E0,6.802917E0,4.211075E0,5.147153E0,0E0,0E0,0E0,3.6212616E0,5.1958275E0,4.842889E0,7.8874645E0,4.9954157E0,3.7717557E0,0E0,1.1977158E0,0E0,3.140923E0,2.7632306E0,0E0,3.363423E0,6.1148953E-1,2.2820206E0,5.3055477E0,6.482483E0,4.572857E0,3.8529284E0,2.8878508E0,3.4368992E0,1.2732038E0,6.0293455E0,3.666542E0,0E0,2.6933255E0,0E0,0E0,0E0,0E0,3.483446E0,1.4344296E0,0E0,0E0,0E0,0E0,1.0945015E0,0E0,3.4769893E0,0E0,3.0691156E0,5.2468495E0,4.6665726E0,6.253566E0,0E0,3.4401317E0,0E0,4.2136574E-1,0E0,6.367192E-1,0E0,0E0,3.974896E0,2.4695635E0,2.181019E0,1.2078934E0,1.863766E0,0E0,0E0,0E0,0E0,0E0,0E0,0E0,0E0,0E0,0E0,0E0,0E0,0E0,0E0,0E0,0E0,0E0,0E0,0E0,0E0,0E0,0E0,0E0,0E0,0E0,0E0,0E0,0E0,0E0,0E0,0E0,0E0,0E0],"parents":[2147483647,0,0,1,1,2,2,3,3,4,4,5,5,6,6,7,7,8,8,9,9,10,10,11,11,12,12,13,13,14,14,15,15,19,19,20,20,21,21,22,22,23,23,24,24,26,26,28,28,29,29,31,31,32,32,33,33,34,34,35,35,36,36,37,37,38,38,39,39,40,40,41,41,42,42,44,44,49,49,50,50,55,55,57,57,59,59,60,60,61,61,62,62,64,64,66,66,68,68,71,71,72,72,73,73,74,74,75,75],"right_children":[2,4,6,8,10,12,14,16,18,20,22,24,26,28,30,32,-1,-1,-1,34,36,38,40,42,44,-1,46,-1,48,50,-1,52,54,56,58,60,62,64,66,68,70,72,74,-1,76,-1,-1,-1,-1,78,80,-1,-1,-1,-1,82,-1,84,-1,86,88,90,92,-1,94,-1,96,-1,98,-1,-1,100,102,104,106,108,-1,-1,-1,-1,-1,-1,-1,-1,-1,-1,-1,-1,-1,-1,-1,-1,-1,-1,-1,-1,-1,-1,-1,-1,-1,-1,-1,-1,-1,-1,-1,-1,-1],"split_conditions":[8.238276E-1,-1.2379553E0,1.0740622E0,6.258286E-1,9.357558E-1,9.3813485E-1,-1.2579111E0,4.7283953E-1,-1.713479E-1,-1.068201E0,8.088871E-1,1.695223E0,-1.6964086E0,-1.5604912E-1,7.3714757E-1,-2.2129746E-1,1.1144131E-1,-6.591907E-2,1.01244105E-2,1.518794E0,-2.652026E-1,-3.0538607E-1,3.6595365E-1,4.271738E-1,-4.114654E-1,-1.2967925E-2,-1.069251E0,1.2125104E-1,5.5521107E-1,-6.1636135E-2,6.378242E-2,9.223575E-1,9.147833E-1,1.0358214E0,1.1604623E0,-1.0861007E0,9.3704665E-1,-3.587392E-1,-1.5791892E0,-7.3118275E-1,-5.441342E-1,8.501893E-2,-6.750699E-1,-2.4169806E-2,5.8060735E-1,-1.4598814E-2,-6.9926165E-2,-3.0361954E-2,5.885042E-2,-3.3228394E-1,5.0101113E-1,8.6034015E-2,-1.3660632E-2,-1.3135508E-2,-6.18197E-2,-1.0418363E0,3.264054E-3,8.321026E-1,6.42304E-2,-1.2430389E-1,2.1754594E-1,4.410482E0,2.7384672E-1,5.4787215E-2,2.2173202E-1,5.8972114E-3,-7.9773796E-1,5.1282447E-2,1.7071575E-1,4.643564E-2,1.25471E-1,4.7831446E-1,8.9755523E-1,2.9162574E-1,8.669032E-1,3.544086E-1,1.1191421E-1,-3.712527E-2,5.347804E-2,-5.9369583E-2,2.2806877E-3,-4.1119263E-2,-6.252042E-2,-5.3830665E-2,4.090705E-3,-1.674143E-2,-5.9507E-2,-2.1667853E-2,1.1885956E-2,-4.3936517E-2,1.9765032E-2,-3.55543E-2,2.9294005E-2,-6.443202E-2,3.3591907E-2,-2.905691E-2,-6.973899E-2,-1.1813238E-2,-6.1737668E-2,4.797743E-3,7.2359905E-2,-4.1477825E-2,2.1283818E-2,-3.27167E-2,4.96363E-2,-6.667339E-2,-1.9161453E-2,6.432136E-2,-1.4234948E-2],"split_indices":[63,105,27,36,110,36,3,115,63,22,13,22,22,85,93,10,0,0,0,8,44,64,27,14,104,0,76,0,23,86,0,26,10,125,65,27,71,28,10,8,10,104,65,0,28,0,0,0,0,127,94,0,0,0,0,10,0,13,0,71,65,5,104,0,85,0,76,0,79,0,0,59,37,8,87,16,0,0,0,0,0,0,0,0,0,0,0,0,0,0,0,0,0,0,0,0,0,0,0,0,0,0,0,0,0,0,0,0,0],"split_type":[0,0,0,0,0,0,0,0,0,0,0,0,0,0,0,0,0,0,0,0,0,0,0,0,0,0,0,0,0,0,0,0,0,0,0,0,0,0,0,0,0,0,0,0,0,0,0,0,0,0,0,0,0,0,0,0,0,0,0,0,0,0,0,0,0,0,0,0,0,0,0,0,0,0,0,0,0,0,0,0,0,0,0,0,0,0,0,0,0,0,0,0,0,0,0,0,0,0,0,0,0,0,0,0,0,0,0,0,0],"sum_hessian":[1.2084652E3,9.539289E2,2.5453629E2,4.617994E1,9.0774896E2,1.9194958E2,6.2586693E1,3.0201754E1,1.5978188E1,8.2260876E2,8.514021E1,1.531153E2,3.883429E1,2.2495266E1,4.0091427E1,2.3876205E1,6.325547E0,1.0221863E1,5.7563252E0,2.0703935E2,6.155694E2,5.75683E1,2.7571915E1,1.3026213E2,2.2853163E1,6.641797E0,3.2192493E1,8.51645E0,1.3978815E1,3.2603233E1,7.4881945E0,1.2741777E1,1.1134428E1,1.5675581E2,5.0283543E1,2.6181476E2,3.5375464E2,2.2615398E1,3.49529E1,1.591152E1,1.1660395E1,8.258387E1,4.7678265E1,6.527954E0,1.6325209E1,5.2629204E0,2.6929571E1,7.7329025E0,6.2459126E0,1.5407873E1,1.7195358E1,7.5347023E0,5.207075E0,5.176258E0,5.95817E0,1.5027255E2,6.483261E0,4.5004494E1,5.2790456E0,7.1880554E1,1.8993419E2,2.924734E2,6.1281254E1,9.642678E0,1.2972721E1,7.4266615E0,2.7526237E1,5.2040987E0,1.0707421E1,5.3499684E0,6.310426E0,4.3018616E1,3.9565258E1,1.0909474E1,3.676879E1,1.0526875E1,5.798335E0,6.5109673E0,8.896906E0,1.1974662E1,5.2206964E0,4.2106144E1,1.08166405E2,2.951157E1,1.5492926E1,2.8759174E1,4.3121376E1,1.1093077E2,7.9003426E1,2.8102667E2,1.14467325E1,3.8273502E1,2.3007751E1,7.7186875E0,5.254034E0,5.1854005E0,2.2340837E1,5.1246724E0,5.5827484E0,3.1967049E1,1.1051567E1,3.25118E1,7.0534573E0,5.662713E0,5.2467613E0,2.9020159E1,7.748633E0,5.28304E0,5.2438345E0],"tree_param":{"num_deleted":"0","num_feature":"128","num_nodes":"109","size_leaf_vector":"1"}},{"base_weights":[1.2466381E-1,2.1582127E-1,-8.271297E-2,-3.808842E-2,2.9363087E-1,-2.0750177E-1,4.7060806E-2,4.929734E-2,-4.4705775E-1,4.2343563E-1,1.722897E-1,-3.1712317E-1,1.0268693E-1,-4.0558466E-1,1.2660962E-1,1.4987192E-1,-3.6691728E-1,-6.7021854E-2,2.7141804E-2,7.294633E-1,3.5969752E-1,-2.8364757E-1,2.1698152E-1,-4.3494436E-1,1.1926396E-1,5.2028334E-1,-1.5541397E-1,-4.621551E-3,-6.468787E-2,2.7765295E-1,-1.894442E-1,4.221272E-2,6.1108416E-1,-5.317675E-1,2.5068363E-2,-4.5692988E-2,4.348758E-2,-1.8047772E-2,9.148008E-1,5.8798397E-1,2.0419407E-1,-4.429838E-1,3.0222936E-2,3.7128497E-2,3.3696574E-1,-1.0756803E-1,-5.5515575E-1,4.9874163E-1,-2.7366802E-1,-4.598278E-3,9.423773E-1,5.1843E-2,-2.9577184E-1,-4.690532E-2,4.534732E-2,-4.5172825E-2,3.399858E-1,1.4704464E-1,-3.9512694E-1,1.7409751E-1,-4.6798357E-1,9.015651E-1,-2.3362357E-3,-2.3570497E-4,-6.642704E-2,-4.9056925E-2,5.1491E-2,1.0766158E0,4.2008618E-1,7.785342E-1,2.7206025E-1,2.6808968E-1,-3.2066596E-1,1.3603235E-2,-6.094693E-1,-1.18483186E-1,3.0072424E-1,3.9378974E-1,-2.8814197E-1,-5.136362E-1,2.6837093E-1,-6.0542303E-1,1.47699965E-2,-1.916882E-2,8.8891946E-2,-6.640384E-2,2.7846893E-2,1.19452894E-1,5.1454592E-2,-4.7796947E-1,2.3435764E-2,1.195176E-1,2.7859792E-1,-2.502692E-1,7.759753E-2,1.4164373E-2,-5.050867E-1,-4.9641854E-3,4.432178E-2,-7.026513E-2,-8.1843035E-3,3.133418E-2,1.19290546E-1,1.2502216E-1,6.074458E-2,1.00931905E-1,-2.077172E-2,1.21986546E-1,5.7263643E-2,-1.8089417E-2,6.0181446E-2,6.563892E-2,1.701286E-2,2.8423432E-2,-6.0684532E-2,-3.1066213E-2,-6.983873E-2,-2.66289E-2,2.1625137E-2,5.180907E-2,-3.1400304E-2,-1.7741224E-2,4.458028E-2,1.9918619E-2,-5.863876E-2,-1.6003916E-2,-6.802114E-2,8.645431E-2,-2.0506106E-2,-1.3174362E-2,-6.4790785E-2,-6.3958876E-2,-3.201764E-4,9.489629E-4,4.7363985E-2,1.189276E-2,-6.356189E-2,-6.604621E-2,-8.324257E-3],"categories":[],"categories_nodes":[],"categories_segments":[],"categories_sizes":[],"default_left":[0,0,0,0,0,0,0,0,0,0,0,0,0,0,0,0,0,0,0,0,0,0,0,0,0,0,0,0,0,0,0,0,0,0,0,0,0,0,0,0,0,0,0,0,0,0,0,0,0,0,0,0,0,0,0,0,0,0,0,0,0,0,0,0,0,0,0,0,0,0,0,0,0,0,0,0,0,0,0,0,0,0,0,0,0,0,0,0,0,0,0,0,0,0,0,0,0,0,0,0,0,0,0,0,0,0,0,0,0,0,0,0,0,0,0,0,0,0,0,0,0,0,0,0,0,0,0,0,0,0,0,0,0,0,0,0,0,0,0],"id":7,"left_children":[1,3,5,7,9,11,13,15,17,19,21,23,25,27,29,31,33,-1,35,37,39,41,43,45,47,49,51,53,-1,55,57,59,61,63,-1,-1,-1,65,67,69,71,73,-1,75,77,79,81,83,85,-1,87,-1,89,-1,-1,-1,91,93,95,97,99,101,-1,-1,-1,-1,-1,103,105,107,109,111,113,-1,115,117,119,121,123,125,127,129,-1,-1,-1,-1,-1,-1,-1,131,-1,-1,133,135,-1,-1,137,-1,-1,-1,-1,-1,-1,-1,-1,-1,-1,-1,-1,-1,-1,-1,-1,-1,-1,-1,-1,-1,-1,-1,-1,-1,-1,-1,-1,-1,-1,-1,-1,-1,-1,-1,-1,-1,-1,-1,-1,-1,-1],"loss_changes":[2.367475E1,1.7191154E1,6.209699E0,7.343276E0,1.0412624E1,6.675337E0,6.8383775E0,7.158421E0,3.8453312E0,5.9980927E0,7.1070795E0,7.4860315E0,5.660431E0,2.7458787E0,7.742097E0,6.7955294E0,3.5251193E0,0E0,2.672644E0,7.5465584E0,9.379765E0,3.0558102E0,6.795064E0,4.42927E0,4.836938E0,4.824611E0,3.252067E0,2.697991E0,0E0,5.1272125E0,3.7041821E0,7.6481304E0,4.798833E0,1.8655114E0,0E0,0E0,0E0,3.2190232E0,3.0358276E0,6.2834625E0,5.4755697E0,2.4941478E0,0E0,5.2598205E0,6.830616E0,5.0038853E0,3.0285778E0,4.5858793E0,3.6621754E0,0E0,6.2676525E-1,0E0,2.7925413E0,0E0,0E0,0E0,4.9879313E0,5.3703923E0,2.0173593E0,5.446211E0,2.0600934E0,2.6780357E0,0E0,0E0,0E0,0E0,0E0,1.8627434E0,4.789021E0,5.36837E0,6.4016757E0,5.3587275E0,3.2705693E0,0E0,3.0406094E-1,4.0553083E0,6.5176754E0,5.241726E0,2.4909902E0,8.139324E-1,5.0343904E0,1.4809837E0,0E0,0E0,0E0,0E0,0E0,0E0,0E0,1.6079884E0,0E0,0E0,5.027452E0,1.9892538E0,0E0,0E0,1.7527838E0,0E0,0E0,0E0,0E0,0E0,0E0,0E0,0E0,0E0,0E0,0E0,0E0,0E0,0E0,0E0,0E0,0E0,0E0,0E0,0E0,0E0,0E0,0E0,0E0,0E0,0E0,0E0,0E0,0E0,0E0,0E0,0E0,0E0,0E0,0E0,0E0,0E0,0E0,0E0,0E0,0E0,0E0],"parents":[2147483647,0,0,1,1,2,2,3,3,4,4,5,5,6,6,7,7,8,8,9,9,10,10,11,11,12,12,13,13,14,14,15,15,16,16,18,18,19,19,20,20,21,21,22,22,23,23,24,24,25,25,26,26,27,27,29,29,30,30,31,31,32,32,33,33,37,37,38,38,39,39,40,40,41,41,43,43,44,44,45,45,46,46,47,47,48,48,50,50,52,52,56,56,57,57,58,58,59,59,60,60,61,61,67,67,68,68,69,69,70,70,71,71,72,72,74,74,75,75,76,76,77,77,78,78,79,79,80,80,81,81,89,89,92,92,93,93,96,96],"right_children":[2,4,6,8,10,12,14,16,18,20,22,24,26,28,30,32,34,-1,36,38,40,42,44,46,48,50,52,54,-1,56,58,60,62,64,-1,-1,-1,66,68,70,72,74,-1,76,78,80,82,84,86,-1,88,-1,90,-1,-1,-1,92,94,96,98,100,102,-1,-1,-1,-1,-1,104,106,108,110,112,114,-1,116,118,120,122,124,126,128,130,-1,-1,-1,-1,-1,-1,-1,132,-1,-1,134,136,-1,-1,138,-1,-1,-1,-1,-1,-1,-1,-1,-1,-1,-1,-1,-1,-1,-1,-1,-1,-1,-1,-1,-1,-1,-1,-1,-1,-1,-1,-1,-1,-1,-1,-1,-1,-1,-1,-1,-1,-1,-1,-1,-1,-1],"split_conditions":[1.0590967E0,-1.8519015E0,2.2929348E-2,1.784737E0,-4.8064213E-2,5.4903066E-1,-1.7196957E0,1.1117243E0,4.965327E-1,-9.7380054E-1,-8.5642457E-1,1.0670092E0,-8.617311E-1,6.0223565E-3,5.346913E-1,5.899047E-1,1.8507593E0,-6.7021854E-2,-2.031965E-2,-9.425772E-1,-1.6326333E0,1.6685201E0,-2.3366967E-1,-1.2924411E0,2.6984673E0,-5.823869E-2,-9.538559E-1,-9.9055386E-1,-6.468787E-2,-2.032278E0,-1.635985E-1,1.1161386E0,4.6161994E-2,-6.699373E-1,2.5068363E-2,-4.5692988E-2,4.348758E-2,1.2825383E-1,5.5003715E-1,4.7257033E-1,9.321066E-1,-1.1867553E0,3.0222936E-2,2.5801748E-1,7.146606E0,-5.551872E-2,1.5429959E0,-2.7807313E-1,2.717537E-1,-4.598278E-3,1.4724416E-1,5.1843E-2,1.0334326E0,-4.690532E-2,4.534732E-2,-4.5172825E-2,-1.2585933E0,6.0785925E-1,-6.028574E-1,5.549309E-2,2.992208E-1,-2.0213433E-2,-2.3362357E-3,-2.3570497E-4,-6.642704E-2,-4.9056925E-2,5.1491E-2,6.7432326E-1,3.0641475E-1,-2.907275E-1,-1.4426501E-1,-1.1348006E0,-4.4276834E-1,1.3603235E-2,-9.2728245E-1,4.4446585E-1,4.5084733E-1,-1.4875246E0,-2.0395201E-1,-4.4275707E-1,-5.972186E-1,-8.7325245E-1,1.47699965E-2,-1.916882E-2,8.8891946E-2,-6.640384E-2,2.7846893E-2,1.19452894E-1,5.1454592E-2,1.0039892E0,2.3435764E-2,1.195176E-1,-1.9677074E-1,-9.0540156E-2,7.759753E-2,1.4164373E-2,2.608296E-1,-4.9641854E-3,4.432178E-2,-7.026513E-2,-8.1843035E-3,3.133418E-2,1.19290546E-1,1.2502216E-1,6.074458E-2,1.00931905E-1,-2.077172E-2,1.21986546E-1,5.7263643E-2,-1.8089417E-2,6.0181446E-2,6.563892E-2,1.701286E-2,2.8423432E-2,-6.0684532E-2,-3.1066213E-2,-6.983873E-2,-2.66289E-2,2.1625137E-2,5.180907E-2,-3.1400304E-2,-1.7741224E-2,4.458028E-2,1.9918619E-2,-5.863876E-2,-1.6003916E-2,-6.802114E-2,8.645431E-2,-2.0506106E-2,-1.3174362E-2,-6.4790785E-2,-6.3958876E-2,-3.201764E-4,9.489629E-4,4.7363985E-2,1.189276E-2,-6.356189E-2,-6.604621E-2,-8.324257E-3],"split_indices":[7,6,6,16,109,78,27,38,40,69,119,44,16,48,38,106,20,0,114,48,7,40,89,3,7,48,69,17,0,40,49,37,124,63,0,0,0,78,75,51,99,38,0,94,0,91,52,107,20,0,57,0,48,0,0,0,89,45,89,87,116,115,0,0,0,0,0,49,17,121,103,38,104,0,60,61,77,44,85,16,37,109,0,0,0,0,0,0,0,52,0,0,43,91,0,0,57,0,0,0,0,0,0,0,0,0,0,0,0,0,0,0,0,0,0,0,0,0,0,0,0,0,0,0,0,0,0,0,0,0,0,0,0,0,0,0,0,0,0],"split_type":[0,0,0,0,0,0,0,0,0,0,0,0,0,0,0,0,0,0,0,0,0,0,0,0,0,0,0,0,0,0,0,0,0,0,0,0,0,0,0,0,0,0,0,0,0,0,0,0,0,0,0,0,0,0,0,0,0,0,0,0,0,0,0,0,0,0,0,0,0,0,0,0,0,0,0,0,0,0,0,0,0,0,0,0,0,0,0,0,0,0,0,0,0,0,0,0,0,0,0,0,0,0,0,0,0,0,0,0,0,0,0,0,0,0,0,0,0,0,0,0,0,0,0,0,0,0,0,0,0,0,0,0,0,0,0,0,0,0,0],"sum_hessian":[1.2504271E3,8.685808E2,3.818463E2,2.0385805E2,6.647228E2,1.9435657E2,1.8748973E2,1.6869246E2,3.5165585E1,3.1995795E2,3.4476483E2,1.4358939E2,5.076718E1,2.7412073E1,1.6007765E2,1.3637787E2,3.231459E1,2.3631235E1,1.1534351E1,5.3352127E1,2.6660583E2,3.0300299E1,3.1446454E2,1.13065796E2,3.0523592E1,1.9003881E1,3.17633E1,1.0681524E1,1.6730549E1,1.08396194E2,5.1681458E1,1.1145325E2,2.4924627E1,2.5616108E1,6.6984806E0,5.2183466E0,6.3160043E0,1.0779285E1,4.257284E1,1.068961E2,1.5970972E2,2.401345E1,6.2868495E0,1.2636155E2,1.8810298E2,3.0875677E1,8.219012E1,1.539065E1,1.5132943E1,8.496432E0,1.050745E1,5.011235E0,2.6752064E1,5.292197E0,5.389327E0,8.042357E0,1.0035384E2,1.9714464E1,3.1966995E1,8.908397E1,2.2369276E1,1.6808046E1,8.11658E0,5.3316145E0,2.0284494E1,5.755755E0,5.0235305E0,3.1193577E1,1.1379266E1,6.576529E1,4.1130817E1,1.428131E2,1.6896622E1,5.403534E0,1.8609917E1,7.980173E1,4.655982E1,1.7276794E2,1.533503E1,1.4666967E1,1.620871E1,7.68337E1,5.3564186E0,5.740825E0,9.649824E0,8.746409E0,6.3865337E0,5.483548E0,5.023902E0,1.9982698E1,6.7693653E0,5.4842234E0,9.486961E1,1.2450923E1,7.2635403E0,5.386169E0,2.6580826E1,4.908858E1,3.9995384E1,1.3403774E1,8.965502E0,6.254857E0,1.0553189E1,2.1553453E1,9.640122E0,5.55647E0,5.822796E0,1.9354752E1,4.6410534E1,1.751855E1,2.3612268E1,2.7622427E1,1.15190674E2,5.4287057E0,1.14679165E1,5.2984376E0,1.3311478E1,5.549969E1,2.4302038E1,3.451321E1,1.2046606E1,1.4217873E1,1.5855008E2,5.948092E0,9.386938E0,5.3247123E0,9.342255E0,6.808697E0,9.400013E0,6.6616282E0,7.017207E1,1.464882E1,5.3338795E0,4.0306095E1,5.456352E1,6.7118216E0,5.739102E0,1.9012434E1,7.568392E0],"tree_param":{"num_deleted":"0","num_feature":"128","num_nodes":"139","size_leaf_vector":"1"}},{"base_weights":[1.1065293E-1,3.0738428E-2,3.860865E-1,5.072262E-3,9.7190577E-1,5.122543E-1,-1.3273033E-2,-1.4229698E-1,1.0909165E-1,1.1625977E-1,3.0592998E-2,2.6974546E-2,6.499052E-1,-1.4810844E-1,4.694646E-1,2.1032374E-1,-2.0155832E-1,-1.0055234E-1,1.7105785E-1,8.842658E-2,-1.0450907E-1,3.5810688E-1,8.438331E-1,6.793881E-2,-2.4679053E-1,-1.47831505E-2,9.8562695E-2,4.868692E-1,-1.8183324E-1,-3.8317868E-1,-1.0286352E-1,2.823999E-2,-3.9423633E-1,1.08101346E-1,4.1137278E-1,-6.679398E-2,6.215247E-2,6.882125E-1,5.1921196E-2,6.769798E-1,1.25895E-1,8.636335E-2,-4.3933684E-1,-1.7395964E-2,7.344127E-1,2.4696192E-1,-6.0379084E-2,-4.28062E-1,4.6911962E-2,-1.5885524E-1,3.5773277E-1,-1.7880164E-1,3.5764265E-1,-5.6663907E-1,3.6510345E-2,1.5897323E-1,-3.350052E-1,9.985279E-2,5.9044987E-1,-3.8476333E-1,3.2587907E-1,8.9964443E-1,-5.3943186E-3,-3.2463846E-1,4.9643007E-1,2.7603966E-1,9.005732E-1,-3.8499914E-2,5.8866035E-2,-7.2850555E-2,-6.16638E-1,-2.3611414E-3,9.5100865E-2,-3.1508725E-2,6.964436E-2,-4.972778E-2,-3.5558862E-3,-2.9814515E-2,5.8733654E-4,-2.6364679E-2,6.1333586E-2,4.7198772E-2,-2.9392747E-2,-3.419265E-2,5.088097E-2,-6.7043684E-2,-2.4847597E-2,4.1838896E-2,8.136842E-3,-5.148068E-2,4.1248582E-2,-2.1024216E-2,7.475119E-2,1.5582143E-2,7.641225E-2,-1.528736E-3,-6.450922E-2,-2.3122882E-2,5.632394E-2,1.0493926E-1,3.488154E-2,2.879474E-2,-6.2541775E-2,8.055679E-3,8.678443E-2,-3.8384736E-2,4.9139462E-2,2.9590635E-2,1.04069605E-1,-4.7000404E-2,3.5586625E-2,-7.017604E-2,-3.06422E-2],"categories":[],"categories_nodes":[],"categories_segments":[],"categories_sizes":[],"default_left":[0,0,0,0,0,0,0,0,0,0,0,0,0,0,0,0,0,0,0,0,0,0,0,0,0,0,0,0,0,0,0,0,0,0,0,0,0,0,0,0,0,0,0,0,0,0,0,0,0,0,0,0,0,0,0,0,0,0,0,0,0,0,0,0,0,0,0,0,0,0,0,0,0,0,0,0,0,0,0,0,0,0,0,0,0,0,0,0,0,0,0,0,0,0,0,0,0,0,0,0,0,0,0,0,0,0,0,0,0,0,0,0,0],"id":8,"left_children":[1,3,5,7,9,11,13,15,17,-1,-1,19,21,23,25,27,29,31,33,-1,35,37,39,-1,41,-1,-1,43,45,47,49,51,53,55,57,-1,59,61,63,65,-1,67,69,-1,71,73,-1,75,-1,77,79,81,83,85,-1,87,89,91,93,95,97,99,-1,101,103,105,107,-1,-1,109,111,-1,-1,-1,-1,-1,-1,-1,-1,-1,-1,-1,-1,-1,-1,-1,-1,-1,-1,-1,-1,-1,-1,-1,-1,-1,-1,-1,-1,-1,-1,-1,-1,-1,-1,-1,-1,-1,-1,-1,-1,-1,-1],"loss_changes":[2.7362667E1,2.330732E1,1.4094952E1,1.4431933E1,2.8972054E0,1.4177391E1,4.502257E0,8.183208E0,7.1865563E0,0E0,0E0,5.503007E0,9.063164E0,4.5766764E0,4.9596434E0,6.2203417E0,5.948102E0,4.797312E0,6.4058E0,0E0,4.0334654E0,6.818487E0,5.983124E0,0E0,3.17948E0,0E0,0E0,5.596369E0,4.5115714E0,4.6857376E0,5.6735716E0,6.1266227E0,5.265578E0,7.699217E0,4.8584785E0,0E0,4.1000166E0,5.156251E0,6.2310658E0,6.2558975E0,0E0,4.671429E0,1.9824386E0,0E0,4.046854E0,3.419831E0,0E0,3.0223045E0,0E0,4.473229E0,3.9597812E0,4.2784157E0,3.8374991E0,8.8636017E-1,0E0,6.104963E0,4.950385E0,6.8609037E0,4.090538E0,1.237974E0,3.006228E0,1.7282791E0,0E0,3.9087813E0,2.5600266E0,4.0850368E0,3.6012E0,0E0,0E0,2.0924356E0,3.3668995E-1,0E0,0E0,0E0,0E0,0E0,0E0,0E0,0E0,0E0,0E0,0E0,0E0,0E0,0E0,0E0,0E0,0E0,0E0,0E0,0E0,0E0,0E0,0E0,0E0,0E0,0E0,0E0,0E0,0E0,0E0,0E0,0E0,0E0,0E0,0E0,0E0,0E0,0E0,0E0,0E0,0E0,0E0],"parents":[2147483647,0,0,1,1,2,2,3,3,4,4,5,5,6,6,7,7,8,8,11,11,12,12,13,13,14,14,15,15,16,16,17,17,18,18,20,20,21,21,22,22,24,24,27,27,28,28,29,29,30,30,31,31,32,32,33,33,34,34,36,36,37,37,38,38,39,39,41,41,42,42,44,44,45,45,47,47,49,49,50,50,51,51,52,52,53,53,55,55,56,56,57,57,58,58,59,59,60,60,61,61,63,63,64,64,65,65,66,66,69,69,70,70],"right_children":[2,4,6,8,10,12,14,16,18,-1,-1,20,22,24,26,28,30,32,34,-1,36,38,40,-1,42,-1,-1,44,46,48,50,52,54,56,58,-1,60,62,64,66,-1,68,70,-1,72,74,-1,76,-1,78,80,82,84,86,-1,88,90,92,94,96,98,100,-1,102,104,106,108,-1,-1,110,112,-1,-1,-1,-1,-1,-1,-1,-1,-1,-1,-1,-1,-1,-1,-1,-1,-1,-1,-1,-1,-1,-1,-1,-1,-1,-1,-1,-1,-1,-1,-1,-1,-1,-1,-1,-1,-1,-1,-1,-1,-1,-1],"split_conditions":[1.7222077E0,4.3621683E0,6.9188905E-1,-3.3233225E-1,4.1260943E-1,-1.1004205E0,2.1330392E0,-2.1448853E0,-5.5951864E-1,1.1625977E-1,3.0592998E-2,-1.5879232E0,-2.05273E-1,1.856332E0,1.847684E-1,2.0787749E-1,-4.1622725E-1,5.36742E-1,1.0980535E0,8.842658E-2,-5.70525E-1,-1.7641506E-1,8.5180527E-1,6.793881E-2,-1.0900565E0,-1.47831505E-2,9.8562695E-2,-4.0181518E-1,-6.5466774E-1,1.0575466E0,9.5480233E-1,2.3312595E-1,1.6547749E0,8.665001E-1,-5.461761E-1,-6.679398E-2,-2.137233E-1,1.2570516E0,-7.184921E-2,-9.9009864E-2,1.25895E-1,-1.7156981E-1,-2.6563972E-1,-1.7395964E-2,-1.1464825E0,-1.1646042E-1,-6.0379084E-2,1.2192136E0,4.6911962E-2,1.7619398E-1,-9.347263E-1,-1.3567114E0,-1.3068976E0,6.810775E-1,3.6510345E-2,-7.583891E-1,1.2380028E0,7.4484336E-1,-5.1173425E-1,-3.089823E-1,-5.380369E-1,4.032984E-1,-5.3943186E-3,-2.3806098E-1,-7.154095E-2,-6.4340043E-1,-6.7867225E-1,-3.8499914E-2,5.8866035E-2,5.6227905E-1,2.9480025E-1,-2.3611414E-3,9.5100865E-2,-3.1508725E-2,6.964436E-2,-4.972778E-2,-3.5558862E-3,-2.9814515E-2,5.8733654E-4,-2.6364679E-2,6.1333586E-2,4.7198772E-2,-2.9392747E-2,-3.419265E-2,5.088097E-2,-6.7043684E-2,-2.4847597E-2,4.1838896E-2,8.136842E-3,-5.148068E-2,4.1248582E-2,-2.1024216E-2,7.475119E-2,1.5582143E-2,7.641225E-2,-1.528736E-3,-6.450922E-2,-2.3122882E-2,5.632394E-2,1.0493926E-1,3.488154E-2,2.879474E-2,-6.2541775E-2,8.055679E-3,8.678443E-2,-3.8384736E-2,4.9139462E-2,2.9590635E-2,1.04069605E-1,-4.7000404E-2,3.5586625E-2,-7.017604E-2,-3.06422E-2],"split_indices":[7,16,63,19,47,16,10,9,97,0,0,46,1,7,18,111,88,57,38,0,97,33,54,0,10,0,0,114,14,122,98,119,16,107,50,0,122,4,119,127,0,14,117,0,50,123,0,54,0,38,60,55,55,90,0,48,45,20,65,114,106,122,0,117,106,104,111,0,0,69,119,0,0,0,0,0,0,0,0,0,0,0,0,0,0,0,0,0,0,0,0,0,0,0,0,0,0,0,0,0,0,0,0,0,0,0,0,0,0,0,0,0,0],"split_type":[0,0,0,0,0,0,0,0,0,0,0,0,0,0,0,0,0,0,0,0,0,0,0,0,0,0,0,0,0,0,0,0,0,0,0,0,0,0,0,0,0,0,0,0,0,0,0,0,0,0,0,0,0,0,0,0,0,0,0,0,0,0,0,0,0,0,0,0,0,0,0,0,0,0,0,0,0,0,0,0,0,0,0,0,0,0,0,0,0,0,0,0,0,0,0,0,0,0,0,0,0,0,0,0,0,0,0,0,0,0,0,0,0],"sum_hessian":[1.2426674E3,9.640645E2,2.7860278E2,9.3945056E2,2.461396E1,2.1150143E2,6.710136E1,3.885728E2,5.5087775E2,1.8555244E1,6.0587153E0,4.7000397E1,1.6450104E2,5.299289E1,1.4108468E1,5.554086E1,3.3303195E2,1.2553732E2,4.2534042E2,5.48861E0,4.1511784E1,6.681414E1,9.7686905E1,5.019273E0,4.7973618E1,6.7497764E0,7.3586917E0,3.2430004E1,2.3110853E1,1.1624074E2,2.1679123E2,8.789545E1,3.7641876E1,3.3819232E2,8.7148094E1,8.789492E0,3.2722294E1,3.1550812E1,3.526333E1,7.15562E1,2.6130707E1,1.7773106E1,3.020051E1,8.918614E0,2.351139E1,1.166825E1,1.1442603E1,1.10898415E2,5.342322E0,1.9387785E2,2.291337E1,5.425278E1,3.3642666E1,3.0883717E1,6.7581573E0,3.0393912E2,3.4253212E1,3.2379234E1,5.476886E1,1.1973255E1,2.0749039E1,2.4390131E1,7.1606812E0,1.9236801E1,1.6026525E1,2.6418322E1,4.5137875E1,9.289363E0,8.483744E0,1.0306854E1,1.9893656E1,5.4230924E0,1.8088299E1,5.317741E0,6.3505087E0,9.404683E1,1.6851583E1,1.0461144E2,8.926642E1,6.6690984E0,1.624427E1,7.688885E0,4.6563896E1,5.753725E0,2.7888939E1,2.2451813E1,8.431904E0,6.897607E1,2.3496304E2,2.786246E1,6.3907533E0,2.235242E1,1.0026813E1,1.6178415E1,3.8590446E1,5.3867483E0,6.5865064E0,6.206831E0,1.4542207E1,1.84651E1,5.92503E0,6.348899E0,1.2887903E1,8.13483E0,7.8916955E0,6.3077693E0,2.0110552E1,9.07756E0,3.6060314E1,5.30039E0,5.0064645E0,1.4619844E1,5.2738123E0],"tree_param":{"num_deleted":"0","num_feature":"128","num_nodes":"113","size_leaf_vector":"1"}},{"base_weights":[-2.1594651E-1,-1.6796297E-1,-3.5850072E-1,-7.294592E-2,-2.7304107E-1,-4.125181E-1,-8.6776264E-2,8.740994E-2,-1.9067197E-1,-3.4588927E-1,-2.4594838E-2,-4.6031177E-1,-1.4120676E-1,-2.940199E-1,3.2425788E-1,1.9865094E-2,6.211584E-1,-2.5347468E-1,2.5936905E-1,-3.7612188E-1,2.0149626E-1,5.4521734E-1,-1.6874862E-1,-1.9189889E-2,-4.9170032E-1,1.1312137E-1,-4.4990623E-1,-4.9971408E-1,3.237813E-2,1.0724503E-1,-9.606024E-2,-1.6138157E-1,2.279965E-1,-2.6631469E-2,8.931678E-1,-2.992565E-1,2.9518986E-1,-6.1437067E-2,4.9420297E-1,-4.2398554E-1,-4.7555514E-2,-2.8725637E-2,5.932141E-2,-4.6560145E-3,8.927158E-1,-3.0239478E-1,6.684246E-2,-6.1746653E-2,5.2412957E-2,-5.226995E-1,-7.140792E-2,3.612367E-1,-4.7720525E-2,-6.5544E-2,5.0464678E-3,-6.341744E-2,4.3731285E-3,4.1307967E-2,-6.0653843E-2,4.4958483E-2,-2.2147018E-1,1.1560527E-1,8.852278E-1,1.177871E-1,1.8789882E-2,6.6058636E-2,-3.596978E-1,6.0018414E-1,-4.430943E-2,1.0270714E0,9.027333E-2,-4.466089E-1,1.5711514E-2,-4.33898E-1,2.0159458E-1,1.2253163E-1,4.7062602E-2,-5.3780055E-1,-9.230669E-2,-1.6105218E-1,-5.5256414E-1,4.9333937E-2,-4.3638874E-2,-2.4688918E-2,8.303758E-2,4.1276637E-2,-2.9239211E-2,5.7215E-2,-3.302371E-3,1.2234103E-1,4.255569E-2,-6.220445E-2,2.7041567E-2,-1.8558437E-2,-5.1761836E-2,7.192474E-3,1.1854967E-1,6.2853366E-2,1.2624016E-1,-4.7466256E-2,4.507018E-2,-4.6379745E-2,2.9032607E-2,-6.524581E-2,2.7970837E-3,4.2883713E-2,-4.7012515E-2,3.053357E-3,-6.4883225E-2,-4.3353423E-2,2.8504988E-2,-5.456207E-2,4.913321E-2,-5.7154264E-2,4.9335915E-3],"categories":[],"categories_nodes":[],"categories_segments":[],"categories_sizes":[],"default_left":[0,0,0,0,0,0,0,0,0,0,0,0,0,0,0,0,0,0,0,0,0,0,0,0,0,0,0,0,0,0,0,0,0,0,0,0,0,0,0,0,0,0,0,0,0,0,0,0,0,0,0,0,0,0,0,0,0,0,0,0,0,0,0,0,0,0,0,0,0,0,0,0,0,0,0,0,0,0,0,0,0,0,0,0,0,0,0,0,0,0,0,0,0,0,0,0,0,0,0,0,0,0,0,0,0,0,0,0,0,0,0,0,0,0,0],"id":9,"left_children":[1,3,5,7,9,11,13,15,17,19,21,23,25,27,29,31,33,35,37,39,41,43,45,47,49,51,53,55,-1,-1,57,59,61,-1,63,65,67,-1,69,71,73,-1,-1,-1,75,77,-1,-1,-1,79,81,83,-1,-1,-1,-1,-1,-1,-1,-1,85,87,89,-1,-1,91,93,95,-1,97,99,101,-1,103,105,-1,-1,107,109,111,113,-1,-1,-1,-1,-1,-1,-1,-1,-1,-1,-1,-1,-1,-1,-1,-1,-1,-1,-1,-1,-1,-1,-1,-1,-1,-1,-1,-1,-1,-1,-1,-1,-1,-1],"loss_changes":[8.107559E0,8.918453E0,4.36499E0,8.917616E0,7.6790447E0,3.1746597E0,4.438547E0,7.2086525E0,7.7592325E0,5.50996E0,8.091048E0,2.9256363E0,3.1019819E0,4.535858E0,5.6271E0,6.7827272E0,5.6613035E0,6.101158E0,7.2446127E0,4.8791275E0,3.5855718E0,4.1335077E0,8.983305E0,5.239153E0,2.5404701E0,3.4103012E0,1.8591018E0,1.9433746E0,0E0,0E0,3.4123209E0,3.6302798E0,6.0769796E0,0E0,3.2776155E0,4.913086E0,4.530497E0,0E0,5.7653756E0,3.6433105E0,4.00882E0,0E0,0E0,0E0,1.1902885E0,3.3315678E0,0E0,0E0,0E0,1.8994484E0,3.255353E0,4.807914E0,0E0,0E0,0E0,0E0,0E0,0E0,0E0,0E0,4.0894413E0,4.9444356E0,1.3550959E0,0E0,0E0,4.707427E0,5.1324673E0,4.19003E0,0E0,2.9811954E-1,3.589437E0,3.4517136E0,0E0,1.6625581E0,4.0862617E0,0E0,0E0,2.0412655E0,4.9308662E0,4.145542E0,1.9661446E0,0E0,0E0,0E0,0E0,0E0,0E0,0E0,0E0,0E0,0E0,0E0,0E0,0E0,0E0,0E0,0E0,0E0,0E0,0E0,0E0,0E0,0E0,0E0,0E0,0E0,0E0,0E0,0E0,0E0,0E0,0E0,0E0,0E0,0E0],"parents":[2147483647,0,0,1,1,2,2,3,3,4,4,5,5,6,6,7,7,8,8,9,9,10,10,11,11,12,12,13,13,14,14,15,15,16,16,17,17,18,18,19,19,20,20,21,21,22,22,23,23,24,24,25,25,26,26,27,27,30,30,31,31,32,32,34,34,35,35,36,36,38,38,39,39,40,40,44,44,45,45,49,49,50,50,51,51,60,60,61,61,62,62,65,65,66,66,67,67,69,69,70,70,71,71,73,73,74,74,77,77,78,78,79,79,80,80],"right_children":[2,4,6,8,10,12,14,16,18,20,22,24,26,28,30,32,34,36,38,40,42,44,46,48,50,52,54,56,-1,-1,58,60,62,-1,64,66,68,-1,70,72,74,-1,-1,-1,76,78,-1,-1,-1,80,82,84,-1,-1,-1,-1,-1,-1,-1,-1,86,88,90,-1,-1,92,94,96,-1,98,100,102,-1,104,106,-1,-1,108,110,112,114,-1,-1,-1,-1,-1,-1,-1,-1,-1,-1,-1,-1,-1,-1,-1,-1,-1,-1,-1,-1,-1,-1,-1,-1,-1,-1,-1,-1,-1,-1,-1,-1,-1,-1],"split_conditions":[1.6775753E0,5.794381E-2,2.7306893E0,-2.3123887E-1,7.689367E-1,8.5981876E-1,3.4836262E-1,1.1294372E0,7.8348327E-1,2.6246917E0,-1.8102274E0,-1.279964E0,1.6631875E-2,4.557381E0,-2.3443975E-2,8.575335E-2,-9.1153604E-1,1.3556976E0,-8.34585E-1,1.038491E0,3.131111E-1,-3.7726927E-1,8.109237E-1,-2.683553E-1,2.950266E0,2.4749735E-1,5.1200026E-1,7.053309E-1,3.237813E-2,1.0724503E-1,4.9376423E-3,-1.2252005E0,8.5826135E-1,-2.6631469E-2,2.2967753E-1,-2.965574E0,6.7466396E-1,-6.1437067E-2,-1.3248986E0,1.6155984E0,-7.614953E-1,-2.8725637E-2,5.932141E-2,-4.6560145E-3,7.0184514E-2,-2.7344447E-1,6.684246E-2,-6.1746653E-2,5.2412957E-2,-3.2087624E0,-5.5259246E-1,-1.9234137E-1,-4.7720525E-2,-6.5544E-2,5.0464678E-3,-6.341744E-2,4.3731285E-3,4.1307967E-2,-6.0653843E-2,4.4958483E-2,-1.0743719E0,-1.0093873E0,-2.0453763E-1,1.177871E-1,1.8789882E-2,-9.3369615E-1,-6.876716E-2,-5.296733E-1,-4.430943E-2,-2.13344E0,-8.956288E-1,2.4331474E0,1.5711514E-2,8.1109536E-1,3.563627E-1,1.2253163E-1,4.7062602E-2,-6.742294E-1,1.5463054E-1,5.0594383E-1,3.444344E0,4.9333937E-2,-4.3638874E-2,-2.4688918E-2,8.303758E-2,4.1276637E-2,-2.9239211E-2,5.7215E-2,-3.302371E-3,1.2234103E-1,4.255569E-2,-6.220445E-2,2.7041567E-2,-1.8558437E-2,-5.1761836E-2,7.192474E-3,1.1854967E-1,6.2853366E-2,1.2624016E-1,-4.7466256E-2,4.507018E-2,-4.6379745E-2,2.9032607E-2,-6.524581E-2,2.7970837E-3,4.2883713E-2,-4.7012515E-2,3.053357E-3,-6.4883225E-2,-4.3353423E-2,2.8504988E-2,-5.456207E-2,4.913321E-2,-5.7154264E-2,4.9335915E-3],"split_indices":[6,119,4,44,51,108,110,85,122,26,10,93,118,4,108,122,22,77,40,80,7,66,113,123,11,112,86,42,0,0,103,94,109,0,10,2,26,0,11,83,22,0,0,0,94,28,0,0,0,8,36,121,0,0,0,0,0,0,0,0,91,42,112,0,0,55,55,110,0,11,4,48,0,38,126,0,0,121,26,77,16,0,0,0,0,0,0,0,0,0,0,0,0,0,0,0,0,0,0,0,0,0,0,0,0,0,0,0,0,0,0,0,0,0,0],"split_type":[0,0,0,0,0,0,0,0,0,0,0,0,0,0,0,0,0,0,0,0,0,0,0,0,0,0,0,0,0,0,0,0,0,0,0,0,0,0,0,0,0,0,0,0,0,0,0,0,0,0,0,0,0,0,0,0,0,0,0,0,0,0,0,0,0,0,0,0,0,0,0,0,0,0,0,0,0,0,0,0,0,0,0,0,0,0,0,0,0,0,0,0,0,0,0,0,0,0,0,0,0,0,0,0,0,0,0,0,0,0,0,0,0,0,0],"sum_hessian":[1.1930754E3,8.942503E2,2.988252E2,4.7049692E2,4.237534E2,2.4883911E2,4.9986073E1,1.99294E2,2.712029E2,3.2737103E2,9.638236E1,2.1097717E2,3.7861935E1,3.3420246E1,1.6565826E1,1.778275E2,2.1466513E1,2.3837476E2,3.282816E1,3.105329E2,1.6838139E1,1.8898405E1,7.7483955E1,1.4122105E1,1.9685507E2,2.1106491E1,1.6755442E1,2.5215874E1,8.204372E0,5.400708E0,1.1165117E1,9.517289E1,8.265461E1,5.040859E0,1.6425653E1,2.2043567E2,1.793908E1,6.611766E0,2.6216394E1,2.7079468E2,3.973821E1,7.6098647E0,9.228274E0,7.312127E0,1.1586279E1,6.736812E1,1.0115841E1,6.6561785E0,7.465926E0,1.831062E2,1.374887E1,1.51338005E1,5.9726906E0,1.1657191E1,5.0982504E0,2.0080553E1,5.1353216E0,5.6854105E0,5.4797072E0,7.941689E0,8.72312E1,7.158838E1,1.1066226E1,1.122446E1,5.201194E0,3.1280317E1,1.8915536E2,1.2827101E1,5.1119785E0,1.0638832E1,1.5577562E1,2.6086993E2,9.924732E0,1.5288976E1,2.4449234E1,5.415762E0,6.1705165E0,3.1034159E1,3.6333958E1,1.4455043E1,1.6865115E2,5.2592955E0,8.489574E0,6.7969418E0,8.336859E0,8.288577E0,7.894263E1,1.6882074E1,5.4706306E1,5.418392E0,5.6478333E0,6.6946015E0,2.4585716E1,9.099981E1,9.815555E1,7.3323507E0,5.4947495E0,5.3126245E0,5.3262076E0,5.943997E0,9.633566E0,2.552862E2,5.583754E0,1.0097914E1,5.1910625E0,1.853906E1,5.9101734E0,5.1905375E0,2.584362E1,1.9002201E1,1.7331757E1,9.197145E0,5.257897E0,1.6354488E2,5.1062894E0],"tree_param":{"num_deleted":"0","num_feature":"128","num_nodes":"115","size_leaf_vector":"1"}},{"base_weights":[1.1244286E-1,-2.01108E-2,2.004918E-1,-1.1815111E-1,2.7432054E-1,3.1104848E-1,8.370671E-2,-4.1027017E-2,-2.836859E-1,3.7850007E-1,-2.823324E-1,3.4526846E-1,-4.9145824E-1,1.3196804E-1,-2.9327297E-1,1.0558052E-1,-1.958702E-1,2.820361E-1,-3.4510174E-1,-3.9583806E-2,4.579949E-1,3.42943E-2,-5.108092E-1,5.587742E-1,2.3608376E-1,-6.532889E-2,-1.1372423E-2,1.863054E-3,2.8921744E-1,-4.7398743E-1,1.9546844E-1,-8.643544E-4,6.268489E-1,4.3199456E-1,-2.60532E-1,7.482457E-2,-2.0142648E-2,3.65024E-2,-3.8933277E-1,-1.3784088E-1,5.4264843E-1,-1.4799595E-2,-6.736542E-2,6.654406E-1,1.8551408E-1,-1.0503606E-1,3.0799386E-1,9.094015E-2,-3.8156494E-1,3.7025338E-1,-1.8386768E-2,-1.0885283E-4,-6.707921E-2,-3.392209E-2,6.884478E-2,1.2260413E-1,-3.7066522E-1,9.206895E-1,-1.9676667E-2,9.539971E-2,-9.231639E-3,4.6253074E-2,-3.2337525E-1,-4.3411368E-1,1.7261503E-2,-6.264684E-2,4.470525E-2,6.8700457E-1,7.3005095E-2,4.3994126E-1,8.173461E-1,7.2455406E-1,-1.411526E-1,1.7327294E-1,-5.354636E-1,2.105167E-1,6.339251E-1,3.144586E-1,-7.8387216E-2,2.2529704E-2,-5.4157364E-1,4.5725664E-1,-1.4725645E-1,-4.4203898E-1,2.3050238E-1,3.367344E-2,-1.642978E-2,-6.939549E-2,-5.4862546E-3,2.8684257E-2,1.1970073E-1,2.7936189E-2,-3.8982686E-2,-1.3000177E-2,-5.277432E-2,8.086147E-2,2.4802787E-2,-2.2221616E-2,8.430393E-2,7.10045E-2,-1.7060079E-2,4.7926858E-2,1.0177364E-1,9.873805E-2,3.4031212E-2,-4.5959394E-2,4.6785403E-2,-2.7452368E-2,5.9829075E-2,-1.582714E-2,-6.88289E-2,4.794385E-3,4.1889332E-2,8.361843E-2,1.7754544E-2,4.0605035E-2,-5.0225288E-2,2.5112897E-2,-2.574345E-2,-3.8554724E-3,-6.662961E-2,5.654322E-2,-1.524439E-2,2.8657487E-2,-5.5864036E-2,-6.402203E-2,-1.5853776E-2,4.9924355E-2,-2.7992932E-2],"categories":[],"categories_nodes":[],"categories_segments":[],"categories_sizes":[],"default_left":[0,0,0,0,0,0,0,0,0,0,0,0,0,0,0,0,0,0,0,0,0,0,0,0,0,0,0,0,0,0,0,0,0,0,0,0,0,0,0,0,0,0,0,0,0,0,0,0,0,0,0,0,0,0,0,0,0,0,0,0,0,0,0,0,0,0,0,0,0,0,0,0,0,0,0,0,0,0,0,0,0,0,0,0,0,0,0,0,0,0,0,0,0,0,0,0,0,0,0,0,0,0,0,0,0,0,0,0,0,0,0,0,0,0,0,0,0,0,0,0,0,0,0,0,0,0,0,0,0],"id":10,"left_children":[1,3,5,7,9,11,13,15,17,19,21,23,25,27,29,31,33,35,37,-1,39,-1,41,43,45,-1,-1,47,49,51,53,55,57,59,61,-1,-1,-1,63,65,67,-1,-1,69,71,73,75,77,79,81,83,-1,-1,-1,-1,85,87,89,-1,-1,-1,-1,91,93,-1,-1,-1,95,97,99,101,103,105,107,109,111,113,115,117,-1,119,121,123,125,127,-1,-1,-1,-1,-1,-1,-1,-1,-1,-1,-1,-1,-1,-1,-1,-1,-1,-1,-1,-1,-1,-1,-1,-1,-1,-1,-1,-1,-1,-1,-1,-1,-1,-1,-1,-1,-1,-1,-1,-1,-1,-1,-1,-1],"loss_changes":[1.4579143E1,1.4446571E1,9.663479E0,4.779793E0,7.358077E0,1.0746407E1,6.70336E0,5.8592424E0,4.235873E0,6.6910458E0,3.0731053E0,8.492889E0,9.1379476E-1,6.6575217E0,3.79201E0,7.3668566E0,5.2049856E0,2.903958E0,3.5311813E0,0E0,4.9357204E0,0E0,8.0178523E-1,4.8315964E0,6.079625E0,0E0,0E0,6.1516266E0,3.6795588E0,2.8723164E0,3.4004338E0,5.124751E0,5.6298313E0,3.3964512E0,5.3453665E0,0E0,0E0,0E0,2.643137E0,3.9342678E0,5.6843643E0,0E0,0E0,2.942791E0,5.217075E0,5.323711E0,6.3433266E0,5.555702E0,3.4192142E0,5.320204E0,3.4417639E0,0E0,0E0,0E0,0E0,5.225095E0,2.8301935E0,2.5937948E0,0E0,0E0,0E0,0E0,4.3461018E0,2.6309528E0,0E0,0E0,0E0,3.2469597E0,4.962531E0,6.8773813E0,3.3357124E0,7.8735447E-1,3.884892E0,5.3552866E0,8.936019E-1,5.346744E0,4.137844E0,4.930779E0,5.017599E0,0E0,1.6785517E0,6.6894684E0,3.2917705E0,5.763533E-1,2.9669251E0,0E0,0E0,0E0,0E0,0E0,0E0,0E0,0E0,0E0,0E0,0E0,0E0,0E0,0E0,0E0,0E0,0E0,0E0,0E0,0E0,0E0,0E0,0E0,0E0,0E0,0E0,0E0,0E0,0E0,0E0,0E0,0E0,0E0,0E0,0E0,0E0,0E0,0E0,0E0,0E0,0E0,0E0,0E0,0E0],"parents":[2147483647,0,0,1,1,2,2,3,3,4,4,5,5,6,6,7,7,8,8,9,9,10,10,11,11,12,12,13,13,14,14,15,15,16,16,17,17,18,18,20,20,22,22,23,23,24,24,27,27,28,28,29,29,30,30,31,31,32,32,33,33,34,34,38,38,39,39,40,40,43,43,44,44,45,45,46,46,47,47,48,48,49,49,50,50,55,55,56,56,57,57,62,62,63,63,67,67,68,68,69,69,70,70,71,71,72,72,73,73,74,74,75,75,76,76,77,77,78,78,80,80,81,81,82,82,83,83,84,84],"right_children":[2,4,6,8,10,12,14,16,18,20,22,24,26,28,30,32,34,36,38,-1,40,-1,42,44,46,-1,-1,48,50,52,54,56,58,60,62,-1,-1,-1,64,66,68,-1,-1,70,72,74,76,78,80,82,84,-1,-1,-1,-1,86,88,90,-1,-1,-1,-1,92,94,-1,-1,-1,96,98,100,102,104,106,108,110,112,114,116,118,-1,120,122,124,126,128,-1,-1,-1,-1,-1,-1,-1,-1,-1,-1,-1,-1,-1,-1,-1,-1,-1,-1,-1,-1,-1,-1,-1,-1,-1,-1,-1,-1,-1,-1,-1,-1,-1,-1,-1,-1,-1,-1,-1,-1,-1,-1,-1,-1],"split_conditions":[-5.6446224E-1,5.882614E-1,8.945047E-2,5.8959377E-1,6.46305E-1,3.7806385E0,8.2863563E-1,-3.5342015E-2,-2.5008867E0,-1.0185997E0,-3.2140248E0,-3.3912876E-1,2.1765213E-1,1.021208E-1,4.6122414E-1,1.8895576E0,-2.0065036E0,-6.606714E-1,-1.208266E0,-3.9583806E-2,-2.1586792E0,3.42943E-2,-3.77226E-1,5.526936E-1,-1.0861988E0,-6.532889E-2,-1.1372423E-2,9.8807245E-1,6.716411E-1,-4.3058103E-1,-1.6870661E-1,4.7622055E-1,2.3161575E-1,-3.156551E-1,-1.1314901E0,7.482457E-2,-2.0142648E-2,3.65024E-2,6.6732836E0,-5.9402205E-2,1.4599682E0,-1.4799595E-2,-6.736542E-2,-8.464607E-2,-1.083235E0,-6.700426E-1,6.8251055E-1,-1.6772124E-1,-8.578898E-1,1.6662885E0,-1.5618E-1,-1.0885283E-4,-6.707921E-2,-3.392209E-2,6.884478E-2,1.0758559E-1,7.664072E-1,-3.1738088E-1,-1.9676667E-2,9.539971E-2,-9.231639E-3,4.6253074E-2,-2.4533193E0,-7.771831E-1,1.7261503E-2,-6.264684E-2,4.470525E-2,9.2912006E-1,1.9647866E-1,2.0151188E0,-6.363824E-2,-1.2181654E0,-3.0915642E-1,-7.5425595E-2,-5.523902E-1,2.3947485E-1,5.8959377E-1,8.31949E-1,-6.788596E-1,2.2529704E-2,-4.246709E0,1.5204203E0,1.4790201E-1,-1.590335E-1,4.3498987E-1,3.367344E-2,-1.642978E-2,-6.939549E-2,-5.4862546E-3,2.8684257E-2,1.1970073E-1,2.7936189E-2,-3.8982686E-2,-1.3000177E-2,-5.277432E-2,8.086147E-2,2.4802787E-2,-2.2221616E-2,8.430393E-2,7.10045E-2,-1.7060079E-2,4.7926858E-2,1.0177364E-1,9.873805E-2,3.4031212E-2,-4.5959394E-2,4.6785403E-2,-2.7452368E-2,5.9829075E-2,-1.582714E-2,-6.88289E-2,4.794385E-3,4.1889332E-2,8.361843E-2,1.7754544E-2,4.0605035E-2,-5.0225288E-2,2.5112897E-2,-2.574345E-2,-3.8554724E-3,-6.662961E-2,5.654322E-2,-1.524439E-2,2.8657487E-2,-5.5864036E-2,-6.402203E-2,-1.5853776E-2,4.9924355E-2,-2.7992932E-2],"split_indices":[5,78,23,51,96,16,113,96,16,106,1,102,66,87,117,13,19,89,125,0,17,0,113,98,40,0,0,65,91,97,32,121,19,27,117,0,0,0,0,22,26,0,0,87,2,23,89,126,76,25,112,0,0,0,0,27,121,113,0,0,0,0,13,76,0,0,0,54,97,3,94,1,23,24,54,61,51,108,16,0,2,13,31,113,34,0,0,0,0,0,0,0,0,0,0,0,0,0,0,0,0,0,0,0,0,0,0,0,0,0,0,0,0,0,0,0,0,0,0,0,0,0,0,0,0,0,0,0,0],"split_type":[0,0,0,0,0,0,0,0,0,0,0,0,0,0,0,0,0,0,0,0,0,0,0,0,0,0,0,0,0,0,0,0,0,0,0,0,0,0,0,0,0,0,0,0,0,0,0,0,0,0,0,0,0,0,0,0,0,0,0,0,0,0,0,0,0,0,0,0,0,0,0,0,0,0,0,0,0,0,0,0,0,0,0,0,0,0,0,0,0,0,0,0,0,0,0,0,0,0,0,0,0,0,0,0,0,0,0,0,0,0,0,0,0,0,0,0,0,0,0,0,0,0,0,0,0,0,0,0,0],"sum_hessian":[1.2478087E3,4.9834488E2,7.494638E2,3.7430634E2,1.2403853E2,3.8414383E2,3.6531998E2,2.5619208E2,1.1811427E2,1.0475357E2,1.9284952E1,3.689798E2,1.5164031E1,3.2443536E2,4.088462E1,1.3175905E2,1.2443303E2,1.1215189E1,1.06899086E2,9.382425E0,9.537115E1,5.0268664E0,1.4258086E1,1.2345379E2,2.45526E2,1.0105213E1,5.0588174E0,1.78095E2,1.4634036E2,2.987017E1,1.1014449E1,1.10244965E2,2.1514078E1,1.108799E1,1.1334504E2,5.430654E0,5.7845354E0,5.842677E0,1.0105641E2,1.1786099E1,8.3585045E1,5.008385E0,9.249701E0,9.540667E1,2.8047117E1,4.266683E1,2.0285918E2,1.4513939E2,3.2955616E1,1.1566552E2,3.0674843E1,9.073388E0,2.0796782E1,5.4333215E0,5.581128E0,8.3151085E1,2.7093885E1,1.5769974E1,5.744104E0,5.14556E0,5.9424305E0,8.55482E0,1.04790215E2,9.380842E1,7.2479925E0,6.382769E0,5.4033303E0,6.357953E1,2.000552E1,3.9969387E1,5.543728E1,1.0123719E1,1.7923397E1,2.6275112E1,1.6391716E1,1.5742387E2,4.5435307E1,6.2189632E1,8.294975E1,6.791102E0,2.6164515E1,9.911828E1,1.6547243E1,1.1064726E1,1.9610117E1,4.751466E1,3.563642E1,1.2796537E1,1.4297347E1,5.406366E0,1.0363607E1,1.008769E1,9.470253E1,2.2645037E1,7.116338E1,4.9127613E1,1.4451915E1,1.4975518E1,5.0300016E0,2.759735E1,1.2372038E1,2.1893145E1,3.3544136E1,5.0795546E0,5.044165E0,1.1930459E1,5.9929385E0,1.2967114E1,1.3307998E1,5.313348E0,1.1078367E1,8.912204E1,6.8301834E1,3.0906076E1,1.452923E1,5.6370655E1,5.8189774E0,2.9061949E1,5.3887806E1,5.458585E0,2.070593E1,8.424397E1,1.4874303E1,8.201554E0,8.345689E0,5.771736E0,5.2929897E0,1.2860835E1,6.749282E0],"tree_param":{"num_deleted":"0","num_feature":"128","num_nodes":"129","size_leaf_vector":"1"}},{"base_weights":[1.0525157E-1,2.2234908E-1,6.8095536E-3,3.1987652E-1,3.3801256E-3,-9.7588465E-2,1.3319412E-1,8.023367E-2,3.8369298E-1,-1.2138925E-1,3.0688792E-1,-1.8927425E-1,2.7704847E-1,1.9834787E-1,-1.7545132E-1,-2.7789637E-1,3.008091E-1,-1.5968528E-1,4.2148137E-1,-8.6428935E-4,-4.3987814E-1,6.2068814E-1,-4.1302286E-2,-3.2252267E-1,-1.735525E-2,-4.48373E-2,5.235105E-1,6.1483747E-1,1.4461422E-1,-3.1157377E-1,2.0223998E-1,1.5436697E-1,-5.244804E-1,6.0435575E-1,-8.143899E-2,5.7803977E-2,-4.537918E-1,5.6250453E-2,4.7794893E-1,-9.3061574E-2,4.8895973E-1,-4.6962425E-3,-5.97436E-1,1.5381419E-3,9.108652E-1,-6.429376E-2,1.9819471E-1,-3.54266E-1,4.3731675E-2,6.273827E-1,-8.014548E-2,-5.150177E-1,1.9933729E-1,1.816076E-2,7.7936125E-1,1.8128312E-1,9.219842E-1,-3.0416334E-1,1.908992E-1,-4.469257E-1,2.1129994E-2,-3.2436013E-2,7.812222E-2,8.088044E-2,-3.899724E-2,-6.9187626E-2,-2.9115116E-3,8.154519E-1,-5.464256E-3,-3.7905288E-1,6.403943E-2,-1.5275338E-3,-6.801292E-2,5.871578E-1,-2.030269E-1,3.672339E-1,7.3271704E-1,4.441629E-2,-1.723792E-1,1.0081067E-1,7.46534E-3,-7.086793E-2,-1.5965687E-2,1.09321944E-1,3.47042E-2,-4.6549007E-2,4.8241574E-1,-4.4875112E-1,-9.3200564E-2,1.3018376E-2,1.0205827E-1,3.860924E-1,-2.1330963E-1,-6.381002E-2,-3.0728986E-2,-1.2646712E-1,6.470386E-2,-3.2664828E-2,4.3808073E-2,1.0300977E0,2.9575398E-2,-3.508083E-2,6.386601E-2,3.9773617E-2,1.2094449E-1,1.5960459E-2,-4.629844E-1,3.0883357E-1,-1.6003862E-3,-6.4031176E-2,-2.1733797E-1,9.961889E-2,1.6032254E-2,-6.0021956E-2,6.131951E-3,9.253626E-2,1.0928814E-3,3.6375575E-2,-5.0112087E-2,4.0640183E-2,-3.5804346E-2,9.445587E-2,1.8547436E-2,5.8861144E-2,-2.4573075E-2,8.243997E-2,-4.083742E-3,-1.7730737E-2,-5.6595035E-2,-4.135641E-2,1.5767923E-2,-1.6245564E-2,6.520503E-2,-5.1953454E-2,-7.0491857E-3,-4.3586046E-2,3.5242174E-2,1.248734E-1,5.8836557E-2,-1.0606142E-2,-6.7118995E-2,4.4880435E-2,-8.091902E-3,1.3634588E-2,-4.4890057E-2,-5.7830513E-2,3.309295E-2],"categories":[],"categories_nodes":[],"categories_segments":[],"categories_sizes":[],"default_left":[0,0,0,0,0,0,0,0,0,0,0,0,0,0,0,0,0,0,0,0,0,0,0,0,0,0,0,0,0,0,0,0,0,0,0,0,0,0,0,0,0,0,0,0,0,0,0,0,0,0,0,0,0,0,0,0,0,0,0,0,0,0,0,0,0,0,0,0,0,0,0,0,0,0,0,0,0,0,0,0,0,0,0,0,0,0,0,0,0,0,0,0,0,0,0,0,0,0,0,0,0,0,0,0,0,0,0,0,0,0,0,0,0,0,0,0,0,0,0,0,0,0,0,0,0,0,0,0,0,0,0,0,0,0,0,0,0,0,0,0,0,0,0,0,0,0,0],"id":11,"left_children":[1,3,5,7,9,11,13,15,17,19,21,23,25,27,29,31,33,35,37,39,41,43,45,47,49,51,53,55,57,59,61,63,65,67,69,-1,71,73,75,77,79,-1,81,-1,83,-1,85,87,-1,89,91,93,95,97,99,101,103,105,107,109,-1,-1,-1,-1,-1,-1,-1,111,-1,113,-1,-1,-1,115,117,119,121,-1,123,-1,-1,-1,-1,-1,-1,-1,125,127,129,-1,-1,131,133,-1,-1,135,-1,-1,-1,137,-1,-1,-1,-1,-1,-1,139,141,143,-1,145,-1,-1,-1,-1,-1,-1,-1,-1,-1,-1,-1,-1,-1,-1,-1,-1,-1,-1,-1,-1,-1,-1,-1,-1,-1,-1,-1,-1,-1,-1,-1,-1,-1,-1,-1,-1],"loss_changes":[1.4542969E1,1.2304699E1,9.070954E0,6.065979E0,6.7996507E0,1.2985868E1,6.2883034E0,6.806127E0,6.526249E0,4.884919E0,5.740888E0,6.9376574E0,5.9287868E0,5.6679926E0,2.8770032E0,3.5937543E0,6.2156086E0,4.8573656E0,6.044323E0,4.2603507E0,2.13483E0,4.829417E0,3.8352594E0,4.2720356E0,5.4507427E0,3.9142966E0,5.4468117E0,3.7063541E0,4.817935E0,2.969692E0,4.8593397E0,4.8551574E0,1.7388577E0,4.1818285E0,5.4854374E0,0E0,1.5480766E0,5.701332E0,6.9187546E0,3.4593213E0,3.1390429E0,0E0,1.097168E0,0E0,1.5352612E0,0E0,3.8406982E0,4.0134354E0,0E0,2.203731E0,7.6846814E0,1.0120368E-1,3.3744292E0,2.3468726E0,3.0925694E0,3.4624417E0,2.0479155E0,1.6803176E0,4.73035E0,1.3079729E0,0E0,0E0,0E0,0E0,0E0,0E0,0E0,2.5148335E0,0E0,1.7809565E0,0E0,0E0,0E0,2.6331062E0,4.9112005E0,5.2485943E0,8.657379E0,0E0,4.046094E0,0E0,0E0,0E0,0E0,0E0,0E0,0E0,2.5233653E0,3.7315521E0,3.6780207E0,0E0,0E0,4.1265473E0,4.157013E0,0E0,0E0,2.2133636E0,0E0,0E0,0E0,1.0083122E0,0E0,0E0,0E0,0E0,0E0,0E0,1.1551685E0,7.0845766E0,5.0063915E0,0E0,3.4401996E0,0E0,0E0,0E0,0E0,0E0,0E0,0E0,0E0,0E0,0E0,0E0,0E0,0E0,0E0,0E0,0E0,0E0,0E0,0E0,0E0,0E0,0E0,0E0,0E0,0E0,0E0,0E0,0E0,0E0,0E0,0E0,0E0,0E0,0E0,0E0,0E0],"parents":[2147483647,0,0,1,1,2,2,3,3,4,4,5,5,6,6,7,7,8,8,9,9,10,10,11,11,12,12,13,13,14,14,15,15,16,16,17,17,18,18,19,19,20,20,21,21,22,22,23,23,24,24,25,25,26,26,27,27,28,28,29,29,30,30,31,31,32,32,33,33,34,34,36,36,37,37,38,38,39,39,40,40,42,42,44,44,46,46,47,47,49,49,50,50,51,51,52,52,53,53,54,54,55,55,56,56,57,57,58,58,59,59,67,67,69,69,73,73,74,74,75,75,76,76,78,78,86,86,87,87,88,88,91,91,92,92,95,95,99,99,106,106,107,107,108,108,110,110],"right_children":[2,4,6,8,10,12,14,16,18,20,22,24,26,28,30,32,34,36,38,40,42,44,46,48,50,52,54,56,58,60,62,64,66,68,70,-1,72,74,76,78,80,-1,82,-1,84,-1,86,88,-1,90,92,94,96,98,100,102,104,106,108,110,-1,-1,-1,-1,-1,-1,-1,112,-1,114,-1,-1,-1,116,118,120,122,-1,124,-1,-1,-1,-1,-1,-1,-1,126,128,130,-1,-1,132,134,-1,-1,136,-1,-1,-1,138,-1,-1,-1,-1,-1,-1,140,142,144,-1,146,-1,-1,-1,-1,-1,-1,-1,-1,-1,-1,-1,-1,-1,-1,-1,-1,-1,-1,-1,-1,-1,-1,-1,-1,-1,-1,-1,-1,-1,-1,-1,-1,-1,-1,-1,-1],"split_conditions":[-2.1357535E-1,1.3010556E0,2.3755361E-1,-6.286826E-1,8.768143E-1,1.3750335E0,2.5904934E0,-7.3065174E-1,-5.426698E0,4.483487E-1,-2.4641603E-2,2.4868657E-1,-1.0954984E-1,-1.0965668E0,6.131831E-1,-3.463795E-1,8.0598146E-2,-4.306406E-1,-9.47622E-1,1.2689453E0,-8.402713E-1,-5.2999634E-1,-5.5560285E-1,3.5778036E0,-4.0046387E0,-5.2431595E-1,-5.4388463E-1,-7.184921E-2,-3.954235E0,1.2408433E0,-1.6478177E0,-3.4751227E-1,6.6202325E-1,5.8121806E-1,1.0782804E0,5.7803977E-2,-5.186163E-1,-6.084366E-1,9.469829E-1,-1.1990008E0,-1.3940503E-1,-4.6962425E-3,1.055561E0,1.5381419E-3,3.4969255E-1,-6.429376E-2,-3.3849788E-1,1.6833086E0,4.3731675E-2,-5.114843E-2,-1.5042135E0,-1.2286541E-1,1.054721E-1,2.8724471E-2,3.709097E-1,-1.3074757E-1,-1.560789E0,-7.4768364E-1,2.587594E-1,-4.936624E-2,2.1129994E-2,-3.2436013E-2,7.812222E-2,8.088044E-2,-3.899724E-2,-6.9187626E-2,-2.9115116E-3,1.353579E0,-5.464256E-3,3.045033E-1,6.403943E-2,-1.5275338E-3,-6.801292E-2,1.3837712E-2,-8.499381E-1,3.2674835E0,4.4870338E-1,4.441629E-2,-3.751766E0,1.0081067E-1,7.46534E-3,-7.086793E-2,-1.5965687E-2,1.09321944E-1,3.47042E-2,-4.6549007E-2,-1.9983296E-1,-2.1928681E-1,3.358043E-2,1.3018376E-2,1.0205827E-1,-4.3920556E-1,-2.5803438E-1,-6.381002E-2,-3.0728986E-2,-3.4730074E-1,6.470386E-2,-3.2664828E-2,4.3808073E-2,1.9928133E-1,2.9575398E-2,-3.508083E-2,6.386601E-2,3.9773617E-2,1.2094449E-1,1.5960459E-2,-2.5221077E-1,4.649241E-1,7.7397174E-1,-6.4031176E-2,5.6723643E-2,9.961889E-2,1.6032254E-2,-6.0021956E-2,6.131951E-3,9.253626E-2,1.0928814E-3,3.6375575E-2,-5.0112087E-2,4.0640183E-2,-3.5804346E-2,9.445587E-2,1.8547436E-2,5.8861144E-2,-2.4573075E-2,8.243997E-2,-4.083742E-3,-1.7730737E-2,-5.6595035E-2,-4.135641E-2,1.5767923E-2,-1.6245564E-2,6.520503E-2,-5.1953454E-2,-7.0491857E-3,-4.3586046E-2,3.5242174E-2,1.248734E-1,5.8836557E-2,-1.0606142E-2,-6.7118995E-2,4.4880435E-2,-8.091902E-3,1.3634588E-2,-4.4890057E-2,-5.7830513E-2,3.309295E-2],"split_indices":[28,5,38,97,19,19,5,14,2,80,107,88,109,87,49,68,77,105,76,29,65,82,64,14,3,67,55,119,1,13,1,113,54,94,14,0,64,77,19,78,125,0,65,0,126,0,122,2,0,49,13,126,89,97,87,113,87,98,89,92,0,0,0,0,0,0,0,29,0,82,0,0,0,107,27,13,78,0,4,0,0,0,0,0,0,0,121,120,117,0,0,92,127,0,0,109,0,0,0,110,0,0,0,0,0,0,74,86,49,0,78,0,0,0,0,0,0,0,0,0,0,0,0,0,0,0,0,0,0,0,0,0,0,0,0,0,0,0,0,0,0,0,0,0,0,0,0],"split_type":[0,0,0,0,0,0,0,0,0,0,0,0,0,0,0,0,0,0,0,0,0,0,0,0,0,0,0,0,0,0,0,0,0,0,0,0,0,0,0,0,0,0,0,0,0,0,0,0,0,0,0,0,0,0,0,0,0,0,0,0,0,0,0,0,0,0,0,0,0,0,0,0,0,0,0,0,0,0,0,0,0,0,0,0,0,0,0,0,0,0,0,0,0,0,0,0,0,0,0,0,0,0,0,0,0,0,0,0,0,0,0,0,0,0,0,0,0,0,0,0,0,0,0,0,0,0,0,0,0,0,0,0,0,0,0,0,0,0,0,0,0,0,0,0,0,0,0],"sum_hessian":[1.2607406E3,5.752353E2,6.855053E2,3.976594E2,1.7757591E2,3.755313E2,3.09974E2,8.410109E1,3.135583E2,1.2626821E2,5.13077E1,3.0209393E2,7.3437386E1,2.5624014E2,5.373385E1,3.1956345E1,5.2144745E1,2.0178326E1,2.9337997E2,9.233052E1,3.3937695E1,2.6574917E1,2.4732784E1,1.6969402E2,1.3239993E2,3.2200623E1,4.1236763E1,2.8087969E1,2.2815218E2,3.9627056E1,1.4106795E1,1.1743645E1,2.0212702E1,2.8740555E1,2.340419E1,5.4763236E0,1.4702002E1,3.955236E1,2.538276E2,7.838625E1,1.3944268E1,1.0085264E1,2.385243E1,8.95269E0,1.7622227E1,6.5625668E0,1.8170218E1,1.6340146E2,6.2925525E0,1.0951973E1,1.2144795E2,1.0627393E1,2.157323E1,1.4220257E1,2.7016506E1,1.2306662E1,1.5781307E1,2.0809774E1,2.073424E2,3.1593868E1,8.033188E0,7.617891E0,6.488904E0,5.11193E0,6.6317143E0,1.48110075E1,5.401694E0,2.158791E1,7.152643E0,1.6907894E1,6.496297E0,5.368437E0,9.333565E0,1.2563077E1,2.6989283E1,1.7863802E2,7.51896E1,9.492565E0,6.8893684E1,5.5529265E0,8.391341E0,1.8526012E1,5.326419E0,1.2606149E1,5.0160785E0,5.256945E0,1.2913272E1,1.1945076E2,4.39507E1,5.424197E0,5.5277753E0,2.6559113E1,9.488884E1,5.3723617E0,5.255031E0,1.2901776E1,8.671455E0,7.9304457E0,6.2898116E0,1.7047722E1,9.968784E0,5.7963977E0,6.510264E0,6.432976E0,9.348331E0,5.307269E0,1.5502505E1,1.2819794E2,7.914447E1,1.6177929E1,1.5415937E1,1.651199E1,5.0759215E0,1.1013595E1,5.8943E0,7.5347986E0,5.0282784E0,9.22638E0,1.7762901E1,1.6990227E2,8.735751E0,5.3682625E1,2.150697E1,5.439253E0,6.3454433E1,7.461266E0,5.452006E0,3.6779354E1,8.26714E1,1.9017569E1,2.4933132E1,8.799332E0,1.775978E1,2.9340412E1,6.554843E1,7.8925357E0,5.0092406E0,1.0181476E1,6.866246E0,6.2675548E0,9.234951E0,9.421224E1,3.3985695E1,6.1020943E1,1.8123528E1,9.262757E0,6.15318E0],"tree_param":{"num_deleted":"0","num_feature":"128","num_nodes":"147","size_leaf_vector":"1"}},{"base_weights":[-2.1196562E-1,-1.1894459E-1,-3.4168258E-1,-1.7045873E-1,1.5681463E-1,-4.837954E-1,-2.4961185E-1,-7.2266296E-2,-3.1708968E-1,4.3896815E-1,-5.810195E-2,-5.267018E-1,-8.6706534E-2,1.9854282E-3,-3.0452025E-1,-1.2873611E-1,4.057562E-1,-3.3786964E-1,4.881492E-2,9.783777E-2,7.140038E-1,2.8680152E-1,-3.037683E-1,8.514877E-3,-5.497883E-1,-3.7936962E-1,5.449245E-2,6.399738E-2,-1.2432941E-1,-3.543402E-1,3.6656555E-2,-4.1804197E-1,-6.833306E-2,6.6256255E-1,-5.103423E-2,1.2817511E-1,-3.7709278E-1,5.115107E-1,-4.4642054E-2,9.5261556E-1,1.2574143E-2,7.1959996E-1,-2.1912481E-1,3.6277734E-2,-4.9377236E-1,-5.6933033E-1,7.0176977E-3,-6.25354E-2,1.7370087E-3,1.1590077E-1,-5.035448E-1,1.0500942E-1,-3.846491E-1,-2.4326327E-1,6.0757082E-2,1.3991012E-2,-5.332212E-1,-1.16379604E-1,3.7939495E-1,1.3877011E-2,9.701129E-1,-6.025969E-2,3.557647E-2,-4.0258247E-2,5.617232E-2,-2.5283068E-1,-5.5898345E-1,-2.8686363E-3,9.244211E-2,1.135185E-1,4.3619253E-2,2.4706515E-2,1.08878195E-1,-6.1125737E-2,1.8825602E-2,-6.827002E-2,5.7579074E-3,-5.89384E-1,-2.6897627E-3,-4.105795E-2,3.3853194E-1,-1.298843E-2,-6.499051E-2,5.5015456E-2,-3.5055332E-2,-1.3688175E-1,-4.5079094E-1,3.4382816E-2,-4.405492E-1,-6.332769E-2,1.1658127E-3,1.5314418E-2,-2.0815337E-2,-1.5183647E-2,7.7066295E-2,4.880374E-2,1.1830045E-1,-3.6702342E-3,-3.9746616E-2,-1.6370686E-3,-5.9713542E-2,-3.869265E-2,-6.392871E-2,-1.6585687E-2,7.456378E-2,6.800347E-2,-3.5162598E-2,-5.588239E-2,-2.8303567E-2,-1.1559787E-2,-6.390861E-2],"categories":[],"categories_nodes":[],"categories_segments":[],"categories_sizes":[],"default_left":[0,0,0,0,0,0,0,0,0,0,0,0,0,0,0,0,0,0,0,0,0,0,0,0,0,0,0,0,0,0,0,0,0,0,0,0,0,0,0,0,0,0,0,0,0,0,0,0,0,0,0,0,0,0,0,0,0,0,0,0,0,0,0,0,0,0,0,0,0,0,0,0,0,0,0,0,0,0,0,0,0,0,0,0,0,0,0,0,0,0,0,0,0,0,0,0,0,0,0,0,0,0,0,0,0,0,0,0,0,0,0],"id":12,"left_children":[1,3,5,7,9,11,13,15,17,19,21,23,25,27,29,31,33,35,-1,37,39,41,43,-1,45,47,-1,-1,49,51,53,55,57,59,61,63,65,67,-1,69,-1,71,73,-1,75,77,-1,-1,-1,79,81,83,85,87,-1,-1,89,91,93,-1,95,-1,-1,-1,-1,97,99,-1,-1,-1,-1,-1,-1,-1,-1,-1,-1,101,-1,-1,103,-1,-1,-1,-1,105,107,-1,109,-1,-1,-1,-1,-1,-1,-1,-1,-1,-1,-1,-1,-1,-1,-1,-1,-1,-1,-1,-1,-1,-1],"loss_changes":[1.4197025E1,9.810095E0,6.3199196E0,8.339148E0,6.630684E0,3.2334213E0,4.1558056E0,9.476797E0,4.0576572E0,4.3597736E0,5.4008503E0,2.497532E0,3.8973682E0,4.5018787E0,4.209692E0,5.441266E0,4.389139E0,4.204754E0,0E0,5.2339735E0,3.5268955E0,5.9825115E0,4.879108E0,0E0,2.0671196E0,1.3998852E0,0E0,0E0,4.307588E0,3.0411777E0,5.3202243E0,3.536456E0,5.6402497E0,3.7054758E0,3.4206684E0,4.4595323E0,4.604685E0,2.9480367E0,0E0,1.2331104E0,0E0,2.2728367E0,2.1967864E0,0E0,3.0916152E0,1.7498131E0,0E0,0E0,0E0,3.5812092E0,9.151039E-1,3.0576625E0,3.2553463E0,2.7496424E0,0E0,0E0,2.4530315E0,5.8618536E0,5.4059696E0,0E0,9.469328E-1,0E0,0E0,0E0,0E0,3.942255E0,1.7374916E0,0E0,0E0,0E0,0E0,0E0,0E0,0E0,0E0,0E0,0E0,1.3336449E0,0E0,0E0,4.4743824E0,0E0,0E0,0E0,0E0,7.972789E0,2.7292976E0,0E0,1.037596E0,0E0,0E0,0E0,0E0,0E0,0E0,0E0,0E0,0E0,0E0,0E0,0E0,0E0,0E0,0E0,0E0,0E0,0E0,0E0,0E0,0E0,0E0],"parents":[2147483647,0,0,1,1,2,2,3,3,4,4,5,5,6,6,7,7,8,8,9,9,10,10,11,11,12,12,13,13,14,14,15,15,16,16,17,17,19,19,20,20,21,21,22,22,24,24,25,25,28,28,29,29,30,30,31,31,32,32,33,33,34,34,35,35,36,36,37,37,39,39,41,41,42,42,44,44,45,45,49,49,50,50,51,51,52,52,53,53,56,56,57,57,58,58,60,60,65,65,66,66,77,77,80,80,85,85,86,86,88,88],"right_children":[2,4,6,8,10,12,14,16,18,20,22,24,26,28,30,32,34,36,-1,38,40,42,44,-1,46,48,-1,-1,50,52,54,56,58,60,62,64,66,68,-1,70,-1,72,74,-1,76,78,-1,-1,-1,80,82,84,86,88,-1,-1,90,92,94,-1,96,-1,-1,-1,-1,98,100,-1,-1,-1,-1,-1,-1,-1,-1,-1,-1,102,-1,-1,104,-1,-1,-1,-1,106,108,-1,110,-1,-1,-1,-1,-1,-1,-1,-1,-1,-1,-1,-1,-1,-1,-1,-1,-1,-1,-1,-1,-1,-1],"split_conditions":[4.009496E-1,1.643867E0,-1.7393042E-1,2.9022524E-1,-3.3659804E-1,9.4851524E-1,-1.3731402E0,1.1494523E0,1.8643546E0,-1.1989736E-1,-2.412869E-3,-3.8954945E0,9.956204E-2,-1.1361797E0,1.0026276E0,-1.0500036E0,4.6934408E-1,-4.1827517E0,4.881492E-2,1.8567401E-1,3.8834667E-1,-2.8909381E-2,-1.1557204E0,8.514877E-3,3.4225698E0,-4.580732E-2,5.449245E-2,6.399738E-2,3.4839746E-1,-1.2923057E0,6.120823E-1,-7.127684E-1,2.0290642E0,-1.7211346E-1,-4.3278366E-2,-1.2713197E-1,1.13194704E-1,9.158679E-2,-4.4642054E-2,5.507683E-1,1.2574143E-2,-2.6614293E-1,-3.088922E-1,3.6277734E-2,4.7223964E-1,2.1796455E0,7.0176977E-3,-6.25354E-2,1.7370087E-3,-5.8157456E-1,-4.0496895E-1,-2.9030073E-1,-7.311155E-1,-1.445723E0,6.0757082E-2,1.3991012E-2,1.062205E0,-4.0983966E-1,-1.9608472E-1,1.3877011E-2,-5.468548E-1,-6.025969E-2,3.557647E-2,-4.0258247E-2,5.617232E-2,-2.652026E-1,-2.0236065E0,-2.8686363E-3,9.244211E-2,1.135185E-1,4.3619253E-2,2.4706515E-2,1.08878195E-1,-6.1125737E-2,1.8825602E-2,-6.827002E-2,5.7579074E-3,-8.8132536E-1,-2.6897627E-3,-4.105795E-2,-2.361621E-1,-1.298843E-2,-6.499051E-2,5.5015456E-2,-3.5055332E-2,-9.7749263E-1,4.491128E-1,3.4382816E-2,-3.019755E-1,-6.332769E-2,1.1658127E-3,1.5314418E-2,-2.0815337E-2,-1.5183647E-2,7.7066295E-2,4.880374E-2,1.1830045E-1,-3.6702342E-3,-3.9746616E-2,-1.6370686E-3,-5.9713542E-2,-3.869265E-2,-6.392871E-2,-1.6585687E-2,7.456378E-2,6.800347E-2,-3.5162598E-2,-5.588239E-2,-2.8303567E-2,-1.1559787E-2,-6.390861E-2],"split_indices":[15,25,121,36,72,85,26,77,74,58,116,11,91,64,71,58,89,3,0,41,92,119,43,0,22,113,0,0,14,76,69,116,37,58,73,92,115,28,0,107,0,82,63,0,122,57,0,0,0,75,111,71,75,37,0,0,64,118,77,0,90,0,0,0,0,44,54,0,0,0,0,0,0,0,0,0,0,45,0,0,61,0,0,0,0,36,75,0,109,0,0,0,0,0,0,0,0,0,0,0,0,0,0,0,0,0,0,0,0,0,0],"split_type":[0,0,0,0,0,0,0,0,0,0,0,0,0,0,0,0,0,0,0,0,0,0,0,0,0,0,0,0,0,0,0,0,0,0,0,0,0,0,0,0,0,0,0,0,0,0,0,0,0,0,0,0,0,0,0,0,0,0,0,0,0,0,0,0,0,0,0,0,0,0,0,0,0,0,0,0,0,0,0,0,0,0,0,0,0,0,0,0,0,0,0,0,0,0,0,0,0,0,0,0,0,0,0,0,0,0,0,0,0,0,0],"sum_hessian":[1.1789427E3,6.8770276E2,4.9124002E2,5.7977734E2,1.07925415E2,1.9146135E2,2.997787E2,3.4813748E2,2.3163986E2,4.6212616E1,6.1712795E1,1.724963E2,1.8965048E1,5.3875965E1,2.4590271E2,3.120098E2,3.6127686E1,2.2637836E2,5.2615056E0,2.1232897E1,2.497972E1,2.5601753E1,3.6111042E1,6.174264E0,1.6632204E2,1.3232989E1,5.7320585E0,8.23191E0,4.564406E1,2.1453667E2,3.1366043E1,5.286884E1,2.5914096E2,2.2837841E1,1.3289846E1,1.7397343E1,2.0898102E2,1.209787E1,9.135027E0,1.7330662E1,7.6490574E0,1.357046E1,1.2031293E1,7.8086195E0,2.8302423E1,1.6131876E2,5.0032887E0,7.812743E0,5.420246E0,2.8367697E1,1.727636E1,1.3126844E1,2.0140982E2,2.1431877E1,9.934165E0,9.0096245E0,4.3859215E1,2.3469542E2,2.4445545E1,8.985591E0,1.3852249E1,5.43688E0,7.852966E0,7.8538885E0,9.543453E0,1.2557919E2,8.340183E1,5.6442313E0,6.453638E0,1.1918856E1,5.4118056E0,6.6842155E0,6.886245E0,5.8753757E0,6.1559176E0,2.0901886E1,7.4005365E0,1.5548398E2,5.8347816E0,8.179805E0,2.0187891E1,5.3936644E0,1.1882696E1,6.534315E0,6.592529E0,4.3084568E1,1.5832526E2,5.2037015E0,1.6228176E1,3.6917797E1,6.9414167E0,5.94455E1,1.7524992E2,1.0627855E1,1.3817689E1,5.2519846E0,8.600265E0,5.084918E1,7.473001E1,5.5727696E0,7.7829056E1,3.247716E1,1.23006805E2,9.2813015E0,1.09065895E1,8.517211E0,3.456736E1,9.48874E1,6.343786E1,6.7547393E0,9.473436E0],"tree_param":{"num_deleted":"0","num_feature":"128","num_nodes":"111","size_leaf_vector":"1"}},{"base_weights":[9.806008E-2,1.6424093E-1,-1.3431491E-1,4.2407146E-1,1.1354509E-1,-2.0777905E-1,1.0920556E-1,4.388628E-2,5.390978E-1,3.5670328E-1,6.3809395E-2,-3.0689782E-1,1.5491839E-2,6.84665E-1,-1.1691327E-2,2.5398052E-1,-6.708502E-2,9.55366E-1,4.1557208E-1,2.5892192E-1,8.24386E-1,2.2162448E-1,-5.5341274E-3,2.8214127E-1,-3.561013E-1,