{"learner":{"attributes":{"best_iteration":"82","best_score":"0.9135010178460528"},"feature_names":[],"feature_types":[],"gradient_booster":{"model":{"gbtree_model_param":{"num_parallel_tree":"1","num_trees":"399"},"iteration_indptr":[0,3,6,9,12,15,18,21,24,27,30,33,36,39,42,45,48,51,54,57,60,63,66,69,72,75,78,81,84,87,90,93,96,99,102,105,108,111,114,117,120,123,126,129,132,135,138,141,144,147,150,153,156,159,162,165,168,171,174,177,180,183,186,189,192,195,198,201,204,207,210,213,216,219,222,225,228,231,234,237,240,243,246,249,252,255,258,261,264,267,270,273,276,279,282,285,288,291,294,297,300,303,306,309,312,315,318,321,324,327,330,333,336,339,342,345,348,351,354,357,360,363,366,369,372,375,378,381,384,387,390,393,396,399],"tree_info":[0,1,2,0,1,2,0,1,2,0,1,2,0,1,2,0,1,2,0,1,2,0,1,2,0,1,2,0,1,2,0,1,2,0,1,2,0,1,2,0,1,2,0,1,2,0,1,2,0,1,2,0,1,2,0,1,2,0,1,2,0,1,2,0,1,2,0,1,2,0,1,2,0,1,2,0,1,2,0,1,2,0,1,2,0,1,2,0,1,2,0,1,2,0,1,2,0,1,2,0,1,2,0,1,2,0,1,2,0,1,2,0,1,2,0,1,2,0,1,2,0,1,2,0,1,2,0,1,2,0,1,2,0,1,2,0,1,2,0,1,2,0,1,2,0,1,2,0,1,2,0,1,2,0,1,2,0,1,2,0,1,2,0,1,2,0,1,2,0,1,2,0,1,2,0,1,2,0,1,2,0,1,2,0,1,2,0,1,2,0,1,2,0,1,2,0,1,2,0,1,2,0,1,2,0,1,2,0,1,2,0,1,2,0,1,2,0,1,2,0,1,2,0,1,2,0,1,2,0,1,2,0,1,2,0,1,2,0,1,2,0,1,2,0,1,2,0,1,2,0,1,2,0,1,2,0,1,2,0,1,2,0,1,2,0,1,2,0,1,2,0,1,2,0,1,2,0,1,2,0,1,2,0,1,2,0,1,2,0,1,2,0,1,2,0,1,2,0,1,2,0,1,2,0,1,2,0,1,2,0,1,2,0,1,2,0,1,2,0,1,2,0,1,2,0,1,2,0,1,2,0,1,2,0,1,2,0,1,2,0,1,2,0,1,2,0,1,2,0,1,2,0,1,2,0,1,2,0,1,2,0,1,2,0,1,2,0,1,2,0,1,2,0,1,2,0,1,2,0,1,2,0,1,2,0,1,2,0,1,2,0,1,2,0,1,2,0,1,2],"trees":[{"base_weights":[-2.7104455E-1,-1.4906837E-1,-3.558714E-1,-3.3570748E-2,-3.4528634E-1,-3.276451E-1,-6.7097974E-1,-2.1086267E-1,1.658291E-1,-5.2060783E-2,-4.4870797E-1,-3.428572E-1,2.033898E-1,-2.3076927E-2,-7.1752585E-2,-2.7291816E-1,4.137931E-1,9.915446E-2,1.00990094E-1,5.0442475E-1,-2.268908E-1,-4.9280277E-1,8.571424E-2,-3.7607333E-1,-1.0756977E-1,-4.7368426E-2,4.8837206E-1,3.2484072E-1,-3.4426236E-1,7.7419356E-2,-1.9672137E-2,-3.4854776E-1,1.9925159E-1,1.0153846E-1,-1.5789477E-2,-5.18919E-1,8.287289E-2,-5.446687E-1,-1.0067119E-1,-4.7368426E-2,6.315789E-2,-4.5121616E-1,-2.1338917E-1,3.0131E-1,-2.8142595E-1,-3.88726E-9,9.130435E-2,8.571429E-2,-1.6853938E-2,2.823529E-2,-3.8589218E-1,-5.502959E-1,1.1111108E-2,-1.3163976E-1,4.186046E-1,-4.9180365E-3,-6.9924824E-2,-3.870968E-2,5.2577317E-2,-5.960913E-1,-1.3953494E-1,-5.3424664E-2,2.823529E-2,-2.564103E-1,-5.305962E-1,-4.401574E-8,-3.2543305E-1,-1.538462E-1,7.1900827E-1,-5.583597E-1,1.1999996E-1,-4.555445E-2,-4.2253565E-3,-6.942149E-2,-1.5789477E-2,6.315789E-2,-2.415585E-2,5.434381E-2,-2.1238944E-2,-3.5294162E-3,-6.461539E-2,-5.4545462E-2,3.9344262E-2,9.0566E-3,-3.688834E-2,2.0134186E-3,-5.6289185E-2,-3.0350199E-2,2.3145398E-2,4.736842E-2,-3.6606297E-2,-6.461539E-2,3.9344262E-2,1.15384616E-1,1.8461535E-2,-6.566038E-2,-4.9180365E-3,-1.9108286E-2,7.402597E-2],"categories":[],"categories_nodes":[],"categories_segments":[],"categories_sizes":[],"default_left":[0,0,0,0,0,0,0,0,0,0,0,0,0,0,0,0,0,0,0,0,0,0,0,0,0,0,0,0,0,0,0,0,0,0,0,0,0,0,0,0,0,0,0,0,0,0,0,0,0,0,0,0,0,0,0,0,0,0,0,0,0,0,0,0,0,0,0,0,0,0,0,0,0,0,0,0,0,0,0,0,0,0,0,0,0,0,0,0,0,0,0,0,0,0,0,0,0,0,0],"id":0,"left_children":[1,3,5,7,9,11,13,15,17,19,21,23,25,-1,-1,27,29,31,-1,33,35,37,39,41,43,-1,45,47,49,-1,-1,51,53,-1,-1,55,57,59,61,-1,-1,63,65,67,69,-1,-1,-1,-1,-1,71,73,-1,75,77,-1,-1,-1,-1,79,81,-1,-1,83,85,87,89,91,93,95,97,-1,-1,-1,-1,-1,-1,-1,-1,-1,-1,-1,-1,-1,-1,-1,-1,-1,-1,-1,-1,-1,-1,-1,-1,-1,-1,-1,-1],"loss_changes":[1.2989731E1,1.17453165E1,6.386673E0,1.1618632E1,5.802574E0,5.5925064E0,1.0660973E0,6.853444E0,8.610478E0,5.0978785E0,3.3858871E0,5.1567383E0,4.026098E0,0E0,0E0,6.8831635E0,3.6972225E0,6.5475197E0,0E0,4.409358E0,3.6312404E0,2.6140003E0,3.861654E0,7.022484E0,6.032348E0,0E0,2.9726999E0,4.725849E0,3.821848E0,0E0,0E0,2.5443897E0,8.676235E0,0E0,0E0,1.7068224E0,4.3896465E0,2.3265114E0,2.9002244E0,0E0,0E0,6.009903E0,4.4444075E0,4.948062E0,6.6506395E0,0E0,0E0,0E0,0E0,0E0,3.1854153E0,9.5084286E-1,0E0,4.188701E0,5.760543E0,0E0,0E0,0E0,0E0,2.8502007E0,3.315565E0,0E0,0E0,4.599391E0,5.0171585E0,4.636285E0,4.1308956E0,3.7568722E0,2.9111257E0,1.729661E0,4.9652543E0,0E0,0E0,0E0,0E0,0E0,0E0,0E0,0E0,0E0,0E0,0E0,0E0,0E0,0E0,0E0,0E0,0E0,0E0,0E0,0E0,0E0,0E0,0E0,0E0,0E0,0E0,0E0,0E0],"parents":[2147483647,0,0,1,1,2,2,3,3,4,4,5,5,6,6,7,7,8,8,9,9,10,10,11,11,12,12,15,15,16,16,17,17,19,19,20,20,21,21,22,22,23,23,24,24,26,26,27,27,28,28,31,31,32,32,35,35,36,36,37,37,38,38,41,41,42,42,43,43,44,44,50,50,51,51,53,53,54,54,59,59,60,60,63,63,64,64,65,65,66,66,67,67,68,68,69,69,70,70],"right_children":[2,4,6,8,10,12,14,16,18,20,22,24,26,-1,-1,28,30,32,-1,34,36,38,40,42,44,-1,46,48,50,-1,-1,52,54,-1,-1,56,58,60,62,-1,-1,64,66,68,70,-1,-1,-1,-1,-1,72,74,-1,76,78,-1,-1,-1,-1,80,82,-1,-1,84,86,88,90,92,94,96,98,-1,-1,-1,-1,-1,-1,-1,-1,-1,-1,-1,-1,-1,-1,-1,-1,-1,-1,-1,-1,-1,-1,-1,-1,-1,-1,-1,-1],"split_conditions":[-3.902117E-1,8.130316E-1,2.5622973E0,9.508369E-2,-2.15915E0,1.5798413E0,-7.800073E-1,2.3626893E0,2.6715343E0,-6.572858E-1,2.1284113E0,7.983836E-1,-5.8782923E-1,-2.3076927E-2,-7.1752585E-2,-8.5723686E-1,1.5410767E-1,-1.0201433E0,1.00990094E-1,1.2231642E-1,-2.8801246E-2,1.1160774E0,-3.0586147E-1,1.6646175E0,-6.318762E-1,-4.7368426E-2,4.9139944E-1,-7.001307E-3,-4.328728E0,7.7419356E-2,-1.9672137E-2,3.574856E-1,-2.270517E-1,1.0153846E-1,-1.5789477E-2,-3.212956E-1,-2.0149985E-1,1.8526121E0,-1.05507106E-1,-4.7368426E-2,6.315789E-2,-6.569542E-1,-2.933335E-1,1.4917944E-1,3.445492E-1,-3.88726E-9,9.130435E-2,8.571429E-2,-1.6853938E-2,2.823529E-2,2.3645313E0,7.3331976E-1,1.1111108E-2,-8.472923E-1,1.2802285E0,-4.9180365E-3,-6.9924824E-2,-3.870968E-2,5.2577317E-2,-1.2406615E0,1.2565064E-1,-5.3424664E-2,2.823529E-2,-5.1562834E-1,-1.3736557E0,3.0362843E-2,-1.4865797E0,2.515592E-1,-1.8521638E-1,6.153002E-1,6.279746E-1,-4.555445E-2,-4.2253565E-3,-6.942149E-2,-1.5789477E-2,6.315789E-2,-2.415585E-2,5.434381E-2,-2.1238944E-2,-3.5294162E-3,-6.461539E-2,-5.4545462E-2,3.9344262E-2,9.0566E-3,-3.688834E-2,2.0134186E-3,-5.6289185E-2,-3.0350199E-2,2.3145398E-2,4.736842E-2,-3.6606297E-2,-6.461539E-2,3.9344262E-2,1.15384616E-1,1.8461535E-2,-6.566038E-2,-4.9180365E-3,-1.9108286E-2,7.402597E-2],"split_indices":[15,6,16,27,1,93,87,25,23,121,27,110,70,0,0,116,123,58,0,33,99,56,11,0,76,0,15,99,6,0,0,110,48,0,0,101,24,16,117,0,0,38,123,87,28,0,0,0,0,0,5,41,0,101,10,0,0,0,0,101,63,0,0,115,93,81,54,41,118,115,48,0,0,0,0,0,0,0,0,0,0,0,0,0,0,0,0,0,0,0,0,0,0,0,0,0,0,0,0],"split_type":[0,0,0,0,0,0,0,0,0,0,0,0,0,0,0,0,0,0,0,0,0,0,0,0,0,0,0,0,0,0,0,0,0,0,0,0,0,0,0,0,0,0,0,0,0,0,0,0,0,0,0,0,0,0,0,0,0,0,0,0,0,0,0,0,0,0,0,0,0,0,0,0,0,0,0,0,0,0,0,0,0,0,0,0,0,0,0,0,0,0,0,0,0,0,0,0,0,0,0],"sum_hessian":[1.2595554E3,5.177778E2,7.417777E2,3.2666666E2,1.911111E2,6.826666E2,5.9111107E1,1.7288889E2,1.5377777E2,5.0222218E1,1.4088889E2,6.6399994E2,1.8666666E1,6.222222E0,5.2888885E1,1.5777777E2,1.5111111E1,1.4355554E2,1.0222221E1,1.1555555E1,3.8666664E1,1.3022221E2,1.0666666E1,5.813333E2,8.2666664E1,5.333333E0,1.3333332E1,1.6444443E1,1.4133333E2,9.333333E0,5.7777777E0,2.5777777E1,1.1777777E2,6.222222E0,5.333333E0,1.9555553E1,1.911111E1,1.1466666E2,1.5555554E1,5.333333E0,5.333333E0,3.9644443E2,1.8488889E2,2.4444443E1,5.8222218E1,6.666666E0,6.666666E0,7.5555553E0,8.888888E0,8.444444E0,1.3288889E2,1.7777777E1,7.9999995E0,4.7111107E1,7.0666664E1,5.7777777E0,1.3777777E1,9.333333E0,9.777777E0,1.0133333E2,1.3333332E1,7.1111107E0,8.444444E0,1.1599999E2,2.8044443E2,6.3999996E1,1.20888885E2,1.1999999E1,1.2444444E1,3.422222E1,2.3999998E1,1.1022221E2,2.2666666E1,1.2444444E1,5.333333E0,5.333333E0,4.1777775E1,5.9111107E1,1.1555555E1,8.444444E0,9.2888885E1,7.5555553E0,5.7777777E0,2.8444443E1,8.755555E1,1.5555554E1,2.648889E2,2.7555553E1,3.6444443E1,5.333333E0,1.1555555E2,6.222222E0,5.7777777E0,6.222222E0,6.222222E0,2.8444443E1,5.7777777E0,1.6444443E1,7.5555553E0],"tree_param":{"num_deleted":"0","num_feature":"128","num_nodes":"99","size_leaf_vector":"1"}},{"base_weights":[1.5256463E-1,4.290801E-1,1.045328E-1,5.9999996E-1,1.7416541E-1,1.6156667E-1,-7.169816E-2,9.045553E-1,3.3634716E-1,-3.609023E-1,2.973451E-1,1.11630194E-1,3.7910882E-1,7.4157305E-2,-1.0282E-1,9.9501246E-1,2.6086954E-2,9.4214875E-1,1.6326527E-1,4.615381E-3,-6.623378E-2,-2.2556396E-1,4.4897956E-1,-2.0102529E-2,2.0779216E-1,5.767575E-1,1.7180613E-1,1.507293E-1,-1.9446087E-1,1.1127596E0,3.287671E-2,1.304348E-1,3.9344262E-2,3.784615E-1,-4.0800005E-1,3.1578943E-2,-5.647059E-2,9.4214875E-1,2.5531912E-1,6.59751E-1,-9.110634E-2,3.793369E-1,1.0473124E-1,-5.3097386E-2,6.8802696E-1,4.6153843E-1,-9.041101E-2,-9.823682E-2,5.764192E-1,-3.6923084E-1,-2.0905968E-2,3.2307692E-2,1.2597865E0,-3.1168837E-2,5.719844E-1,-6.623378E-2,-3.7645043E-9,3.1578943E-2,1.3150685E-1,1.0153846E-1,6.5934025E-2,8.571424E-2,1.0344827E0,8.751454E-2,-1.9560747E-1,1.6691725E-1,5.943838E-1,2.1628337E-1,-2.0797232E-1,4.736842E-2,-5.0769236E-2,7.7634007E-1,-1.9672137E-2,6.640316E-1,-2.2222226E-2,5.0442475E-1,-3.4482765E-1,-5.070423E-1,3.5751292E-1,-2.3076927E-2,8.4971094E-1,-4.880786E-1,2.5531912E-1,-1.5239482E-1,4.8066294E-1,6.315789E-2,1.3648069E-1,3.3707828E-3,8.135593E-2,-1.7910453E-2,6.666666E-2,4.736842E-2,-3.1578954E-2,1.2680413E-1,4.736842E-2,-8.5308105E-3,5.5364806E-2,-2.6024101E-2,1.7647056E-2,6.338028E-2,-5.2060783E-3,7.1704745E-2,-3.333334E-2,5.0589786E-4,3.3658534E-2,6.315789E-2,-2.948961E-2,5.546218E-2,1.150259E-1,1.247191E-1,3.2947972E-2,9.836065E-2,-4.9180365E-3,2.6548633E-3,-5.9235673E-2,9.836062E-3,-7.080746E-2,9.207921E-2,-2.376238E-2,1.20000005E-1,2.7272725E-2,2.0134186E-3,-6.1256554E-2,-3.1168837E-2,8.219178E-2,7.8947365E-2,-2.3400942E-2,7.6744184E-2,-1.9672137E-2],"categories":[],"categories_nodes":[],"categories_segments":[],"categories_sizes":[],"default_left":[0,0,0,0,0,0,0,0,0,0,0,0,0,0,0,0,0,0,0,0,0,0,0,0,0,0,0,0,0,0,0,0,0,0,0,0,0,0,0,0,0,0,0,0,0,0,0,0,0,0,0,0,0,0,0,0,0,0,0,0,0,0,0,0,0,0,0,0,0,0,0,0,0,0,0,0,0,0,0,0,0,0,0,0,0,0,0,0,0,0,0,0,0,0,0,0,0,0,0,0,0,0,0,0,0,0,0,0,0,0,0,0,0,0,0,0,0,0,0,0,0,0,0,0,0,0,0,0,0],"id":1,"left_children":[1,3,5,7,9,11,13,15,17,19,21,23,25,-1,27,29,-1,31,33,-1,-1,35,37,39,41,43,45,47,49,51,-1,-1,-1,53,55,-1,-1,57,59,61,63,65,67,69,71,73,75,77,79,81,83,-1,85,-1,87,-1,-1,-1,-1,-1,89,91,93,95,97,99,101,103,105,-1,-1,107,-1,109,-1,111,113,115,117,-1,119,121,123,125,127,-1,-1,-1,-1,-1,-1,-1,-1,-1,-1,-1,-1,-1,-1,-1,-1,-1,-1,-1,-1,-1,-1,-1,-1,-1,-1,-1,-1,-1,-1,-1,-1,-1,-1,-1,-1,-1,-1,-1,-1,-1,-1,-1,-1],"loss_changes":[1.6785814E1,8.052769E0,1.0876861E1,8.662235E0,5.1530476E0,8.832983E0,6.7835298E0,2.7229004E0,6.288832E0,1.8438195E0,5.0789886E0,8.4394455E0,6.1333714E0,0E0,5.980174E0,3.1294746E0,0E0,2.1587734E0,6.1781845E0,0E0,0E0,2.891464E0,4.439313E0,1.36675005E1,6.766901E0,5.464121E0,5.790334E0,7.322305E0,5.711581E0,3.940464E0,0E0,0E0,0E0,5.001274E0,1.441247E0,0E0,0E0,2.725091E0,5.195043E0,5.6714916E0,4.7977095E0,6.4838047E0,8.482729E0,3.247193E0,5.3009434E0,5.1473937E0,6.3114595E0,8.399746E0,5.80908E0,7.09365E0,6.382536E0,0E0,1.1978912E0,0E0,3.685772E0,0E0,0E0,0E0,0E0,0E0,4.5845494E0,1.9669174E0,1.509573E0,7.718182E0,3.9391465E0,7.587225E0,8.343908E0,4.5411673E0,4.864883E0,0E0,0E0,4.3455315E0,0E0,5.073472E0,0E0,3.3790803E0,2.681593E0,2.9500113E0,7.407582E0,0E0,3.5577517E0,5.024391E0,5.289345E0,6.069585E0,4.0577464E0,0E0,0E0,0E0,0E0,0E0,0E0,0E0,0E0,0E0,0E0,0E0,0E0,0E0,0E0,0E0,0E0,0E0,0E0,0E0,0E0,0E0,0E0,0E0,0E0,0E0,0E0,0E0,0E0,0E0,0E0,0E0,0E0,0E0,0E0,0E0,0E0,0E0,0E0,0E0,0E0,0E0,0E0,0E0,0E0],"parents":[2147483647,0,0,1,1,2,2,3,3,4,4,5,5,6,6,7,7,8,8,9,9,10,10,11,11,12,12,14,14,15,15,17,17,18,18,21,21,22,22,23,23,24,24,25,25,26,26,27,27,28,28,29,29,33,33,34,34,37,37,38,38,39,39,40,40,41,41,42,42,43,43,44,44,45,45,46,46,47,47,48,48,49,49,50,50,52,52,54,54,60,60,61,61,62,62,63,63,64,64,65,65,66,66,67,67,68,68,71,71,73,73,75,75,76,76,77,77,78,78,80,80,81,81,82,82,83,83,84,84],"right_children":[2,4,6,8,10,12,14,16,18,20,22,24,26,-1,28,30,-1,32,34,-1,-1,36,38,40,42,44,46,48,50,52,-1,-1,-1,54,56,-1,-1,58,60,62,64,66,68,70,72,74,76,78,80,82,84,-1,86,-1,88,-1,-1,-1,-1,-1,90,92,94,96,98,100,102,104,106,-1,-1,108,-1,110,-1,112,114,116,118,-1,120,122,124,126,128,-1,-1,-1,-1,-1,-1,-1,-1,-1,-1,-1,-1,-1,-1,-1,-1,-1,-1,-1,-1,-1,-1,-1,-1,-1,-1,-1,-1,-1,-1,-1,-1,-1,-1,-1,-1,-1,-1,-1,-1,-1,-1,-1,-1],"split_conditions":[-1.1033107E0,8.5904104E-1,1.1138327E0,-1.1350599E-1,-2.2109647E0,1.6767175E0,-5.481362E0,8.704788E-1,-6.515478E-1,5.530725E-1,-8.931864E-1,-3.8467345E-1,-8.45724E-2,7.4157305E-2,-1.1458011E0,1.2553471E0,2.6086954E-2,-3.1542128E-1,5.146272E-1,4.615381E-3,-6.623378E-2,-3.2663926E-1,-3.4891686E-1,-2.6927483E0,-1.7080528E-1,-9.037198E-1,2.4916382E0,3.5908905E-1,2.654286E-2,-9.2272305E-1,3.287671E-2,1.304348E-1,3.9344262E-2,-9.45937E-1,-1.42229E-1,3.1578943E-2,-5.647059E-2,-1.5410148E-1,-6.7888737E-1,-2.878763E-1,-3.3421195E-1,-6.813676E-2,6.2616616E-1,-2.7407832E-3,9.89382E-1,4.679625E-1,-3.83606E-1,2.6066542E-1,-1.1419809E0,1.1839505E0,9.413627E-1,3.2307692E-2,-5.941604E-1,-3.1168837E-2,-6.883605E-1,-6.623378E-2,-3.7645043E-9,3.1578943E-2,1.3150685E-1,1.0153846E-1,1.3425207E0,-7.1880114E-1,-4.3465796E-1,1.141248E0,5.085349E-1,-2.8497177E-1,1.0716159E0,-4.108039E-1,-1.5320463E0,4.736842E-2,-5.0769236E-2,2.8632095E0,-1.9672137E-2,-6.162443E-1,-2.2222226E-2,-2.2465849E-1,-7.0134066E-3,1.5608071E0,2.1060818E-1,-2.3076927E-2,9.1329324E-1,-7.539535E-1,-3.8035282E-1,-1.2769085E0,1.2588814E0,6.315789E-2,1.3648069E-1,3.3707828E-3,8.135593E-2,-1.7910453E-2,6.666666E-2,4.736842E-2,-3.1578954E-2,1.2680413E-1,4.736842E-2,-8.5308105E-3,5.5364806E-2,-2.6024101E-2,1.7647056E-2,6.338028E-2,-5.2060783E-3,7.1704745E-2,-3.333334E-2,5.0589786E-4,3.3658534E-2,6.315789E-2,-2.948961E-2,5.546218E-2,1.150259E-1,1.247191E-1,3.2947972E-2,9.836065E-2,-4.9180365E-3,2.6548633E-3,-5.9235673E-2,9.836062E-3,-7.080746E-2,9.207921E-2,-2.376238E-2,1.20000005E-1,2.7272725E-2,2.0134186E-3,-6.1256554E-2,-3.1168837E-2,8.219178E-2,7.8947365E-2,-2.3400942E-2,7.6744184E-2,-1.9672137E-2],"split_indices":[58,3,19,86,58,14,0,94,110,22,80,20,124,0,25,20,0,100,59,0,0,117,122,12,122,87,14,63,28,77,0,0,0,31,0,0,0,108,124,29,25,75,59,45,109,77,100,17,31,42,73,0,116,0,64,0,0,0,0,0,21,19,21,15,19,109,48,76,38,0,0,14,0,35,0,84,73,19,64,0,8,84,15,79,10,0,0,0,0,0,0,0,0,0,0,0,0,0,0,0,0,0,0,0,0,0,0,0,0,0,0,0,0,0,0,0,0,0,0,0,0,0,0,0,0,0,0,0,0],"split_type":[0,0,0,0,0,0,0,0,0,0,0,0,0,0,0,0,0,0,0,0,0,0,0,0,0,0,0,0,0,0,0,0,0,0,0,0,0,0,0,0,0,0,0,0,0,0,0,0,0,0,0,0,0,0,0,0,0,0,0,0,0,0,0,0,0,0,0,0,0,0,0,0,0,0,0,0,0,0,0,0,0,0,0,0,0,0,0,0,0,0,0,0,0,0,0,0,0,0,0,0,0,0,0,0,0,0,0,0,0,0,0,0,0,0,0,0,0,0,0,0,0,0,0,0,0,0,0,0,0],"sum_hessian":[1.2662222E3,1.8622221E2,1.0799999E3,1.1066666E2,7.555555E1,8.1599994E2,2.6399997E2,5.0222218E1,6.0444443E1,1.3777777E1,6.1777775E1,6.6488885E2,1.511111E2,8.888888E0,2.551111E2,4.3555553E1,6.666666E0,1.2444444E1,4.7999996E1,6.222222E0,7.5555553E0,1.3777777E1,4.7999996E1,2.808889E2,3.8399997E2,7.644444E1,7.4666664E1,6.755555E1,1.8755554E2,3.6444443E1,7.1111107E0,6.666666E0,5.7777777E0,3.511111E1,1.2888888E1,5.333333E0,8.444444E0,1.2444444E1,3.5555553E1,2.5777777E1,2.551111E2,1.431111E2,2.4088887E2,1.1555555E1,6.4888885E1,3.511111E1,3.9555553E1,4.3111107E1,2.4444443E1,9.2888885E1,9.4666664E1,6.222222E0,3.0222221E1,7.5555553E0,2.7555553E1,7.5555553E0,5.333333E0,5.333333E0,7.1111107E0,6.222222E0,2.9333332E1,1.0666666E1,1.5111111E1,9.422221E1,1.6088889E2,7.2888885E1,7.022222E1,1.7777777E2,6.3111107E1,5.333333E0,6.222222E0,5.9111107E1,5.7777777E0,2.7111109E1,7.9999995E0,1.1555555E1,2.7999998E1,2.2666666E1,2.0444443E1,6.222222E0,1.8222221E1,7.822221E1,1.4666666E1,7.555555E1,1.911111E1,5.333333E0,2.4888887E1,8.888888E0,1.8666666E1,2.1333332E1,7.9999995E0,5.333333E0,5.333333E0,9.777777E0,5.333333E0,6.933333E1,2.4888887E1,1.3733333E2,2.3555553E1,2.2666666E1,5.0222218E1,6.2222218E1,7.9999995E0,6.4888885E1,1.12888885E2,5.333333E0,5.7777775E1,3.8666664E1,2.0444443E1,8.888888E0,1.8222221E1,5.7777777E0,5.7777777E0,1.1555555E1,1.6444443E1,5.7777777E0,1.6888887E1,1.0222221E1,1.0222221E1,1.0666666E1,7.5555553E0,1.5555554E1,6.2666664E1,7.5555553E0,7.1111107E0,5.333333E0,7.022222E1,1.3333332E1,5.7777777E0],"tree_param":{"num_deleted":"0","num_feature":"128","num_nodes":"129","size_leaf_vector":"1"}},{"base_weights":[1.2911522E-1,2.074525E-2,3.7272987E-1,1.4600626E-1,-8.046248E-2,2.8347313E-1,7.0013565E-1,-1.4880005E-1,2.0959328E-1,-5.069253E-1,-4.1530374E-2,2.0852874E-1,7.1111107E-1,9.1060287E-1,2.943396E-1,4.8837206E-1,-3.0891094E-1,4.113712E-1,1.17647015E-1,1.578947E-2,-6.134186E-1,-1.167394E-1,1.8281715E-1,-7.4166083E-3,3.2038832E-1,-3.973643E-9,8.648648E-1,3.191489E-1,1.1260744E0,-1.9200005E-1,6.8456376E-1,9.7402595E-2,-1.9672137E-2,2.2758617E-1,-5.1219517E-1,3.072983E-1,1.032E0,8.154727E-2,9.176471E-2,-3.2673273E-2,-7.194571E-2,-2.876713E-1,5.1457533E-3,2.7177697E-1,-3.4228194E-1,2.4528298E-1,-3.6070386E-1,2.1269576E-1,6.9501466E-1,1.2281879E-1,5.440414E-1,-4.9180333E-2,8.4269665E-2,1.2946059E0,6.9230765E-1,-6.461539E-2,2.6086954E-2,4.615381E-3,1.0645161E-1,-3.692308E-2,6.4044945E-2,-3.88726E-9,-6.116505E-1,6.276923E-1,7.741931E-2,6.521739E-2,1.2923078E-1,2.8451377E-1,-7.438021E-2,3.0302988E-2,-3.8405043E-1,-1.261803E-1,2.630691E-1,3.9699244E-1,-1.4634152E-1,-6.804124E-2,2.459016E-2,4.0050375E-1,-4.719102E-2,-5.8823574E-2,-5.786803E-1,-1.8936881E-1,3.420195E-1,-1.1111116E-2,9.1449815E-1,9.416058E-1,-3.692308E-2,1.3834196E-1,7.8947365E-2,1.1311475E-1,1.8461535E-2,-6.8674706E-2,-2.6086962E-2,9.402985E-2,1.12781925E-2,3.3644855E-2,-4.7058832E-2,5.7581533E-3,6.448598E-2,-2.098766E-2,1.9512191E-2,4.8175182E-2,-3.3727817E-2,-4.1850075E-9,-4.4579785E-2,-2.57038E-2,1.7647056E-2,3.863179E-2,-3.428572E-2,-3.2432475E-3,5.521472E-2,4.6153843E-2,-4.0268462E-2,-2.1238944E-2,6.2457334E-2,-4.020619E-2,4.6153843E-2,-7.0073E-2,-2.6086962E-2,-3.551021E-2,4.6153843E-2,8.82353E-2,2.316602E-2,1.0985916E-1,1.8461535E-2,3.913043E-2,1.3246754E-1],"categories":[],"categories_nodes":[],"categories_segments":[],"categories_sizes":[],"default_left":[0,0,0,0,0,0,0,0,0,0,0,0,0,0,0,0,0,0,0,0,0,0,0,0,0,0,0,0,0,0,0,0,0,0,0,0,0,0,0,0,0,0,0,0,0,0,0,0,0,0,0,0,0,0,0,0,0,0,0,0,0,0,0,0,0,0,0,0,0,0,0,0,0,0,0,0,0,0,0,0,0,0,0,0,0,0,0,0,0,0,0,0,0,0,0,0,0,0,0,0,0,0,0,0,0,0,0,0,0,0,0,0,0,0,0,0,0,0,0,0,0,0,0,0,0,0,0],"id":2,"left_children":[1,3,5,7,9,11,13,15,17,19,21,23,25,27,29,31,33,35,37,-1,39,41,43,45,47,-1,49,51,53,55,57,-1,-1,59,61,63,65,67,-1,-1,-1,69,71,73,75,77,79,81,83,-1,85,-1,-1,87,89,-1,-1,-1,-1,-1,-1,-1,91,93,95,-1,-1,97,99,101,103,105,107,109,111,-1,-1,113,-1,115,117,119,121,-1,123,125,-1,-1,-1,-1,-1,-1,-1,-1,-1,-1,-1,-1,-1,-1,-1,-1,-1,-1,-1,-1,-1,-1,-1,-1,-1,-1,-1,-1,-1,-1,-1,-1,-1,-1,-1,-1,-1,-1,-1,-1,-1],"loss_changes":[3.3048637E1,1.1011489E1,1.1065441E1,7.3066626E0,7.957655E0,9.612436E0,6.725834E0,7.2354608E0,5.88229E0,2.936677E0,7.469815E0,6.29624E0,4.9201202E0,6.45166E0,5.719446E0,4.960573E0,6.2361245E0,6.1204014E0,6.3076043E0,0E0,8.2216454E-1,6.902183E0,5.2885165E0,8.113354E0,6.777973E0,0E0,3.6446266E0,7.0660715E0,1.9385147E0,3.0251236E0,3.966673E0,0E0,0E0,4.206312E0,2.088562E0,6.342746E0,5.3040886E-1,6.748132E0,0E0,0E0,0E0,4.2373924E0,6.6156635E0,5.0667157E0,3.45993E0,6.089135E0,2.4591537E0,7.07274E0,6.80534E0,0E0,8.133816E0,0E0,0E0,1.0915756E-1,2.6875157E0,0E0,0E0,0E0,0E0,0E0,0E0,0E0,7.252722E-1,5.7065477E0,7.4924116E0,0E0,0E0,7.5315175E0,4.4594555E0,5.6386385E0,2.5110626E0,5.1719017E0,5.0530133E0,4.9409266E0,3.7352202E0,0E0,0E0,6.190464E0,0E0,3.2219062E0,6.662426E-1,3.771779E0,5.8978148E0,0E0,3.8132477E0,2.690548E0,0E0,0E0,0E0,0E0,0E0,0E0,0E0,0E0,0E0,0E0,0E0,0E0,0E0,0E0,0E0,0E0,0E0,0E0,0E0,0E0,0E0,0E0,0E0,0E0,0E0,0E0,0E0,0E0,0E0,0E0,0E0,0E0,0E0,0E0,0E0,0E0,0E0,0E0,0E0,0E0,0E0],"parents":[2147483647,0,0,1,1,2,2,3,3,4,4,5,5,6,6,7,7,8,8,9,9,10,10,11,11,12,12,13,13,14,14,15,15,16,16,17,17,18,18,20,20,21,21,22,22,23,23,24,24,26,26,27,27,28,28,29,29,30,30,33,33,34,34,35,35,36,36,37,37,41,41,42,42,43,43,44,44,45,45,46,46,47,47,48,48,50,50,53,53,54,54,62,62,63,63,64,64,67,67,68,68,69,69,70,70,71,71,72,72,73,73,74,74,77,77,79,79,80,80,81,81,82,82,84,84,85,85],"right_children":[2,4,6,8,10,12,14,16,18,20,22,24,26,28,30,32,34,36,38,-1,40,42,44,46,48,-1,50,52,54,56,58,-1,-1,60,62,64,66,68,-1,-1,-1,70,72,74,76,78,80,82,84,-1,86,-1,-1,88,90,-1,-1,-1,-1,-1,-1,-1,92,94,96,-1,-1,98,100,102,104,106,108,110,112,-1,-1,114,-1,116,118,120,122,-1,124,126,-1,-1,-1,-1,-1,-1,-1,-1,-1,-1,-1,-1,-1,-1,-1,-1,-1,-1,-1,-1,-1,-1,-1,-1,-1,-1,-1,-1,-1,-1,-1,-1,-1,-1,-1,-1,-1,-1,-1,-1,-1],"split_conditions":[1.0843067E0,-1.8208604E-1,2.6544871E0,-9.880253E-1,-1.1954868E0,4.439728E0,3.1248152E-1,-7.417581E-1,-3.4631696E-1,-1.1053013E0,8.3207005E-1,-9.338536E-1,-7.4247533E-1,-6.3102096E-1,-9.411621E-2,-1.0224457E-1,-3.9985678E-1,1.5104958E0,3.9408796E0,1.578947E-2,-5.145525E-1,-2.3553662E-1,6.6611576E-1,1.0517947E-1,6.140918E-1,-3.973643E-9,-5.397909E-1,-2.5050157E-1,6.635836E-2,-2.0197156E-1,-3.511012E-1,9.7402595E-2,-1.9672137E-2,-1.1844198E0,-9.616823E-1,-1.4095394E-1,3.153267E-1,-2.4633245E-1,9.176471E-2,-3.2673273E-2,-7.194571E-2,-5.1265335E-1,5.6452715E-1,1.216027E0,1.24460004E-1,1.4666228E0,1.5084039E-1,-8.4546214E-1,-6.6551626E-1,1.2281879E-1,1.4002694E-1,-4.9180333E-2,8.4269665E-2,1.3182095E0,-5.867971E-2,-6.461539E-2,2.6086954E-2,4.615381E-3,1.0645161E-1,-3.692308E-2,6.4044945E-2,-3.88726E-9,9.964405E-1,6.29146E-1,1.753979E-2,6.521739E-2,1.2923078E-1,5.222081E-1,-4.957534E-1,-2.6466033E-1,-9.907189E-1,5.4706544E-1,1.32346E0,-1.5214279E0,-4.7293237E-1,-6.804124E-2,2.459016E-2,-6.5450025E-1,-4.719102E-2,3.2000974E-1,4.062089E-1,8.0465955E-1,-3.149865E0,-1.1111116E-2,8.5904104E-1,-5.477611E-1,-3.692308E-2,1.3834196E-1,7.8947365E-2,1.1311475E-1,1.8461535E-2,-6.8674706E-2,-2.6086962E-2,9.402985E-2,1.12781925E-2,3.3644855E-2,-4.7058832E-2,5.7581533E-3,6.448598E-2,-2.098766E-2,1.9512191E-2,4.8175182E-2,-3.3727817E-2,-4.1850075E-9,-4.4579785E-2,-2.57038E-2,1.7647056E-2,3.863179E-2,-3.428572E-2,-3.2432475E-3,5.521472E-2,4.6153843E-2,-4.0268462E-2,-2.1238944E-2,6.2457334E-2,-4.020619E-2,4.6153843E-2,-7.0073E-2,-2.6086962E-2,-3.551021E-2,4.6153843E-2,8.82353E-2,2.316602E-2,1.0985916E-1,1.8461535E-2,3.913043E-2,1.3246754E-1],"split_indices":[7,28,3,58,79,7,74,64,105,89,36,12,74,36,104,31,109,31,14,0,70,70,108,28,100,0,14,43,49,32,35,0,0,7,85,115,70,53,0,0,0,110,44,30,109,32,89,64,102,0,32,0,0,17,125,0,0,0,0,0,0,0,62,25,94,0,0,32,7,62,85,45,70,30,88,0,0,73,0,108,34,85,0,0,3,28,0,0,0,0,0,0,0,0,0,0,0,0,0,0,0,0,0,0,0,0,0,0,0,0,0,0,0,0,0,0,0,0,0,0,0,0,0,0,0,0,0],"split_type":[0,0,0,0,0,0,0,0,0,0,0,0,0,0,0,0,0,0,0,0,0,0,0,0,0,0,0,0,0,0,0,0,0,0,0,0,0,0,0,0,0,0,0,0,0,0,0,0,0,0,0,0,0,0,0,0,0,0,0,0,0,0,0,0,0,0,0,0,0,0,0,0,0,0,0,0,0,0,0,0,0,0,0,0,0,0,0,0,0,0,0,0,0,0,0,0,0,0,0,0,0,0,0,0,0,0,0,0,0,0,0,0,0,0,0,0,0,0,0,0,0,0,0,0,0,0,0],"sum_hessian":[1.2511111E3,8.666666E2,3.8444443E2,3.8711108E2,4.7955554E2,3.0355554E2,8.0888885E1,6.844444E1,3.1866666E2,3.9111107E1,4.4044443E2,2.5955554E2,4.3999996E1,5.2444443E1,2.8444443E1,1.3333332E1,5.5111107E1,9.8666664E1,2.1999998E2,5.333333E0,3.3777775E1,3.302222E2,1.1022221E2,8.8888885E1,1.7066666E2,7.9999995E0,3.5999996E1,1.4666666E1,3.7777775E1,1.2888888E1,1.5555554E1,7.5555553E0,5.7777777E0,1.5111111E1,3.9999996E1,8.577777E1,1.2888888E1,2.1155554E2,8.444444E0,1.0222221E1,2.3555553E1,1.3688889E2,1.9333333E2,9.4666664E1,1.5555554E1,5.1999996E1,3.6888885E1,1.3377777E2,3.6888885E1,1.5555554E1,2.0444443E1,5.7777777E0,8.888888E0,2.5777777E1,1.1999999E1,6.222222E0,6.666666E0,6.222222E0,9.333333E0,6.222222E0,8.888888E0,6.666666E0,3.3333332E1,3.511111E1,5.0666664E1,6.666666E0,6.222222E0,9.155555E1,1.1999999E2,3.1999998E1,1.04888885E2,1.2844444E2,6.4888885E1,7.2888885E1,2.1777777E1,9.777777E0,5.7777777E0,4.3111107E1,8.888888E0,1.5999999E1,2.0888887E1,3.2444443E1,1.0133333E2,7.9999995E0,2.8888887E1,1.4222221E1,6.222222E0,2.0444443E1,5.333333E0,5.7777777E0,6.222222E0,2.6666664E1,6.666666E0,2.1333332E1,1.3777777E1,3.4666664E1,1.5999999E1,5.6888885E1,3.4666664E1,7.999999E1,3.9999996E1,1.4222221E1,1.7777777E1,1.4666666E1,9.022221E1,8.977777E1,3.8666664E1,5.4222218E1,1.0666666E1,1.9555553E1,5.333333E1,6.222222E0,1.5555554E1,1.1555555E1,3.1555553E1,9.777777E0,6.222222E0,1.4222221E1,6.666666E0,2.6222221E1,6.222222E0,1.5999999E1,8.533333E1,2.2666666E1,6.222222E0,6.666666E0,7.5555553E0],"tree_param":{"num_deleted":"0","num_feature":"128","num_nodes":"127","size_leaf_vector":"1"}},{"base_weights":[-2.4808997E-1,-1.2505585E-1,-3.211693E-1,-2.6363041E-2,-2.9210818E-1,-3.5195857E-1,-5.907131E-2,-2.2572966E-1,9.923462E-2,5.091264E-2,-4.1183835E-1,-3.6631665E-1,2.2365592E-1,-1.6296901E-1,6.730292E-2,-2.8220886E-1,6.925138E-2,9.848775E-3,6.195883E-1,-5.2289647E-1,2.7157742E-1,-4.51353E-1,2.255709E-2,-3.3067286E-1,-5.556911E-1,-3.151817E-2,7.049776E-2,2.511172E-1,-3.5950077E-1,3.0939957E-2,-3.480402E-1,-5.7971165E-2,8.205209E-1,3.4165028E-3,9.9397326E-1,-6.405714E-2,-2.9594252E-2,-3.813809E-2,9.459966E-2,-4.9339956E-1,1.2070927E-2,-2.4727029E-3,-3.5976508E-1,-6.008609E-1,-7.927844E-3,5.429105E-1,-3.9634924E-2,1.4169683E-1,-5.2898103E-1,-3.2197278E-2,-4.7013554E-1,2.8574237E-1,-1.8366966E-1,4.3994334E-2,1.07483126E-1,4.496319E-2,1.2332511E-1,-2.9636613E-1,5.793348E-2,1.1732836E-2,-5.2756566E-1,8.11333E-2,-1.8658343E-1,1.9775414E-1,-3.7762547E-1,-6.424767E-1,-2.674531E-1,8.429591E-2,-3.6843908E-3,-4.5989852E-2,5.906823E-2,1.790449E-2,-6.5097576E-1,6.712132E-2,-2.494016E-2,-5.480367E-2,8.602739E-3,-6.2702775E-2,4.509576E-2,-3.3593554E-2,1.5807442E-2,-5.750637E-2,1.2809905E-2,-5.631739E-2,-4.830539E-3,-3.2974917E-2,5.5082884E-2,-2.901788E-2,8.903198E-2,3.0201215E-2,-3.8967326E-2,-3.430077E-2,-6.9511585E-2,-6.25333E-2,1.7784653E-2,-3.0189348E-2,-7.0840724E-2],"categories":[],"categories_nodes":[],"categories_segments":[],"categories_sizes":[],"default_left":[0,0,0,0,0,0,0,0,0,0,0,0,0,0,0,0,0,0,0,0,0,0,0,0,0,0,0,0,0,0,0,0,0,0,0,0,0,0,0,0,0,0,0,0,0,0,0,0,0,0,0,0,0,0,0,0,0,0,0,0,0,0,0,0,0,0,0,0,0,0,0,0,0,0,0,0,0,0,0,0,0,0,0,0,0,0,0,0,0,0,0,0,0,0,0,0,0],"id":3,"left_children":[1,3,5,7,9,11,13,15,17,19,21,23,25,27,-1,29,-1,31,33,35,37,39,-1,41,43,-1,-1,45,47,-1,49,51,53,-1,55,-1,-1,57,-1,59,-1,61,63,65,-1,67,-1,69,71,73,75,77,79,-1,-1,-1,-1,81,-1,-1,83,-1,85,87,89,91,93,-1,-1,-1,-1,-1,95,-1,-1,-1,-1,-1,-1,-1,-1,-1,-1,-1,-1,-1,-1,-1,-1,-1,-1,-1,-1,-1,-1,-1,-1],"loss_changes":[1.0942184E1,7.5234303E0,6.1578827E0,7.240163E0,6.9842243E0,5.742958E0,6.3232927E0,5.989049E0,8.251527E0,5.8091955E0,3.27005E0,4.3298035E0,4.7066255E0,5.977579E0,0E0,4.234064E0,0E0,8.433433E0,5.6667786E0,1.515603E-1,6.9257946E0,2.9165802E0,0E0,5.395893E0,2.2000847E0,0E0,0E0,4.725357E0,4.2770658E0,0E0,3.6796494E0,6.1738973E0,6.7317486E-1,0E0,1.5071964E0,0E0,0E0,3.9291341E0,0E0,2.374773E0,0E0,7.1978445E0,5.2445297E0,1.149807E0,0E0,2.967111E0,0E0,3.8613076E0,3.3279924E0,4.412567E0,3.0377626E0,6.0633025E0,5.483253E0,0E0,0E0,0E0,0E0,2.1175852E0,0E0,0E0,1.7672863E0,0E0,4.3164644E0,5.926225E0,4.2397537E0,1.0852547E0,2.0687213E0,0E0,0E0,0E0,0E0,0E0,4.2630196E-1,0E0,0E0,0E0,0E0,0E0,0E0,0E0,0E0,0E0,0E0,0E0,0E0,0E0,0E0,0E0,0E0,0E0,0E0,0E0,0E0,0E0,0E0,0E0,0E0],"parents":[2147483647,0,0,1,1,2,2,3,3,4,4,5,5,6,6,7,7,8,8,9,9,10,10,11,11,12,12,13,13,15,15,17,17,18,18,19,19,20,20,21,21,23,23,24,24,27,27,28,28,30,30,31,31,32,32,34,34,37,37,39,39,41,41,42,42,43,43,45,45,47,47,48,48,49,49,50,50,51,51,52,52,57,57,60,60,62,62,63,63,64,64,65,65,66,66,72,72],"right_children":[2,4,6,8,10,12,14,16,18,20,22,24,26,28,-1,30,-1,32,34,36,38,40,-1,42,44,-1,-1,46,48,-1,50,52,54,-1,56,-1,-1,58,-1,60,-1,62,64,66,-1,68,-1,70,72,74,76,78,80,-1,-1,-1,-1,82,-1,-1,84,-1,86,88,90,92,94,-1,-1,-1,-1,-1,96,-1,-1,-1,-1,-1,-1,-1,-1,-1,-1,-1,-1,-1,-1,-1,-1,-1,-1,-1,-1,-1,-1,-1,-1],"split_conditions":[-6.060966E-1,8.130316E-1,8.6086094E-1,-2.7275857E-1,-2.15915E0,3.0942488E0,1.0103194E0,2.959267E0,7.545309E-1,-1.1972103E0,2.1150737E0,1.7383844E0,-8.3790153E-1,-5.260147E-1,6.730292E-2,-8.862418E-1,6.925138E-2,2.4949079E0,-5.217522E-1,1.9521226E-1,2.4100174E-1,2.1284113E0,2.255709E-2,-4.0653996E0,8.9216495E-1,-3.151817E-2,7.049776E-2,8.3190703E-1,-5.811464E-1,3.0939957E-2,-6.650441E-1,-4.2522E-1,-4.971533E-1,3.4165028E-3,-1.972894E-1,-6.405714E-2,-2.9594252E-2,3.5412768E-1,9.459966E-2,-1.8996624E0,1.2070927E-2,-2.3373363E0,-3.0370402E0,3.0828488E0,-7.927844E-3,5.4490197E-1,-3.9634924E-2,1.4513592E-1,-3.0430403E0,-1.0741109E0,1.1235213E0,-8.9517224E-1,4.286256E-1,4.3994334E-2,1.07483126E-1,4.496319E-2,1.2332511E-1,5.774966E-1,5.793348E-2,1.1732836E-2,1.0966495E0,8.11333E-2,1.3964887E0,2.0623478E-1,-2.3522036E0,-6.77556E-1,7.787951E-2,8.429591E-2,-3.6843908E-3,-4.5989852E-2,5.906823E-2,1.790449E-2,-1.6628022E0,6.712132E-2,-2.494016E-2,-5.480367E-2,8.602739E-3,-6.2702775E-2,4.509576E-2,-3.3593554E-2,1.5807442E-2,-5.750637E-2,1.2809905E-2,-5.631739E-2,-4.830539E-3,-3.2974917E-2,5.5082884E-2,-2.901788E-2,8.903198E-2,3.0201215E-2,-3.8967326E-2,-3.430077E-2,-6.9511585E-2,-6.25333E-2,1.7784653E-2,-3.0189348E-2,-7.0840724E-2],"split_indices":[15,6,108,48,1,27,84,26,123,23,37,16,16,90,0,118,0,25,35,114,37,27,0,1,123,0,0,42,52,0,96,83,27,0,70,0,0,84,0,50,0,16,19,6,0,48,0,48,10,31,70,91,124,0,0,0,0,76,0,0,90,0,52,123,48,84,10,0,0,0,0,0,26,0,0,0,0,0,0,0,0,0,0,0,0,0,0,0,0,0,0,0,0,0,0,0,0],"split_type":[0,0,0,0,0,0,0,0,0,0,0,0,0,0,0,0,0,0,0,0,0,0,0,0,0,0,0,0,0,0,0,0,0,0,0,0,0,0,0,0,0,0,0,0,0,0,0,0,0,0,0,0,0,0,0,0,0,0,0,0,0,0,0,0,0,0,0,0,0,0,0,0,0,0,0,0,0,0,0,0,0,0,0,0,0,0,0,0,0,0,0,0,0,0,0,0,0],"sum_hessian":[1.2204486E3,4.557958E2,7.646528E2,2.8724954E2,1.6854626E2,6.839631E2,8.0689705E1,1.10712906E2,1.7653664E2,4.3757645E1,1.2478863E2,6.676723E2,1.6290752E1,7.1342384E1,9.347321E0,1.049503E2,5.762605E0,1.5152649E2,2.5010143E1,1.1773249E1,3.1984394E1,1.1777909E2,7.0095367E0,5.642215E2,1.03450836E2,7.849002E0,8.441751E0,2.287266E1,4.846972E1,1.0138496E1,9.4811806E1,1.406854E2,1.0841097E1,1.018117E1,1.4828974E1,6.553044E0,5.220205E0,2.2565172E1,9.419222E0,1.0984313E2,7.9359584E0,4.6029606E1,5.1819183E2,9.425326E1,9.197578E0,1.5878286E1,6.9943743E0,1.22897215E1,3.618E1,2.6785446E1,6.802635E1,3.7331593E1,1.03353806E2,5.43601E0,5.4050865E0,5.4071593E0,9.421814E0,1.6277805E1,6.2873673E0,5.690465E0,1.04152664E2,7.8637066E0,3.81659E1,1.577255E1,5.024193E2,8.2969986E1,1.1283272E1,1.0163982E1,5.714304E0,5.2418556E0,7.047866E0,5.2489295E0,3.093107E1,5.8264384E0,2.095901E1,5.968145E1,8.344904E0,5.293147E0,3.2038445E1,7.150941E1,3.1844398E1,9.611946E0,6.6658583E0,9.678651E1,7.3661604E0,3.242378E1,5.7421217E0,9.594177E0,6.1783724E0,8.331941E0,4.9408737E2,1.3527432E1,6.944255E1,6.0315332E0,5.2517385E0,5.2538004E0,2.5677269E1],"tree_param":{"num_deleted":"0","num_feature":"128","num_nodes":"97","size_leaf_vector":"1"}},{"base_weights":[1.3551733E-1,1.5483102E-1,-5.2714604E-1,4.064452E-1,1.0780471E-1,-7.1400456E-2,1.4571631E-2,5.183061E-1,9.748643E-2,6.191196E-2,3.2328275E-1,6.3702404E-1,3.5348726E-3,4.5035723E-1,-2.0692332E-1,2.9981166E-1,2.2396883E-2,-1.9054703E-1,3.9397264E-1,1.1844963E0,4.8700196E-1,-3.096033E-1,5.0671715E-2,7.537924E-1,-2.0017294E-2,-4.6251833E-1,3.1931248E-2,6.66542E-1,1.1368884E-1,2.2125493E-1,-3.5539184E-2,3.1174967E-2,-4.9455556E-1,4.5478427E-1,-2.2895873E-1,1.3211532E-1,6.9756076E-2,2.8951722E-1,7.995655E-1,9.777508E-3,-6.6869706E-2,1.0288878E-1,1.4040634E-2,-1.8144529E-3,-6.28751E-2,8.762382E-1,7.690459E-2,-2.2933555E-1,2.8975454E-1,4.6413624E-1,-1.2289491E-2,5.466871E-2,-2.1460575E-1,-1.666441E-2,-6.709622E-2,5.481086E-1,3.44279E-2,2.9876843E-2,-5.62704E-2,-8.803191E-4,5.4555275E-2,9.19548E-2,1.2823201E-2,1.1208137E-1,1.4428279E-2,4.618251E-2,-3.2079425E-2,1.4090056E-2,-6.224652E-2,7.6064005E-2,1.0783204E-2,-6.519767E-3,5.9649892E-2,-4.248145E-2,1.4774102E-2,1.2332741E-2,-2.772038E-2,6.6614943E-3,-3.4415394E-2,3.7177786E-2,8.581831E-2,4.95944E-2,-4.212164E-2],"categories":[],"categories_nodes":[],"categories_segments":[],"categories_sizes":[],"default_left":[0,0,0,0,0,0,0,0,0,0,0,0,0,0,0,0,0,0,0,0,0,0,0,0,0,0,0,0,0,0,0,0,0,0,0,0,0,0,0,0,0,0,0,0,0,0,0,0,0,0,0,0,0,0,0,0,0,0,0,0,0,0,0,0,0,0,0,0,0,0,0,0,0,0,0,0,0,0,0,0,0,0,0],"id":4,"left_children":[1,3,5,7,9,-1,-1,11,13,15,17,19,21,23,25,27,29,31,33,35,37,39,-1,41,-1,43,-1,45,47,49,51,-1,53,55,57,-1,-1,59,61,-1,-1,-1,-1,-1,-1,63,65,67,69,71,73,75,77,-1,-1,79,81,-1,-1,-1,-1,-1,-1,-1,-1,-1,-1,-1,-1,-1,-1,-1,-1,-1,-1,-1,-1,-1,-1,-1,-1,-1,-1],"loss_changes":[1.6140226E1,1.4391432E1,4.6002903E0,6.5762463E0,1.015784E1,0E0,0E0,8.586769E0,5.7004385E0,7.9814034E0,6.6305294E0,8.802746E0,4.465358E0,4.98521E0,4.0092564E0,8.180373E0,8.415771E0,3.590067E0,6.126463E0,6.664467E-1,5.4063263E0,2.6218457E0,0E0,2.7090302E0,0E0,1.446219E0,0E0,4.942156E0,4.985094E0,9.353046E0,9.154433E0,0E0,7.2137594E-1,5.6762257E0,2.7755947E0,0E0,0E0,4.3996677E0,2.6848698E0,0E0,0E0,0E0,0E0,0E0,0E0,5.1713486E0,1.9430463E0,4.1895633E0,4.5661287E0,5.700407E0,5.673033E0,8.628678E0,6.938181E0,0E0,0E0,6.1726913E0,5.979572E0,0E0,0E0,0E0,0E0,0E0,0E0,0E0,0E0,0E0,0E0,0E0,0E0,0E0,0E0,0E0,0E0,0E0,0E0,0E0,0E0,0E0,0E0,0E0,0E0,0E0,0E0],"parents":[2147483647,0,0,1,1,2,2,3,3,4,4,7,7,8,8,9,9,10,10,11,11,12,12,13,13,14,14,15,15,16,16,17,17,18,18,19,19,20,20,21,21,23,23,25,25,27,27,28,28,29,29,30,30,32,32,33,33,34,34,37,37,38,38,45,45,46,46,47,47,48,48,49,49,50,50,51,51,52,52,55,55,56,56],"right_children":[2,4,6,8,10,-1,-1,12,14,16,18,20,22,24,26,28,30,32,34,36,38,40,-1,42,-1,44,-1,46,48,50,52,-1,54,56,58,-1,-1,60,62,-1,-1,-1,-1,-1,-1,64,66,68,70,72,74,76,78,-1,-1,80,82,-1,-1,-1,-1,-1,-1,-1,-1,-1,-1,-1,-1,-1,-1,-1,-1,-1,-1,-1,-1,-1,-1,-1,-1,-1,-1],"split_conditions":[3.7724206E0,-1.1033107E0,5.206271E-3,5.882491E-1,1.6767175E0,-7.1400456E-2,1.4571631E-2,2.4492671E0,-1.0288326E-1,-2.8499424E0,-1.5855427E0,-1.0568347E0,7.544335E-2,1.0988319E0,4.148233E-1,-6.5510553E-1,-1.0245851E0,-3.9222637E-1,1.9478707E0,-9.509928E-2,5.449376E-1,2.5645444E-1,5.0671715E-2,4.3065673E-1,-2.0017294E-2,-1.1635284E-1,3.1931248E-2,1.6496067E0,-4.5928314E-1,1.7418754E-1,6.479693E-1,3.1174967E-2,3.2653417E-2,2.702623E0,-2.5089818E-1,1.3211532E-1,6.9756076E-2,-3.1776658E-1,7.723468E-1,9.777508E-3,-6.6869706E-2,1.0288878E-1,1.4040634E-2,-1.8144529E-3,-6.28751E-2,2.8773645E-1,-2.170101E-1,4.8141252E-2,-2.7490076E-1,-1.1767595E0,-8.184011E-1,2.659046E0,-4.2084807E-1,-1.666441E-2,-6.709622E-2,3.4578195E-1,1.4662682E-3,2.9876843E-2,-5.62704E-2,-8.803191E-4,5.4555275E-2,9.19548E-2,1.2823201E-2,1.1208137E-1,1.4428279E-2,4.618251E-2,-3.2079425E-2,1.4090056E-2,-6.224652E-2,7.6064005E-2,1.0783204E-2,-6.519767E-3,5.9649892E-2,-4.248145E-2,1.4774102E-2,1.2332741E-2,-2.772038E-2,6.6614943E-3,-3.4415394E-2,3.7177786E-2,8.581831E-2,4.95944E-2,-4.212164E-2],"split_indices":[16,58,28,86,14,0,0,3,97,4,34,37,92,13,28,25,37,108,30,86,79,51,0,61,0,99,0,17,17,25,39,0,89,4,47,0,0,18,92,0,0,0,0,0,0,106,105,34,111,41,42,4,79,0,0,94,108,0,0,0,0,0,0,0,0,0,0,0,0,0,0,0,0,0,0,0,0,0,0,0,0,0,0],"split_type":[0,0,0,0,0,0,0,0,0,0,0,0,0,0,0,0,0,0,0,0,0,0,0,0,0,0,0,0,0,0,0,0,0,0,0,0,0,0,0,0,0,0,0,0,0,0,0,0,0,0,0,0,0,0,0,0,0,0,0,0,0,0,0,0,0,0,0,0,0,0,0,0,0,0,0,0,0,0,0,0,0,0,0],"sum_hessian":[1.2537283E3,1.2189672E3,3.4761124E1,1.9074477E2,1.0282224E3,2.715801E1,7.603112E0,1.3954416E2,5.1200607E1,8.487434E2,1.7947897E2,1.13200134E2,2.634402E1,2.3490757E1,2.7709852E1,1.1995708E2,7.287863E2,2.1500547E1,1.5797842E2,2.2864769E1,9.0335365E1,1.6475666E1,9.868355E0,1.5910624E1,7.5801325E0,1.8732485E1,8.977368E0,3.951561E1,8.044147E1,1.6378761E2,5.649987E2,8.096945E0,1.3403603E1,1.4417386E2,1.3804571E1,1.6516321E1,6.3484483E0,5.653901E1,3.3796356E1,8.059821E0,8.415846E0,1.0516656E1,5.3939676E0,5.401723E0,1.3330762E1,2.879058E1,1.0725028E1,2.7181625E1,5.3259842E1,7.980486E1,8.398274E1,3.7618414E2,1.8881459E2,5.3687053E0,8.034898E0,1.1773199E2,2.6441862E1,5.3886657E0,8.415905E0,2.6559158E1,2.9979849E1,2.8358347E1,5.438011E0,2.1181677E1,7.608905E0,5.368133E0,5.356895E0,1.4328821E1,1.2852804E1,1.3955782E1,3.9304058E1,1.6065294E1,6.373957E1,2.3010902E1,6.0971844E1,3.1221967E2,6.3964478E1,5.9701508E1,1.2911308E2,7.6453835E1,4.1278156E1,1.3092349E1,1.3349513E1],"tree_param":{"num_deleted":"0","num_feature":"128","num_nodes":"83","size_leaf_vector":"1"}},{"base_weights":[1.1783656E-1,9.495657E-2,1.0535104E0,2.5396976E-1,-1.078285E-2,2.2755742E-2,1.2868479E-1,5.7666135E-1,1.571624E-1,5.8586877E-2,-1.6356985E-1,-5.1267933E-2,6.5830815E-1,3.6329547E-1,5.9205394E-2,-5.2107E-2,2.2095524E-1,-3.9182603E-1,8.666668E-3,-6.328873E-2,4.3271847E-2,7.889491E-1,2.4866451E-1,4.2965105E-1,-3.282878E-2,4.4904664E-5,4.1984335E-1,-1.9855194E-1,7.0234925E-2,-2.8344357E-2,4.9952844E-1,-4.437159E-1,3.7504256E-2,4.230199E-1,-1.5110543E-1,8.9356536E-1,2.2202614E-1,-3.2931995E-2,6.548417E-1,3.1963333E-1,1.010143E0,-6.5521605E-2,4.4167024E-1,5.885556E-1,-3.5489555E-2,4.6572387E-1,-2.7912134E-1,2.6059186E-1,-1.0300066E-1,-1.4706843E-1,5.495151E-1,7.2813547E-1,2.3064539E-1,-6.1181456E-1,-2.5635812E-1,1.8800068E-1,1.175036E-1,-1.5128845E-2,-5.829593E-1,4.5347232E-3,9.853255E-2,-3.134642E-2,6.3058056E-2,1.8867766E-2,1.0403847E-1,1.7513085E-2,9.2075855E-2,1.259047E-1,6.4590015E-2,-1.1152747E-2,4.9549114E-2,6.5284036E-2,-3.4446735E-2,-1.5644012E-2,7.540759E-2,-5.8646235E-3,7.92084E-2,-3.5087045E-2,2.3225565E-2,-2.8456891E-2,3.7551947E-2,-2.4135454E-2,2.6963716E-2,5.1088375E-3,-4.5442343E-2,-8.907093E-4,9.629392E-2,-1.606895E-2,8.328333E-2,6.600583E-2,-1.416632E-2,-1.6532542E-2,-6.6344135E-2,4.350535E-2,-3.774887E-2,-3.4391146E-2,6.431159E-2,7.71155E-2,-1.0442723E-2,-1.5513967E-2,-7.023787E-2],"categories":[],"categories_nodes":[],"categories_segments":[],"categories_sizes":[],"default_left":[0,0,0,0,0,0,0,0,0,0,0,0,0,0,0,0,0,0,0,0,0,0,0,0,0,0,0,0,0,0,0,0,0,0,0,0,0,0,0,0,0,0,0,0,0,0,0,0,0,0,0,0,0,0,0,0,0,0,0,0,0,0,0,0,0,0,0,0,0,0,0,0,0,0,0,0,0,0,0,0,0,0,0,0,0,0,0,0,0,0,0,0,0,0,0,0,0,0,0,0,0],"id":5,"left_children":[1,3,5,7,9,-1,-1,11,13,15,17,19,21,23,25,27,29,31,33,-1,-1,35,37,39,-1,41,43,45,47,49,51,53,-1,55,57,59,61,-1,63,65,67,69,71,73,-1,75,77,79,81,83,85,87,89,91,93,95,-1,97,99,-1,-1,-1,-1,-1,-1,-1,-1,-1,-1,-1,-1,-1,-1,-1,-1,-1,-1,-1,-1,-1,-1,-1,-1,-1,-1,-1,-1,-1,-1,-1,-1,-1,-1,-1,-1,-1,-1,-1,-1,-1,-1],"loss_changes":[2.6808197E1,2.0650448E1,5.470154E0,1.5231901E1,7.8369474E0,0E0,0E0,5.817665E0,7.624835E0,9.153493E0,9.079801E0,4.1891513E0,5.150486E0,5.7300262E0,5.5021753E0,5.4472623E0,1.4347248E1,4.11821E0,8.8396435E0,0E0,0E0,4.266987E0,6.2298174E0,6.8018627E0,0E0,6.472938E0,4.959213E0,7.531542E0,5.4998336E0,7.617964E0,5.826704E0,2.787075E0,0E0,6.3454337E0,5.6523757E0,4.876667E0,3.054821E0,0E0,2.56783E0,8.112423E0,7.5629616E-1,5.079085E0,5.022282E0,3.8444834E0,0E0,2.6706007E0,4.6296988E0,5.0789986E0,4.581751E0,5.621917E0,4.380168E0,4.9957294E0,7.4921308E0,1.0093861E0,4.0105658E0,7.3618584E0,0E0,5.300729E0,1.0691452E0,0E0,0E0,0E0,0E0,0E0,0E0,0E0,0E0,0E0,0E0,0E0,0E0,0E0,0E0,0E0,0E0,0E0,0E0,0E0,0E0,0E0,0E0,0E0,0E0,0E0,0E0,0E0,0E0,0E0,0E0,0E0,0E0,0E0,0E0,0E0,0E0,0E0,0E0,0E0,0E0,0E0,0E0],"parents":[2147483647,0,0,1,1,2,2,3,3,4,4,7,7,8,8,9,9,10,10,11,11,12,12,13,13,14,14,15,15,16,16,17,17,18,18,21,21,22,22,23,23,25,25,26,26,27,27,28,28,29,29,30,30,31,31,33,33,34,34,35,35,36,36,38,38,39,39,40,40,41,41,42,42,43,43,45,45,46,46,47,47,48,48,49,49,50,50,51,51,52,52,53,53,54,54,55,55,57,57,58,58],"right_children":[2,4,6,8,10,-1,-1,12,14,16,18,20,22,24,26,28,30,32,34,-1,-1,36,38,40,-1,42,44,46,48,50,52,54,-1,56,58,60,62,-1,64,66,68,70,72,74,-1,76,78,80,82,84,86,88,90,92,94,96,-1,98,100,-1,-1,-1,-1,-1,-1,-1,-1,-1,-1,-1,-1,-1,-1,-1,-1,-1,-1,-1,-1,-1,-1,-1,-1,-1,-1,-1,-1,-1,-1,-1,-1,-1,-1,-1,-1,-1,-1,-1,-1,-1,-1],"split_conditions":[3.9735441E0,-5.564333E-1,-6.8562365E-1,-1.0528141E0,2.2423425E0,2.2755742E-2,1.2868479E-1,-1.8408849E0,-9.138388E-1,1.3441528E-1,-2.9086345E-1,2.205585E-1,5.415533E-1,2.340096E0,1.1437653E0,-4.0719677E-2,3.7137665E-2,1.1512415E0,-7.2357863E-1,-6.328873E-2,4.3271847E-2,1.9003214E0,-1.1289294E-1,1.2737143E0,-3.282878E-2,8.704788E-1,1.5957354E0,-1.140197E0,-1.8208604E-1,9.0529275E-1,1.835354E-2,-1.0201639E-1,3.7504256E-2,4.883458E-1,1.0187072E0,-1.3810765E0,-3.8710758E-1,-3.2931995E-2,-1.7358257E-1,7.504692E-1,2.4389334E-1,2.3511455E0,1.2506392E0,-8.3850765E-1,-3.5489555E-2,-6.0804725E-1,9.0944386E-1,-7.101325E-1,2.0769246E0,7.794043E-1,-1.5244034E-1,-2.319066E0,-5.260421E-1,-2.136087E0,-1.5416265E0,-3.0743274E-1,1.175036E-1,-9.39173E-1,-9.9335057E-1,4.5347232E-3,9.853255E-2,-3.134642E-2,6.3058056E-2,1.8867766E-2,1.0403847E-1,1.7513085E-2,9.2075855E-2,1.259047E-1,6.4590015E-2,-1.1152747E-2,4.9549114E-2,6.5284036E-2,-3.4446735E-2,-1.5644012E-2,7.540759E-2,-5.8646235E-3,7.92084E-2,-3.5087045E-2,2.3225565E-2,-2.8456891E-2,3.7551947E-2,-2.4135454E-2,2.6963716E-2,5.1088375E-3,-4.5442343E-2,-8.907093E-4,9.629392E-2,-1.606895E-2,8.328333E-2,6.600583E-2,-1.416632E-2,-1.6532542E-2,-6.6344135E-2,4.350535E-2,-3.774887E-2,-3.4391146E-2,6.431159E-2,7.71155E-2,-1.0442723E-2,-1.5513967E-2,-7.023787E-2],"split_indices":[16,5,3,40,5,0,0,19,17,16,21,18,101,13,58,99,45,101,46,0,0,13,69,47,0,94,28,93,28,62,8,88,0,69,47,75,65,0,113,82,93,16,21,90,0,9,100,104,8,11,85,19,22,9,28,52,0,84,3,0,0,0,0,0,0,0,0,0,0,0,0,0,0,0,0,0,0,0,0,0,0,0,0,0,0,0,0,0,0,0,0,0,0,0,0,0,0,0,0,0,0],"split_type":[0,0,0,0,0,0,0,0,0,0,0,0,0,0,0,0,0,0,0,0,0,0,0,0,0,0,0,0,0,0,0,0,0,0,0,0,0,0,0,0,0,0,0,0,0,0,0,0,0,0,0,0,0,0,0,0,0,0,0,0,0,0,0,0,0,0,0,0,0,0,0,0,0,0,0,0,0,0,0,0,0,0,0,0,0,0,0,0,0,0,0,0,0,0,0,0,0,0,0,0,0],"sum_hessian":[1.2559122E3,1.2270096E3,2.8902523E1,4.8949493E2,7.375148E2,6.8016634E0,2.2100859E1,1.1181639E2,3.7767856E2,5.0764554E2,2.2986923E2,1.2908872E1,9.890752E1,1.2078961E2,2.5688895E2,3.0226016E2,2.0538538E2,9.830962E1,1.315596E2,5.7233334E0,7.185538E0,7.428961E1,2.4617905E1,1.1056038E2,1.0229234E1,2.215458E2,3.5343136E1,1.372942E2,1.6496596E2,1.0886162E2,9.652375E1,9.247381E1,5.8358107E0,3.615292E1,9.5406685E1,6.2229935E1,1.2059678E1,1.0238246E1,1.4379659E1,9.424854E1,1.631183E1,1.9364732E2,2.789848E1,2.9220257E1,6.122877E0,1.4333928E1,1.2296027E2,7.835864E1,8.660731E1,9.0925934E1,1.7935684E1,5.1245937E1,4.5277813E1,4.754797E1,4.4925842E1,2.849705E1,7.6558704E0,7.334712E1,2.2059565E1,6.2207155E0,5.600922E1,5.319795E0,6.7398825E0,7.183452E0,7.196207E0,7.702428E1,1.722427E1,8.230761E0,8.08107E0,1.797113E2,1.3936028E1,2.2124908E1,5.7735705E0,5.3218446E0,2.3898413E1,5.8135185E0,8.52041E0,1.08106224E2,1.4854048E1,1.3385979E1,6.4972664E1,6.341481E1,2.3192497E1,5.57906E1,3.5135334E1,8.046087E0,9.889597E0,5.3439574E0,4.590198E1,2.0667486E1,2.4610327E1,5.36361E0,4.218436E1,6.31102E0,3.8614822E1,1.3252563E1,1.5244486E1,6.7017374E0,6.6645386E1,5.3155904E0,1.6743975E1],"tree_param":{"num_deleted":"0","num_feature":"128","num_nodes":"101","size_leaf_vector":"1"}},{"base_weights":[-2.4445525E-1,-3.1349808E-1,-1.3963641E-1,-3.6484218E-1,-1.5351851E-1,-1.7608495E-1,4.2728275E-1,-3.98899E-1,-7.164913E-2,-2.0168114E-1,5.000579E-1,1.6805124E-2,-2.7463704E-1,7.479498E-1,-5.1291987E-2,6.252997E-2,-4.158984E-1,4.4275194E-1,-2.4319115E-1,-3.1370038E-1,2.7465826E-2,-1.3553031E-2,9.7046904E-2,-7.4743144E-2,5.412727E-1,-1.7578445E-1,-4.601062E-1,1.0523953E0,9.980501E-3,4.0330388E-2,-4.8087392E-2,-2.8062156E-1,6.9867454E-2,1.6427733E-2,-4.3353456E-1,-1.2657898E-3,1.0068186E-1,5.0370134E-2,-3.5531345E-1,-1.4895137E-1,-5.13943E-1,-5.9743263E-2,2.1980219E-1,-1.9907598E-1,1.923568E-1,1.1901758E-1,1.4505929E-1,-2.906176E-1,8.016372E-2,-9.123685E-2,-5.4126024E-1,1.235372E-1,6.7036174E-2,1.2092295E-2,-6.2301885E-2,5.8027696E-2,-4.1148072E-1,-1.6544458E-1,-4.607299E-1,-1.1202077E-1,-5.887451E-1,4.058275E-2,-5.0776756E-1,4.5616957E-3,-5.784893E-1,-3.267736E-1,5.3689337E-1,1.3542855E-1,-3.6145958E-1,-2.596223E-1,4.5331737E-1,-2.6884247E-2,7.822748E-2,-5.2168417E-1,-1.8758625E-1,-2.8298694E-1,2.656062E-1,5.6636583E-2,-3.935295E-1,2.2847874E-3,-6.0974574E-1,-1.2390296E-2,-6.179257E-2,1.8447557E-2,-4.2379897E-2,-4.766927E-2,2.9617853E-3,-5.473131E-2,2.4799926E-2,-6.7678355E-2,-2.8163075E-2,-1.770124E-2,3.8392164E-2,-1.5918301E-2,-6.71305E-2,-6.781723E-2,-1.8377347E-2,1.6407048E-2,-5.724104E-2,-1.7391432E-2,7.25218E-2,-1.7478919E-2,5.9554845E-2,1.2015832E-2,-4.6193156E-2,-6.5119505E-2,2.665539E-2,7.9241835E-2,-1.2366094E-2,5.061624E-3,-6.2317874E-2,5.5125404E-2,-2.4774244E-2,-6.1027538E-2,3.353196E-2,5.285311E-3,7.5807765E-2,-5.3080083E-3,-6.352536E-2,-6.697698E-2,-1.3217098E-3],"categories":[],"categories_nodes":[],"categories_segments":[],"categories_sizes":[],"default_left":[0,0,0,0,0,0,0,0,0,0,0,0,0,0,0,0,0,0,0,0,0,0,0,0,0,0,0,0,0,0,0,0,0,0,0,0,0,0,0,0,0,0,0,0,0,0,0,0,0,0,0,0,0,0,0,0,0,0,0,0,0,0,0,0,0,0,0,0,0,0,0,0,0,0,0,0,0,0,0,0,0,0,0,0,0,0,0,0,0,0,0,0,0,0,0,0,0,0,0,0,0,0,0,0,0,0,0,0,0,0,0,0,0,0,0,0,0,0,0,0,0],"id":6,"left_children":[1,3,5,7,9,11,13,15,17,19,21,23,25,27,29,31,33,35,37,39,41,-1,-1,43,45,47,49,51,-1,-1,-1,53,-1,55,57,-1,-1,-1,59,61,63,-1,65,67,69,-1,71,73,75,77,79,-1,-1,-1,-1,-1,81,83,85,87,89,91,93,-1,95,97,99,101,103,105,107,-1,-1,109,111,113,115,-1,117,-1,119,-1,-1,-1,-1,-1,-1,-1,-1,-1,-1,-1,-1,-1,-1,-1,-1,-1,-1,-1,-1,-1,-1,-1,-1,-1,-1,-1,-1,-1,-1,-1,-1,-1,-1,-1,-1,-1,-1,-1,-1],"loss_changes":[8.712204E0,5.9289093E0,1.0040509E1,5.4719543E0,5.727721E0,8.632038E0,4.554E0,3.89563E0,5.274001E0,4.300449E0,3.885617E0,7.454345E0,5.427271E0,3.3843365E0,2.6821775E0,4.212205E0,3.6358109E0,3.8650048E0,3.9098547E0,3.6308928E0,6.840154E0,0E0,0E0,4.433272E0,5.758446E0,5.830919E0,3.058958E0,5.592346E-3,0E0,0E0,0E0,1.8165619E0,0E0,4.971908E0,3.2578964E0,0E0,0E0,0E0,2.1672735E0,4.3094025E0,1.8437653E0,0E0,7.699448E0,4.9808574E0,5.1358204E0,0E0,4.2883344E0,3.1545658E0,4.2491555E0,4.1842775E0,3.294197E0,0E0,0E0,0E0,0E0,0E0,6.203172E-1,4.0267706E0,3.2595367E0,3.3467484E0,3.456416E-1,3.2200575E0,1.139956E0,0E0,1.6533394E0,2.0905833E0,3.8544846E0,4.443303E0,3.0264444E0,3.5131764E0,5.4464293E0,0E0,0E0,2.4460974E0,4.405446E0,4.542448E0,4.3127966E0,0E0,1.1383271E0,0E0,2.703516E0,0E0,0E0,0E0,0E0,0E0,0E0,0E0,0E0,0E0,0E0,0E0,0E0,0E0,0E0,0E0,0E0,0E0,0E0,0E0,0E0,0E0,0E0,0E0,0E0,0E0,0E0,0E0,0E0,0E0,0E0,0E0,0E0,0E0,0E0,0E0,0E0,0E0,0E0,0E0,0E0],"parents":[2147483647,0,0,1,1,2,2,3,3,4,4,5,5,6,6,7,7,8,8,9,9,10,10,11,11,12,12,13,13,14,14,15,15,16,16,17,17,18,18,19,19,20,20,23,23,24,24,25,25,26,26,27,27,31,31,33,33,34,34,38,38,39,39,40,40,42,42,43,43,44,44,46,46,47,47,48,48,49,49,50,50,56,56,57,57,58,58,59,59,60,60,61,61,62,62,64,64,65,65,66,66,67,67,68,68,69,69,70,70,73,73,74,74,75,75,76,76,78,78,80,80],"right_children":[2,4,6,8,10,12,14,16,18,20,22,24,26,28,30,32,34,36,38,40,42,-1,-1,44,46,48,50,52,-1,-1,-1,54,-1,56,58,-1,-1,-1,60,62,64,-1,66,68,70,-1,72,74,76,78,80,-1,-1,-1,-1,-1,82,84,86,88,90,92,94,-1,96,98,100,102,104,106,108,-1,-1,110,112,114,116,-1,118,-1,120,-1,-1,-1,-1,-1,-1,-1,-1,-1,-1,-1,-1,-1,-1,-1,-1,-1,-1,-1,-1,-1,-1,-1,-1,-1,-1,-1,-1,-1,-1,-1,-1,-1,-1,-1,-1,-1,-1,-1,-1],"split_conditions":[3.941023E-1,1.0848576E0,1.1117553E0,5.8194532E0,2.1060665E0,-5.6575686E-1,2.0195267E-1,-2.0189838E0,-4.2725423E-1,7.603577E-1,-4.4002134E-1,1.4123776E0,7.41535E-1,6.00358E-1,-8.202761E-1,8.118069E-1,-2.5362377E0,7.025152E-1,-8.743105E-1,2.3367554E-1,-5.739195E-1,-1.3553031E-2,9.7046904E-2,4.3408316E-1,-2.2033828E-1,4.3449944E-1,-2.768915E0,-3.338544E-2,9.980501E-3,4.0330388E-2,-4.8087392E-2,-5.4421216E-1,6.9867454E-2,-2.1176438E-1,-1.8275143E0,-1.2657898E-3,1.0068186E-1,5.0370134E-2,-2.4665459E-1,5.4208815E-1,-3.0344954E0,-5.9743263E-2,-9.989988E-1,-9.338536E-1,-1.1902022E-1,1.1901758E-1,2.4712464E-1,-6.050001E-1,-3.332339E-1,8.87886E-1,-6.82529E-1,1.235372E-1,6.7036174E-2,1.2092295E-2,-6.2301885E-2,5.8027696E-2,-6.804913E-2,8.198347E-3,1.6108843E0,-4.7868556E-1,2.965444E-1,-3.3542094E-1,-2.4857615E-1,4.5616957E-3,8.357244E-1,-2.2936136E-1,-5.645216E-1,8.930021E-1,-2.1000168E0,1.4690416E-1,4.5337695E-1,-2.6884247E-2,7.822748E-2,-6.3800454E-1,-1.2360666E0,4.0699437E-1,1.8138855E0,5.6636583E-2,-9.148014E-1,2.2847874E-3,8.572268E-1,-1.2390296E-2,-6.179257E-2,1.8447557E-2,-4.2379897E-2,-4.766927E-2,2.9617853E-3,-5.473131E-2,2.4799926E-2,-6.7678355E-2,-2.8163075E-2,-1.770124E-2,3.8392164E-2,-1.5918301E-2,-6.71305E-2,-6.781723E-2,-1.8377347E-2,1.6407048E-2,-5.724104E-2,-1.7391432E-2,7.25218E-2,-1.7478919E-2,5.9554845E-2,1.2015832E-2,-4.6193156E-2,-6.5119505E-2,2.665539E-2,7.9241835E-2,-1.2366094E-2,5.061624E-3,-6.2317874E-2,5.5125404E-2,-2.4774244E-2,-6.1027538E-2,3.353196E-2,5.285311E-3,7.5807765E-2,-5.3080083E-3,-6.352536E-2,-6.697698E-2,-1.3217098E-3],"split_indices":[27,22,110,0,50,36,76,54,68,25,86,37,10,94,7,52,33,8,83,54,85,0,0,64,78,63,3,78,0,0,0,10,0,76,32,0,0,0,50,19,7,0,27,12,63,0,71,47,93,27,111,0,0,0,0,0,94,106,82,44,88,50,120,0,89,93,103,8,10,71,44,0,0,127,59,54,27,0,8,0,127,0,0,0,0,0,0,0,0,0,0,0,0,0,0,0,0,0,0,0,0,0,0,0,0,0,0,0,0,0,0,0,0,0,0,0,0,0,0,0,0],"split_type":[0,0,0,0,0,0,0,0,0,0,0,0,0,0,0,0,0,0,0,0,0,0,0,0,0,0,0,0,0,0,0,0,0,0,0,0,0,0,0,0,0,0,0,0,0,0,0,0,0,0,0,0,0,0,0,0,0,0,0,0,0,0,0,0,0,0,0,0,0,0,0,0,0,0,0,0,0,0,0,0,0,0,0,0,0,0,0,0,0,0,0,0,0,0,0,0,0,0,0,0,0,0,0,0,0,0,0,0,0,0,0,0,0,0,0,0,0,0,0,0,0],"sum_hessian":[1.2088912E3,7.276237E2,4.8126746E2,5.498678E2,1.777559E2,4.5284256E2,2.8424889E1,4.9232016E2,5.754766E1,1.661999E2,1.1555997E1,1.5341066E2,2.994319E2,1.6683386E1,1.1741503E1,1.739786E1,4.749223E2,1.3996252E1,4.355141E1,1.1138164E2,5.4818275E1,5.217861E0,6.338136E0,1.3134181E2,2.2068842E1,1.9659639E2,1.028355E2,1.0927046E1,5.75634E0,5.7343845E0,6.007118E0,1.1664578E1,5.7332807E0,1.861711E1,4.5630518E2,8.284868E0,5.711384E0,5.2286706E0,3.832274E1,6.206319E1,4.9318443E1,1.24058E1,4.2412476E1,8.9796814E1,4.1545006E1,7.6068163E0,1.4462025E1,1.3561583E2,6.098056E1,1.8927696E1,8.390781E1,5.878055E0,5.048991E0,5.6662965E0,5.9982824E0,7.8789907E0,1.0738118E1,4.2677444E1,4.1362775E2,1.9489656E1,1.8833084E1,4.1191757E1,2.0871437E1,5.1309385E0,4.4187508E1,1.5560325E1,2.685215E1,2.9399944E1,6.0396866E1,1.5208785E1,2.633622E1,9.117726E0,5.344299E0,4.0569035E1,9.50468E1,2.0435621E1,4.0544937E1,5.6856513E0,1.3242044E1,9.156127E0,7.475168E1,5.155994E0,5.5821238E0,1.8247986E1,2.442946E1,4.00614E2,1.3013723E1,8.587032E0,1.0902623E1,1.3701642E1,5.1314416E0,2.5509342E1,1.5682415E1,7.2951E0,1.3576336E1,3.4704876E1,9.48263E0,5.3005505E0,1.0259774E1,5.640249E0,2.12119E1,1.7930878E1,1.1469066E1,1.0391018E1,5.0005848E1,8.583483E0,6.625303E0,1.6352283E1,9.983937E0,6.186475E0,3.4382557E1,6.5413985E0,8.85054E1,1.3370957E1,7.064665E0,2.908655E1,1.1458388E1,6.00461E0,7.2374344E0,6.78061E1,6.945578E0],"tree_param":{"num_deleted":"0","num_feature":"128","num_nodes":"121","size_leaf_vector":"1"}},{"base_weights":[1.2511857E-1,2.6576948E-1,-2.0951426E-2,5.508358E-1,2.0875074E-1,8.6069845E-2,-1.8393095E-1,-2.7136114E-1,6.470652E-1,9.44328E-2,3.4654614E-1,2.4947758E-1,-5.9544507E-2,-3.160744E-1,5.0852984E-2,1.7943002E-2,-6.3526034E-2,3.3915123E-1,8.355126E-1,2.0318745E-1,-1.0851825E-1,-1.08585864E-1,4.1457766E-1,-3.8147298E-1,3.07912E-1,-1.257664E-1,5.0177574E-1,-4.002116E-1,1.4109139E-1,-3.1129556E-2,8.0524765E-2,-5.2315414E-2,5.412037E-1,1.1465775E0,6.4005744E-1,-3.9432335E-1,2.567664E-1,3.812596E-1,-1.8746394E-1,2.1637268E-1,-4.9344265E-1,-1.8969259E-1,4.6585083E-1,1.2882865E-2,-6.749322E-2,6.197353E-1,1.7434035E-1,1.952033E-2,-3.2085308E-1,1.0046778E-1,1.2711993E-1,4.428493E-2,-4.5183206E-1,8.4508665E-2,-7.8420445E-2,-2.3868032E-1,2.649782E-1,-2.0568391E-2,8.423109E-1,5.9681218E-2,1.2982164E-1,7.11298E-3,8.2670707E-1,-6.6784255E-2,-9.049869E-4,2.1876042E-1,1.094287E-1,8.859185E-2,-2.4473572E-2,2.8697076E-1,-2.8675154E-1,8.104523E-2,-1.3241184E-1,-6.6408575E-2,-1.5047987E-2,-5.2092075E-1,4.4640467E-2,6.057942E-1,2.3817638E-1,-1.0945862E-2,8.008436E-1,-5.4336485E-2,4.1365117E-1,2.266156E-1,-2.10321E-1,-4.297366E-1,4.052765E-2,-3.6251288E-2,5.695292E-2,1.4467272E-2,-5.0382036E-1,-3.111641E-1,5.1207382E-2,-3.999908E-1,4.184809E-2,-6.234249E-2,6.154205E-1,-4.962081E-2,5.206285E-2,1.0813302E-1,2.2004498E-2,2.0571716E-2,1.1045312E-1,-1.2093707E-2,3.022948E-2,9.0870276E-2,-1.2113492E-2,-4.069486E-2,1.994451E-2,-6.508117E-2,4.4058096E-2,-3.2108765E-2,-6.38515E-2,8.364207E-2,4.376088E-2,-1.2966439E-2,4.2912718E-2,3.1219078E-2,1.0284933E-1,-4.468595E-2,1.7196888E-2,6.739703E-3,7.006302E-2,-2.0000893E-3,4.7395274E-2,-3.0163616E-2,4.440728E-2,2.9747317E-2,-5.237021E-2,3.973535E-2,-5.1826477E-2,-6.051305E-2,-2.0474084E-2,-6.6693544E-2,1.4610762E-2,-1.0092336E-2,-5.5987626E-2,3.1692263E-2,-4.574339E-2,2.5487084E-2,9.762962E-2],"categories":[],"categories_nodes":[],"categories_segments":[],"categories_sizes":[],"default_left":[0,0,0,0,0,0,0,0,0,0,0,0,0,0,0,0,0,0,0,0,0,0,0,0,0,0,0,0,0,0,0,0,0,0,0,0,0,0,0,0,0,0,0,0,0,0,0,0,0,0,0,0,0,0,0,0,0,0,0,0,0,0,0,0,0,0,0,0,0,0,0,0,0,0,0,0,0,0,0,0,0,0,0,0,0,0,0,0,0,0,0,0,0,0,0,0,0,0,0,0,0,0,0,0,0,0,0,0,0,0,0,0,0,0,0,0,0,0,0,0,0,0,0,0,0,0,0,0,0,0,0,0,0,0,0,0,0,0,0,0,0],"id":7,"left_children":[1,3,5,7,9,11,13,15,17,19,21,23,25,27,29,-1,-1,31,33,35,37,39,41,43,45,47,49,51,53,55,-1,-1,57,59,61,63,65,67,69,71,73,75,77,-1,-1,79,81,83,85,-1,87,-1,89,-1,91,93,95,97,99,-1,-1,-1,101,-1,-1,103,-1,-1,-1,105,107,-1,109,-1,-1,111,-1,113,115,-1,117,119,121,123,125,127,129,-1,-1,-1,131,133,-1,135,-1,137,139,-1,-1,-1,-1,-1,-1,-1,-1,-1,-1,-1,-1,-1,-1,-1,-1,-1,-1,-1,-1,-1,-1,-1,-1,-1,-1,-1,-1,-1,-1,-1,-1,-1,-1,-1,-1,-1,-1,-1,-1,-1,-1,-1,-1],"loss_changes":[2.57029E1,1.0243576E1,1.0734142E1,8.531639E0,8.358231E0,8.857147E0,7.58284E0,2.0448132E0,5.21994E0,6.4783874E0,7.512163E0,6.580614E0,7.397496E0,6.064494E0,5.5106187E0,0E0,0E0,6.850076E0,2.8017006E0,6.209637E0,4.042864E0,4.1278653E0,6.595024E0,2.3790019E0,6.5974693E0,5.0312657E0,3.8331165E0,5.9523907E0,3.9323764E0,5.039082E0,0E0,0E0,5.2657366E0,9.905491E-1,3.973856E0,1.6901288E0,5.3535347E0,4.825083E0,4.2804947E0,3.8635676E0,7.7937007E-1,3.8430624E0,6.0327682E0,0E0,0E0,6.4121304E0,6.266801E0,4.9292736E0,2.9973688E0,0E0,3.0640523E0,0E0,3.950758E0,0E0,2.9061139E0,5.2690773E0,3.9198291E0,3.296709E0,2.7700586E0,0E0,0E0,0E0,4.689867E0,0E0,0E0,4.841547E0,0E0,0E0,0E0,4.150357E0,4.4173727E0,0E0,3.934894E0,0E0,0E0,7.0628405E-2,0E0,4.266098E0,5.3552337E0,0E0,3.959732E0,5.3384533E0,5.5046244E0,3.3295248E0,3.0696244E0,4.1384706E0,3.884446E0,0E0,0E0,0E0,3.368021E0,2.5308347E0,0E0,1.81562E0,0E0,2.902742E0,1.8894348E0,0E0,0E0,0E0,0E0,0E0,0E0,0E0,0E0,0E0,0E0,0E0,0E0,0E0,0E0,0E0,0E0,0E0,0E0,0E0,0E0,0E0,0E0,0E0,0E0,0E0,0E0,0E0,0E0,0E0,0E0,0E0,0E0,0E0,0E0,0E0,0E0,0E0,0E0,0E0,0E0,0E0,0E0,0E0,0E0],"parents":[2147483647,0,0,1,1,2,2,3,3,4,4,5,5,6,6,7,7,8,8,9,9,10,10,11,11,12,12,13,13,14,14,17,17,18,18,19,19,20,20,21,21,22,22,23,23,24,24,25,25,26,26,27,27,28,28,29,29,32,32,33,33,34,34,35,35,36,36,37,37,38,38,39,39,40,40,41,41,42,42,45,45,46,46,47,47,48,48,50,50,52,52,54,54,55,55,56,56,57,57,58,58,62,62,65,65,69,69,70,70,72,72,75,75,77,77,78,78,80,80,81,81,82,82,83,83,84,84,85,85,86,86,90,90,91,91,93,93,95,95,96,96],"right_children":[2,4,6,8,10,12,14,16,18,20,22,24,26,28,30,-1,-1,32,34,36,38,40,42,44,46,48,50,52,54,56,-1,-1,58,60,62,64,66,68,70,72,74,76,78,-1,-1,80,82,84,86,-1,88,-1,90,-1,92,94,96,98,100,-1,-1,-1,102,-1,-1,104,-1,-1,-1,106,108,-1,110,-1,-1,112,-1,114,116,-1,118,120,122,124,126,128,130,-1,-1,-1,132,134,-1,136,-1,138,140,-1,-1,-1,-1,-1,-1,-1,-1,-1,-1,-1,-1,-1,-1,-1,-1,-1,-1,-1,-1,-1,-1,-1,-1,-1,-1,-1,-1,-1,-1,-1,-1,-1,-1,-1,-1,-1,-1,-1,-1,-1,-1,-1,-1],"split_conditions":[-1.1376895E-1,-6.7512935E-1,4.8029006E-1,-1.7123375E0,8.2933076E-2,-5.7178356E-2,1.035748E0,-7.348317E-1,-4.7240326E-1,2.961625E-1,-2.6711688E0,-2.1309614E0,2.4438574E0,1.7714247E0,1.212205E0,1.7943002E-2,-6.3526034E-2,-8.140605E-1,-5.302024E-1,-1.7403283E0,-2.1049392E0,3.3191234E-1,-1.3644236E0,1.2731643E0,-1.6348176E0,1.1559202E-1,-3.8140833E-1,-1.586906E0,-1.0455168E0,2.151847E-1,8.0524765E-2,-5.2315414E-2,-2.3696287E-1,-2.3115656E-1,-4.7706872E-1,1.5136708E-1,1.5289645E0,-2.2425336E-1,-8.151338E-1,-1.6152956E-1,2.0599979E-1,9.2694855E-1,2.8066444E-1,1.2882865E-2,-6.749322E-2,-9.172263E-1,4.2661656E-2,6.675965E-2,1.1338309E0,1.0046778E-1,-2.0118922E-1,4.428493E-2,-1.3981993E0,8.4508665E-2,6.329103E-1,1.1137816E0,-7.5688325E-2,-1.2590851E-1,2.085396E0,5.9681218E-2,1.2982164E-1,7.11298E-3,-1.0639465E0,-6.6784255E-2,-9.049869E-4,-7.023292E-1,1.094287E-1,8.859185E-2,-2.4473572E-2,-4.1671062E-1,3.4403293E0,8.104523E-2,1.0466624E-1,-6.6408575E-2,-1.5047987E-2,3.124229E-1,4.4640467E-2,-1.312256E-1,-4.030481E-1,-1.0945862E-2,-4.00667E-1,-1.3573459E-1,-2.266844E-1,-3.5499536E-2,1.0784708E0,-9.511527E-1,4.181907E-1,-3.6251288E-2,5.695292E-2,1.4467272E-2,4.692804E-1,1.2228155E-1,5.1207382E-2,-8.7515634E-1,4.184809E-2,1.052627E-1,-1.2206087E-1,-4.962081E-2,5.206285E-2,1.0813302E-1,2.2004498E-2,2.0571716E-2,1.1045312E-1,-1.2093707E-2,3.022948E-2,9.0870276E-2,-1.2113492E-2,-4.069486E-2,1.994451E-2,-6.508117E-2,4.4058096E-2,-3.2108765E-2,-6.38515E-2,8.364207E-2,4.376088E-2,-1.2966439E-2,4.2912718E-2,3.1219078E-2,1.0284933E-1,-4.468595E-2,1.7196888E-2,6.739703E-3,7.006302E-2,-2.0000893E-3,4.7395274E-2,-3.0163616E-2,4.440728E-2,2.9747317E-2,-5.237021E-2,3.973535E-2,-5.1826477E-2,-6.051305E-2,-2.0474084E-2,-6.6693544E-2,1.4610762E-2,-1.0092336E-2,-5.5987626E-2,3.1692263E-2,-4.574339E-2,2.5487084E-2,9.762962E-2],"split_indices":[7,109,16,44,94,37,6,16,9,99,6,40,20,20,60,0,0,56,60,40,16,16,75,7,4,69,109,70,38,126,0,0,83,45,110,103,78,20,82,63,48,17,51,0,0,60,115,57,43,0,115,0,101,0,114,41,114,82,4,0,0,0,22,0,0,101,0,0,0,115,6,0,62,0,0,48,0,122,106,0,45,112,87,121,47,94,49,0,0,0,78,91,0,21,0,31,54,0,0,0,0,0,0,0,0,0,0,0,0,0,0,0,0,0,0,0,0,0,0,0,0,0,0,0,0,0,0,0,0,0,0,0,0,0,0,0,0,0,0,0,0],"split_type":[0,0,0,0,0,0,0,0,0,0,0,0,0,0,0,0,0,0,0,0,0,0,0,0,0,0,0,0,0,0,0,0,0,0,0,0,0,0,0,0,0,0,0,0,0,0,0,0,0,0,0,0,0,0,0,0,0,0,0,0,0,0,0,0,0,0,0,0,0,0,0,0,0,0,0,0,0,0,0,0,0,0,0,0,0,0,0,0,0,0,0,0,0,0,0,0,0,0,0,0,0,0,0,0,0,0,0,0,0,0,0,0,0,0,0,0,0,0,0,0,0,0,0,0,0,0,0,0,0,0,0,0,0,0,0,0,0,0,0,0,0],"sum_hessian":[1.24979E3,6.362882E2,6.135019E2,1.0461301E2,5.316752E2,3.706106E2,2.428913E2,1.0770289E1,9.384272E1,2.9151425E2,2.4016096E2,1.7429938E2,1.9631122E2,1.5519606E2,8.769524E1,5.037213E0,5.7330766E0,3.669104E1,5.715168E1,1.8980367E2,1.0171058E2,3.1152702E1,2.0900826E2,1.4305571E1,1.599938E2,1.7628938E2,2.0021833E1,1.3117844E2,2.4017612E1,7.996402E1,7.731217E0,6.6635594E0,3.002748E1,2.0175838E1,3.697584E1,1.5095823E1,1.7470784E2,1.358709E1,8.812349E1,1.7128136E1,1.4024568E1,1.613638E1,1.9287187E2,5.4278984E0,8.877672E0,4.6889786E1,1.1310403E2,1.0155692E2,7.473245E1,7.829996E0,1.2191838E1,7.131325E0,1.2404712E2,5.0314455E0,1.8986166E1,4.7125965E1,3.2838055E1,1.08034E1,1.922408E1,5.428954E0,1.4746885E1,9.47528E0,2.7500563E1,8.399383E0,6.6964407E0,1.6833035E2,6.3774934E0,7.2927084E0,6.294381E0,1.4923398E1,7.320009E1,5.8464003E0,1.1281735E1,8.739739E0,5.2848277E0,1.0730083E1,5.4062953E0,1.1842157E2,7.445031E1,9.407621E0,3.7482162E1,5.823229E1,5.487174E1,5.342927E1,4.8127655E1,5.728377E1,1.7448679E1,5.8727803E0,6.319058E0,9.801668E0,1.1424545E2,1.3957754E1,5.028413E0,3.8152237E1,8.973727E0,1.740423E1,1.5433823E1,5.794201E0,5.0091996E0,1.3356115E1,5.867963E0,9.038423E0,1.846214E1,3.3135426E1,1.3519493E2,5.427775E0,9.495624E0,5.8821335E1,1.4378755E1,5.851729E0,5.430006E0,5.35706E0,5.373023E0,4.8264717E1,7.015685E1,2.5550907E1,4.8899403E1,1.2665937E1,2.4816227E1,2.0939127E1,3.7293163E1,2.5427305E1,2.9444433E1,2.7213848E1,2.6215424E1,4.270727E1,5.420382E0,6.307045E0,5.0976727E1,1.0825067E1,6.623613E0,8.457366E1,2.9671785E1,7.5922456E0,6.3655086E0,1.3859369E1,2.4292868E1,8.980916E0,8.423314E0,8.573912E0,6.859911E0],"tree_param":{"num_deleted":"0","num_feature":"128","num_nodes":"141","size_leaf_vector":"1"}},{"base_weights":[1.0992278E-1,4.1777212E-2,4.6202832E-1,1.762446E-2,9.58832E-1,6.1926264E-1,3.178766E-2,-2.0903929E-1,8.833385E-2,1.0206997E-2,1.1771419E-1,4.061114E-1,8.8787985E-1,4.729176E-1,-2.8046414E-1,-3.4518445E-1,-1.3767104E-2,1.9780453E-2,2.6434267E-1,5.679929E-1,-1.8506636E-1,5.662133E-1,1.1535404E0,4.668239E-3,7.8505826E-1,-6.2434413E-2,-2.7697569E-2,-3.7982374E-1,4.524743E-2,6.386713E-1,-1.308801E-1,-8.9581944E-2,1.6247803E-1,3.336344E-1,-2.2241625E-1,8.510657E-1,2.6933432E-1,-4.619933E-1,3.6610812E-2,1.8020447E-1,1.06149994E-1,1.268095E-1,5.0973415E-2,2.7676884E-2,1.1022146E-1,-3.3244374E-1,5.3058464E-2,-4.9771702E-1,-1.9356023E-1,1.0228169E-1,1.188296E-2,5.9690226E-2,-1.871709E-1,-1.2634382E-1,4.5323262E-1,-2.0190474E-1,2.4795121E-1,4.438281E-1,-4.0564686E-2,4.060867E-2,-5.054287E-1,1.0730085E0,2.6036043E-2,7.681738E-2,9.409321E-2,-1.6122784E-2,-6.510283E-2,-1.1947992E-1,8.219743E-2,-6.1324663E-3,-6.3157216E-2,4.9031912E-3,-5.42198E-2,2.519915E-2,-3.3198953E-2,4.2973854E-2,-2.698267E-2,-2.8745329E-2,-2.7336811E-3,8.64009E-2,-1.9361464E-3,5.544066E-2,-3.7212577E-2,3.9052803E-2,3.2670682E-3,-2.7860273E-2,5.0473332E-2,-3.6022693E-2,4.586911E-2,-6.791158E-2,-2.2698713E-2,5.0971847E-2,1.1951118E-1,-1.3491302E-2,8.467393E-2,3.4974735E-2,-5.262913E-2],"categories":[],"categories_nodes":[],"categories_segments":[],"categories_sizes":[],"default_left":[0,0,0,0,0,0,0,0,0,0,0,0,0,0,0,0,0,0,0,0,0,0,0,0,0,0,0,0,0,0,0,0,0,0,0,0,0,0,0,0,0,0,0,0,0,0,0,0,0,0,0,0,0,0,0,0,0,0,0,0,0,0,0,0,0,0,0,0,0,0,0,0,0,0,0,0,0,0,0,0,0,0,0,0,0,0,0,0,0,0,0,0,0,0,0,0,0],"id":8,"left_children":[1,3,5,7,9,11,13,15,17,-1,-1,19,21,23,25,27,29,31,33,35,37,39,41,-1,43,-1,45,47,-1,49,51,53,55,57,59,61,63,65,-1,67,-1,-1,-1,-1,-1,69,-1,71,73,-1,-1,-1,75,77,79,81,83,85,87,-1,89,91,-1,93,-1,-1,-1,95,-1,-1,-1,-1,-1,-1,-1,-1,-1,-1,-1,-1,-1,-1,-1,-1,-1,-1,-1,-1,-1,-1,-1,-1,-1,-1,-1,-1,-1],"loss_changes":[2.9829494E1,2.3093111E1,1.3619545E1,1.6328024E1,4.884218E0,8.090569E0,7.7107706E0,6.4359627E0,9.362198E0,0E0,0E0,8.157473E0,4.855358E0,3.0466347E0,2.8373394E0,4.114765E0,7.767536E0,8.750821E0,7.4114046E0,5.375866E0,3.0450327E0,5.7586584E0,1.8862305E0,0E0,1.8413515E0,0E0,3.5747898E0,2.918806E0,0E0,2.9685683E0,3.6385772E0,6.39429E0,7.6258554E0,7.8867474E0,5.1338377E0,4.122389E0,4.2880945E0,6.3317966E-1,0E0,3.6937227E0,0E0,0E0,0E0,0E0,0E0,1.0590501E0,0E0,2.0560646E0,3.4671173E0,0E0,0E0,0E0,4.2294064E0,4.7488294E0,3.969411E0,6.2271786E0,6.0485516E0,6.6306725E0,7.239645E0,0E0,7.913585E-1,1.047369E0,0E0,4.5645523E0,0E0,0E0,0E0,2.783348E0,0E0,0E0,0E0,0E0,0E0,0E0,0E0,0E0,0E0,0E0,0E0,0E0,0E0,0E0,0E0,0E0,0E0,0E0,0E0,0E0,0E0,0E0,0E0,0E0,0E0,0E0,0E0,0E0,0E0],"parents":[2147483647,0,0,1,1,2,2,3,3,4,4,5,5,6,6,7,7,8,8,11,11,12,12,13,13,14,14,15,15,16,16,17,17,18,18,19,19,20,20,21,21,22,22,24,24,26,26,27,27,29,29,30,30,31,31,32,32,33,33,34,34,35,35,36,36,37,37,39,39,45,45,47,47,48,48,52,52,53,53,54,54,55,55,56,56,57,57,58,58,60,60,61,61,63,63,67,67],"right_children":[2,4,6,8,10,12,14,16,18,-1,-1,20,22,24,26,28,30,32,34,36,38,40,42,-1,44,-1,46,48,-1,50,52,54,56,58,60,62,64,66,-1,68,-1,-1,-1,-1,-1,70,-1,72,74,-1,-1,-1,76,78,80,82,84,86,88,-1,90,92,-1,94,-1,-1,-1,96,-1,-1,-1,-1,-1,-1,-1,-1,-1,-1,-1,-1,-1,-1,-1,-1,-1,-1,-1,-1,-1,-1,-1,-1,-1,-1,-1,-1,-1],"split_conditions":[2.3500988E0,4.1631527E0,6.605769E-1,-7.4716693E-1,-6.8562365E-1,4.2269278E-1,-7.275112E-2,-1.1376895E-1,9.8471653E-1,1.0206997E-2,1.1771419E-1,8.746579E-1,-4.9788845E-1,-1.4600289E-1,-3.0217877E-1,1.2242223E0,-6.3273144E-1,2.3530456E-1,7.5250727E-1,6.548506E-3,5.079458E-1,-1.2071764E-2,1.2122624E0,4.668239E-3,9.5616597E-1,-6.2434413E-2,2.0679915E-1,2.3530456E-1,4.524743E-2,6.236143E-2,-2.5900388E0,1.6515448E0,-6.1208934E-1,7.3393404E-1,-8.3198214E-1,1.0804868E0,9.114095E-1,-5.57791E-1,3.6610812E-2,1.2128782E0,1.06149994E-1,1.268095E-1,5.0973415E-2,2.7676884E-2,1.1022146E-1,9.6748345E-2,5.3058464E-2,-1.1240941E0,-6.2119955E-1,1.0228169E-1,1.188296E-2,5.9690226E-2,-8.420727E-1,-2.4211839E-1,-3.3241656E-4,-1.106335E0,2.0606822E-1,-1.0659348E0,-7.619408E-2,4.060867E-2,5.083078E-1,-1.7219753E0,2.6036043E-2,6.723214E-1,9.409321E-2,-1.6122784E-2,-6.510283E-2,-6.9645874E-2,8.219743E-2,-6.1324663E-3,-6.3157216E-2,4.9031912E-3,-5.42198E-2,2.519915E-2,-3.3198953E-2,4.2973854E-2,-2.698267E-2,-2.8745329E-2,-2.7336811E-3,8.64009E-2,-1.9361464E-3,5.544066E-2,-3.7212577E-2,3.9052803E-2,3.2670682E-3,-2.7860273E-2,5.0473332E-2,-3.6022693E-2,4.586911E-2,-6.791158E-2,-2.2698713E-2,5.0971847E-2,1.1951118E-1,-1.3491302E-2,8.467393E-2,3.4974735E-2,-5.262913E-2],"split_indices":[7,16,63,60,3,16,123,7,19,0,0,84,3,58,104,109,123,38,127,33,112,105,47,0,4,0,95,38,0,105,22,50,108,63,18,17,54,47,0,38,0,0,0,0,0,117,0,90,51,0,0,0,107,96,97,49,114,90,0,0,76,4,0,114,0,0,0,127,0,0,0,0,0,0,0,0,0,0,0,0,0,0,0,0,0,0,0,0,0,0,0,0,0,0,0,0,0],"split_type":[0,0,0,0,0,0,0,0,0,0,0,0,0,0,0,0,0,0,0,0,0,0,0,0,0,0,0,0,0,0,0,0,0,0,0,0,0,0,0,0,0,0,0,0,0,0,0,0,0,0,0,0,0,0,0,0,0,0,0,0,0,0,0,0,0,0,0,0,0,0,0,0,0,0,0,0,0,0,0,0,0,0,0,0,0,0,0,0,0,0,0,0,0,0,0,0,0],"sum_hessian":[1.2429885E3,1.0423698E3,2.006188E2,1.016614E3,2.5755653E1,1.4660257E2,5.4016235E1,2.4126534E2,7.753487E2,5.528088E0,2.0227564E1,8.3140976E1,6.3461597E1,2.2174683E1,3.1841553E1,1.4170198E2,9.956335E1,5.588107E2,2.1653795E2,6.529935E1,1.7841629E1,3.0121408E1,3.334019E1,9.860078E0,1.2314605E1,1.2866751E1,1.8974802E1,1.3630653E2,5.39545E0,1.4474152E1,8.5089195E1,3.1656775E2,2.4224301E2,1.8982965E2,2.6708298E1,3.2574837E1,3.272451E1,1.198287E1,5.858759E0,1.7694656E1,1.2426752E1,2.7480766E1,5.859424E0,5.451091E0,6.863514E0,1.2536242E1,6.4385595E0,8.2449196E1,5.3857338E1,7.767025E0,6.7071266E0,5.4192996E0,7.96699E1,2.972068E2,1.9360958E1,4.5767647E1,1.9647536E2,1.4650188E2,4.3327778E1,8.157521E0,1.8550776E1,2.3084806E1,9.49003E0,2.6299892E1,6.4246187E0,5.3398166E0,6.643054E0,1.261685E1,5.077806E0,7.2080965E0,5.3281455E0,6.1953435E0,7.625385E1,1.2572104E1,4.1285233E1,8.917107E0,7.075279E1,1.1240006E2,1.8480672E2,9.914821E0,9.446136E0,7.9937077E0,3.7773937E1,1.1770632E2,7.876904E1,1.1112768E1,1.3538911E2,2.6584679E1,1.67431E1,1.0538222E1,8.012553E0,5.0344114E0,1.8050396E1,2.1274206E1,5.025687E0,5.924102E0,6.692748E0],"tree_param":{"num_deleted":"0","num_feature":"128","num_nodes":"97","size_leaf_vector":"1"}},{"base_weights":[-2.1552764E-1,-2.499496E-1,1.4281374E-2,-4.2865787E-2,-2.8237864E-1,-5.684179E-2,7.5476784E-1,6.413484E-1,-1.669958E-1,-1.9968624E-1,-3.754844E-1,1.7980409E-1,-1.8944979E-1,1.09009765E-1,1.7438246E-2,2.505827E-3,8.9914834E-1,-3.1350175E-1,3.4801528E-1,6.206894E-3,-2.6797527E-1,-4.057868E-1,-7.303639E-2,-4.1869992E-1,3.5208404E-1,-2.4711883E-1,6.430042E-2,1.16559364E-1,3.8740158E-2,1.7247789E-2,-4.2633778E-1,7.2635543E-1,-3.673523E-2,3.5277325E-1,-1.7040925E-1,-4.270393E-1,-1.252467E-1,-2.048551E-1,-4.5435274E-1,6.0717653E-2,-3.2267916E-1,-1.1496867E-2,-6.2342178E-2,1.4901294E-1,9.296047E-2,-8.160749E-2,-5.3576034E-1,-4.4135354E-2,2.9401764E-1,-5.3559023E-1,-6.18806E-2,1.0353496E0,8.671309E-3,1.2263008E-1,1.8457048E-1,6.301666E-2,-4.0778324E-1,-6.1407846E-1,-3.306094E-1,2.8397843E-1,-2.1863417E-1,-3.0114073E-1,5.4739427E-2,-5.168189E-1,-2.9304066E-1,-5.030839E-1,2.0188345E-2,5.8142763E-1,-2.6526442E-1,4.147737E-1,-2.3334976E-1,-6.4342044E-2,-1.276008E-2,-1.0592041E-2,9.255543E-2,8.1783105E-3,-6.1459918E-2,-6.184588E-2,3.1019462E-2,1.2552243E-1,6.336046E-2,-4.299279E-3,9.95117E-2,5.9041765E-2,-9.1001615E-3,1.1592229E-2,-4.9839158E-2,-2.1268796E-2,-6.607051E-2,-3.955651E-2,1.4377842E-2,5.1753134E-2,-2.9825145E-2,-2.5985936E-2,3.7167255E-2,-4.8489675E-2,7.450603E-3,-5.3685546E-2,-1.5032272E-3,-3.4885835E-2,4.9086723E-2,-8.75948E-3,-6.642648E-2,3.4975416E-3,8.4542565E-2,2.1541718E-2,-5.5804163E-2,8.733966E-2,-8.841543E-3,-3.4149125E-2,4.2633742E-2],"categories":[],"categories_nodes":[],"categories_segments":[],"categories_sizes":[],"default_left":[0,0,0,0,0,0,0,0,0,0,0,0,0,0,0,0,0,0,0,0,0,0,0,0,0,0,0,0,0,0,0,0,0,0,0,0,0,0,0,0,0,0,0,0,0,0,0,0,0,0,0,0,0,0,0,0,0,0,0,0,0,0,0,0,0,0,0,0,0,0,0,0,0,0,0,0,0,0,0,0,0,0,0,0,0,0,0,0,0,0,0,0,0,0,0,0,0,0,0,0,0,0,0,0,0,0,0,0,0,0,0],"id":9,"left_children":[1,3,5,7,9,11,13,15,17,19,21,23,25,-1,-1,-1,27,29,31,33,35,37,39,41,43,45,-1,-1,-1,47,49,51,-1,53,55,57,59,61,63,-1,65,-1,-1,67,-1,69,71,-1,73,75,77,79,-1,-1,81,83,85,87,89,91,93,95,-1,97,99,101,-1,103,105,107,109,-1,-1,-1,-1,-1,-1,-1,-1,-1,-1,-1,-1,-1,-1,-1,-1,-1,-1,-1,-1,-1,-1,-1,-1,-1,-1,-1,-1,-1,-1,-1,-1,-1,-1,-1,-1,-1,-1,-1,-1],"loss_changes":[9.446064E0,6.9600906E0,8.282349E0,1.214612E1,6.8347855E0,4.542529E0,2.4917626E0,3.4686546E0,9.22191E0,6.714758E0,3.8289566E0,5.5202575E0,4.602423E0,0E0,0E0,0E0,1.6570406E0,3.5361443E0,7.634556E0,7.3987164E0,8.086861E0,3.6391144E0,6.913648E0,6.80928E-1,4.6703577E0,4.126225E0,0E0,0E0,0E0,3.3045936E0,2.7756405E0,3.4957542E0,0E0,5.76832E0,4.4636583E0,2.8479843E0,7.3384447E0,5.6890345E0,2.9439774E0,0E0,2.9019852E0,0E0,0E0,5.8021183E0,0E0,4.3641663E0,1.3078346E0,0E0,4.189534E0,2.6911612E0,3.7951021E0,2.771206E-1,0E0,0E0,6.570303E0,3.4043686E0,1.9485106E0,9.1461945E-1,3.562973E0,5.0240936E0,3.8828588E0,4.747884E0,0E0,2.2051392E0,4.0243692E0,1.4356098E0,0E0,2.2410526E0,2.482875E0,3.221393E0,3.2867203E0,0E0,0E0,0E0,0E0,0E0,0E0,0E0,0E0,0E0,0E0,0E0,0E0,0E0,0E0,0E0,0E0,0E0,0E0,0E0,0E0,0E0,0E0,0E0,0E0,0E0,0E0,0E0,0E0,0E0,0E0,0E0,0E0,0E0,0E0,0E0,0E0,0E0,0E0,0E0,0E0],"parents":[2147483647,0,0,1,1,2,2,3,3,4,4,5,5,6,6,7,7,8,8,9,9,10,10,11,11,12,12,16,16,17,17,18,18,19,19,20,20,21,21,22,22,23,23,24,24,25,25,29,29,30,30,31,31,33,33,34,34,35,35,36,36,37,37,38,38,40,40,43,43,45,45,46,46,48,48,49,49,50,50,51,51,54,54,55,55,56,56,57,57,58,58,59,59,60,60,61,61,63,63,64,64,65,65,67,67,68,68,69,69,70,70],"right_children":[2,4,6,8,10,12,14,16,18,20,22,24,26,-1,-1,-1,28,30,32,34,36,38,40,42,44,46,-1,-1,-1,48,50,52,-1,54,56,58,60,62,64,-1,66,-1,-1,68,-1,70,72,-1,74,76,78,80,-1,-1,82,84,86,88,90,92,94,96,-1,98,100,102,-1,104,106,108,110,-1,-1,-1,-1,-1,-1,-1,-1,-1,-1,-1,-1,-1,-1,-1,-1,-1,-1,-1,-1,-1,-1,-1,-1,-1,-1,-1,-1,-1,-1,-1,-1,-1,-1,-1,-1,-1,-1,-1,-1],"split_conditions":[7.209697E-1,-3.4259067E0,1.0567857E0,-1.8185909E0,1.7393701E-1,-6.935104E-1,1.5900294E-1,-1.7011815E0,1.2511284E0,-1.7011815E0,1.1962248E0,-8.541086E-1,2.1060665E0,1.09009765E-1,1.7438246E-2,2.505827E-3,1.2626619E0,-3.898129E-1,3.695108E-1,-6.5233845E-1,-1.312256E-1,-1.4726903E0,-1.7570672E0,-1.5367615E0,4.7377205E-1,6.98627E-1,6.430042E-2,1.16559364E-1,3.8740158E-2,-2.1982287E-1,2.080148E0,2.0283804E0,-3.673523E-2,-7.263976E-1,-9.385616E-2,-3.4177366E-1,-1.0482799E0,8.754769E-1,6.8286675E-1,6.0717653E-2,8.387015E-1,-1.1496867E-2,-6.2342178E-2,6.2768415E-2,9.296047E-2,-8.2602674E-1,1.7169942E0,-4.4135354E-2,2.034965E-1,-7.8861165E-1,-5.007511E-2,3.6347264E-1,8.671309E-3,1.2263008E-1,1.2708864E0,-9.555621E-1,-1.3643032E0,-1.1477658E0,1.9903991E0,7.9479676E-1,1.9238378E0,9.662603E-1,5.4739427E-2,1.5046964E0,1.5436109E0,-8.0844253E-1,2.0188345E-2,-6.0388602E-2,-4.5527205E-1,1.1222187E-2,9.469413E-1,-6.4342044E-2,-1.276008E-2,-1.0592041E-2,9.255543E-2,8.1783105E-3,-6.1459918E-2,-6.184588E-2,3.1019462E-2,1.2552243E-1,6.336046E-2,-4.299279E-3,9.95117E-2,5.9041765E-2,-9.1001615E-3,1.1592229E-2,-4.9839158E-2,-2.1268796E-2,-6.607051E-2,-3.955651E-2,1.4377842E-2,5.1753134E-2,-2.9825145E-2,-2.5985936E-2,3.7167255E-2,-4.8489675E-2,7.450603E-3,-5.3685546E-2,-1.5032272E-3,-3.4885835E-2,4.9086723E-2,-8.75948E-3,-6.642648E-2,3.4975416E-3,8.4542565E-2,2.1541718E-2,-5.5804163E-2,8.733966E-2,-8.841543E-3,-3.4149125E-2,4.2633742E-2],"split_indices":[122,1,107,16,6,7,113,2,28,2,74,48,50,0,0,0,11,115,72,26,122,26,7,48,110,6,0,0,0,66,9,11,0,118,4,51,44,108,22,0,40,0,0,5,0,96,4,0,80,119,119,6,0,0,23,60,50,65,28,10,48,16,0,83,65,44,0,117,111,2,77,0,0,0,0,0,0,0,0,0,0,0,0,0,0,0,0,0,0,0,0,0,0,0,0,0,0,0,0,0,0,0,0,0,0,0,0,0,0,0,0],"split_type":[0,0,0,0,0,0,0,0,0,0,0,0,0,0,0,0,0,0,0,0,0,0,0,0,0,0,0,0,0,0,0,0,0,0,0,0,0,0,0,0,0,0,0,0,0,0,0,0,0,0,0,0,0,0,0,0,0,0,0,0,0,0,0,0,0,0,0,0,0,0,0,0,0,0,0,0,0,0,0,0,0,0,0,0,0,0,0,0,0,0,0,0,0,0,0,0,0,0,0,0,0,0,0,0,0,0,0,0,0,0,0],"sum_hessian":[1.192669E3,1.037221E3,1.5544794E2,1.4074971E2,8.9647125E2,1.4266801E2,1.2779918E1,2.0973793E1,1.19775925E2,4.7645227E2,4.2001895E2,5.1107723E1,9.1560295E1,7.5433555E0,5.2365627E0,6.509512E0,1.446428E1,9.35538E1,2.6222116E1,1.1889374E2,3.5755853E2,3.8145877E2,3.856019E1,1.1103521E1,4.0004204E1,8.6285904E1,5.274393E0,8.67164E0,5.7926393E0,2.401302E1,6.954079E1,1.7141201E1,9.080916E0,3.9799488E1,7.9094246E1,1.6816022E2,1.8939833E2,7.526854E1,3.0619025E2,9.967933E0,2.8592257E1,5.099436E0,6.0040855E0,3.052785E1,9.476354E0,5.5655144E1,3.0630756E1,8.8139105E0,1.5199108E1,5.3141212E1,1.6399574E1,1.1140758E1,6.0004425E0,5.410504E0,3.4388985E1,4.0249107E1,3.8845142E1,5.537824E1,1.12781975E2,3.481178E1,1.5458655E2,6.725925E1,8.009299E0,2.1913069E2,8.705955E1,2.130582E1,7.2864375E0,1.4739534E1,1.5788315E1,1.2624456E1,4.303069E1,2.3781517E1,6.8492393E0,9.815472E0,5.3836365E0,6.0252166E0,4.7115997E1,6.305357E0,1.0094216E1,5.8271403E0,5.3136177E0,2.7589977E1,6.7990074E0,8.456906E0,3.17922E1,5.688263E0,3.3156876E1,6.342198E0,4.903604E1,9.934525E1,1.3436718E1,2.4924719E1,9.88706E0,1.4501869E2,9.567864E0,4.497022E1,2.2289022E1,2.1064948E2,8.481214E0,8.179067E1,5.2688804E0,6.3864355E0,1.4919384E1,5.1701894E0,9.5693445E0,6.076366E0,9.711948E0,6.219803E0,6.4046535E0,3.738463E1,5.6460605E0],"tree_param":{"num_deleted":"0","num_feature":"128","num_nodes":"111","size_leaf_vector":"1"}},{"base_weights":[1.12597235E-1,-1.6422722E-2,1.9309583E-1,-1.1490768E-1,2.7322912E-1,1.1298382E-1,3.50496E-1,1.0632729E-2,-2.4355346E-1,5.5387425E-1,1.0942229E-1,-3.5319682E-2,2.0949242E-1,5.791155E-1,2.4863932E-1,5.637187E-1,-5.4036714E-2,-3.4030595E-1,6.640495E-2,6.7168313E-1,-2.0584408E-2,8.5682854E-2,4.0753227E-2,1.2410287E-1,-2.1590415E-1,7.6410735E-1,1.7741004E-1,8.7970054E-1,3.390974E-1,4.579995E-1,-5.010242E-2,8.9434844E-1,-1.0432068E-2,1.6895705E-1,-2.5473654E-1,-2.2853209E-1,-5.9620583E-1,-7.758848E-2,7.22501E-2,3.9006177E-1,1.0795964E0,3.0281982E-1,-1.6381928E-1,-3.7363625E-1,2.3552185E-1,-6.594542E-2,-9.69412E-2,1.05134524E-1,1.3943285E-2,1.3187662E-1,6.471241E-1,1.0195274E0,3.4894E-2,1.1548803E-1,7.7567655E-1,6.205512E-1,9.886062E-2,2.3186992E-1,-2.5952414E-1,4.288285E-2,1.1751043E-1,8.2496256E-1,4.785659E-2,-3.5271537E-1,4.197569E-1,-3.3246088E-1,1.965786E-1,-2.0670827E-2,-6.5857655E-1,-5.4438674E-1,1.9759297E-1,8.391134E-1,-3.6981568E-2,6.711717E-2,1.2135319E-1,-2.7260337E-2,5.322834E-1,2.2686222E-1,-3.255201E-1,-6.803523E-2,3.5351682E-3,7.235272E-1,1.2879853E-1,6.6441126E-2,-1.6040123E-1,8.617311E-2,1.0114892E-1,9.742995E-1,2.65024E-1,4.0321454E-2,1.16142824E-1,-5.7636857E-2,4.1485283E-1,1.1284482E-1,1.2034277E-2,4.380624E-2,7.358539E-1,-1.6029184E-1,8.239304E-2,4.9911827E-1,-3.9353386E-2,2.9228125E-2,-4.1292393E-1,1.12612784E-1,3.3444982E-2,1.69048E-2,-5.221035E-2,-4.448837E-2,1.0913153E-2,-2.8915294E-3,8.2662694E-2,1.059281E-2,-4.0891584E-2,-4.818981E-2,5.121691E-2,-7.129255E-2,-2.9565811E-2,-2.933609E-2,-6.6259615E-2,-1.2319231E-2,7.055142E-2,1.0839923E-1,4.118765E-2,7.826805E-2,1.388667E-3,-3.1458553E-2,6.553867E-2,-5.471456E-2,2.3645274E-3,3.6126364E-2,1.0236136E-1,2.2797609E-2,-5.560688E-2,-2.388236E-3,-5.1576942E-2,-6.6845217E-3,2.3305919E-2,5.0590325E-2,1.1938226E-1,8.108773E-2,-1.7754553E-2,7.3707566E-2,-1.3540733E-2,4.8975226E-2,-3.862895E-2,3.6755826E-2,9.0268314E-2,-4.8020292E-2,1.851344E-2,8.210502E-2,-5.324933E-3,1.1535051E-2,-5.4333586E-2],"categories":[],"categories_nodes":[],"categories_segments":[],"categories_sizes":[],"default_left":[0,0,0,0,0,0,0,0,0,0,0,0,0,0,0,0,0,0,0,0,0,0,0,0,0,0,0,0,0,0,0,0,0,0,0,0,0,0,0,0,0,0,0,0,0,0,0,0,0,0,0,0,0,0,0,0,0,0,0,0,0,0,0,0,0,0,0,0,0,0,0,0,0,0,0,0,0,0,0,0,0,0,0,0,0,0,0,0,0,0,0,0,0,0,0,0,0,0,0,0,0,0,0,0,0,0,0,0,0,0,0,0,0,0,0,0,0,0,0,0,0,0,0,0,0,0,0,0,0,0,0,0,0,0,0,0,0,0,0,0,0,0,0,0,0,0,0,0,0,0,0,0,0],"id":10,"left_children":[1,3,5,7,9,11,13,15,17,19,21,23,25,27,29,31,33,35,37,39,-1,-1,41,43,45,47,49,51,53,55,57,59,-1,61,63,65,67,69,-1,71,73,75,77,79,81,-1,83,-1,-1,85,87,89,-1,91,93,95,97,99,101,-1,-1,103,105,107,109,111,113,-1,115,117,119,121,-1,-1,-1,-1,123,125,127,-1,-1,129,131,-1,133,-1,135,137,139,-1,-1,-1,141,-1,-1,143,145,147,-1,149,-1,-1,151,-1,-1,-1,-1,-1,-1,-1,-1,-1,-1,-1,-1,-1,-1,-1,-1,-1,-1,-1,-1,-1,-1,-1,-1,-1,-1,-1,-1,-1,-1,-1,-1,-1,-1,-1,-1,-1,-1,-1,-1,-1,-1,-1,-1,-1,-1,-1,-1,-1,-1],"loss_changes":[1.2967572E1,1.3738734E1,9.654083E0,5.8052764E0,5.558079E0,7.3201194E0,5.8830357E0,6.568806E0,5.3455133E0,4.1478796E0,3.989958E0,5.850052E0,5.374301E0,5.402622E0,1.13311405E1,4.339331E0,7.408613E0,3.7375364E0,4.124166E0,4.061352E0,0E0,0E0,3.956423E0,6.0810614E0,4.9597335E0,2.837449E0,6.203225E0,2.2013836E0,4.3584733E0,6.1502743E0,4.5126143E0,1.1904211E0,0E0,6.2014847E0,5.898647E0,4.3015747E0,8.489733E-1,4.7594247E0,0E0,8.721092E0,2.6332855E-2,4.4096956E0,2.7002544E0,2.5520513E0,4.5375447E0,0E0,3.7903347E0,0E0,0E0,5.9523525E0,2.9581203E0,1.8712177E0,0E0,6.7230945E0,3.3915157E0,4.8262215E0,6.5852447E0,5.655469E0,3.8229575E0,0E0,0E0,1.4227724E0,4.742395E0,3.3059578E0,2.1220784E0,2.6381464E0,4.4145494E0,0E0,4.6962452E-1,2.120657E-1,3.9186113E0,1.2064428E0,0E0,0E0,0E0,0E0,3.0303288E0,3.1666908E0,2.320135E0,0E0,0E0,1.3411751E0,5.16495E0,0E0,3.4411073E0,0E0,5.767309E0,7.8276443E-1,3.3428025E0,0E0,0E0,0E0,4.077219E0,0E0,0E0,2.7277997E0,3.4053612E0,2.9772332E0,0E0,4.1913424E0,0E0,0E0,2.4490137E0,0E0,0E0,0E0,0E0,0E0,0E0,0E0,0E0,0E0,0E0,0E0,0E0,0E0,0E0,0E0,0E0,0E0,0E0,0E0,0E0,0E0,0E0,0E0,0E0,0E0,0E0,0E0,0E0,0E0,0E0,0E0,0E0,0E0,0E0,0E0,0E0,0E0,0E0,0E0,0E0,0E0,0E0,0E0,0E0,0E0,0E0,0E0,0E0,0E0,0E0],"parents":[2147483647,0,0,1,1,2,2,3,3,4,4,5,5,6,6,7,7,8,8,9,9,10,10,11,11,12,12,13,13,14,14,15,15,16,16,17,17,18,18,19,19,22,22,23,23,24,24,25,25,26,26,27,27,28,28,29,29,30,30,31,31,33,33,34,34,35,35,36,36,37,37,39,39,40,40,41,41,42,42,43,43,44,44,46,46,49,49,50,50,51,51,53,53,54,54,55,55,56,56,57,57,58,58,61,61,62,62,63,63,64,64,65,65,66,66,68,68,69,69,70,70,71,71,76,76,77,77,78,78,81,81,82,82,84,84,86,86,87,87,88,88,92,92,95,95,96,96,97,97,99,99,102,102],"right_children":[2,4,6,8,10,12,14,16,18,20,22,24,26,28,30,32,34,36,38,40,-1,-1,42,44,46,48,50,52,54,56,58,60,-1,62,64,66,68,70,-1,72,74,76,78,80,82,-1,84,-1,-1,86,88,90,-1,92,94,96,98,100,102,-1,-1,104,106,108,110,112,114,-1,116,118,120,122,-1,-1,-1,-1,124,126,128,-1,-1,130,132,-1,134,-1,136,138,140,-1,-1,-1,142,-1,-1,144,146,148,-1,150,-1,-1,152,-1,-1,-1,-1,-1,-1,-1,-1,-1,-1,-1,-1,-1,-1,-1,-1,-1,-1,-1,-1,-1,-1,-1,-1,-1,-1,-1,-1,-1,-1,-1,-1,-1,-1,-1,-1,-1,-1,-1,-1,-1,-1,-1,-1,-1,-1,-1,-1,-1,-1],"split_conditions":[-6.6785425E-1,5.830282E-1,3.4900665E-1,4.8579235E-2,-5.449128E-1,-3.3155468E-1,-8.7021947E-1,-2.016158E0,7.9004365E-1,9.4903785E-1,-2.2064874E0,5.4290533E-2,-4.6171155E0,-1.15489125E-1,3.049529E-1,6.3820857E-1,-2.0930944E-1,5.7928246E-1,9.30529E-1,3.6274058E-1,-2.0584408E-2,8.5682854E-2,-1.1650475E0,-9.811332E-1,-5.2627975E-1,8.965487E-2,1.2912003E0,9.5074546E-1,1.1642097E0,6.0409987E-1,-1.1354348E-1,-9.575886E-3,-1.0432068E-2,-1.555371E0,1.1517316E0,9.086821E-1,-1.5780784E0,-4.2196026E-1,7.22501E-2,8.400517E-3,-2.1456626E-1,-7.9561466E-1,-6.1252E-1,4.2068616E-1,-1.8043687E0,-6.594542E-2,-4.7643285E0,1.05134524E-1,1.3943285E-2,-2.8272998E0,-4.9091235E-2,-4.8423648E-1,3.4894E-2,-5.5166775E-1,4.9389622E-1,-8.260819E-1,-2.7083838E-1,3.6487502E-1,-2.1582522E0,4.288285E-2,1.1751043E-1,3.2067496E-1,1.0316145E0,1.9297243E0,3.2000974E-1,-7.579617E-1,-5.140503E-1,-2.0670827E-2,1.1177366E0,-8.7487566E-1,3.570631E-1,2.8367677E-1,-3.6981568E-2,6.711717E-2,1.2135319E-1,-2.7260337E-2,3.783668E-1,-8.09632E-3,2.8250042E-1,-6.803523E-2,3.5351682E-3,1.9456834E-1,1.185497E0,6.6441126E-2,1.1160662E0,8.617311E-2,-2.636483E-1,1.6989295E-1,-7.018262E-1,4.0321454E-2,1.16142824E-1,-5.7636857E-2,6.40681E-1,1.1284482E-1,1.2034277E-2,-6.9012195E-2,-3.898129E-1,-3.1329293E-2,8.239304E-2,1.6352017E-1,-3.9353386E-2,2.9228125E-2,-6.7170596E-1,1.12612784E-1,3.3444982E-2,1.69048E-2,-5.221035E-2,-4.448837E-2,1.0913153E-2,-2.8915294E-3,8.2662694E-2,1.059281E-2,-4.0891584E-2,-4.818981E-2,5.121691E-2,-7.129255E-2,-2.9565811E-2,-2.933609E-2,-6.6259615E-2,-1.2319231E-2,7.055142E-2,1.0839923E-1,4.118765E-2,7.826805E-2,1.388667E-3,-3.1458553E-2,6.553867E-2,-5.471456E-2,2.3645274E-3,3.6126364E-2,1.0236136E-1,2.2797609E-2,-5.560688E-2,-2.388236E-3,-5.1576942E-2,-6.6845217E-3,2.3305919E-2,5.0590325E-2,1.1938226E-1,8.108773E-2,-1.7754553E-2,7.3707566E-2,-1.3540733E-2,4.8975226E-2,-3.862895E-2,3.6755826E-2,9.0268314E-2,-4.8020292E-2,1.851344E-2,8.210502E-2,-5.324933E-3,1.1535051E-2,-5.4333586E-2],"split_indices":[5,78,94,51,38,40,31,19,32,86,25,22,2,125,25,1,38,54,83,98,0,0,1,76,112,105,76,41,3,38,100,31,0,25,64,40,28,61,0,91,88,66,65,14,19,0,1,0,0,25,22,121,0,52,66,93,25,127,16,0,0,97,65,13,108,106,108,0,83,28,28,123,0,0,0,0,18,22,66,0,0,93,61,0,23,0,28,78,19,0,0,0,41,0,0,76,115,96,0,66,0,0,97,0,0,0,0,0,0,0,0,0,0,0,0,0,0,0,0,0,0,0,0,0,0,0,0,0,0,0,0,0,0,0,0,0,0,0,0,0,0,0,0,0,0,0,0,0,0,0,0,0,0],"split_type":[0,0,0,0,0,0,0,0,0,0,0,0,0,0,0,0,0,0,0,0,0,0,0,0,0,0,0,0,0,0,0,0,0,0,0,0,0,0,0,0,0,0,0,0,0,0,0,0,0,0,0,0,0,0,0,0,0,0,0,0,0,0,0,0,0,0,0,0,0,0,0,0,0,0,0,0,0,0,0,0,0,0,0,0,0,0,0,0,0,0,0,0,0,0,0,0,0,0,0,0,0,0,0,0,0,0,0,0,0,0,0,0,0,0,0,0,0,0,0,0,0,0,0,0,0,0,0,0,0,0,0,0,0,0,0,0,0,0,0,0,0,0,0,0,0,0,0,0,0,0,0,0,0],"sum_hessian":[1.2472666E3,4.7951495E2,7.677516E2,3.582941E2,1.2122083E2,5.099301E2,2.5782147E2,1.8179994E2,1.7649416E2,4.3799408E1,7.7421425E1,2.0127203E2,3.0865808E2,7.801948E1,1.79802E2,1.8223803E1,1.6357614E2,1.3443333E2,4.206083E1,3.8019615E1,5.779791E0,5.5488725E0,7.187255E1,1.0706569E2,9.420635E1,1.5630656E1,2.9302744E2,3.3455975E1,4.4563503E1,1.0540228E2,7.439972E1,1.1963831E1,6.2599716E0,7.7559456E1,8.6016685E1,9.488278E1,3.9550556E1,3.5214123E1,6.846704E0,2.3648823E1,1.4370794E1,3.1298067E1,4.0574486E1,1.9152554E1,8.791314E1,1.896236E1,7.524399E1,1.0239362E1,5.391294E0,2.6829962E2,2.4727825E1,2.575107E1,7.7049026E0,3.0305834E1,1.4257672E1,7.205927E1,3.334301E1,3.16619E1,4.273782E1,5.451738E0,6.512093E0,1.1180746E1,6.637871E1,7.5523056E1,1.04936285E1,7.6418365E1,1.8464413E1,6.054587E0,3.3495968E1,1.2697205E1,2.2516918E1,1.4799024E1,8.849798E0,5.0333066E0,9.337488E0,8.869107E0,2.2428959E1,1.1759546E1,2.881494E1,1.056554E1,8.587013E0,1.4738787E1,7.3174355E1,5.060586E0,7.01834E1,9.7467785E0,2.5855283E2,1.248641E1,1.2241415E1,5.5383E0,2.021277E1,8.873391E0,2.1432442E1,8.799099E0,5.4585733E0,1.2235767E1,5.9823505E1,2.5137398E1,8.205611E0,2.2324213E1,9.337686E0,9.099609E0,3.363821E1,6.124565E0,5.056181E0,5.531946E1,1.105925E1,6.2989338E1,1.2533722E1,5.432225E0,5.0614033E0,1.1290969E1,6.5127396E1,5.6946707E0,1.2769742E1,2.8294321E1,5.201648E0,5.1796217E0,7.517584E0,1.4265061E1,8.251858E0,8.4299965E0,6.3690276E0,1.4780055E1,7.648905E0,5.3127213E0,6.4468255E0,1.7279882E1,1.1535058E1,7.676093E0,7.0626936E0,6.4500916E1,8.673436E0,5.1475636E1,1.8707767E1,1.139391E2,1.4461372E2,5.039081E0,7.4473295E0,5.1085114E0,7.132903E0,1.3302958E1,8.129484E0,5.939095E0,6.296673E0,1.9649054E1,4.017445E1,1.2848129E1,1.22892685E1,1.3796747E1,8.527465E0,6.6828227E0,2.6955387E1],"tree_param":{"num_deleted":"0","num_feature":"128","num_nodes":"153","size_leaf_vector":"1"}},{"base_weights":[1.04692005E-1,2.1925774E-1,3.9046628E-3,3.0656198E-1,-1.5529376E-2,-1.3164559E-1,1.4168136E-1,1.9551085E-1,4.4863564E-1,9.504235E-2,-3.9829344E-1,-2.1421996E-1,1.17871985E-1,6.424995E-2,4.365612E-1,7.235618E-2,5.0861615E-1,5.063424E-1,-1.4344132E-1,-1.4890645E-1,2.551089E-1,3.0423015E-2,-5.2978855E-1,-3.6583933E-1,-1.0076402E-1,-4.8201075E-1,2.3439439E-1,-8.04473E-2,2.2761564E-1,8.582054E-1,2.0710078E-1,2.8597683E-2,7.157417E-1,3.7251577E-2,6.953174E-1,3.923505E-1,7.637991E-1,1.8610533E-1,-6.429077E-2,4.987059E-2,-3.0242342E-1,3.5990572E-1,-3.0172276E-1,-6.661551E-2,-1.5006292E-2,-4.6332967E-1,2.3884429E-2,5.4410875E-1,-1.6820422E-1,-6.602361E-2,-1.5186369E-2,4.6116266E-1,-5.476411E-2,4.3879144E-2,-2.9569957E-1,-4.2214832E-1,2.9117334E-1,1.0569346E0,2.0743033E-2,5.535225E-1,-2.3726091E-1,1.4810717E-1,-2.5686008E-1,9.8258816E-2,3.300802E-2,6.50829E-2,-3.3232704E-1,8.295764E-1,9.3377195E-3,5.5013037E-1,1.751217E-1,1.1739821E-2,8.744218E-1,-1.606004E-2,5.193724E-2,-5.147543E-1,2.0533528E-3,8.732195E-1,2.0992516E-1,1.30928485E-2,-6.456184E-2,3.0538296E-2,-5.3621495E-1,5.443999E-2,-3.3389917E-1,1.0598896E-2,9.2790395E-2,-3.170893E-1,5.113654E-2,-2.3429094E-2,6.416073E-1,2.3711722E-1,-5.24626E-1,-1.2537421E-1,3.6331126E-1,5.8266707E-2,-4.1153976E-1,-6.288069E-2,-1.4673444E-2,3.8137072E-1,-1.6184716E-1,6.302243E-2,1.2119496E-1,-1.680743E-2,7.455126E-1,-6.547548E-2,4.2542506E-2,-5.100041E-3,3.6215566E-2,-6.2562265E-2,-1.1480883E-2,1.2225812E-2,-6.5378934E-2,1.0969994E-1,5.588746E-2,3.8979616E-2,9.428956E-2,8.933578E-2,6.27867E-3,5.2479394E-2,1.03339486E-1,4.2027287E-4,-6.584223E-2,2.6674835E-2,-4.8439182E-2,1.1835381E-1,2.9942608E-2,7.821096E-3,7.978117E-2,-5.9517592E-2,-4.7916928E-4,-6.321355E-2,1.1597775E-4,-4.2599127E-2,2.47337E-2,-9.607552E-3,7.559269E-2,9.103178E-2,-1.4000669E-3,6.0801953E-2,-1.9717792E-2,-6.4459495E-2,-2.930521E-2,3.6459584E-2,-3.3156846E-2,2.662718E-3,7.958072E-2,-5.0786912E-2,2.1842692E-2,-3.3461347E-2,4.5022298E-2,9.8944865E-3,-6.369098E-2,4.5365184E-3,1.0371099E-1,4.367123E-2,-4.730384E-2],"categories":[],"categories_nodes":[],"categories_segments":[],"categories_sizes":[],"default_left":[0,0,0,0,0,0,0,0,0,0,0,0,0,0,0,0,0,0,0,0,0,0,0,0,0,0,0,0,0,0,0,0,0,0,0,0,0,0,0,0,0,0,0,0,0,0,0,0,0,0,0,0,0,0,0,0,0,0,0,0,0,0,0,0,0,0,0,0,0,0,0,0,0,0,0,0,0,0,0,0,0,0,0,0,0,0,0,0,0,0,0,0,0,0,0,0,0,0,0,0,0,0,0,0,0,0,0,0,0,0,0,0,0,0,0,0,0,0,0,0,0,0,0,0,0,0,0,0,0,0,0,0,0,0,0,0,0,0,0,0,0,0,0,0,0,0,0,0,0,0,0,0,0,0,0,0,0],"id":11,"left_children":[1,3,5,7,9,11,13,15,17,19,21,23,25,27,29,31,33,35,37,39,41,-1,43,45,47,49,51,53,55,57,59,61,63,65,67,69,71,73,-1,-1,75,77,79,-1,-1,81,83,85,87,-1,-1,89,91,93,95,97,99,101,-1,103,105,107,109,-1,-1,-1,111,113,-1,115,117,-1,119,-1,-1,121,123,125,127,-1,-1,-1,129,-1,131,-1,-1,133,135,-1,137,139,141,143,145,-1,147,-1,-1,149,151,-1,-1,-1,153,-1,155,-1,-1,-1,-1,-1,-1,-1,-1,-1,-1,-1,-1,-1,-1,-1,-1,-1,-1,-1,-1,-1,-1,-1,-1,-1,-1,-1,-1,-1,-1,-1,-1,-1,-1,-1,-1,-1,-1,-1,-1,-1,-1,-1,-1,-1,-1,-1,-1,-1,-1],"loss_changes":[1.4572168E1,1.2111858E1,1.2576835E1,6.7060623E0,6.8539596E0,7.0197086E0,7.5972624E0,9.351086E0,6.5008163E0,4.9487157E0,3.513493E0,4.3568945E0,6.0583186E0,6.2985535E0,6.5254316E0,4.9316764E0,6.007843E0,4.7379875E0,2.9981124E0,5.1671953E0,4.56128E0,0E0,1.5017624E0,4.150282E0,6.5053306E0,7.3299265E-1,4.739478E0,3.8031523E0,5.2871737E0,2.897356E0,7.2408094E0,5.692169E0,8.241534E-1,4.8668876E0,3.8868332E0,4.051939E0,3.5886192E0,1.3904254E0,0E0,0E0,2.67823E0,4.7957897E0,1.9637096E0,0E0,0E0,5.048979E0,4.418591E0,2.2891722E0,4.401265E0,0E0,0E0,5.220167E0,4.5807233E0,4.946312E0,5.5289598E0,5.651357E-1,4.7403307E0,4.4117546E-1,0E0,3.7622786E0,2.4730744E0,5.0245132E0,2.509428E0,0E0,0E0,0E0,2.0470264E0,2.2812042E0,0E0,4.018091E0,4.170846E0,0E0,1.898983E0,0E0,0E0,1.8220339E0,2.4481087E0,2.1931696E0,3.9151134E0,0E0,0E0,0E0,2.5039463E0,0E0,1.4099528E0,0E0,0E0,5.0303545E0,5.7950287E0,0E0,5.7108765E0,3.4593701E0,1.6565299E-1,6.182084E0,4.587683E0,0E0,2.933436E0,0E0,0E0,4.8726177E0,2.5054264E0,0E0,0E0,0E0,4.2238674E0,0E0,2.944398E0,0E0,0E0,0E0,0E0,0E0,0E0,0E0,0E0,0E0,0E0,0E0,0E0,0E0,0E0,0E0,0E0,0E0,0E0,0E0,0E0,0E0,0E0,0E0,0E0,0E0,0E0,0E0,0E0,0E0,0E0,0E0,0E0,0E0,0E0,0E0,0E0,0E0,0E0,0E0,0E0,0E0,0E0,0E0,0E0,0E0,0E0,0E0,0E0,0E0,0E0],"parents":[2147483647,0,0,1,1,2,2,3,3,4,4,5,5,6,6,7,7,8,8,9,9,10,10,11,11,12,12,13,13,14,14,15,15,16,16,17,17,18,18,19,19,20,20,22,22,23,23,24,24,25,25,26,26,27,27,28,28,29,29,30,30,31,31,32,32,33,33,34,34,35,35,36,36,37,37,40,40,41,41,42,42,45,45,46,46,47,47,48,48,51,51,52,52,53,53,54,54,55,55,56,56,57,57,59,59,60,60,61,61,62,62,66,66,67,67,69,69,70,70,72,72,75,75,76,76,77,77,78,78,82,82,84,84,87,87,88,88,90,90,91,91,92,92,93,93,94,94,96,96,99,99,100,100,104,104,106,106],"right_children":[2,4,6,8,10,12,14,16,18,20,22,24,26,28,30,32,34,36,38,40,42,-1,44,46,48,50,52,54,56,58,60,62,64,66,68,70,72,74,-1,-1,76,78,80,-1,-1,82,84,86,88,-1,-1,90,92,94,96,98,100,102,-1,104,106,108,110,-1,-1,-1,112,114,-1,116,118,-1,120,-1,-1,122,124,126,128,-1,-1,-1,130,-1,132,-1,-1,134,136,-1,138,140,142,144,146,-1,148,-1,-1,150,152,-1,-1,-1,154,-1,156,-1,-1,-1,-1,-1,-1,-1,-1,-1,-1,-1,-1,-1,-1,-1,-1,-1,-1,-1,-1,-1,-1,-1,-1,-1,-1,-1,-1,-1,-1,-1,-1,-1,-1,-1,-1,-1,-1,-1,-1,-1,-1,-1,-1,-1,-1,-1,-1,-1,-1],"split_conditions":[-1.7514348E-1,1.4997685E0,3.270944E-2,4.643907E-1,6.038467E-1,6.10282E-1,8.4118253E-1,1.0544724E0,1.3113204E0,-1.6270012E-2,-2.5954561E0,-2.1050873E-1,-1.3762698E0,3.1789264E-1,-1.1460128E0,1.50535E0,-4.5459223E-1,7.162818E-1,4.542903E-1,-2.071951E0,9.02248E-1,3.0423015E-2,1.5101093E0,8.328606E-1,-6.950985E-2,5.3340003E-2,1.0874089E0,1.4971182E-1,-1.0229542E0,5.379298E-1,-9.349369E-2,3.6504486E-1,-1.4630981E-1,-1.0941669E0,1.4485117E0,2.5155565E-1,-1.1527053E0,2.9820265E-2,-6.429077E-2,4.987059E-2,5.785553E-2,-6.807797E-1,-3.7541693E-1,-6.661551E-2,-1.5006292E-2,-1.4703124E0,-2.2574593E-1,-2.9330024E-1,1.4015834E-1,-6.602361E-2,-1.5186369E-2,-7.3288244E-1,3.4348062E-1,3.68126E-1,-1.2883928E0,-1.2690508E-1,6.972603E-1,-1.4205331E0,2.0743033E-2,-3.7653527E-1,-1.5997027E-1,3.5146E-1,-8.3432895E-1,9.8258816E-2,3.300802E-2,6.50829E-2,-3.1275448E-1,1.6013025E-1,9.3377195E-3,-6.557612E-1,-1.8193972E0,1.1739821E-2,-2.2801378E-1,-1.606004E-2,5.193724E-2,-7.663624E-1,5.267045E-1,-4.944219E-2,4.4314152E-1,1.30928485E-2,-6.456184E-2,3.0538296E-2,1.267093E0,5.443999E-2,2.4640985E-1,1.0598896E-2,9.2790395E-2,2.9183695E0,1.1828508E0,-2.3429094E-2,1.5870632E0,7.846124E-2,7.310716E-1,-5.075215E-1,3.8812152E-1,5.8266707E-2,2.3296242E0,-6.288069E-2,-1.4673444E-2,-1.2113115E0,4.7756323E-1,6.302243E-2,1.2119496E-1,-1.680743E-2,5.9012955E-1,-6.547548E-2,-1.9498838E-2,-5.100041E-3,3.6215566E-2,-6.2562265E-2,-1.1480883E-2,1.2225812E-2,-6.5378934E-2,1.0969994E-1,5.588746E-2,3.8979616E-2,9.428956E-2,8.933578E-2,6.27867E-3,5.2479394E-2,1.03339486E-1,4.2027287E-4,-6.584223E-2,2.6674835E-2,-4.8439182E-2,1.1835381E-1,2.9942608E-2,7.821096E-3,7.978117E-2,-5.9517592E-2,-4.7916928E-4,-6.321355E-2,1.1597775E-4,-4.2599127E-2,2.47337E-2,-9.607552E-3,7.559269E-2,9.103178E-2,-1.4000669E-3,6.0801953E-2,-1.9717792E-2,-6.4459495E-2,-2.930521E-2,3.6459584E-2,-3.3156846E-2,2.662718E-3,7.958072E-2,-5.0786912E-2,2.1842692E-2,-3.3461347E-2,4.5022298E-2,9.8944865E-3,-6.369098E-2,4.5365184E-3,1.0371099E-1,4.367123E-2,-4.730384E-2],"split_indices":[28,5,38,1,80,88,54,19,64,45,14,52,55,2,5,80,76,54,56,4,97,0,3,45,52,19,88,120,79,110,29,110,42,4,52,89,42,75,0,0,110,75,87,0,0,75,109,115,97,0,0,92,13,49,89,65,122,1,0,5,21,38,42,0,0,0,85,80,0,28,27,0,117,0,0,51,110,110,97,0,0,0,67,0,109,0,0,1,54,0,1,82,35,51,3,0,21,0,0,82,59,0,0,0,28,0,107,0,0,0,0,0,0,0,0,0,0,0,0,0,0,0,0,0,0,0,0,0,0,0,0,0,0,0,0,0,0,0,0,0,0,0,0,0,0,0,0,0,0,0,0,0,0,0,0,0,0],"split_type":[0,0,0,0,0,0,0,0,0,0,0,0,0,0,0,0,0,0,0,0,0,0,0,0,0,0,0,0,0,0,0,0,0,0,0,0,0,0,0,0,0,0,0,0,0,0,0,0,0,0,0,0,0,0,0,0,0,0,0,0,0,0,0,0,0,0,0,0,0,0,0,0,0,0,0,0,0,0,0,0,0,0,0,0,0,0,0,0,0,0,0,0,0,0,0,0,0,0,0,0,0,0,0,0,0,0,0,0,0,0,0,0,0,0,0,0,0,0,0,0,0,0,0,0,0,0,0,0,0,0,0,0,0,0,0,0,0,0,0,0,0,0,0,0,0,0,0,0,0,0,0,0,0,0,0,0,0],"sum_hessian":[1.261086E3,5.896505E2,6.714356E2,4.2960037E2,1.6005011E2,3.3847488E2,3.329607E2,2.4245941E2,1.8714096E2,1.2476118E2,3.5288937E1,2.544197E2,8.405519E1,2.6467783E2,6.828289E1,1.7489752E2,6.756189E1,1.7065306E2,1.6487898E1,4.945666E1,7.530451E1,5.3567004E0,2.9932236E1,1.0794307E2,1.4647662E2,1.3161301E1,7.089389E1,1.4062773E2,1.2405009E2,2.30984E1,4.5184486E1,1.6473769E2,1.0159835E1,1.9508444E1,4.8053444E1,1.20031624E2,5.0621445E1,1.0311674E1,6.176224E0,9.046289E0,4.0410374E1,6.3674503E1,1.1630014E1,2.1468277E1,8.463959E0,8.6192856E1,2.1750216E1,1.31988945E1,1.3327773E2,7.897903E0,5.263398E0,3.94001E1,3.1493788E1,8.964582E1,5.0981915E1,1.0550285E1,1.134998E2,1.7216751E1,5.8816495E0,2.525229E1,1.9932196E1,1.1646127E2,4.8276413E1,5.0901E0,5.0697346E0,7.047358E0,1.2461085E1,3.8980843E1,9.072603E0,6.864221E1,5.138941E1,7.698442E0,4.2923E1,5.307871E0,5.003803E0,2.3400858E1,1.7009514E1,1.3307363E1,5.0367138E1,5.424628E0,6.2053866E0,7.18834E0,7.900451E1,8.647685E0,1.31025305E1,6.7591624E0,6.439732E0,7.912396E1,5.4153763E1,8.055378E0,3.1344723E1,1.9731684E1,1.1762105E1,5.8994617E1,3.0651203E1,5.4706206E0,4.551129E1,5.2944365E0,5.255849E0,9.478588E1,1.8713919E1,5.937673E0,1.12790785E1,5.3329406E0,1.991935E1,7.460441E0,1.2471754E1,6.0731064E1,5.5730213E1,1.2478429E1,3.5797985E1,5.418449E0,7.0426364E0,1.8073658E1,2.0907183E1,5.015886E1,1.8483353E1,6.010089E0,4.537932E1,1.4760817E1,2.8162184E1,5.284165E0,1.8116693E1,1.1308E1,5.701514E0,7.9468803E0,5.360482E0,4.2073692E1,8.2934475E0,7.100644E1,7.9980736E0,6.4630895E0,6.6394405E0,6.65323E1,1.259166E1,4.5511333E1,8.642431E0,2.195687E1,9.387853E0,1.0426821E1,9.304862E0,6.57324E0,5.1888647E0,1.7245855E1,4.174876E1,1.7831512E1,1.281969E1,3.9643196E1,5.868097E0,7.9767714E0,8.680911E1,1.2592706E1,6.121213E0,6.196544E0,1.3722806E1,7.154781E0,5.316973E0],"tree_param":{"num_deleted":"0","num_feature":"128","num_nodes":"157","size_leaf_vector":"1"}},{"base_weights":[-2.1145733E-1,-8.6288124E-2,-2.855284E-1,-6.3055996E-3,-2.9538053E-1,-2.9576215E-1,6.053982E-2,-1.2084984E-1,2.6682988E-1,4.9151417E-2,-3.4578744E-1,-2.1498635E-1,-3.9522964E-1,-1.899253E-1,1.6034205E-1,-7.365582E-2,4.9844953E-1,1.1581467E-3,-4.4015655E-1,-2.8703192E-1,1.9801695E-2,-4.3602973E-1,-3.830252E-2,-3.3978865E-1,-4.298441E-2,8.735113E-2,3.8679168E-2,6.030496E-2,-2.3848957E-1,-1.6249714E-2,6.3136065E-1,3.3846882E-1,-4.613299E-1,-9.396283E-2,-5.230263E-1,3.7047278E-2,-3.3577603E-1,3.8472235E-1,-1.2931225E-1,-4.942358E-1,-2.3553824E-1,4.411734E-1,-4.567242E-1,-4.4967484E-1,8.3816074E-2,-1.2250555E-1,5.1543355E-1,-3.7026832E-1,3.154405E-1,-3.951074E-1,4.656275E-2,5.7242077E-2,8.088169E-1,8.5893534E-2,-1.1201199E-2,-2.6256276E-2,-5.7988234E-2,2.9638672E-2,-5.229011E-2,-2.5393679E-3,-5.6443274E-1,6.184089E-1,-1.7956737E-1,-2.6595313E-2,-3.8350737E-1,-2.8584933E-2,5.549282E-1,-3.9016098E-1,1.0648948E-1,-5.2052915E-1,7.9561975E-3,-3.7316144E-1,5.6246456E-2,7.826967E-1,-2.8016198E-2,-2.8255214E-3,-6.450229E-2,-2.328532E-2,-5.9470396E-2,5.989715E-2,-2.566112E-2,-4.2142924E-2,4.6882327E-3,9.615608E-2,4.6545253E-4,-6.3747875E-2,8.203678E-3,6.51964E-2,-1.9071342E-2,-5.7558607E-2,1.4495611E-2,4.6888117E-2,-4.3847617E-2,9.915804E-2,1.3268325E-2,-6.270846E-2,-1.3426154E-2,1.8011373E-2,9.522384E-2,5.0352175E-2,-3.3684313E-2,6.820568E-2,-1.6185006E-2,-5.2147377E-2,-2.4314655E-2,7.877251E-2,1.1682942E-2,5.1036975E-3,-5.8919918E-2,2.8535103E-2,-6.0327567E-2,-3.493285E-2,-5.741399E-2,-4.649579E-2,1.4258394E-2,5.224466E-2,-2.9489828E-2,3.3060476E-2,1.10653535E-1],"categories":[],"categories_nodes":[],"categories_segments":[],"categories_sizes":[],"default_left":[0,0,0,0,0,0,0,0,0,0,0,0,0,0,0,0,0,0,0,0,0,0,0,0,0,0,0,0,0,0,0,0,0,0,0,0,0,0,0,0,0,0,0,0,0,0,0,0,0,0,0,0,0,0,0,0,0,0,0,0,0,0,0,0,0,0,0,0,0,0,0,0,0,0,0,0,0,0,0,0,0,0,0,0,0,0,0,0,0,0,0,0,0,0,0,0,0,0,0,0,0,0,0,0,0,0,0,0,0,0,0,0,0,0,0,0,0,0,0],"id":12,"left_children":[1,3,5,7,9,11,-1,13,15,-1,17,19,21,23,25,27,29,31,33,35,37,39,41,43,45,-1,47,-1,49,-1,51,53,55,57,59,61,63,65,67,69,71,73,75,77,79,81,83,85,87,89,-1,91,93,-1,-1,-1,-1,-1,-1,-1,95,97,99,101,103,-1,105,107,109,111,-1,113,115,117,-1,-1,-1,-1,-1,-1,-1,-1,-1,-1,-1,-1,-1,-1,-1,-1,-1,-1,-1,-1,-1,-1,-1,-1,-1,-1,-1,-1,-1,-1,-1,-1,-1,-1,-1,-1,-1,-1,-1,-1,-1,-1,-1,-1,-1],"loss_changes":[1.0910946E1,7.3554273E0,6.9311676E0,1.0019729E1,4.9971886E0,5.802971E0,0E0,4.412361E0,7.4996915E0,0E0,3.764432E0,6.883562E0,4.74852E0,3.9836845E0,3.873475E0,4.5144973E0,5.061434E0,4.1467047E0,2.5437794E0,4.9283905E0,5.295732E0,3.3093643E0,7.1558485E0,4.215149E0,4.1850038E0,0E0,4.5892205E0,0E0,3.737673E0,0E0,4.762718E0,3.6995516E0,1.1193538E-1,3.2818751E0,1.4837761E0,5.348207E0,3.9833355E0,3.3792853E0,4.2972918E0,3.4601097E0,2.750019E0,4.324021E0,1.514838E0,2.1072474E0,3.54333E0,4.174761E0,2.6758966E0,2.035511E0,4.230484E0,2.7056165E0,0E0,2.6994202E0,4.3147087E0,0E0,0E0,0E0,0E0,0E0,0E0,0E0,1.7235012E0,1.5131884E0,3.5079124E0,3.6821058E0,4.4113083E0,0E0,2.237939E0,2.9336333E0,4.885149E0,1.7892914E0,0E0,2.2587886E0,3.861944E0,1.3283257E0,0E0,0E0,0E0,0E0,0E0,0E0,0E0,0E0,0E0,0E0,0E0,0E0,0E0,0E0,0E0,0E0,0E0,0E0,0E0,0E0,0E0,0E0,0E0,0E0,0E0,0E0,0E0,0E0,0E0,0E0,0E0,0E0,0E0,0E0,0E0,0E0,0E0,0E0,0E0,0E0,0E0,0E0,0E0,0E0,0E0],"parents":[2147483647,0,0,1,1,2,2,3,3,4,4,5,5,7,7,8,8,10,10,11,11,12,12,13,13,14,14,15,15,16,16,17,17,18,18,19,19,20,20,21,21,22,22,23,23,24,24,26,26,28,28,30,30,31,31,32,32,33,33,34,34,35,35,36,36,37,37,38,38,39,39,40,40,41,41,42,42,43,43,44,44,45,45,46,46,47,47,48,48,49,49,51,51,52,52,60,60,61,61,62,62,63,63,64,64,66,66,67,67,68,68,69,69,71,71,72,72,73,73],"right_children":[2,4,6,8,10,12,-1,14,16,-1,18,20,22,24,26,28,30,32,34,36,38,40,42,44,46,-1,48,-1,50,-1,52,54,56,58,60,62,64,66,68,70,72,74,76,78,80,82,84,86,88,90,-1,92,94,-1,-1,-1,-1,-1,-1,-1,96,98,100,102,104,-1,106,108,110,112,-1,114,116,118,-1,-1,-1,-1,-1,-1,-1,-1,-1,-1,-1,-1,-1,-1,-1,-1,-1,-1,-1,-1,-1,-1,-1,-1,-1,-1,-1,-1,-1,-1,-1,-1,-1,-1,-1,-1,-1,-1,-1,-1,-1,-1,-1,-1,-1],"split_conditions":[-6.060966E-1,8.3207005E-1,4.2929025E0,8.5171E-1,-1.1827692E0,7.4310586E-2,6.053982E-2,1.3177745E0,-2.3898213E-1,4.9151417E-2,-1.121912E0,4.65893E-1,1.0157789E0,-1.0918978E-2,-2.0362072E0,1.043951E0,-7.6910716E-1,-2.6820847E-1,-7.539993E-1,-6.8887705E-1,-9.296354E-1,7.8215015E-1,-9.4763026E-2,6.1420923E-1,9.9769074E-1,8.735113E-2,-3.4177366E-1,6.030496E-2,1.6606E0,-1.6249714E-2,-5.691486E-1,6.637674E-2,2.4637574E-1,6.9471E-2,-1.8867134E0,-5.260147E-1,-1.4224975E0,-2.1028852E0,3.9196495E-2,2.639421E0,3.3829254E-1,5.4386195E-2,-6.2079763E-1,-3.9420852E-1,-3.046825E-1,-4.846945E-1,-2.2411278E-1,1.4002265E0,8.2410514E-2,9.761667E-1,4.656275E-2,1.327807E-1,1.2976992E0,8.5893534E-2,-1.1201199E-2,-2.6256276E-2,-5.7988234E-2,2.9638672E-2,-5.229011E-2,-2.5393679E-3,6.644848E-1,3.0269673E-1,-9.756545E-1,-8.902699E-1,-6.232921E-3,-2.8584933E-2,8.865559E-1,-1.0941429E0,8.7465376E-1,-9.764264E-1,7.9561975E-3,6.91462E-1,-2.2091539E-1,-6.9435006E-1,-2.8016198E-2,-2.8255214E-3,-6.450229E-2,-2.328532E-2,-5.9470396E-2,5.989715E-2,-2.566112E-2,-4.2142924E-2,4.6882327E-3,9.615608E-2,4.6545253E-4,-6.3747875E-2,8.203678E-3,6.51964E-2,-1.9071342E-2,-5.7558607E-2,1.4495611E-2,4.6888117E-2,-4.3847617E-2,9.915804E-2,1.3268325E-2,-6.270846E-2,-1.3426154E-2,1.8011373E-2,9.522384E-2,5.0352175E-2,-3.3684313E-2,6.820568E-2,-1.6185006E-2,-5.2147377E-2,-2.4314655E-2,7.877251E-2,1.1682942E-2,5.1036975E-3,-5.8919918E-2,2.8535103E-2,-6.0327567E-2,-3.493285E-2,-5.741399E-2,-4.649579E-2,1.4258394E-2,5.224466E-2,-2.9489828E-2,3.3060476E-2,1.10653535E-1],"split_indices":[15,36,22,37,116,119,0,25,77,0,45,122,99,48,13,37,63,37,92,126,36,63,97,119,97,0,51,0,28,0,48,48,57,109,34,90,45,3,48,26,55,75,64,26,57,28,82,3,59,25,0,69,14,0,0,0,0,0,0,0,126,15,72,72,24,0,14,48,41,34,0,110,118,24,0,0,0,0,0,0,0,0,0,0,0,0,0,0,0,0,0,0,0,0,0,0,0,0,0,0,0,0,0,0,0,0,0,0,0,0,0,0,0,0,0,0,0,0,0],"split_type":[0,0,0,0,0,0,0,0,0,0,0,0,0,0,0,0,0,0,0,0,0,0,0,0,0,0,0,0,0,0,0,0,0,0,0,0,0,0,0,0,0,0,0,0,0,0,0,0,0,0,0,0,0,0,0,0,0,0,0,0,0,0,0,0,0,0,0,0,0,0,0,0,0,0,0,0,0,0,0,0,0,0,0,0,0,0,0,0,0,0,0,0,0,0,0,0,0,0,0,0,0,0,0,0,0,0,0,0,0,0,0,0,0,0,0,0,0,0,0],"sum_hessian":[1.1784948E3,4.389309E2,7.3956384E2,3.182307E2,1.2070021E2,7.318257E2,7.738201E0,2.2459875E2,9.363196E1,6.7395263E0,1.13960686E2,4.0560352E2,3.2622214E2,1.8056668E2,4.4032063E1,3.8183468E1,5.544849E1,2.4580149E1,8.938054E1,3.1019617E2,9.540736E1,2.9255838E2,3.366377E1,8.874462E1,9.182206E1,5.516342E0,3.851572E1,6.958331E0,3.1225136E1,9.246158E0,4.620233E1,1.436867E1,1.0211478E1,1.7675177E1,7.170536E1,4.05874E1,2.6960876E2,2.7217934E1,6.818942E1,2.2559824E2,6.696014E1,1.566203E1,1.800174E1,7.041652E1,1.8328108E1,8.105946E1,1.0762599E1,1.54091E1,2.310662E1,2.5902472E1,5.3226643E0,1.1221228E1,3.4981106E1,6.245814E0,8.122856E0,5.016113E0,5.195366E0,9.415629E0,8.259546E0,5.6319942E0,6.6073364E1,1.0514134E1,3.0073261E1,3.6264153E1,2.333446E2,5.3724165E0,2.1845516E1,3.2064453E1,3.6124973E1,2.158023E2,9.795942E0,4.5310223E1,2.1649914E1,1.0571692E1,5.090338E0,5.8470273E0,1.2154713E1,2.9267115E1,4.1149403E1,6.9903746E0,1.1337732E1,2.8780943E1,5.227852E1,5.273796E0,5.4888034E0,9.429178E0,5.9799204E0,1.3705953E1,9.400668E0,1.936522E1,6.537253E0,6.1600914E0,5.061136E0,2.7170258E1,7.8108473E0,5.727399E1,8.799376E0,5.2114263E0,5.3027086E0,5.216245E0,2.4857018E1,5.1641917E0,3.109996E1,1.1630673E2,1.1703787E2,1.3744116E1,8.1014E0,1.0199442E1,2.1865011E1,2.9331394E1,6.793578E0,5.3254707E1,1.6254759E2,3.8547672E1,6.7625484E0,9.091574E0,1.2558339E1,5.25558E0,5.3161125E0],"tree_param":{"num_deleted":"0","num_feature":"128","num_nodes":"119","size_leaf_vector":"1"}},{"base_weights":[9.878693E-2,1.9441685E-1,-3.4353986E-2,3.7210497E-1,1.2988394E-1,3.1557465E-1,-8.3743125E-2,1.9651432E-1,5.5336E-1,3.8510695E-1,8.39025E-2,4.408089E-1,-2.6838738E-1,3.0755606E-1,-1.2515675E-1,1.03436306E-1,8.3787143E-1,3.9258972E-1,8.2588744E-1,-2.5660762E-1,4.987904E-1,1.1596375E-1,-3.5805526E-1,